
/* Species #1 : (Size 95) (AF 41.6421) (Age 5)  */


/* Organism #0 Fitness: 216 Error: 0 */
genomestart 0
trait 1 0.1 0 0 0 0 0 0 0 
trait 2 0.2 0 0 0 0 0 0 0 
trait 3 0.3 0 0 0 0 0 0 0 
node 1 2 1 1
node 2 2 1 1
node 3 1 1 1
node 4 2 1 1
node 5 1 1 1
node 6 3 1 1
node 7 3 1 3
node 8 3 0 2
gene 1 1 8 0.9807 0 1 0.9807 1
gene 1 2 8 -0.48662 0 2 -0.48662 1
gene 1 3 8 -2.43727 0 3 -2.43727 1
gene 2 4 8 -1.88966 0 4 -1.88966 1
gene 1 5 8 2.28525 0 5 2.28525 1
gene 1 6 8 0.857173 0 6 0.857173 1
gene 3 7 8 -0.193114 0 7 -0.193114 1
genomeend 0

/* Organism #1 Fitness: 25 Error: 0 */
genomestart 1
trait 1 0.1 0 0 0 0 0 0 0 
trait 2 0.2 0 0 0 0 0 0.0121752 0 
trait 3 0.3 0 0 0 0 0 0 0 
node 1 2 1 1
node 2 3 1 1
node 3 3 1 1
node 4 3 1 1
node 5 3 1 1
node 6 3 1 1
node 7 1 1 3
node 8 3 0 2
gene 1 1 8 -0.510891 0 1 -0.510891 1
gene 2 2 8 0.941154 0 2 0.941154 1
gene 2 3 8 2.86931 0 3 2.86931 1
gene 3 4 8 -1.7033 0 4 -1.7033 1
gene 3 5 8 0.0956709 0 5 0.0956709 1
gene 2 6 8 2.28581 0 6 2.28581 1
gene 2 7 8 1.23431 0 7 1.23431 1
genomeend 1

/* Organism #2 Fitness: 5 Error: 0 */
genomestart 2
trait 1 0.1 0 0 0 0 0 0 0 
trait 2 0.2 0 0 0 0 0 0 0 
trait 3 0.3 0 0 0 0 0 0 0 
node 1 3 1 1
node 2 2 1 1
node 3 3 1 1
node 4 1 1 1
node 5 2 1 1
node 6 2 1 1
node 7 1 1 3
node 8 2 0 2
gene 2 1 8 -2.92548 0 1 -2.92548 1
gene 2 2 8 0.84794 0 2 0.84794 1
gene 2 3 8 2.53255 0 3 2.53255 1
gene 3 4 8 -1.83692 0 4 -1.83692 1
gene 1 5 8 2.47707 0 5 2.47707 1
gene 1 6 8 -1.55231 0 6 -1.55231 1
gene 3 7 8 -1.98042 0 7 -1.98042 1
genomeend 2

/* Organism #3 Fitness: 27 Error: 0 */
genomestart 3
trait 1 0.1 0 0 0 0 0 0 0 
trait 2 0.2 0 0 0 0 0 0 0 
trait 3 0.3 0 0 0 0 0 0 0 
node 1 3 1 1
node 2 3 1 1
node 3 2 1 1
node 4 3 1 1
node 5 3 1 1
node 6 3 1 1
node 7 3 1 3
node 8 2 0 2
gene 1 1 8 1.14531 0 1 1.14531 1
gene 1 2 8 1.6119 0 2 1.6119 1
gene 3 3 8 0.340476 0 3 0.340476 1
gene 2 4 8 -0.136598 0 4 -0.136598 1
gene 2 5 8 2.12092 0 5 2.12092 1
gene 1 6 8 1.06761 0 6 1.06761 1
gene 2 7 8 1.61946 0 7 1.61946 1
genomeend 3

/* Organism #4 Fitness: 77 Error: 0 */
genomestart 4
trait 1 0.1 0 0 0 0 0 0 0 
trait 2 0.2 0 0 0 0 0 0 0 
trait 3 0.3 0 0 0 0 0 0 0 
node 1 2 1 1
node 2 2 1 1
node 3 1 1 1
node 4 2 1 1
node 5 1 1 1
node 6 3 1 1
node 7 3 1 3
node 8 3 0 2
gene 1 1 8 1.18869 0 1 1.18869 1
gene 1 2 8 -1.32513 0 2 -1.32513 1
gene 3 3 8 -0.88618 0 3 -0.88618 1
gene 3 4 8 -2.05209 0 4 -2.05209 1
gene 2 5 8 3.27138 0 5 3.27138 1
gene 1 6 8 1.33619 0 6 1.33619 1
gene 3 7 8 -0.00557815 0 7 -0.00557815 1
genomeend 4

/* Organism #5 Fitness: 34 Error: 0 */
genomestart 5
trait 1 0.1 0 0 0 0 0 0 0 
trait 2 0.2 0 0 0 0 0 0 0 
trait 3 0.297446 0 0.0225651 0 0 0 0.0677648 0.211883 
node 1 2 1 1
node 2 2 1 1
node 3 1 1 1
node 4 2 1 1
node 5 1 1 1
node 6 3 1 1
node 7 3 1 3
node 8 3 0 2
gene 1 1 8 2.15163 0 1 2.15163 1
gene 2 2 8 1.38836 0 2 1.38836 1
gene 1 3 8 -1.73648 0 3 -1.73648 1
gene 2 4 8 1.32584 0 4 1.32584 1
gene 1 5 8 2.14663 0 5 2.14663 1
gene 3 6 8 2.50016 0 6 2.50016 1
gene 2 7 8 -2.50836 0 7 -2.50836 1
genomeend 5

/* Organism #6 Fitness: 5 Error: 0 */
genomestart 6
trait 1 0.1 0 0 0 0 0 0 0 
trait 2 0.2 0 0 0 0 0 0 0 
trait 3 0.3 0 0 0 0 0 0 0 
node 1 2 1 1
node 2 2 1 1
node 3 1 1 1
node 4 2 1 1
node 5 1 1 1
node 6 3 1 1
node 7 3 1 3
node 8 3 0 2
gene 2 1 8 3.09135 0 1 3.09135 1
gene 2 2 8 -1.83399 0 2 -1.83399 1
gene 2 3 8 0.442414 0 3 0.442414 1
gene 3 4 8 -0.350044 0 4 -0.350044 1
gene 1 5 8 -0.639013 0 5 -0.639013 1
gene 3 6 8 0.269775 0 6 0.269775 1
gene 1 7 8 -2.44881 0 7 -2.44881 1
genomeend 6

/* Organism #7 Fitness: 24 Error: 0 */
genomestart 7
trait 1 0.1 0 0 0 0 0 0 0 
trait 2 0.2 0 0 0 0 0 0.0243504 0 
trait 3 0.3 0 0 0 0 0 0 0 
node 1 2 1 1
node 2 3 1 1
node 3 3 1 1
node 4 1 1 1
node 5 2 1 1
node 6 1 1 1
node 7 2 1 3
node 8 2 0 2
node 16 1 0 0
gene 1 1 8 -0.245206 0 1 -0.245206 1
gene 3 2 8 0.516916 0 2 0.516916 1
gene 2 3 8 1.26744 0 3 1.26744 1
gene 2 4 8 -0.881789 0 4 -0.881789 1
gene 1 5 8 -1.94703 0 5 -1.94703 0
gene 3 6 8 3.18865 0 6 3.18865 1
gene 2 7 8 2.01098 0 7 2.01098 1
gene 1 5 16 2.47697 0 22 2.47697 1
gene 1 16 8 -1.55734 0 23 -1.55734 1
genomeend 7

/* Organism #8 Fitness: 5 Error: 0 */
genomestart 8
trait 1 0.1 0 0 0.356118 0.454887 0 0.118106 0.556794 
trait 2 0.2 0 0 0 0 0 0 0 
trait 3 0.3 0 0 0 0 0 0 0 
node 1 3 1 1
node 2 3 1 1
node 3 1 1 1
node 4 3 1 1
node 5 3 1 1
node 6 3 1 1
node 7 3 1 3
node 8 2 0 2
gene 3 1 8 -2.47638 0 1 -2.47638 1
gene 1 2 8 3.94429 0 2 3.94429 1
gene 1 3 8 -4.25225 0 3 -4.25225 1
gene 3 4 8 -3.18802 0 4 -3.18802 1
gene 2 5 8 1.96739 0 5 1.96739 1
gene 3 6 8 -1.45384 0 6 -1.45384 1
gene 1 7 8 -0.154594 0 7 -0.154594 1
genomeend 8

/* Organism #9 Fitness: 5 Error: 0 */
genomestart 9
trait 1 0.1 0 0 0 0 0 0 0 
trait 2 0.2 0 0 0 0 0 0 0 
trait 3 0.3 0 0 0 0 0 0 0 
node 1 2 1 1
node 2 2 1 1
node 3 1 1 1
node 4 2 1 1
node 5 1 1 1
node 6 3 1 1
node 7 3 1 3
node 8 3 0 2
gene 1 1 8 0.665379 0 1 0.665379 1
gene 1 2 8 0.13565 0 2 0.13565 1
gene 2 3 8 -0.977145 0 3 -0.977145 1
gene 3 4 8 -0.762259 0 4 -0.762259 1
gene 1 5 8 0.394735 0 5 0.394735 1
gene 1 6 8 -0.360383 0 6 -0.360383 1
gene 1 7 8 1.0756 0 7 1.0756 1
genomeend 9

/* Organism #10 Fitness: 72 Error: 0 */
genomestart 10
trait 1 0.1 0 0 0 0 0 0 0 
trait 2 0.2 0 0 0 0 0 0 0 
trait 3 0.3 0 0 0 0 0 0 0 
node 1 3 1 1
node 2 2 1 1
node 3 3 1 1
node 4 1 1 1
node 5 2 1 1
node 6 2 1 1
node 7 1 1 3
node 8 2 0 2
gene 2 1 8 -0.514834 0 1 -0.514834 1
gene 2 2 8 0.54258 0 2 0.54258 1
gene 2 3 8 1.2282 0 3 1.2282 1
gene 3 4 8 -2.09189 0 4 -2.09189 1
gene 1 5 8 0.230592 0 5 0.230592 1
gene 1 6 8 0.849763 0 6 0.849763 1
gene 3 7 8 -0.712446 0 7 -0.712446 1
genomeend 10

/* Organism #11 Fitness: 32 Error: 0 */
genomestart 11
trait 1 0.1 0 0 0 0 0 0 0 
trait 2 0.2 0 0 0 0 0 0 0 
trait 3 0.298723 0 0.0112826 0 0 0 0.0338824 0.105941 
node 1 1 1 1
node 2 3 1 1
node 3 2 1 1
node 4 2 1 1
node 5 2 1 1
node 6 3 1 1
node 7 3 1 3
node 8 3 0 2
gene 1 1 8 -0.0231353 0 1 -0.0231353 1
gene 2 2 8 1.68356 0 2 1.68356 1
gene 2 3 8 0.785158 0 3 0.785158 1
gene 3 4 8 -2.35797 0 4 -2.35797 1
gene 1 5 8 0.251555 0 5 0.251555 1
gene 1 6 8 2.97856 0 6 2.97856 1
gene 2 7 8 -0.440085 0 7 -0.440085 1
genomeend 11

/* Organism #12 Fitness: 5 Error: 0 */
genomestart 12
trait 1 0.1 0 0 0 0 0 0 0 
trait 2 0.979723 0.728879 0 0.0186889 0 0.523067 0 0.489403 
trait 3 0.3 0 0 0 0 0 0 0 
node 1 3 1 1
node 2 2 1 1
node 3 3 1 1
node 4 1 1 1
node 5 2 1 1
node 6 2 1 1
node 7 1 1 3
node 8 2 0 2
gene 2 1 8 -0.172303 0 1 -0.172303 1
gene 2 2 8 0.011551 0 2 0.011551 1
gene 2 3 8 0.038973 0 3 0.038973 1
gene 3 4 8 -2.90879 0 4 -2.90879 1
gene 1 5 8 2.62843 0 5 2.62843 1
gene 1 6 8 -0.064566 0 6 -0.064566 1
gene 3 7 8 -2.13269 0 7 -2.13269 1
genomeend 12

/* Organism #13 Fitness: 34 Error: 0 */
genomestart 13
trait 1 0.1 0 0 0 0 0 0 0 
trait 2 0.2 0 0 0 0 0 0 0 
trait 3 0.3 0 0 0 0 0 0 0 
node 1 1 1 1
node 2 1 1 1
node 3 2 1 1
node 4 2 1 1
node 5 2 1 1
node 6 3 1 1
node 7 3 1 3
node 8 3 0 2
gene 1 1 8 -2.89373 0 1 -2.89373 1
gene 3 2 8 -2.99515 0 2 -2.99515 1
gene 2 3 8 3.31195 0 3 3.31195 1
gene 3 4 8 -0.190536 0 4 -0.190536 1
gene 1 5 8 3.46728 0 5 3.46728 1
gene 1 6 8 1.42622 0 6 1.42622 1
gene 3 7 8 -1.09289 0 7 -1.09289 1
genomeend 13

/* Organism #14 Fitness: 41 Error: 0 */
genomestart 14
trait 1 0.1 0 0 0 0 0 0 0 
trait 2 0.2 0 0 0 0 0 0 0 
trait 3 0.3 0 0 0 0 0 0 0 
node 1 2 1 1
node 2 3 1 1
node 3 3 1 1
node 4 3 1 1
node 5 3 1 1
node 6 3 1 1
node 7 1 1 3
node 8 3 0 2
gene 3 1 8 -1.39655 0 1 -1.39655 1
gene 1 2 8 -1.52791 0 2 -1.52791 1
gene 2 3 8 0.289815 0 3 0.289815 1
gene 2 4 8 -5.11344 0 4 -5.11344 1
gene 3 5 8 3.20446 0 5 3.20446 1
gene 1 6 8 1.5703 0 6 1.5703 1
gene 3 7 8 0.877976 0 7 0.877976 1
genomeend 14

/* Organism #15 Fitness: 61 Error: 0 */
genomestart 15
trait 1 0.1 0 0 0 0 0 0 0 
trait 2 0.2 0 0 0 0 0 0 0 
trait 3 0.298723 0 0.0112826 0 0 0 0.0338824 0.105941 
node 1 2 1 1
node 2 2 1 1
node 3 3 1 1
node 4 1 1 1
node 5 2 1 1
node 6 1 1 1
node 7 3 1 3
node 8 2 0 2
gene 1 1 8 -0.333068 0 1 -0.333068 1
gene 2 2 8 0.0983535 0 2 0.0983535 1
gene 1 3 8 0.0797113 0 3 0.0797113 1
gene 2 4 8 -3.69616 0 4 -3.69616 1
gene 1 5 8 1.16044 0 5 1.16044 1
gene 1 6 8 0.797016 0 6 0.797016 1
gene 1 7 8 -1.32298 0 7 -1.32298 1
genomeend 15

/* Organism #16 Fitness: 34 Error: 0 */
genomestart 16
trait 1 0.1 0 0 0 0 0 0 0 
trait 2 0.2 0 0 0 0 0 0 0 
trait 3 0.298723 0 0.0112826 0 0 0 0.0338824 0.105941 
node 1 2 1 1
node 2 2 1 1
node 3 2 1 1
node 4 2 1 1
node 5 1 1 1
node 6 3 1 1
node 7 2 1 3
node 8 2 0 2
gene 1 1 8 1.36697 0 1 1.36697 1
gene 2 2 8 -1.38629 0 2 -1.38629 1
gene 1 3 8 -1.5526 0 3 -1.5526 1
gene 3 4 8 -1.85152 0 4 -1.85152 1
gene 1 5 8 0.547691 0 5 0.547691 1
gene 3 6 8 2.77783 0 6 2.77783 1
gene 2 7 8 0.458546 0 7 0.458546 1
genomeend 16

/* Organism #17 Fitness: 79 Error: 0 */
genomestart 17
trait 1 0.1 0 0 0 0 0 0 0 
trait 2 0.2 0 0 0 0 0 0 0 
trait 3 0.3 0 0 0 0 0 0.402398 0 
node 1 2 1 1
node 2 3 1 1
node 3 3 1 1
node 4 1 1 1
node 5 2 1 1
node 6 1 1 1
node 7 2 1 3
node 8 2 0 2
node 12 1 0 0
gene 2 1 8 0.189866 0 1 0.189866 0
gene 2 2 8 0.977633 0 2 0.977633 1
gene 2 3 8 2.90289 0 3 2.90289 0
gene 3 4 8 -4.46424 0 4 -4.46424 1
gene 1 5 8 0.104148 0 5 0.104148 1
gene 1 6 8 1.30423 0 6 1.30423 1
gene 3 7 8 -0.697783 0 7 -0.697783 1
gene 2 1 12 1 0 14 0 1
gene 2 12 8 0.189866 0 15 0 1
genomeend 17

/* Organism #18 Fitness: 69 Error: 0 */
genomestart 18
trait 1 0.1 0 0 0 0 0 0 0 
trait 2 0.2 0 0 0 0 0 0 0 
trait 3 0.3 0 0 0 0 0 0 0 
node 1 2 1 1
node 2 2 1 1
node 3 1 1 1
node 4 2 1 1
node 5 1 1 1
node 6 3 1 1
node 7 3 1 3
node 8 3 0 2
gene 1 1 8 1.18869 0 1 1.18869 1
gene 1 2 8 0.442297 0 2 0.442297 1
gene 2 3 8 -1.73525 0 3 -1.73525 1
gene 3 4 8 -0.661339 0 4 -0.661339 1
gene 1 5 8 2.80856 0 5 2.80856 1
gene 1 6 8 1.33619 0 6 1.33619 1
gene 1 7 8 -0.376419 0 7 -0.376419 1
genomeend 18

/* Organism #19 Fitness: 25 Error: 0 */
genomestart 19
trait 1 0.1 0 0 0 0 0 0 0 
trait 2 0.2 0 0 0 0 0 0 0 
trait 3 0.3 0 0 0 0 0 0 0 
node 1 2 1 1
node 2 3 1 1
node 3 1 1 1
node 4 3 1 1
node 5 2 1 1
node 6 3 1 1
node 7 2 1 3
node 8 3 0 2
gene 3 1 8 0.153184 0 1 0.153184 1
gene 1 2 8 0.591143 0 2 0.591143 1
gene 2 3 8 0.430312 0 3 0.430312 1
gene 2 4 8 0.612147 0 4 0.612147 1
gene 1 5 8 1.92501 0 5 1.92501 1
gene 1 6 8 0.540188 0 6 0.540188 1
gene 1 7 8 1.67351 0 7 1.67351 1
genomeend 19

/* Organism #20 Fitness: 5 Error: 0 */
genomestart 20
trait 1 0 0 0 0 0.797647 0 0 0 
trait 2 0.2 0 0 0 0 0 0 0 
trait 3 0.298723 0 0.0112826 0 0 0 0.0338824 0.105941 
node 1 3 1 1
node 2 1 1 1
node 3 1 1 1
node 4 1 1 1
node 5 3 1 1
node 6 2 1 1
node 7 3 1 3
node 8 1 0 2
gene 1 1 8 -0.234675 0 1 -0.234675 1
gene 2 2 8 -0.730802 0 2 -0.730802 1
gene 2 3 8 -0.846886 0 3 -0.846886 1
gene 2 4 8 -3.97825 0 4 -3.97825 1
gene 3 5 8 0.874455 0 5 0.874455 1
gene 1 6 8 0.260245 0 6 0.260245 1
gene 3 7 8 -0.972988 0 7 -0.972988 1
genomeend 20

/* Organism #21 Fitness: 6 Error: 0 */
genomestart 21
trait 1 0.141457 0 0 0 0 0 0 0 
trait 2 0.2 0 0 0 0 0 0 0 
trait 3 0.3 0 0 0 0 0 0 0 
node 1 3 1 1
node 2 1 1 1
node 3 1 1 1
node 4 1 1 1
node 5 3 1 1
node 6 2 1 1
node 7 3 1 3
node 8 1 0 2
gene 2 1 8 -0.485938 0 1 -0.485938 1
gene 1 2 8 0.660247 0 2 0.660247 1
gene 2 3 8 -0.130424 0 3 -0.130424 1
gene 2 4 8 -2.32504 0 4 -2.32504 1
gene 1 5 8 2.94086 0 5 2.94086 1
gene 3 6 8 -0.345718 0 6 -0.345718 1
gene 3 7 8 -0.162166 0 7 -0.162166 1
genomeend 21

/* Organism #22 Fitness: 23 Error: 0 */
genomestart 22
trait 1 0.1 0 0 0 0 0 0 0 
trait 2 0.2 0 0 0 0 0 0 0 
trait 3 0.3 0 0 0 0 0 0 0 
node 1 2 1 1
node 2 2 1 1
node 3 1 1 1
node 4 2 1 1
node 5 1 1 1
node 6 3 1 1
node 7 2 1 3
node 8 2 0 2
gene 2 1 8 2.95962 0 1 2.95962 1
gene 2 2 8 -1.52328 0 2 -1.52328 1
gene 2 3 8 1.34686 0 3 1.34686 1
gene 3 4 8 -1.73951 0 4 -1.73951 1
gene 1 5 8 -1.05753 0 5 -1.05753 1
gene 3 6 8 0.531294 0 6 0.531294 1
gene 3 7 8 -0.133127 0 7 -0.133127 1
genomeend 22

/* Organism #23 Fitness: 34 Error: 0 */
genomestart 23
trait 1 0.1 0 0 0 0 0 0 0 
trait 2 0.2 0 0 0 0 0 0 0 
trait 3 0.298723 0 0.0112826 0 0 0 0.0338824 0.105941 
node 1 2 1 1
node 2 2 1 1
node 3 3 1 1
node 4 1 1 1
node 5 2 1 1
node 6 1 1 1
node 7 3 1 3
node 8 2 0 2
gene 2 1 8 2.76117 0 1 2.76117 1
gene 2 2 8 -2.13631 0 2 -2.13631 1
gene 1 3 8 -2.18418 0 3 -2.18418 1
gene 3 4 8 -2.85853 0 4 -2.85853 1
gene 1 5 8 -0.231842 0 5 -0.231842 1
gene 2 6 8 3.32366 0 6 3.32366 1
gene 3 7 8 -0.297906 0 7 -0.297906 1
genomeend 23

/* Organism #24 Fitness: 5 Error: 0 */
genomestart 24
trait 1 0.1 0 0 0 0 0 0 0 
trait 2 0.2 0 0 0 0 0 0 0 
trait 3 0.297446 0 0.0225651 0 0 0 0.0677648 0.211883 
node 1 2 1 1
node 2 3 1 1
node 3 1 1 1
node 4 3 1 1
node 5 2 1 1
node 6 1 1 1
node 7 2 1 3
node 8 3 0 2
gene 1 1 8 0.189869 0 1 0.189869 1
gene 2 2 8 -1.49468 0 2 -1.49468 1
gene 1 3 8 -0.715788 0 3 -0.715788 1
gene 2 4 8 -3.37056 0 4 -3.37056 1
gene 3 5 8 2.15787 0 5 2.15787 1
gene 1 6 8 -1.3325 0 6 -1.3325 1
gene 2 7 8 2.22972 0 7 2.22972 1
genomeend 24

/* Organism #25 Fitness: 5 Error: 0 */
genomestart 25
trait 1 0.1 0 0 0 0 0 0 0 
trait 2 0.2 0 0 0 0 0 0 0 
trait 3 0.3 0 0 0 0 0 0 0 
node 1 2 1 1
node 2 3 1 1
node 3 1 1 1
node 4 3 1 1
node 5 2 1 1
node 6 3 1 1
node 7 2 1 3
node 8 3 0 2
gene 3 1 8 2.0408 0 1 2.0408 1
gene 1 2 8 1.70285 0 2 1.70285 1
gene 2 3 8 -3.15784 0 3 -3.15784 1
gene 2 4 8 1.48297 0 4 1.48297 1
gene 1 5 8 0.75717 0 5 0.75717 1
gene 1 6 8 -0.6604 0 6 -0.6604 1
gene 1 7 8 -1.55912 0 7 -1.55912 1
genomeend 25

/* Organism #26 Fitness: 42 Error: 0 */
genomestart 26
trait 1 0.141457 0 0 0 0 0 0 0 
trait 2 0.2 0 0 0 0 0 0 0 
trait 3 0.3 0 0 0 0 0 0 0 
node 1 2 1 1
node 2 2 1 1
node 3 1 1 1
node 4 2 1 1
node 5 1 1 1
node 6 3 1 1
node 7 3 1 3
node 8 3 0 2
gene 1 1 8 0.244881 0 1 0.244881 1
gene 1 2 8 0.829474 0 2 0.829474 1
gene 2 3 8 1.51165 0 3 1.51165 1
gene 3 4 8 0.467139 0 4 0.467139 1
gene 1 5 8 3.70865 0 5 3.70865 1
gene 1 6 8 0.227861 0 6 0.227861 1
gene 1 7 8 -0.970974 0 7 -0.970974 1
genomeend 26

/* Organism #27 Fitness: 54 Error: 0 */
genomestart 27
trait 1 0.1 0 0 0 0 0 0 0 
trait 2 0.2 0 0 0 0 0 0.0121752 0 
trait 3 0.3 0 0 0 0 0 0 0 
node 1 2 1 1
node 2 3 1 1
node 3 3 1 1
node 4 3 1 1
node 5 3 1 1
node 6 3 1 1
node 7 1 1 3
node 8 3 0 2
gene 1 1 8 -1.77654 0 1 -1.77654 1
gene 1 2 8 0.0727353 0 2 0.0727353 1
gene 2 3 8 0.715611 0 3 0.715611 1
gene 3 4 8 0.0250004 0 4 0.0250004 1
gene 3 5 8 1.52754 0 5 1.52754 1
gene 2 6 8 1.43332 0 6 1.43332 1
gene 3 7 8 -0.728599 0 7 -0.728599 1
genomeend 27

/* Organism #28 Fitness: 14 Error: 0 */
genomestart 28
trait 1 0.1 0 0 0 0 0 0 0 
trait 2 0.2 0 0 0 0 0 0 0 
trait 3 0.3 0 0 0 0 0 0 0 
node 1 2 1 1
node 2 3 1 1
node 3 3 1 1
node 4 3 1 1
node 5 3 1 1
node 6 3 1 1
node 7 1 1 3
node 8 3 0 2
node 19 1 0 0
gene 3 1 8 0.789341 0 1 0.789341 1
gene 2 2 8 0.522637 0 2 0.522637 1
gene 2 3 8 -0.927995 0 3 -0.927995 1
gene 2 4 8 -1.24743 0 4 -1.24743 1
gene 1 5 8 1.29912 0 5 1.29912 1
gene 3 6 8 0.378159 0 6 0.378159 0
gene 3 7 8 -0.00980859 0 7 -0.00980859 1
gene 3 6 19 1 0 29 0 1
gene 3 19 8 0.378159 0 30 0 1
genomeend 28

/* Organism #29 Fitness: 33 Error: 0 */
genomestart 29
trait 1 0.141457 0 0 0 0 0 0 0 
trait 2 0.2 0 0 0 0 0 0 0 
trait 3 0.298723 0 0.0112826 0 0 0 0.0338824 0.105941 
node 1 2 1 1
node 2 2 1 1
node 3 2 1 1
node 4 2 1 1
node 5 1 1 1
node 6 3 1 1
node 7 3 1 3
node 8 3 0 2
gene 1 1 8 0.0881455 0 1 0.0881455 1
gene 2 2 8 -0.256463 0 2 -0.256463 1
gene 2 3 8 -2.34385 0 3 -2.34385 1
gene 2 4 8 1.41825 0 4 1.41825 1
gene 1 5 8 4.57481 0 5 4.57481 1
gene 1 6 8 0.59535 0 6 0.59535 1
gene 3 7 8 1.26981 0 7 1.26981 1
genomeend 29

/* Organism #30 Fitness: 29 Error: 0 */
genomestart 30
trait 1 0.141457 0 0 0 0 0 0 0 
trait 2 0.2 0 0 0 0 0 0 0 
trait 3 0.3 0 0 0 0 0 0 0 
node 1 2 1 1
node 2 2 1 1
node 3 1 1 1
node 4 2 1 1
node 5 1 1 1
node 6 3 1 1
node 7 3 1 3
node 8 3 0 2
gene 1 1 8 -1.20422 0 1 -1.20422 1
gene 2 2 8 -1.16673 0 2 -1.16673 1
gene 2 3 8 -2.85016 0 3 -2.85016 1
gene 2 4 8 2.26504 0 4 2.26504 1
gene 1 5 8 1.50671 0 5 1.50671 1
gene 1 6 8 1.16758 0 6 1.16758 1
gene 3 7 8 -0.00980859 0 7 -0.00980859 1
genomeend 30

/* Organism #31 Fitness: 82 Error: 0 */
genomestart 31
trait 1 0.1 0 0 0 0 0 0 0 
trait 2 0.2 0 0 0 0 0 0 0 
trait 3 0.3 0 0 0 0 0 0 0 
node 1 2 1 1
node 2 2 1 1
node 3 1 1 1
node 4 2 1 1
node 5 1 1 1
node 6 3 1 1
node 7 2 1 3
node 8 2 0 2
gene 1 1 8 -0.0798971 0 1 -0.0798971 1
gene 3 2 8 -0.189794 0 2 -0.189794 1
gene 2 3 8 1.10265 0 3 1.10265 1
gene 3 4 8 -1.0454 0 4 -1.0454 1
gene 1 5 8 1.4847 0 5 1.4847 1
gene 1 6 8 1.98892 0 6 1.98892 1
gene 3 7 8 -0.317775 0 7 -0.317775 1
genomeend 31

/* Organism #32 Fitness: 31 Error: 0 */
genomestart 32
trait 1 0.1 0 0 0 0 0 0 0 
trait 2 0.2 0 0 0 0 0 0 0 
trait 3 0.3 0 0 0 0 0 0 0 
node 1 2 1 1
node 2 3 1 1
node 3 1 1 1
node 4 3 1 1
node 5 2 1 1
node 6 3 1 1
node 7 2 1 3
node 8 3 0 2
gene 3 1 8 -0.650053 0 1 -0.650053 1
gene 1 2 8 -0.0414683 0 2 -0.0414683 1
gene 2 3 8 0.0528494 0 3 0.0528494 1
gene 2 4 8 0.0782893 0 4 0.0782893 1
gene 1 5 8 2.19183 0 5 2.19183 1
gene 1 6 8 0.919043 0 6 0.919043 1
gene 1 7 8 0.609599 0 7 0.609599 1
genomeend 32

/* Organism #33 Fitness: 5 Error: 0 */
genomestart 33
trait 1 0.182914 0 0 0 0 0 0 0 
trait 2 0.2 0 0 0 0 0 0 0 
trait 3 0.3 0 0 0 0 0 0 0 
node 1 2 1 1
node 2 2 1 1
node 3 1 1 1
node 4 2 1 1
node 5 1 1 1
node 6 3 1 1
node 7 3 1 3
node 8 3 0 2
gene 1 1 8 -1.64524 0 1 -1.64524 1
gene 2 2 8 0.504746 0 2 0.504746 1
gene 2 3 8 -1.1481 0 3 -1.1481 1
gene 1 4 8 -2.29615 0 4 -2.29615 1
gene 2 5 8 -0.779484 0 5 -0.779484 1
gene 3 6 8 -0.170117 0 6 -0.170117 1
gene 3 7 8 -0.554633 0 7 -0.554633 1
genomeend 33

/* Organism #34 Fitness: 6 Error: 0 */
genomestart 34
trait 1 0.1 0 0 0 0 0 0 0 
trait 2 0.2 0 0 0 0 0 0 0 
trait 3 0.3 0 0 0 0 0 0 0 
node 1 3 1 1
node 2 2 1 1
node 3 1 1 1
node 4 2 1 1
node 5 1 1 1
node 6 3 1 1
node 7 1 1 3
node 8 2 0 2
gene 1 1 8 2.88555 0 1 2.88555 1
gene 2 2 8 0.598883 0 2 0.598883 1
gene 3 3 8 -1.6751 0 3 -1.6751 1
gene 2 4 8 -4.8145 0 4 -4.8145 1
gene 2 5 8 0.613488 0 5 0.613488 1
gene 1 6 8 -0.655428 0 6 -0.655428 1
gene 2 7 8 0.0979312 0 7 0.0979312 1
genomeend 34

/* Organism #35 Fitness: 30 Error: 0 */
genomestart 35
trait 1 0.1 0 0 0 0 0 0 0 
trait 2 0.2 0 0 0 0 0 0 0 
trait 3 0.3 0 0 0 0 0 0 0 
node 1 2 1 1
node 2 3 1 1
node 3 3 1 1
node 4 1 1 1
node 5 2 1 1
node 6 1 1 1
node 7 2 1 3
node 8 2 0 2
node 12 1 0 0
gene 2 1 8 0.950501 0 1 0.950501 0
gene 3 2 8 0.0231654 0 2 0.0231654 1
gene 2 3 8 0.43422 0 3 0.43422 0
gene 2 4 8 -1.13951 0 4 -1.13951 1
gene 1 5 8 2.2709 0 5 2.2709 1
gene 1 6 8 1.3815 0 6 1.3815 1
gene 2 7 8 -2.13652 0 7 -2.13652 1
gene 2 1 12 1.6987 0 14 1.6987 1
gene 2 12 8 -1.85186 0 15 -1.85186 1
genomeend 35

/* Organism #36 Fitness: 15 Error: 0 */
genomestart 36
trait 1 0.1 0 0 0 0 0 0 0 
trait 2 0.2 0 0 0 0 0 0 0 
trait 3 0.3 0 0 0 0 0 0 0 
node 1 3 1 1
node 2 1 1 1
node 3 3 1 1
node 4 2 1 1
node 5 3 1 1
node 6 2 1 1
node 7 1 1 3
node 8 1 0 2
gene 1 1 8 -0.257337 0 1 -0.257337 1
gene 2 2 8 -1.30921 0 2 -1.30921 1
gene 3 3 8 2.97931 0 3 2.97931 1
gene 2 4 8 -0.393746 0 4 -0.393746 1
gene 3 5 8 -1.37216 0 5 -1.37216 1
gene 1 6 8 2.49726 0 6 2.49726 1
gene 2 7 8 0.993502 0 7 0.993502 1
genomeend 36

/* Organism #37 Fitness: 35 Error: 0 */
genomestart 37
trait 1 0.1 0 0 0 0 0 0 0 
trait 2 1 0 0 0.506977 0 0 0 0.209597 
trait 3 0.3 0 0 0 0 0 0 0 
node 1 3 1 1
node 2 3 1 1
node 3 2 1 1
node 4 3 1 1
node 5 3 1 1
node 6 3 1 1
node 7 3 1 3
node 8 2 0 2
gene 3 1 8 -1.32147 0 1 -1.32147 1
gene 3 2 8 -1.34982 0 2 -1.34982 1
gene 3 3 8 -1.46493 0 3 -1.46493 1
gene 2 4 8 -2.46812 0 4 -2.46812 1
gene 3 5 8 0.376708 0 5 0.376708 1
gene 2 6 8 1.64107 0 6 1.64107 1
gene 2 7 8 -0.469816 0 7 -0.469816 1
genomeend 37

/* Organism #38 Fitness: 31 Error: 0 */
genomestart 38
trait 1 0.1 0 0 0 0 0 0 0 
trait 2 0.2 0 0 0 0 0 0 0 
trait 3 0.3 0 0 0 0 0 0 0 
node 1 2 1 1
node 2 2 1 1
node 3 1 1 1
node 4 2 1 1
node 5 1 1 1
node 6 3 1 1
node 7 3 1 3
node 8 3 0 2
gene 3 1 8 2.99795 0 1 2.99795 1
gene 2 2 8 0.828622 0 2 0.828622 1
gene 3 3 8 -1.42307 0 3 -1.42307 1
gene 3 4 8 -3.26427 0 4 -3.26427 1
gene 3 5 8 -1.53137 0 5 -1.53137 1
gene 3 6 8 2.57738 0 6 2.57738 1
gene 2 7 8 0.421547 0 7 0.421547 1
genomeend 38

/* Organism #39 Fitness: 11 Error: 0 */
genomestart 39
trait 1 0.141457 0 0 0 0 0 0 0 
trait 2 0.2 0 0 0 0 0 0 0 
trait 3 0.3 0 0 0 0 0 0.402398 0 
node 1 2 1 1
node 2 2 1 1
node 3 1 1 1
node 4 2 1 1
node 5 1 1 1
node 6 3 1 1
node 7 3 1 3
node 8 3 0 2
node 19 1 0 0
gene 2 1 8 -1.15925 0 1 -1.15925 1
gene 1 2 8 -0.420626 0 2 -0.420626 1
gene 2 3 8 -2.78548 0 3 -2.78548 1
gene 3 4 8 -4.46424 0 4 -4.46424 1
gene 1 5 8 2.11508 0 5 2.11508 1
gene 1 6 8 1.30423 0 6 1.30423 0
gene 3 7 8 -0.1788 0 7 -0.1788 1
gene 1 6 19 1 0 29 0 1
gene 1 19 8 1.30423 0 30 0 1
genomeend 39

/* Organism #40 Fitness: 5 Error: 0 */
genomestart 40
trait 1 0.1 0 0 0 0 0 0 0 
trait 2 0.2 0 0 0 0 0 0 0 
trait 3 0.3 0 0 0 0 0 0 0 
node 1 3 1 1
node 2 2 1 1
node 3 3 1 1
node 4 1 1 1
node 5 2 1 1
node 6 2 1 1
node 7 1 1 3
node 8 2 0 2
gene 2 1 8 -0.812429 0 1 -0.812429 1
gene 2 2 8 0.713428 0 2 0.713428 1
gene 2 3 8 -1.84179 0 3 -1.84179 1
gene 2 4 8 -4.44436 0 4 -4.44436 1
gene 3 5 8 2.1731 0 5 2.1731 1
gene 2 6 8 -0.112732 0 6 -0.112732 1
gene 1 7 8 -2.06871 0 7 -2.06871 1
genomeend 40

/* Organism #41 Fitness: 16 Error: 0 */
genomestart 41
trait 1 0.1 0 0 0 0 0 0 0 
trait 2 0.2 0 0 0 0 0 0 0 
trait 3 0.298723 0 0.0112826 0 0 0 0.0338824 0.105941 
node 1 2 1 1
node 2 2 1 1
node 3 3 1 1
node 4 1 1 1
node 5 2 1 1
node 6 1 1 1
node 7 3 1 3
node 8 2 0 2
gene 1 1 8 1.01493 0 1 1.01493 1
gene 2 2 8 0.00564987 0 2 0.00564987 1
gene 1 3 8 2.04735 0 3 2.04735 1
gene 2 4 8 -0.8839 0 4 -0.8839 1
gene 1 5 8 -1.12223 0 5 -1.12223 1
gene 1 6 8 1.81001 0 6 1.81001 1
gene 3 7 8 0.672809 0 7 0.672809 1
genomeend 41

/* Organism #42 Fitness: 5 Error: 0 */
genomestart 42
trait 1 0.1 0 0 0 0 0 0 0 
trait 2 0.2 0 0 0 0 0 0 0 
trait 3 0.3 0 0 0 0 0 0 0 
node 1 2 1 1
node 2 2 1 1
node 3 1 1 1
node 4 2 1 1
node 5 1 1 1
node 6 3 1 1
node 7 2 1 3
node 8 2 0 2
gene 2 1 8 -0.000613615 0 1 -0.000613615 1
gene 2 2 8 1.02795 0 2 1.02795 1
gene 2 3 8 -0.476478 0 3 -0.476478 1
gene 3 4 8 0.0184865 0 4 0.0184865 1
gene 1 5 8 2.92059 0 5 2.92059 1
gene 3 6 8 -0.824355 0 6 -0.824355 1
gene 2 7 8 -0.373839 0 7 -0.373839 1
genomeend 42

/* Organism #43 Fitness: 35 Error: 0 */
genomestart 43
trait 1 0.410394 0 0 0 0.433375 0.301455 0 0 
trait 2 0.2 0 0 0 0 0 0 0 
trait 3 0.3 0 0 0 0 0 0 0 
node 1 3 1 1
node 2 1 1 1
node 3 3 1 1
node 4 2 1 1
node 5 3 1 1
node 6 2 1 1
node 7 1 1 3
node 8 1 0 2
gene 3 1 8 -1.63585 0 1 -1.63585 1
gene 3 2 8 0.801323 0 2 0.801323 1
gene 2 3 8 0.676462 0 3 0.676462 1
gene 1 4 8 -7.51182 0 4 -7.51182 1
gene 3 5 8 1.05073 0 5 1.05073 1
gene 1 6 8 3.01484 0 6 3.01484 1
gene 3 7 8 -3.06462 0 7 -3.06462 1
genomeend 43

/* Organism #44 Fitness: 11 Error: 0 */
genomestart 44
trait 1 0.141457 0 0 0 0 0 0 0 
trait 2 0.2 0 0 0 0 0 0 0 
trait 3 0.3 0 0 0 0 0 0 0 
node 1 2 1 1
node 2 1 1 1
node 3 3 1 1
node 4 2 1 1
node 5 3 1 1
node 6 2 1 1
node 7 1 1 3
node 8 1 0 2
gene 1 1 8 -1.18007 0 1 -1.18007 1
gene 2 2 8 -2.3024 0 2 -2.3024 1
gene 2 3 8 -0.944311 0 3 -0.944311 1
gene 2 4 8 1.53569 0 4 1.53569 1
gene 2 5 8 -1.54257 0 5 -1.54257 1
gene 3 6 8 1.27542 0 6 1.27542 1
gene 3 7 8 -1.62112 0 7 -1.62112 1
genomeend 44

/* Organism #45 Fitness: 17 Error: 0 */
genomestart 45
trait 1 0.1 0 0 0 0 0 0 0 
trait 2 0.2 0 0 0 0 0 0 0 
trait 3 0.3 0 0 0 0 0 0 0 
node 1 2 1 1
node 2 3 1 1
node 3 3 1 1
node 4 1 1 1
node 5 2 1 1
node 6 1 1 1
node 7 2 1 3
node 8 2 0 2
gene 1 1 8 2.68305 0 1 2.68305 0
gene 2 2 8 0.0983535 0 2 0.0983535 1
gene 3 3 8 2.54181 0 3 2.54181 1
gene 2 4 8 -3.69616 0 4 -3.69616 1
gene 1 5 8 0.78932 0 5 0.78932 1
gene 1 6 8 0.245293 0 6 0.245293 1
gene 2 7 8 -0.288688 0 7 -0.288688 1
genomeend 45

/* Organism #46 Fitness: 27 Error: 0 */
genomestart 46
trait 1 0.1 0 0 0 0 0 0 0 
trait 2 0.2 0 0 0 0 0 0 0 
trait 3 0.3 0 0 0 0 0 0 0 
node 1 3 1 1
node 2 2 1 1
node 3 3 1 1
node 4 1 1 1
node 5 2 1 1
node 6 2 1 1
node 7 1 1 3
node 8 2 0 2
gene 2 1 8 -2.81595 0 1 -2.81595 1
gene 2 2 8 -1.54863 0 2 -1.54863 1
gene 2 3 8 1.25434 0 3 1.25434 1
gene 2 4 8 -0.869628 0 4 -0.869628 1
gene 3 5 8 2.75537 0 5 2.75537 1
gene 2 6 8 0.596556 0 6 0.596556 1
gene 2 7 8 1.54892 0 7 1.54892 1
genomeend 46

/* Organism #47 Fitness: 30 Error: 0 */
genomestart 47
trait 1 0.1 0 0 0 0 0 0 0 
trait 2 0.2 0 0 0 0 0 0 0 
trait 3 0.3 0 0 0 0 0 0.810005 0 
node 1 3 1 1
node 2 2 1 1
node 3 1 1 1
node 4 2 1 1
node 5 1 1 1
node 6 3 1 1
node 7 1 1 3
node 8 2 0 2
gene 3 1 8 -1.57202 0 1 -1.57202 1
gene 2 2 8 2.13499 0 2 2.13499 1
gene 3 3 8 1.14748 0 3 1.14748 1
gene 2 4 8 -0.595199 0 4 -0.595199 1
gene 2 5 8 -0.620682 0 5 -0.620682 1
gene 1 6 8 1.44235 0 6 1.44235 1
gene 1 7 8 -1.89877 0 7 -1.89877 1
genomeend 47

/* Organism #48 Fitness: 41 Error: 0 */
genomestart 48
trait 1 0.1 0 0 0 0 0 0 0 
trait 2 0.2 0 0 0 0 0 0 0 
trait 3 0.3 0 0 0 0 0 0 0 
node 1 1 1 1
node 2 1 1 1
node 3 2 1 1
node 4 2 1 1
node 5 2 1 1
node 6 3 1 1
node 7 3 1 3
node 8 3 0 2
gene 1 1 8 0.548851 0 1 0.548851 1
gene 3 2 8 -0.529787 0 2 -0.529787 1
gene 2 3 8 -1.34038 0 3 -1.34038 1
gene 3 4 8 -0.927994 0 4 -0.927994 1
gene 3 5 8 0.939388 0 5 0.939388 1
gene 1 6 8 2.59373 0 6 2.59373 1
gene 2 7 8 -0.325515 0 7 -0.325515 1
genomeend 48

/* Organism #49 Fitness: 14 Error: 0 */
genomestart 49
trait 1 0.1 0 0 0 0 0 0 0 
trait 2 0.2 0 0 0 0 0 0 0 
trait 3 0.3 0 0 0 0 0 0 0 
node 1 2 1 1
node 2 3 1 1
node 3 3 1 1
node 4 3 1 1
node 5 3 1 1
node 6 3 1 1
node 7 1 1 3
node 8 3 0 2
gene 1 1 8 0.122063 0 1 0.122063 1
gene 2 2 8 -0.807085 0 2 -0.807085 1
gene 2 3 8 0.49066 0 3 0.49066 1
gene 3 4 8 1.65198 0 4 1.65198 1
gene 1 5 8 0.600439 0 5 0.600439 1
gene 1 6 8 0.453604 0 6 0.453604 1
gene 3 7 8 0.945503 0 7 0.945503 1
genomeend 49

/* Organism #50 Fitness: 55 Error: 0 */
genomestart 50
trait 1 0.1 0 0 0 0 0 0 0 
trait 2 0.2 0 0 0 0 0 0.0121752 0 
trait 3 0.3 0 0 0 0 0 0 0 
node 1 2 1 1
node 2 3 1 1
node 3 3 1 1
node 4 1 1 1
node 5 2 1 1
node 6 1 1 1
node 7 2 1 3
node 8 2 0 2
gene 1 1 8 1.48571 0 1 1.48571 1
gene 3 2 8 0.39194 0 2 0.39194 1
gene 2 3 8 0.150062 0 3 0.150062 1
gene 3 4 8 -1.61059 0 4 -1.61059 1
gene 1 5 8 0.581058 0 5 0.581058 0
gene 3 6 8 1.23998 0 6 1.23998 1
gene 3 7 8 -0.173655 0 7 -0.173655 1
genomeend 50

/* Organism #51 Fitness: 5 Error: 0 */
genomestart 51
trait 1 0.1 0 0 0 0 0 0 0 
trait 2 0.2 0 0 0 0 0 0 0 
trait 3 0.3 0 0 0 0 0 0.804797 0 
node 1 3 1 1
node 2 1 1 1
node 3 1 1 1
node 4 1 1 1
node 5 3 1 1
node 6 2 1 1
node 7 3 1 3
node 8 1 0 2
gene 2 1 8 -0.221486 0 1 -0.221486 1
gene 2 2 8 -1.10879 0 2 -1.10879 1
gene 2 3 8 0.692527 0 3 0.692527 1
gene 3 4 8 -3.53164 0 4 -3.53164 1
gene 1 5 8 0.104148 0 5 0.104148 1
gene 1 6 8 -1.25591 0 6 -1.25591 1
gene 3 7 8 -0.697783 0 7 -0.697783 1
genomeend 51

/* Organism #52 Fitness: 14 Error: 0 */
genomestart 52
trait 1 0.1 0 0 0 0 0 0 0 
trait 2 0.2 0 0 0 0 0 0.0243504 0 
trait 3 0.3 0 0 0 0 0 0 0 
node 1 2 1 1
node 2 3 1 1
node 3 3 1 1
node 4 3 1 1
node 5 3 1 1
node 6 3 1 1
node 7 1 1 3
node 8 3 0 2
gene 1 1 8 -1.08613 0 1 -1.08613 1
gene 1 2 8 -0.522159 0 2 -0.522159 1
gene 2 3 8 3.35852 0 3 3.35852 1
gene 3 4 8 0.900163 0 4 0.900163 1
gene 1 5 8 -1.73629 0 5 -1.73629 1
gene 2 6 8 2.36046 0 6 2.36046 1
gene 2 7 8 -2.37404 0 7 -2.37404 1
genomeend 52

/* Organism #53 Fitness: 28 Error: 0 */
genomestart 53
trait 1 0.1 0 0 0 0 0 0 0 
trait 2 0.2 0 0 0 0 0 0.0243504 0 
trait 3 0.3 0 0 0 0 0 0 0 
node 1 2 1 1
node 2 3 1 1
node 3 3 1 1
node 4 1 1 1
node 5 2 1 1
node 6 1 1 1
node 7 2 1 3
node 8 2 0 2
node 16 1 0 0
gene 1 1 8 1.1298 0 1 1.1298 1
gene 3 2 8 0.149239 0 2 0.149239 1
gene 2 3 8 1.01629 0 3 1.01629 1
gene 2 4 8 -3.75132 0 4 -3.75132 1
gene 1 5 8 -1.90511 0 5 -1.90511 0
gene 3 6 8 2.02756 0 6 2.02756 1
gene 2 7 8 0.726718 0 7 0.726718 1
gene 1 5 16 1.69607 0 22 1.69607 1
gene 1 16 8 -0.0087563 0 23 -0.0087563 1
genomeend 53

/* Organism #54 Fitness: 65 Error: 0 */
genomestart 54
trait 1 0.1 0 0 0 0 0 0 0 
trait 2 0.2 0 0 0 0 0 0 0 
trait 3 0.298723 0 0.0112826 0 0 0 0.0338824 0.105941 
node 1 3 1 1
node 2 1 1 1
node 3 1 1 1
node 4 1 1 1
node 5 3 1 1
node 6 2 1 1
node 7 3 1 3
node 8 1 0 2
gene 1 1 8 0.481291 0 1 0.481291 1
gene 2 2 8 0.117056 0 2 0.117056 1
gene 2 3 8 2.35644 0 3 2.35644 1
gene 2 4 8 -0.865388 0 4 -0.865388 1
gene 3 5 8 1.70825 0 5 1.70825 1
gene 3 6 8 1.70863 0 6 1.70863 1
gene 3 7 8 -1.1362 0 7 -1.1362 1
genomeend 54

/* Organism #55 Fitness: 33 Error: 0 */
genomestart 55
trait 1 0.1 0 0 0 0 0 0 0 
trait 2 0.2 0.594289 0.369662 0 0 0 0 0 
trait 3 0.3 0 0 0 0 0 0 0 
node 1 2 1 1
node 2 3 1 1
node 3 3 1 1
node 4 1 1 1
node 5 2 1 1
node 6 1 1 1
node 7 2 1 3
node 8 2 0 2
gene 2 1 8 -1.4048 0 1 -1.4048 0
gene 2 2 8 -1.50529 0 2 -1.50529 1
gene 2 3 8 2.4746 0 3 2.4746 0
gene 3 4 8 -2.32352 0 4 -2.32352 1
gene 1 5 8 1.84988 0 5 1.84988 1
gene 1 6 8 1.2453 0 6 1.2453 1
gene 3 7 8 -2.58119 0 7 -2.58119 1
genomeend 55

/* Organism #56 Fitness: 7 Error: 0 */
genomestart 56
trait 1 0.1 0 0 0 0 0 0.0590531 0 
trait 2 0.2 0 0 0 0 0 0 0 
trait 3 0.3 0 0 0 0 0 0 0 
node 1 3 1 1
node 2 2 1 1
node 3 3 1 1
node 4 1 1 1
node 5 2 1 1
node 6 2 1 1
node 7 1 1 3
node 8 2 0 2
gene 2 1 8 -0.681484 0 1 -0.681484 1
gene 3 2 8 0.277713 0 2 0.277713 1
gene 1 3 8 -0.131969 0 3 -0.131969 1
gene 3 4 8 -4.22812 0 4 -4.22812 1
gene 1 5 8 2.50657 0 5 2.50657 1
gene 1 6 8 0.405037 0 6 0.405037 1
gene 2 7 8 1.63512 0 7 1.63512 1
genomeend 56

/* Organism #57 Fitness: 46 Error: 0 */
genomestart 57
trait 1 0.1 0 0 0 0 0 0 0 
trait 2 0.2 0 0 0 0 0 0 0 
trait 3 0.298723 0 0.0112826 0 0 0 0.0338824 0.105941 
node 1 2 1 1
node 2 3 1 1
node 3 3 1 1
node 4 3 1 1
node 5 3 1 1
node 6 3 1 1
node 7 1 1 3
node 8 3 0 2
gene 1 1 8 -0.120109 0 1 -0.120109 1
gene 2 2 8 0.522637 0 2 0.522637 1
gene 1 3 8 -0.38071 0 3 -0.38071 1
gene 3 4 8 0.295521 0 4 0.295521 1
gene 3 5 8 1.70825 0 5 1.70825 1
gene 1 6 8 0.39151 0 6 0.39151 1
gene 3 7 8 -0.210672 0 7 -0.210672 1
genomeend 57

/* Organism #58 Fitness: 27 Error: 0 */
genomestart 58
trait 1 0.1 0 0 0 0 0 0.0590531 0 
trait 2 0.2 0 0 0 0 0 0 0 
trait 3 0.3 0 0 0 0 0 0 0 
node 1 2 1 1
node 2 3 1 1
node 3 3 1 1
node 4 1 1 1
node 5 2 1 1
node 6 1 1 1
node 7 2 1 3
node 8 2 0 2
gene 2 1 8 -2.00278 0 1 -2.00278 0
gene 3 2 8 2.13068 0 2 2.13068 1
gene 2 3 8 -1.00256 0 3 -1.00256 0
gene 2 4 8 -0.569129 0 4 -0.569129 1
gene 1 5 8 0.345011 0 5 0.345011 1
gene 1 6 8 0.997108 0 6 0.997108 1
gene 2 7 8 1.13651 0 7 1.13651 1
genomeend 58

/* Organism #59 Fitness: 40 Error: 0 */
genomestart 59
trait 1 0.1 0 0 0 0 0 0 0 
trait 2 0.2 0 0 0 0 0 0 0 
trait 3 0.3 0 0 0 0 0 0 0 
node 1 2 1 1
node 2 2 1 1
node 3 1 1 1
node 4 2 1 1
node 5 1 1 1
node 6 3 1 1
node 7 3 1 3
node 8 3 0 2
gene 1 1 8 0.0216838 0 1 0.0216838 1
gene 1 2 8 2.7674 0 2 2.7674 1
gene 2 3 8 -3.61606 0 3 -3.61606 1
gene 3 4 8 1.44591 0 4 1.44591 1
gene 1 5 8 2.92828 0 5 2.92828 1
gene 1 6 8 3.25532 0 6 3.25532 1
gene 1 7 8 -1.3103 0 7 -1.3103 1
genomeend 59

/* Organism #60 Fitness: 87 Error: 0 */
genomestart 60
trait 1 0.1 0 0 0 0 0 0 0 
trait 2 0.2 0 0 0 0 0 0 0 
trait 3 0.298723 0 0.0112826 0 0 0 0.0338824 0.105941 
node 1 2 1 1
node 2 2 1 1
node 3 3 1 1
node 4 1 1 1
node 5 2 1 1
node 6 1 1 1
node 7 3 1 3
node 8 2 0 2
gene 1 1 8 0.9807 0 1 0.9807 1
gene 2 2 8 0.164979 0 2 0.164979 1
gene 1 3 8 -2.43727 0 3 -2.43727 1
gene 2 4 8 -0.915624 0 4 -0.915624 1
gene 1 5 8 2.28525 0 5 2.28525 1
gene 1 6 8 0.857173 0 6 0.857173 1
gene 2 7 8 -0.509642 0 7 -0.509642 1
genomeend 60

/* Organism #61 Fitness: 38 Error: 0 */
genomestart 61
trait 1 0.1 0 0 0 0 0 0 0 
trait 2 0.2 0 0 0 0 0 0 0 
trait 3 0.3 0 0 0 0 0 0 0 
node 1 3 1 1
node 2 2 1 1
node 3 3 1 1
node 4 1 1 1
node 5 2 1 1
node 6 2 1 1
node 7 1 1 3
node 8 2 0 2
gene 1 1 8 -3.2996 0 1 -3.2996 1
gene 2 2 8 -1.60754 0 2 -1.60754 1
gene 2 3 8 5.12899 0 3 5.12899 1
gene 3 4 8 -3.32948 0 4 -3.32948 1
gene 1 5 8 1.40749 0 5 1.40749 1
gene 2 6 8 0.646934 0 6 0.646934 1
gene 3 7 8 -2.336 0 7 -2.336 1
genomeend 61

/* Organism #62 Fitness: 12 Error: 0 */
genomestart 62
trait 1 0.1 0 0 0 0 0 0 0 
trait 2 0.2 0 0 0 0 0 0 0 
trait 3 0.3 0 0 0 0 0 0 0 
node 1 2 1 1
node 2 3 1 1
node 3 3 1 1
node 4 1 1 1
node 5 2 1 1
node 6 1 1 1
node 7 2 1 3
node 8 2 0 2
gene 2 1 8 1.87382 0 1 1.87382 0
gene 2 2 8 0.150249 0 2 0.150249 1
gene 2 3 8 -2.17806 0 3 -2.17806 0
gene 3 4 8 0.0265196 0 4 0.0265196 1
gene 1 5 8 -0.712131 0 5 -0.712131 1
gene 1 6 8 1.44457 0 6 1.44457 1
gene 2 7 8 -2.74427 0 7 -2.74427 1
genomeend 62

/* Organism #63 Fitness: 64 Error: 0 */
genomestart 63
trait 1 0.1 0 0 0 0 0 0 0 
trait 2 0.2 0 0 0 0 0 0 0 
trait 3 0.3 0 0 0 0 0 0 0 
node 1 2 1 1
node 2 3 1 1
node 3 3 1 1
node 4 3 1 1
node 5 3 1 1
node 6 3 1 1
node 7 1 1 3
node 8 3 0 2
gene 2 1 8 -0.570388 0 1 -0.570388 1
gene 2 2 8 0.407737 0 2 0.407737 1
gene 2 3 8 -1.3517 0 3 -1.3517 1
gene 1 4 8 -3.79966 0 4 -3.79966 1
gene 1 5 8 1.73436 0 5 1.73436 1
gene 1 6 8 1.00245 0 6 1.00245 1
gene 3 7 8 -1.66696 0 7 -1.66696 1
genomeend 63

/* Organism #64 Fitness: 52 Error: 0 */
genomestart 64
trait 1 0.1 0 0 0 0 0 0 0 
trait 2 0.2 0 0 0 0 0 0 0 
trait 3 0.3 0 0 0 0 0 0 0 
node 1 2 1 1
node 2 3 1 1
node 3 1 1 1
node 4 3 1 1
node 5 2 1 1
node 6 3 1 1
node 7 2 1 3
node 8 3 0 2
gene 2 1 8 -0.939194 0 1 -0.939194 1
gene 1 2 8 0.0286118 0 2 0.0286118 1
gene 2 3 8 -0.633279 0 3 -0.633279 1
gene 2 4 8 -0.0549119 0 4 -0.0549119 1
gene 1 5 8 1.7683 0 5 1.7683 1
gene 2 6 8 0.835016 0 6 0.835016 1
gene 2 7 8 -0.106712 0 7 -0.106712 1
genomeend 64

/* Organism #65 Fitness: 30 Error: 0 */
genomestart 65
trait 1 0.1 0 0 0 0 0 0 0 
trait 2 0.2 0 0 0 0 0 0 0 
trait 3 0.298723 0 0.0112826 0 0 0 0.0338824 0.105941 
node 1 2 1 1
node 2 2 1 1
node 3 3 1 1
node 4 1 1 1
node 5 2 1 1
node 6 1 1 1
node 7 3 1 3
node 8 2 0 2
gene 1 1 8 0.458587 0 1 0.458587 1
gene 2 2 8 0.259949 0 2 0.259949 1
gene 1 3 8 0.18074 0 3 0.18074 1
gene 2 4 8 -2.57073 0 4 -2.57073 1
gene 1 5 8 1.34035 0 5 1.34035 1
gene 2 6 8 0.554243 0 6 0.554243 1
gene 2 7 8 1.53714 0 7 1.53714 1
genomeend 65

/* Organism #66 Fitness: 5 Error: 0 */
genomestart 66
trait 1 0.1 0 0 0 0 0 0 0 
trait 2 0.2 0 0 0 0 0 0 0 
trait 3 0.3 0 0 0 0 0 0 0 
node 1 2 1 1
node 2 3 1 1
node 3 1 1 1
node 4 3 1 1
node 5 2 1 1
node 6 3 1 1
node 7 2 1 3
node 8 3 0 2
gene 1 1 8 0.448077 0 1 0.448077 1
gene 3 2 8 2.15549 0 2 2.15549 1
gene 2 3 8 -2.05303 0 3 -2.05303 1
gene 2 4 8 -4.72601 0 4 -4.72601 1
gene 2 5 8 5.55381 0 5 5.55381 1
gene 1 6 8 -1.0874 0 6 -1.0874 1
gene 1 7 8 -2.08036 0 7 -2.08036 1
genomeend 66

/* Organism #67 Fitness: 22 Error: 0 */
genomestart 67
trait 1 0.1 0 0 0 0 0 0.0590531 0 
trait 2 0.2 0 0 0 0 0 0 0 
trait 3 0.3 0 0 0 0 0 0 0 
node 1 2 1 1
node 2 3 1 1
node 3 1 1 1
node 4 3 1 1
node 5 2 1 1
node 6 3 1 1
node 7 2 1 3
node 8 3 0 2
gene 2 1 8 -0.64002 0 1 -0.64002 1
gene 2 2 8 -0.579266 0 2 -0.579266 1
gene 1 3 8 -2.94223 0 3 -2.94223 1
gene 3 4 8 -0.832504 0 4 -0.832504 1
gene 2 5 8 1.08039 0 5 1.08039 1
gene 1 6 8 3.01479 0 6 3.01479 1
gene 2 7 8 -2.68125 0 7 -2.68125 1
genomeend 67

/* Organism #68 Fitness: 26 Error: 0 */
genomestart 68
trait 1 0.1 0 0 0 0 0 0 0 
trait 2 0.2 0 0 0 0 0 0 0 
trait 3 0.3 0 0 0 0 0 0 0 
node 1 1 1 1
node 2 1 1 1
node 3 2 1 1
node 4 2 1 1
node 5 2 1 1
node 6 3 1 1
node 7 3 1 3
node 8 3 0 2
gene 1 1 8 -0.684954 0 1 -0.684954 1
gene 3 2 8 -2.17131 0 2 -2.17131 1
gene 2 3 8 2.10815 0 3 2.10815 1
gene 3 4 8 -2.16054 0 4 -2.16054 1
gene 1 5 8 1.18488 0 5 1.18488 1
gene 1 6 8 1.22053 0 6 1.22053 1
gene 3 7 8 1.27064 0 7 1.27064 1
genomeend 68

/* Organism #69 Fitness: 61 Error: 0 */
genomestart 69
trait 1 0.1 0 0 0 0 0 0 0 
trait 2 0.2 0 0 0 0 0 0 0 
trait 3 0.3 0.288738 0 0 0.896626 0 0 0 
node 1 2 1 1
node 2 3 1 1
node 3 1 1 1
node 4 3 1 1
node 5 2 1 1
node 6 3 1 1
node 7 2 1 3
node 8 3 0 2
gene 3 1 8 -3.29458 0 1 -3.29458 1
gene 1 2 8 0.849432 0 2 0.849432 1
gene 2 3 8 -3.87369 0 3 -3.87369 1
gene 2 4 8 0.279971 0 4 0.279971 1
gene 3 5 8 4.36612 0 5 4.36612 1
gene 1 6 8 1.34822 0 6 1.34822 1
gene 1 7 8 -0.506261 0 7 -0.506261 1
genomeend 69

/* Organism #70 Fitness: 37 Error: 0 */
genomestart 70
trait 1 0.1 0 0 0 0 0 0 0 
trait 2 0.2 0 0 0 0 0 0 0 
trait 3 0.3 0 0 0 0 0 0 0 
node 1 3 1 1
node 2 2 1 1
node 3 3 1 1
node 4 1 1 1
node 5 1 1 1
node 6 2 1 1
node 7 1 1 3
node 8 2 0 2
gene 1 1 8 0.813475 0 1 0.813475 1
gene 2 2 8 0.655634 0 2 0.655634 1
gene 2 3 8 -1.29045 0 3 -1.29045 1
gene 3 4 8 -1.22601 0 4 -1.22601 1
gene 3 5 8 1.4478 0 5 1.4478 1
gene 3 6 8 1.69099 0 6 1.69099 1
gene 2 7 8 -1.22815 0 7 -1.22815 1
genomeend 70

/* Organism #71 Fitness: 32 Error: 0 */
genomestart 71
trait 1 0.1 0 0 0 0 0 0 0 
trait 2 0.2 0 0 0 0 0 0 0 
trait 3 0.3 0 0 0 0 0 0 0 
node 1 3 1 1
node 2 2 1 1
node 3 3 1 1
node 4 1 1 1
node 5 2 1 1
node 6 2 1 1
node 7 1 1 3
node 8 2 0 2
gene 1 1 8 1.05691 0 1 1.05691 1
gene 2 2 8 0.655634 0 2 0.655634 1
gene 2 3 8 -1.29045 0 3 -1.29045 1
gene 3 4 8 -2.09189 0 4 -2.09189 1
gene 1 5 8 0.230592 0 5 0.230592 1
gene 3 6 8 1.11467 0 6 1.11467 1
gene 2 7 8 -0.6483 0 7 -0.6483 1
genomeend 71

/* Organism #72 Fitness: 283 Error: 0 */
genomestart 72
trait 1 0.1 0 0 0 0 0 0 0 
trait 2 0.2 0 0 0 0 0 0 0 
trait 3 0.3 0 0 0 0 0 0 0 
node 1 2 1 1
node 2 2 1 1
node 3 1 1 1
node 4 2 1 1
node 5 1 1 1
node 6 3 1 1
node 7 3 1 3
node 8 3 0 2
gene 1 1 8 -0.120109 0 1 -0.120109 1
gene 1 2 8 -0.48662 0 2 -0.48662 1
gene 1 3 8 -2.43727 0 3 -2.43727 1
gene 2 4 8 -1.88966 0 4 -1.88966 1
gene 1 5 8 2.33938 0 5 2.33938 1
gene 1 6 8 0.39151 0 6 0.39151 1
gene 3 7 8 -0.210672 0 7 -0.210672 1
genomeend 72

/* Organism #73 Fitness: 98 Error: 0 */
genomestart 73
trait 1 0.1 0 0 0 0 0 0 0 
trait 2 0.2 0 0 0 0 0 0 0 
trait 3 0.298723 0 0.0112826 0 0 0 0.0338824 0.105941 
node 1 2 1 1
node 2 2 1 1
node 3 1 1 1
node 4 2 1 1
node 5 1 1 1
node 6 3 1 1
node 7 3 1 3
node 8 3 0 2
gene 1 1 8 0.180591 0 1 0.180591 1
gene 2 2 8 0.319847 0 2 0.319847 1
gene 2 3 8 -0.963158 0 3 -0.963158 1
gene 3 4 8 -0.284934 0 4 -0.284934 1
gene 3 5 8 2.02382 0 5 2.02382 1
gene 3 6 8 1.05007 0 6 1.05007 1
gene 2 7 8 -0.270277 0 7 -0.270277 1
genomeend 73

/* Organism #74 Fitness: 65 Error: 0 */
genomestart 74
trait 1 0.1 0 0 0 0 0 0 0 
trait 2 0.2 0 0 0 0 0 0 0 
trait 3 0.297446 0 0.0225651 0 0 0 0.0677648 0.211883 
node 1 2 1 1
node 2 2 1 1
node 3 1 1 1
node 4 2 1 1
node 5 1 1 1
node 6 3 1 1
node 7 3 1 3
node 8 3 0 2
gene 1 1 8 0.481291 0 1 0.481291 1
gene 2 2 8 0.164979 0 2 0.164979 1
gene 1 3 8 -0.38071 0 3 -0.38071 1
gene 2 4 8 -0.915624 0 4 -0.915624 1
gene 3 5 8 1.70825 0 5 1.70825 1
gene 2 6 8 1.85861 0 6 1.85861 1
gene 2 7 8 -0.329882 0 7 -0.329882 1
genomeend 74

/* Organism #75 Fitness: 6 Error: 0 */
genomestart 75
trait 1 0.182914 0 0 0 0 0 0 0 
trait 2 0.2 0 0 0 0 0 0 0 
trait 3 0.3 0 0 0 0 0 0 0 
node 1 2 1 1
node 2 2 1 1
node 3 1 1 1
node 4 2 1 1
node 5 1 1 1
node 6 3 1 1
node 7 3 1 3
node 8 3 0 2
gene 1 1 8 1.04218 0 1 1.04218 1
gene 2 2 8 -1.38645 0 2 -1.38645 1
gene 2 3 8 -2.41745 0 3 -2.41745 1
gene 1 4 8 0.665993 0 4 0.665993 1
gene 2 5 8 1.27398 0 5 1.27398 1
gene 3 6 8 -0.0526896 0 6 -0.0526896 1
gene 3 7 8 -0.92011 0 7 -0.92011 1
genomeend 75

/* Organism #76 Fitness: 21 Error: 0 */
genomestart 76
trait 1 0.1 0 0 0 0 0 0 0 
trait 2 0.2 0 0 0 0 0 0 0 
trait 3 0.298723 0 0.0112826 0 0 0 0.0338824 0.105941 
node 1 2 1 1
node 2 3 1 1
node 3 1 1 1
node 4 3 1 1
node 5 2 1 1
node 6 3 1 1
node 7 2 1 3
node 8 3 0 2
gene 1 1 8 -0.969239 0 1 -0.969239 1
gene 3 2 8 -0.509183 0 2 -0.509183 1
gene 2 3 8 -2.12119 0 3 -2.12119 1
gene 1 4 8 -1.08807 0 4 -1.08807 1
gene 3 5 8 1.0606 0 5 1.0606 1
gene 1 6 8 3.18118 0 6 3.18118 1
gene 3 7 8 -2.83007 0 7 -2.83007 1
genomeend 76

/* Organism #77 Fitness: 52 Error: 0 */
genomestart 77
trait 1 0.1 0 0 0 0 0 0 0 
trait 2 0.2 0 0 0 0 0 0 0 
trait 3 0.298723 0 0.0112826 0 0 0 0.0338824 0.105941 
node 1 3 1 1
node 2 2 1 1
node 3 3 1 1
node 4 1 1 1
node 5 1 1 1
node 6 2 1 1
node 7 1 1 3
node 8 2 0 2
gene 1 1 8 0.361921 0 1 0.361921 1
gene 2 2 8 0.410306 0 2 0.410306 1
gene 2 3 8 -0.605368 0 3 -0.605368 1
gene 2 4 8 -1.07082 0 4 -1.07082 1
gene 3 5 8 1.66966 0 5 1.66966 1
gene 3 6 8 1.48664 0 6 1.48664 1
gene 2 7 8 -0.578971 0 7 -0.578971 1
genomeend 77

/* Organism #78 Fitness: 33 Error: 0 */
genomestart 78
trait 1 0.1 0 0 0 0 0 0.0590531 0 
trait 2 0.2 0 0 0 0 0 0 0 
trait 3 0.3 0 0 0 0 0 0 0 
node 1 2 1 1
node 2 3 1 1
node 3 1 1 1
node 4 3 1 1
node 5 2 1 1
node 6 3 1 1
node 7 2 1 3
node 8 3 0 2
gene 1 1 8 -2.29365 0 1 -2.29365 1
gene 1 2 8 0.531363 0 2 0.531363 1
gene 1 3 8 -1.12082 0 3 -1.12082 1
gene 2 4 8 -3.21296 0 4 -3.21296 1
gene 1 5 8 1.38051 0 5 1.38051 1
gene 1 6 8 2.1853 0 6 2.1853 1
gene 2 7 8 0.901603 0 7 0.901603 1
genomeend 78

/* Organism #79 Fitness: 108 Error: 0 */
genomestart 79
trait 1 0.1 0 0 0 0 0 0 0 
trait 2 0.2 0 0 0 0 0 0 0 
trait 3 0.3 0 0 0 0 0 0 0 
node 1 2 1 1
node 2 3 1 1
node 3 1 1 1
node 4 3 1 1
node 5 2 1 1
node 6 3 1 1
node 7 2 1 3
node 8 3 0 2
gene 1 1 8 0.161431 0 1 0.161431 1
gene 1 2 8 0.401113 0 2 0.401113 1
gene 3 3 8 -1.31506 0 3 -1.31506 1
gene 2 4 8 -0.920716 0 4 -0.920716 1
gene 3 5 8 2.07462 0 5 2.07462 1
gene 1 6 8 0.93875 0 6 0.93875 1
gene 2 7 8 -0.231826 0 7 -0.231826 1
genomeend 79

/* Organism #80 Fitness: 5 Error: 0 */
genomestart 80
trait 1 0.182914 0 0 0 0 0 0 0 
trait 2 0.2 0 0 0 0 0 0 0 
trait 3 0.3 0 0 0 0 0 0 0 
node 1 2 1 1
node 2 2 1 1
node 3 1 1 1
node 4 2 1 1
node 5 1 1 1
node 6 3 1 1
node 7 3 1 3
node 8 3 0 2
gene 1 1 8 -0.577304 0 1 -0.577304 1
gene 1 2 8 0.934667 0 2 0.934667 1
gene 2 3 8 -4.16176 0 3 -4.16176 1
gene 1 4 8 -4.30067 0 4 -4.30067 1
gene 1 5 8 0.646237 0 5 0.646237 1
gene 1 6 8 -0.0594788 0 6 -0.0594788 1
gene 3 7 8 0.551398 0 7 0.551398 1
genomeend 80

/* Organism #81 Fitness: 135 Error: 0 */
genomestart 81
trait 1 0.141457 0 0 0 0 0 0 0 
trait 2 0.2 0 0 0 0 0 0 0 
trait 3 0.3 0 0 0 0 0 0.402398 0 
node 1 2 1 1
node 2 2 1 1
node 3 1 1 1
node 4 2 1 1
node 5 1 1 1
node 6 3 1 1
node 7 3 1 3
node 8 3 0 2
gene 2 1 8 -0.0763002 0 1 -0.0763002 1
gene 1 2 8 0.278504 0 2 0.278504 1
gene 2 3 8 0.0587061 0 3 0.0587061 1
gene 3 4 8 -3.30315 0 4 -3.30315 1
gene 1 5 8 1.10962 0 5 1.10962 1
gene 1 6 8 1.2359 0 6 1.2359 1
gene 3 7 8 -0.438292 0 7 -0.438292 1
genomeend 81

/* Organism #82 Fitness: 54 Error: 0 */
genomestart 82
trait 1 0.1 0 0 0 0 0 0 0 
trait 2 0.2 0.953189 0 0 0 0.897496 0.249674 0 
trait 3 0.298723 0 0.0112826 0 0 0 0.0338824 0.105941 
node 1 2 1 1
node 2 3 1 1
node 3 1 1 1
node 4 3 1 1
node 5 2 1 1
node 6 3 1 1
node 7 2 1 3
node 8 3 0 2
gene 2 1 8 -0.514834 0 1 -0.514834 1
gene 2 2 8 0.54258 0 2 0.54258 1
gene 1 3 8 0.166575 0 3 0.166575 1
gene 2 4 8 -1.21575 0 4 -1.21575 1
gene 3 5 8 3.27773 0 5 3.27773 1
gene 1 6 8 0.849763 0 6 0.849763 1
gene 3 7 8 -0.712446 0 7 -0.712446 1
genomeend 82

/* Organism #83 Fitness: 34 Error: 0 */
genomestart 83
trait 1 0.141457 0 0 0 0 0 0 0 
trait 2 0.2 0 0 0 0 0 0 0 
trait 3 0.298723 0 0.0112826 0 0 0 0.0338824 0.105941 
node 1 3 1 1
node 2 2 1 1
node 3 3 1 1
node 4 1 1 1
node 5 2 1 1
node 6 1 1 1
node 7 3 1 3
node 8 2 0 2
gene 1 1 8 -1.85521 0 1 -1.85521 1
gene 2 2 8 2.67833 0 2 2.67833 1
gene 2 3 8 0.571907 0 3 0.571907 1
gene 2 4 8 -0.403895 0 4 -0.403895 1
gene 1 5 8 0.149555 0 5 0.149555 1
gene 3 6 8 1.80922 0 6 1.80922 1
gene 2 7 8 -1.62896 0 7 -1.62896 1
genomeend 83

/* Organism #84 Fitness: 67 Error: 0 */
genomestart 84
trait 1 0.1 0 0 0 0 0 0 0 
trait 2 0.2 0 0 0 0 0 0 0 
trait 3 0.3 0 0 0 0 0 0 0 
node 1 3 1 1
node 2 1 1 1
node 3 1 1 1
node 4 1 1 1
node 5 3 1 1
node 6 2 1 1
node 7 3 1 3
node 8 1 0 2
gene 2 1 8 -1.94399 0 1 -1.94399 1
gene 2 2 8 0.977633 0 2 0.977633 1
gene 2 3 8 3.02803 0 3 3.02803 1
gene 3 4 8 -3.38514 0 4 -3.38514 1
gene 1 5 8 -0.173584 0 5 -0.173584 1
gene 1 6 8 1.1507 0 6 1.1507 1
gene 3 7 8 -1.19535 0 7 -1.19535 1
genomeend 84

/* Organism #85 Fitness: 30 Error: 0 */
genomestart 85
trait 1 0.1 0 0 0 0 0 0 0 
trait 2 0.2 0 0 0 0 0 0 0 
trait 3 0.3 0 0 0 0 0 0 0 
node 1 2 1 1
node 2 2 1 1
node 3 1 1 1
node 4 2 1 1
node 5 1 1 1
node 6 3 1 1
node 7 3 1 3
node 8 3 0 2
gene 1 1 8 -0.182651 0 1 -0.182651 1
gene 1 2 8 -0.417274 0 2 -0.417274 1
gene 1 3 8 -1.43132 0 3 -1.43132 1
gene 2 4 8 -4.16958 0 4 -4.16958 1
gene 1 5 8 -0.0560364 0 5 -0.0560364 1
gene 1 6 8 2.07769 0 6 2.07769 1
gene 3 7 8 -2.12137 0 7 -2.12137 1
genomeend 85

/* Organism #86 Fitness: 36 Error: 0 */
genomestart 86
trait 1 0.1 0 0 0 0 0 0 0 
trait 2 0.2 0 0 0 0 0 0.0121752 0 
trait 3 0.3 0 0 0 0 0 0 0 
node 1 2 1 1
node 2 2 1 1
node 3 1 1 1
node 4 2 1 1
node 5 1 1 1
node 6 3 1 1
node 7 3 1 3
node 8 3 0 2
gene 1 1 8 1.31691 0 1 1.31691 1
gene 1 2 8 0.442297 0 2 0.442297 1
gene 2 3 8 -1.73525 0 3 -1.73525 1
gene 3 4 8 -0.661339 0 4 -0.661339 1
gene 1 5 8 0.0332632 0 5 0.0332632 1
gene 2 6 8 1.26555 0 6 1.26555 1
gene 2 7 8 -0.29 0 7 -0.29 1
genomeend 86

/* Organism #87 Fitness: 98 Error: 0 */
genomestart 87
trait 1 0.1 0 0 0 0 0 0 0 
trait 2 0.2 0 0 0 0 0 0 0 
trait 3 0.3 0 0 0 0 0 0 0 
node 1 3 1 1
node 2 2 1 1
node 3 3 1 1
node 4 1 1 1
node 5 2 1 1
node 6 2 1 1
node 7 1 1 3
node 8 2 0 2
gene 3 1 8 0.981351 0 1 0.981351 1
gene 2 2 8 0.0699859 0 2 0.0699859 1
gene 2 3 8 -0.633279 0 3 -0.633279 1
gene 2 4 8 -2.01423 0 4 -2.01423 1
gene 1 5 8 1.59404 0 5 1.59404 1
gene 3 6 8 1.42746 0 6 1.42746 1
gene 3 7 8 -0.00557815 0 7 -0.00557815 1
genomeend 87

/* Organism #88 Fitness: 37 Error: 0 */
genomestart 88
trait 1 0.1 0 0 0 0 0 0 0 
trait 2 0.2 0 0 0 0 0 0 0 
trait 3 0.3 0 0 0 0 0 0 0 
node 1 2 1 1
node 2 2 1 1
node 3 1 1 1
node 4 2 1 1
node 5 1 1 1
node 6 3 1 1
node 7 3 1 3
node 8 3 0 2
gene 3 1 8 1.35962 0 1 1.35962 1
gene 1 2 8 1.06888 0 2 1.06888 1
gene 2 3 8 0.164565 0 3 0.164565 1
gene 2 4 8 1.84809 0 4 1.84809 1
gene 1 5 8 1.50605 0 5 1.50605 1
gene 1 6 8 0.94776 0 6 0.94776 1
gene 1 7 8 -0.213486 0 7 -0.213486 1
genomeend 88

/* Organism #89 Fitness: 42 Error: 0 */
genomestart 89
trait 1 0.1 0 0 0 0 0 0 0 
trait 2 0.2 0 0 0 0 0 0 0 
trait 3 0.3 0 0 0 0 0 0 0 
node 1 3 1 1
node 2 1 1 1
node 3 3 1 1
node 4 2 1 1
node 5 3 1 1
node 6 2 1 1
node 7 1 1 3
node 8 1 0 2
gene 2 1 8 -1.15925 0 1 -1.15925 1
gene 2 2 8 0.0699859 0 2 0.0699859 1
gene 2 3 8 2.35644 0 3 2.35644 1
gene 2 4 8 -0.646283 0 4 -0.646283 1
gene 3 5 8 0.376708 0 5 0.376708 1
gene 2 6 8 0.835016 0 6 0.835016 1
gene 3 7 8 -1.1362 0 7 -1.1362 1
genomeend 89

/* Organism #90 Fitness: 43 Error: 0 */
genomestart 90
trait 1 0.1 0 0 0 0 0 0 0 
trait 2 0.2 0 0 0 0 0 0 0 
trait 3 0.298723 0 0.0112826 0 0 0 0.0338824 0.105941 
node 1 3 1 1
node 2 1 1 1
node 3 1 1 1
node 4 1 1 1
node 5 3 1 1
node 6 2 1 1
node 7 2 1 3
node 8 1 0 2
gene 1 1 8 -2.89198 0 1 -2.89198 1
gene 2 2 8 -0.523216 0 2 -0.523216 1
gene 1 3 8 1.20392 0 3 1.20392 1
gene 2 4 8 -0.984872 0 4 -0.984872 1
gene 3 5 8 3.73307 0 5 3.73307 1
gene 1 6 8 1.27227 0 6 1.27227 1
gene 2 7 8 -2.61197 0 7 -2.61197 1
genomeend 90

/* Organism #91 Fitness: 80 Error: 0 */
genomestart 91
trait 1 0.1 0 0 0 0 0 0 0 
trait 2 0.2 0 0 0 0 0 0 0 
trait 3 0.3 0 0 0 0 0 0 0 
node 1 3 1 1
node 2 1 1 1
node 3 1 1 1
node 4 1 1 1
node 5 3 1 1
node 6 2 1 1
node 7 3 1 3
node 8 1 0 2
gene 2 1 8 -1.79649 0 1 -1.79649 1
gene 1 2 8 0.647275 0 2 0.647275 1
gene 2 3 8 -0.282258 0 3 -0.282258 1
gene 2 4 8 -3.52811 0 4 -3.52811 1
gene 1 5 8 1.39405 0 5 1.39405 1
gene 1 6 8 0.964612 0 6 0.964612 1
gene 3 7 8 -0.110191 0 7 -0.110191 1
genomeend 91

/* Organism #92 Fitness: 91 Error: 0 */
genomestart 92
trait 1 0.141457 0 0 0 0 0 0 0 
trait 2 0.2 0 0 0 0 0 0 0 
trait 3 0.3 0 0 0 0 0 0 0 
node 1 2 1 1
node 2 2 1 1
node 3 1 1 1
node 4 2 1 1
node 5 1 1 1
node 6 3 1 1
node 7 2 1 3
node 8 2 0 2
gene 1 1 8 -1.15818 0 1 -1.15818 1
gene 1 2 8 2.35522 0 2 2.35522 1
gene 2 3 8 -2.97911 0 3 -2.97911 1
gene 3 4 8 -2.06546 0 4 -2.06546 1
gene 1 5 8 3.47126 0 5 3.47126 1
gene 3 6 8 3.12112 0 6 3.12112 1
gene 3 7 8 0.046696 0 7 0.046696 1
genomeend 92

/* Organism #93 Fitness: 100 Error: 0 */
genomestart 93
trait 1 0.1 0 0 0 0 0 0 0 
trait 2 0.2 0 0 0 0 0 0 0 
trait 3 0.3 0 0 0 0 0 0 0 
node 1 2 1 1
node 2 2 1 1
node 3 1 1 1
node 4 2 1 1
node 5 1 1 1
node 6 3 1 1
node 7 3 1 3
node 8 3 0 2
node 20 1 0 0
gene 1 1 8 0.9807 0 1 0.9807 1
gene 1 2 8 -0.48662 0 2 -0.48662 0
gene 1 3 8 -2.43727 0 3 -2.43727 1
gene 2 4 8 -1.88966 0 4 -1.88966 1
gene 1 5 8 2.28525 0 5 2.28525 1
gene 1 6 8 0.857173 0 6 0.857173 1
gene 3 7 8 -0.193114 0 7 -0.193114 1
gene 1 2 20 1 0 31 0 1
gene 1 20 8 -0.48662 0 32 0 1
genomeend 93

/* Organism #94 Fitness: 80 Error: 0 */
genomestart 94
trait 1 0.1 0 0 0 0 0 0 0 
trait 2 0.2 0 0 0 0 0 0 0 
trait 3 0.3 0 0 0 0 0 0 0 
node 1 3 1 1
node 2 2 1 1
node 3 1 1 1
node 4 2 1 1
node 5 1 1 1
node 6 3 1 1
node 7 1 1 3
node 8 2 0 2
gene 3 1 8 1.30527 0 1 1.30527 1
gene 2 2 8 0.0634826 0 2 0.0634826 1
gene 3 3 8 0.712084 0 3 0.712084 1
gene 2 4 8 -1.87554 0 4 -1.87554 1
gene 2 5 8 1.40589 0 5 1.40589 1
gene 1 6 8 0.858029 0 6 0.858029 1
gene 1 7 8 -0.79325 0 7 -0.79325 1
genomeend 94

/* Species #2 : (Size 55) (AF 22.6727) (Age 2)  */


/* Organism #95 Fitness: 50 Error: 0 */
genomestart 95
trait 1 0.1 0 0 0 0 0 0 0 
trait 2 0.2 0 0 0 0 0 0 0 
trait 3 0.3 0 0 0 0 0 0 0 
node 1 2 1 1
node 2 3 1 1
node 3 3 1 1
node 4 1 1 1
node 5 2 1 1
node 6 1 1 1
node 7 2 1 3
node 8 2 0 2
node 12 1 0 0
gene 2 1 8 0.189866 0 1 0.189866 0
gene 2 2 8 0.616835 0 2 0.616835 1
gene 3 3 8 0.307578 0 3 0.307578 0
gene 2 4 8 -0.940602 0 4 -0.940602 1
gene 1 5 8 1.25641 0 5 1.25641 1
gene 1 6 8 0.245293 0 6 0.245293 1
gene 2 7 8 -0.289359 0 7 -0.289359 1
gene 2 1 12 1 0 14 0 1
gene 2 12 8 0.189866 0 15 0 1
gene 3 2 12 0.17653 0 24 0.17653 1
genomeend 95

/* Organism #96 Fitness: 7 Error: 0 */
genomestart 96
trait 1 0.1 0 0 0 0 0 0 0 
trait 2 0.2 0 0 0 0 0 0 0 
trait 3 0.3 0 0 0 0 0 0 0 
node 1 2 1 1
node 2 3 1 1
node 3 3 1 1
node 4 1 1 1
node 5 2 1 1
node 6 1 1 1
node 7 2 1 3
node 8 2 0 2
node 12 1 0 0
gene 2 1 8 0.196197 0 1 0.196197 0
gene 2 2 8 2.71936 0 2 2.71936 1
gene 3 3 8 -1.35669 0 3 -1.35669 0
gene 2 4 8 -1.40475 0 4 -1.40475 1
gene 1 5 8 0.565532 0 5 0.565532 1
gene 1 6 8 0.254072 0 6 0.254072 1
gene 2 7 8 0.645868 0 7 0.645868 1
gene 2 1 12 -0.203969 0 14 -0.203969 1
gene 2 12 8 -2.10632 0 15 -2.10632 1
gene 3 2 12 0.17653 0 24 0.17653 1
genomeend 96

/* Organism #97 Fitness: 5 Error: 0 */
genomestart 97
trait 1 0.1 0 0 0 0 0 0 0 
trait 2 0.2 0 0 0 0 0 0 0 
trait 3 0.3 0 0 0 0 0 0 0 
node 1 2 1 1
node 2 3 1 1
node 3 3 1 1
node 4 1 1 1
node 5 2 1 1
node 6 1 1 1
node 7 2 1 3
node 8 2 0 2
node 12 1 0 0
gene 2 1 8 0.472104 0 1 0.472104 0
gene 2 2 8 1.53415 0 2 1.53415 1
gene 3 3 8 1.23311 0 3 1.23311 0
gene 2 4 8 0.743863 0 4 0.743863 1
gene 1 5 8 2.53727 0 5 2.53727 1
gene 1 6 8 -2.20995 0 6 -2.20995 1
gene 2 7 8 -0.372583 0 7 -0.372583 1
gene 2 1 12 1.50818 0 14 1.50818 1
gene 2 12 8 -1.85312 0 15 -1.85312 1
gene 3 2 12 0.17653 0 24 0.17653 1
genomeend 97

/* Organism #98 Fitness: 5 Error: 0 */
genomestart 98
trait 1 0.1 0 0 0 0 0 0 0 
trait 2 0.2 0 0 0 0 0 0 0 
trait 3 0.3 0 0 0 0 0 0 0 
node 1 2 1 1
node 2 3 1 1
node 3 3 1 1
node 4 1 1 1
node 5 2 1 1
node 6 1 1 1
node 7 2 1 3
node 8 2 0 2
node 12 1 0 0
gene 2 1 8 1.12314 0 1 1.12314 0
gene 2 2 8 0.20719 0 2 0.20719 1
gene 3 3 8 -0.185291 0 3 -0.185291 0
gene 2 4 8 -1.91799 0 4 -1.91799 1
gene 1 5 8 -2.40303 0 5 -2.40303 1
gene 1 6 8 -1.70679 0 6 -1.70679 1
gene 2 7 8 -2.21275 0 7 -2.21275 1
gene 2 1 12 2.14423 0 14 2.14423 1
gene 2 12 8 1.94512 0 15 1.94512 1
gene 3 2 12 -2.05908 0 24 -2.05908 1
genomeend 98

/* Organism #99 Fitness: 49 Error: 0 */
genomestart 99
trait 1 0.1 0 0 0 0 0 0 0 
trait 2 0.2 0 0 0 0 0 0 0 
trait 3 0.3 0 0 0 0 0 0 0 
node 1 2 1 1
node 2 3 1 1
node 3 3 1 1
node 4 1 1 1
node 5 2 1 1
node 6 1 1 1
node 7 2 1 3
node 8 2 0 2
node 12 1 0 0
gene 2 1 8 0.189866 0 1 0.189866 0
gene 2 2 8 0.616835 0 2 0.616835 1
gene 3 3 8 0.307578 0 3 0.307578 0
gene 2 4 8 -0.940602 0 4 -0.940602 1
gene 1 5 8 1.25641 0 5 1.25641 1
gene 1 6 8 0.245293 0 6 0.245293 1
gene 2 7 8 -0.289359 0 7 -0.289359 1
gene 2 1 12 1 0 14 0 1
gene 2 12 8 0.189866 0 15 0 1
gene 3 2 12 0.17653 0 24 0.17653 1
gene 2 6 12 0.238947 0 33 0.238947 1
genomeend 99

/* Organism #100 Fitness: 5 Error: 0 */
genomestart 100
trait 1 0.1 0 0 0 0 0 0 0 
trait 2 0.2 0 0 0 0 0 0 0 
trait 3 0.3 0 0 0 0 0 0 0 
node 1 2 1 1
node 2 3 1 1
node 3 3 1 1
node 4 1 1 1
node 5 2 1 1
node 6 1 1 1
node 7 2 1 3
node 8 2 0 2
node 12 1 0 0
gene 2 1 8 -0.255345 0 1 -0.255345 0
gene 2 2 8 2.19844 0 2 2.19844 1
gene 3 3 8 2.52413 0 3 2.52413 0
gene 2 4 8 -1.18308 0 4 -1.18308 1
gene 1 5 8 -1.23077 0 5 -1.23077 1
gene 1 6 8 -1.47623 0 6 -1.47623 1
gene 2 7 8 -1.61749 0 7 -1.61749 1
gene 2 1 12 1.55861 0 14 1.55861 1
gene 2 12 8 -0.770922 0 15 -0.770922 1
gene 3 2 12 0.21892 0 24 0.21892 1
genomeend 100

/* Organism #101 Fitness: 29 Error: 0 */
genomestart 101
trait 1 0.1 0 0 0 0 0 0 0 
trait 2 0.2 0 0 0 0 0 0 0 
trait 3 0.3 0 0 0 0 0 0 0 
node 1 2 1 1
node 2 3 1 1
node 3 3 1 1
node 4 1 1 1
node 5 2 1 1
node 6 1 1 1
node 7 2 1 3
node 8 2 0 2
node 12 1 0 0
gene 2 1 8 -1.19435 0 1 -1.19435 0
gene 2 2 8 -0.759958 0 2 -0.759958 1
gene 3 3 8 0.512504 0 3 0.512504 0
gene 2 4 8 -3.30471 0 4 -3.30471 1
gene 1 5 8 1.25641 0 5 1.25641 1
gene 1 6 8 2.10418 0 6 2.10418 1
gene 2 7 8 1.03784 0 7 1.03784 1
gene 2 1 12 1.51207 0 14 1.51207 1
gene 2 12 8 0.249134 0 15 0.249134 1
gene 3 2 12 -1.18264 0 24 -1.18264 1
genomeend 101

/* Organism #102 Fitness: 5 Error: 0 */
genomestart 102
trait 1 0.1 0 0 0 0 0 0 0 
trait 2 0.2 0 0 0 0 0 0 0 
trait 3 0.3 0 0 0 0 0 0 0 
node 1 2 1 1
node 2 3 1 1
node 3 3 1 1
node 4 1 1 1
node 5 2 1 1
node 6 1 1 1
node 7 2 1 3
node 8 2 0 2
node 12 1 0 0
gene 2 1 8 -1.79335 0 1 -1.79335 0
gene 2 2 8 -0.0972268 0 2 -0.0972268 1
gene 3 3 8 1.03685 0 3 1.03685 0
gene 2 4 8 1.45072 0 4 1.45072 1
gene 1 5 8 2.74152 0 5 2.74152 1
gene 1 6 8 -1.75219 0 6 -1.75219 1
gene 2 7 8 -1.20556 0 7 -1.20556 1
gene 2 1 12 1.34117 0 14 1.34117 1
gene 2 12 8 0.959251 0 15 0.959251 1
gene 3 2 12 1.48345 0 24 1.48345 1
genomeend 102

/* Organism #103 Fitness: 6 Error: 0 */
genomestart 103
trait 1 0.1 0 0 0 0 0 0 0 
trait 2 0.2 0 0 0 0 0 0 0 
trait 3 0.3 0 0 0 0 0 0 0 
node 1 2 1 1
node 2 3 1 1
node 3 3 1 1
node 4 1 1 1
node 5 2 1 1
node 6 1 1 1
node 7 2 1 3
node 8 2 0 2
node 12 1 0 0
gene 2 1 8 1.59646 0 1 1.59646 0
gene 2 2 8 1.0609 0 2 1.0609 1
gene 3 3 8 0.670003 0 3 0.670003 0
gene 2 4 8 0.782274 0 4 0.782274 1
gene 1 5 8 0.514387 0 5 0.514387 1
gene 1 6 8 -0.650096 0 6 -0.650096 1
gene 2 7 8 -0.621403 0 7 -0.621403 1
gene 2 1 12 -1.09092 0 14 -1.09092 1
gene 2 12 8 1.18517 0 15 1.18517 1
gene 3 2 12 -1.26284 0 24 -1.26284 1
genomeend 103

/* Organism #104 Fitness: 5 Error: 0 */
genomestart 104
trait 1 0.1 0 0 0 0 0 0 0 
trait 2 0.2 0 0 0 0 0 0 0 
trait 3 0.3 0 0 0 0 0 0 0 
node 1 2 1 1
node 2 3 1 1
node 3 3 1 1
node 4 1 1 1
node 5 2 1 1
node 6 1 1 1
node 7 2 1 3
node 8 2 0 2
node 12 1 0 0
gene 2 1 8 2.16841 0 1 2.16841 0
gene 2 2 8 0.612087 0 2 0.612087 1
gene 3 3 8 -0.336791 0 3 -0.336791 0
gene 2 4 8 -1.14955 0 4 -1.14955 1
gene 1 5 8 -0.276166 0 5 -0.276166 1
gene 1 6 8 -1.06951 0 6 -1.06951 1
gene 2 7 8 -0.76117 0 7 -0.76117 1
gene 2 1 12 1 0 14 1 1
gene 2 12 8 0.342994 0 15 0.342994 1
gene 3 2 12 0.931162 0 24 0.931162 1
genomeend 104

/* Organism #105 Fitness: 57 Error: 0 */
genomestart 105
trait 1 0.1 0 0 0 0 0 0 0 
trait 2 0.2 0 0 0 0 0 0 0 
trait 3 0.3 0 0 0 0 0 0 0 
node 1 2 1 1
node 2 3 1 1
node 3 3 1 1
node 4 1 1 1
node 5 2 1 1
node 6 1 1 1
node 7 2 1 3
node 8 2 0 2
node 12 1 0 0
gene 2 1 8 1.97704 0 1 1.97704 0
gene 2 2 8 0.369628 0 2 0.369628 1
gene 3 3 8 -0.497494 0 3 -0.497494 0
gene 2 4 8 -1.736 0 4 -1.736 1
gene 1 5 8 2.87444 0 5 2.87444 1
gene 1 6 8 1.50403 0 6 1.50403 1
gene 2 7 8 -2.29025 0 7 -2.29025 1
gene 2 1 12 -1.44064 0 14 -1.44064 1
gene 2 12 8 1.82581 0 15 1.82581 1
gene 3 2 12 2.05968 0 24 2.05968 1
genomeend 105

/* Organism #106 Fitness: 28 Error: 0 */
genomestart 106
trait 1 0.1 0 0 0 0 0 0 0 
trait 2 0.2 0 0 0 0 0 0 0 
trait 3 0.3 0 0 0 0 0 0 0 
node 1 2 1 1
node 2 3 1 1
node 3 3 1 1
node 4 1 1 1
node 5 2 1 1
node 6 1 1 1
node 7 2 1 3
node 8 2 0 2
node 12 1 0 0
gene 2 1 8 0.510744 0 1 0.510744 0
gene 2 2 8 2.41903 0 2 2.41903 1
gene 3 3 8 -0.611632 0 3 -0.611632 0
gene 2 4 8 0.482164 0 4 0.482164 1
gene 1 5 8 2.08494 0 5 2.08494 1
gene 1 6 8 1.18528 0 6 1.18528 1
gene 2 7 8 2.16032 0 7 2.16032 1
gene 2 1 12 2.71279 0 14 2.71279 1
gene 2 12 8 -0.873942 0 15 -0.873942 1
gene 3 2 12 0.365999 0 24 0.365999 1
genomeend 106

/* Organism #107 Fitness: 30 Error: 0 */
genomestart 107
trait 1 0.1 0 0 0 0 0 0 0 
trait 2 0.2 0 0 0 0 0 0 0 
trait 3 0.3 0 0 0 0 0 0 0 
node 1 2 1 1
node 2 3 1 1
node 3 3 1 1
node 4 1 1 1
node 5 2 1 1
node 6 1 1 1
node 7 2 1 3
node 8 2 0 2
node 12 1 0 0
gene 2 1 8 -1.77671 0 1 -1.77671 0
gene 2 2 8 1.38926 0 2 1.38926 1
gene 3 3 8 -0.722099 0 3 -0.722099 0
gene 2 4 8 -0.0105775 0 4 -0.0105775 1
gene 1 5 8 1.96993 0 5 1.96993 1
gene 1 6 8 0.419137 0 6 0.419137 1
gene 2 7 8 1.02253 0 7 1.02253 1
gene 2 1 12 0.130858 0 14 0.130858 1
gene 2 12 8 -0.0697334 0 15 -0.0697334 1
gene 3 2 12 -1.32264 0 24 -1.32264 1
genomeend 107

/* Organism #108 Fitness: 5 Error: 0 */
genomestart 108
trait 1 0.1 0 0 0 0 0 0 0 
trait 2 0.2 0 0 0 0 0 0 0 
trait 3 0.3 0 0 0 0 0 0 0 
node 1 2 1 1
node 2 3 1 1
node 3 3 1 1
node 4 1 1 1
node 5 2 1 1
node 6 1 1 1
node 7 2 1 3
node 8 2 0 2
node 12 1 0 0
gene 2 1 8 0.0887486 0 1 0.0887486 0
gene 2 2 8 -1.99556 0 2 -1.99556 1
gene 3 3 8 -1.42277 0 3 -1.42277 0
gene 2 4 8 1.55977 0 4 1.55977 1
gene 1 5 8 0.0776211 0 5 0.0776211 1
gene 1 6 8 -1.76488 0 6 -1.76488 1
gene 2 7 8 0.491769 0 7 0.491769 1
gene 2 1 12 1.3288 0 14 1.3288 1
gene 2 12 8 0.148893 0 15 0.148893 1
gene 3 2 12 -2.19109 0 24 -2.19109 1
genomeend 108

/* Organism #109 Fitness: 5 Error: 0 */
genomestart 109
trait 1 0.1 0 0 0 0 0 0 0 
trait 2 0.2 0 0 0 0 0 0 0 
trait 3 0.3 0 0 0 0 0 0 0 
node 1 2 1 1
node 2 3 1 1
node 3 3 1 1
node 4 1 1 1
node 5 2 1 1
node 6 1 1 1
node 7 2 1 3
node 8 2 0 2
node 12 1 0 0
gene 1 1 8 2.32616 0 1 2.32616 0
gene 2 2 8 -1.64646 0 2 -1.64646 1
gene 3 3 8 2.73517 0 3 2.73517 0
gene 2 4 8 -2.19699 0 4 -2.19699 1
gene 1 5 8 -0.148872 0 5 -0.148872 1
gene 1 6 8 -1.09637 0 6 -1.09637 1
gene 2 7 8 0.970317 0 7 0.970317 1
gene 2 1 12 0.891285 0 14 0.891285 1
gene 2 12 8 -0.317334 0 15 -0.317334 1
gene 3 2 12 -0.520891 0 24 -0.520891 1
genomeend 109

/* Organism #110 Fitness: 5 Error: 0 */
genomestart 110
trait 1 0.1 0 0 0 0 0 0 0 
trait 2 0.2 0 0 0 0 0 0 0 
trait 3 0.3 0 0 0 0 0 0 0 
node 1 2 1 1
node 2 3 1 1
node 3 3 1 1
node 4 1 1 1
node 5 2 1 1
node 6 1 1 1
node 7 2 1 3
node 8 2 0 2
node 12 1 0 0
gene 2 1 8 1.29077 0 1 1.29077 0
gene 2 2 8 -0.467908 0 2 -0.467908 1
gene 3 3 8 1.75701 0 3 1.75701 0
gene 2 4 8 -3.42654 0 4 -3.42654 1
gene 1 5 8 1.25641 0 5 1.25641 1
gene 1 6 8 -1.54616 0 6 -1.54616 1
gene 2 7 8 0.850569 0 7 0.850569 1
gene 2 1 12 3.04598 0 14 3.04598 1
gene 2 12 8 2.57772 0 15 2.57772 1
gene 3 2 12 0.0192085 0 24 0.0192085 1
genomeend 110

/* Organism #111 Fitness: 6 Error: 0 */
genomestart 111
trait 1 0.1 0 0 0 0 0 0 0 
trait 2 0.2 0 0 0 0 0 0 0 
trait 3 0.3 0 0 0 0 0 0 0 
node 1 2 1 1
node 2 3 1 1
node 3 3 1 1
node 4 1 1 1
node 5 2 1 1
node 6 1 1 1
node 7 2 1 3
node 8 2 0 2
node 12 1 0 0
gene 2 1 8 -2.28899 0 1 -2.28899 0
gene 2 2 8 0.616835 0 2 0.616835 1
gene 3 3 8 -1.55869 0 3 -1.55869 0
gene 2 4 8 -1.00659 0 4 -1.00659 1
gene 1 5 8 0.240131 0 5 0.240131 1
gene 1 6 8 0.177186 0 6 0.177186 1
gene 2 7 8 0.947079 0 7 0.947079 1
gene 2 1 12 0.383183 0 14 0.383183 1
gene 2 12 8 0.189866 0 15 0.189866 1
gene 3 2 12 0.17653 0 24 0.17653 1
genomeend 111

/* Organism #112 Fitness: 5 Error: 0 */
genomestart 112
trait 1 0.1 0 0 0 0 0 0 0 
trait 2 0.2 0 0 0 0 0 0 0 
trait 3 0.3 0 0 0 0 0 0 0 
node 1 2 1 1
node 2 3 1 1
node 3 3 1 1
node 4 1 1 1
node 5 2 1 1
node 6 1 1 1
node 7 2 1 3
node 8 2 0 2
node 12 1 0 0
gene 2 1 8 1.09509 0 1 1.09509 0
gene 2 2 8 1.26189 0 2 1.26189 1
gene 3 3 8 -1.09069 0 3 -1.09069 0
gene 2 4 8 -2.1206 0 4 -2.1206 1
gene 1 5 8 3.41187 0 5 3.41187 1
gene 1 6 8 -1.11546 0 6 -1.11546 1
gene 2 7 8 1.0747 0 7 1.0747 1
gene 2 1 12 -0.718639 0 14 -0.718639 1
gene 2 12 8 1.31131 0 15 1.31131 1
gene 3 2 12 -1.7665 0 24 -1.7665 1
genomeend 112

/* Organism #113 Fitness: 5 Error: 0 */
genomestart 113
trait 1 0.1 0 0 0 0 0 0 0 
trait 2 0.2 0 0 0 0 0 0 0 
trait 3 0.3 0 0 0 0 0 0 0 
node 1 2 1 1
node 2 3 1 1
node 3 3 1 1
node 4 1 1 1
node 5 2 1 1
node 6 1 1 1
node 7 2 1 3
node 8 2 0 2
node 12 1 0 0
gene 2 1 8 2.04338 0 1 2.04338 0
gene 2 2 8 2.49 0 2 2.49 1
gene 3 3 8 0.307578 0 3 0.307578 0
gene 2 4 8 -3.33515 0 4 -3.33515 1
gene 1 5 8 3.07919 0 5 3.07919 1
gene 1 6 8 -2.12206 0 6 -2.12206 1
gene 2 7 8 -1.39019 0 7 -1.39019 1
gene 2 1 12 -0.232567 0 14 -0.232567 1
gene 2 12 8 0.188514 0 15 0.188514 1
gene 3 2 12 -2.30326 0 24 -2.30326 1
genomeend 113

/* Organism #114 Fitness: 5 Error: 0 */
genomestart 114
trait 1 0.1 0 0 0 0 0 0 0 
trait 2 0.2 0 0 0 0 0 0 0 
trait 3 0.3 0 0 0 0 0 0 0 
node 1 2 1 1
node 2 3 1 1
node 3 3 1 1
node 4 1 1 1
node 5 2 1 1
node 6 1 1 1
node 7 2 1 3
node 8 2 0 2
node 12 1 0 0
gene 2 1 8 1.4634 0 1 1.4634 0
gene 2 2 8 0.337039 0 2 0.337039 1
gene 3 3 8 -0.147068 0 3 -0.147068 0
gene 2 4 8 0.012869 0 4 0.012869 1
gene 1 5 8 1.16208 0 5 1.16208 1
gene 1 6 8 -1.29979 0 6 -1.29979 1
gene 2 7 8 0.768261 0 7 0.768261 1
gene 2 1 12 -0.371502 0 14 -0.371502 1
gene 2 12 8 2.39009 0 15 2.39009 1
gene 3 2 12 2.48002 0 24 2.48002 1
genomeend 114

/* Organism #115 Fitness: 11 Error: 0 */
genomestart 115
trait 1 0.1 0 0 0 0 0 0 0 
trait 2 0.2 0 0 0 0 0 0 0 
trait 3 0.3 0 0 0 0 0 0 0 
node 1 2 1 1
node 2 3 1 1
node 3 3 1 1
node 4 1 1 1
node 5 2 1 1
node 6 1 1 1
node 7 2 1 3
node 8 2 0 2
node 12 1 0 0
gene 2 1 8 2.27416 0 1 2.27416 0
gene 2 2 8 -1.78443 0 2 -1.78443 1
gene 3 3 8 1.26647 0 3 1.26647 0
gene 2 4 8 -0.617127 0 4 -0.617127 1
gene 1 5 8 -0.764722 0 5 -0.764722 1
gene 1 6 8 1.15958 0 6 1.15958 1
gene 2 7 8 1.77369 0 7 1.77369 1
gene 2 1 12 -0.166449 0 14 -0.166449 1
gene 2 12 8 0.597676 0 15 0.597676 1
gene 3 2 12 0.87829 0 24 0.87829 1
genomeend 115

/* Organism #116 Fitness: 43 Error: 0 */
genomestart 116
trait 1 0.1 0 0 0 0 0 0 0 
trait 2 0.2 0 0 0 0 0 0 0 
trait 3 0.3 0 0 0 0 0 0 0 
node 1 2 1 1
node 2 3 1 1
node 3 3 1 1
node 4 1 1 1
node 5 2 1 1
node 6 1 1 1
node 7 2 1 3
node 8 2 0 2
node 12 1 0 0
gene 2 1 8 -0.769245 0 1 -0.769245 0
gene 2 2 8 0.616835 0 2 0.616835 1
gene 3 3 8 0.0853168 0 3 0.0853168 0
gene 2 4 8 -2.17098 0 4 -2.17098 1
gene 1 5 8 1.76208 0 5 1.76208 1
gene 1 6 8 1.50159 0 6 1.50159 1
gene 2 7 8 1.78606 0 7 1.78606 1
gene 2 1 12 2.8447 0 14 2.8447 1
gene 2 12 8 -1.8046 0 15 -1.8046 1
gene 3 2 12 -0.0468617 0 24 -0.0468617 1
genomeend 116

/* Organism #117 Fitness: 5 Error: 0 */
genomestart 117
trait 1 0.1 0 0 0 0 0 0 0 
trait 2 0.2 0 0.132638 0 0 0 0 0.185579 
trait 3 0.3 0 0 0 0 0 0 0 
node 1 2 1 1
node 2 3 1 1
node 3 3 1 1
node 4 1 1 1
node 5 2 1 1
node 6 1 1 1
node 7 2 1 3
node 8 2 0 2
node 12 1 0 0
gene 2 1 8 1.25217 0 1 1.25217 0
gene 2 2 8 1.61425 0 2 1.61425 1
gene 3 3 8 1.00319 0 3 1.00319 0
gene 2 4 8 0.224653 0 4 0.224653 1
gene 1 5 8 2.92387 0 5 2.92387 1
gene 1 6 8 -2.3111 0 6 -2.3111 1
gene 2 7 8 -1.01282 0 7 -1.01282 1
gene 2 1 12 3.15511 0 14 3.15511 1
gene 2 12 8 -2.19782 0 15 -2.19782 1
gene 3 2 12 -0.294658 0 24 -0.294658 1
genomeend 117

/* Organism #118 Fitness: 5 Error: 0 */
genomestart 118
trait 1 0.1 0 0 0 0 0 0 0 
trait 2 0.2 0 0 0 0 0 0 0 
trait 3 0.3 0 0 0 0 0 0 0 
node 1 2 1 1
node 2 3 1 1
node 3 3 1 1
node 4 1 1 1
node 5 2 1 1
node 6 1 1 1
node 7 2 1 3
node 8 2 0 2
node 12 1 0 0
gene 2 1 8 0.189866 0 1 0.189866 0
gene 2 2 8 2.109 0 2 2.109 1
gene 3 3 8 0.0947096 0 3 0.0947096 0
gene 2 4 8 -2.60105 0 4 -2.60105 1
gene 1 5 8 -1.34584 0 5 -1.34584 1
gene 1 6 8 0.720831 0 6 0.720831 1
gene 2 7 8 -1.6381 0 7 -1.6381 1
gene 2 1 12 1.36297 0 14 1.36297 1
gene 2 12 8 -1.89539 0 15 -1.89539 1
gene 3 2 12 1.48727 0 24 1.48727 1
genomeend 118

/* Organism #119 Fitness: 50 Error: 0 */
genomestart 119
trait 1 0.1 0 0 0 0 0 0 0 
trait 2 0.2 0 0 0 0 0 0 0 
trait 3 0.3 0 0 0 0 0 0 0 
node 1 2 1 1
node 2 3 1 1
node 3 3 1 1
node 4 1 1 1
node 5 2 1 1
node 6 1 1 1
node 7 2 1 3
node 8 2 0 2
node 12 1 0 0
gene 2 1 8 0.189866 0 1 0.189866 0
gene 2 2 8 0.616835 0 2 0.616835 1
gene 3 3 8 0.307578 0 3 0.307578 0
gene 2 4 8 -0.940602 0 4 -0.940602 1
gene 1 5 8 1.25641 0 5 1.25641 1
gene 1 6 8 0.245293 0 6 0.245293 1
gene 2 7 8 -0.289359 0 7 -0.289359 1
gene 2 1 12 1 0 14 0 1
gene 2 12 8 0.189866 0 15 0 1
gene 3 2 12 0.17653 0 24 0.17653 1
genomeend 119

/* Organism #120 Fitness: 22 Error: 0 */
genomestart 120
trait 1 0.1 0 0 0 0 0 0 0 
trait 2 0.2 0 0 0 0 0 0 0 
trait 3 0.3 0 0 0 0 0 0 0 
node 1 2 1 1
node 2 3 1 1
node 3 3 1 1
node 4 1 1 1
node 5 2 1 1
node 6 1 1 1
node 7 2 1 3
node 8 2 0 2
node 12 1 0 0
gene 2 1 8 -2.24193 0 1 -2.24193 0
gene 2 2 8 -0.510892 0 2 -0.510892 1
gene 3 3 8 1.25361 0 3 1.25361 0
gene 2 4 8 0.02654 0 4 0.02654 1
gene 1 5 8 0.807958 0 5 0.807958 1
gene 1 6 8 0.0793011 0 6 0.0793011 1
gene 2 7 8 0.672457 0 7 0.672457 1
gene 2 1 12 1.01256 0 14 1.01256 1
gene 2 12 8 -0.0832628 0 15 -0.0832628 1
gene 3 2 12 0.17653 0 24 0.17653 1
genomeend 120

/* Organism #121 Fitness: 6 Error: 0 */
genomestart 121
trait 1 0.1 0 0 0 0 0 0 0 
trait 2 0.2 0 0 0 0 0 0 0 
trait 3 0.3 0 0 0 0 0 0 0 
node 1 2 1 1
node 2 1 1 1
node 3 3 1 1
node 4 1 1 1
node 5 2 1 1
node 6 1 1 1
node 7 2 1 3
node 8 2 0 2
node 12 1 0 0
gene 2 1 8 -1.4601 0 1 -1.4601 0
gene 2 2 8 -0.374464 0 2 -0.374464 1
gene 3 3 8 1.38442 0 3 1.38442 0
gene 2 4 8 1.2202 0 4 1.2202 1
gene 1 5 8 3.69034 0 5 3.69034 1
gene 1 6 8 -1.08949 0 6 -1.08949 1
gene 2 7 8 -0.153581 0 7 -0.153581 1
gene 2 1 12 1.08211 0 14 1.08211 1
gene 2 12 8 0.189866 0 15 0.189866 1
gene 3 2 12 -1.7458 0 24 -1.7458 1
genomeend 121

/* Organism #122 Fitness: 50 Error: 0 */
genomestart 122
trait 1 0.1 0 0 0 0 0 0 0 
trait 2 0.2 0 0 0 0 0 0 0 
trait 3 0.3 0 0 0 0 0 0 0 
node 1 2 1 1
node 2 3 1 1
node 3 3 1 1
node 4 1 1 1
node 5 1 1 1
node 6 1 1 1
node 7 2 1 3
node 8 2 0 2
node 12 1 0 0
gene 2 1 8 0.189866 0 1 0.189866 0
gene 2 2 8 0.616835 0 2 0.616835 1
gene 3 3 8 0.307578 0 3 0.307578 0
gene 2 4 8 -0.940602 0 4 -0.940602 1
gene 1 5 8 1.25641 0 5 1.25641 1
gene 1 6 8 0.245293 0 6 0.245293 1
gene 2 7 8 -0.289359 0 7 -0.289359 1
gene 2 1 12 1 0 14 0 1
gene 2 12 8 0.189866 0 15 0 1
gene 3 2 12 0.17653 0 24 0.17653 1
genomeend 122

/* Organism #123 Fitness: 46 Error: 0 */
genomestart 123
trait 1 0.1 0 0 0 0 0 0 0 
trait 2 0.2 0 0 0 0 0 0 0 
trait 3 0.3 0 0 0 0 0 0 0 
node 1 2 1 1
node 2 3 1 1
node 3 3 1 1
node 4 1 1 1
node 5 2 1 1
node 6 1 1 1
node 7 2 1 3
node 8 2 0 2
node 12 1 0 0
gene 2 1 8 -1.98013 0 1 -1.98013 0
gene 2 2 8 -1.59862 0 2 -1.59862 1
gene 3 3 8 1.55247 0 3 1.55247 0
gene 2 4 8 -1.92428 0 4 -1.92428 1
gene 1 5 8 2.35139 0 5 2.35139 1
gene 1 6 8 1.58781 0 6 1.58781 1
gene 2 7 8 -1.54021 0 7 -1.54021 1
gene 2 1 12 -0.0931205 0 14 -0.0931205 1
gene 2 12 8 2.27017 0 15 2.27017 1
gene 3 2 12 1.083 0 24 1.083 1
genomeend 123

/* Organism #124 Fitness: 90 Error: 0 */
genomestart 124
trait 1 0.1 0 0 0 0 0 0 0 
trait 2 0.2 0 0 0 0 0 0 0 
trait 3 0.3 0 0 0 0 0 0 0 
node 1 2 1 1
node 2 3 1 1
node 3 3 1 1
node 4 1 1 1
node 5 2 1 1
node 6 1 1 1
node 7 2 1 3
node 8 2 0 2
node 12 1 0 0
gene 2 1 8 0.436914 0 1 0.436914 0
gene 2 2 8 -1.97553 0 2 -1.97553 1
gene 3 3 8 1.89615 0 3 1.89615 0
gene 2 4 8 -1.28919 0 4 -1.28919 1
gene 1 5 8 1.25641 0 5 1.25641 1
gene 1 6 8 1.09482 0 6 1.09482 1
gene 2 7 8 -1.5896 0 7 -1.5896 1
gene 2 1 12 2.42096 0 14 2.42096 1
gene 2 12 8 1.447 0 15 1.447 1
gene 3 2 12 2.51473 0 24 2.51473 1
genomeend 124

/* Organism #125 Fitness: 27 Error: 0 */
genomestart 125
trait 1 0.1 0 0 0 0 0 0 0 
trait 2 0.2 0 0 0 0 0 0 0 
trait 3 0.3 0 0 0 0 0 0 0 
node 1 2 1 1
node 2 3 1 1
node 3 3 1 1
node 4 1 1 1
node 5 2 1 1
node 6 1 1 1
node 7 2 1 3
node 8 2 0 2
node 12 1 0 0
gene 2 1 8 0.914448 0 1 0.914448 0
gene 2 2 8 1.54254 0 2 1.54254 1
gene 3 3 8 -2.48291 0 3 -2.48291 0
gene 2 4 8 0.929375 0 4 0.929375 1
gene 1 5 8 2.65651 0 5 2.65651 1
gene 1 6 8 1.09045 0 6 1.09045 1
gene 2 7 8 1.9994 0 7 1.9994 1
gene 2 1 12 1.4794 0 14 1.4794 1
gene 2 12 8 0.0442913 0 15 0.0442913 1
gene 3 2 12 -0.400321 0 24 -0.400321 1
genomeend 125

/* Organism #126 Fitness: 5 Error: 0 */
genomestart 126
trait 1 0.1 0 0 0 0 0 0 0 
trait 2 0.2 0 0 0 0 0 0 0 
trait 3 0.3 0 0 0 0 0 0 0 
node 1 2 1 1
node 2 3 1 1
node 3 3 1 1
node 4 1 1 1
node 5 2 1 1
node 6 1 1 1
node 7 2 1 3
node 8 2 0 2
node 12 1 0 0
gene 2 1 8 -0.361867 0 1 -0.361867 0
gene 2 2 8 1.8072 0 2 1.8072 1
gene 3 3 8 0.373757 0 3 0.373757 0
gene 2 4 8 -3.42736 0 4 -3.42736 1
gene 1 5 8 0.752 0 5 0.752 1
gene 1 6 8 -1.42391 0 6 -1.42391 1
gene 2 7 8 0.43588 0 7 0.43588 1
gene 2 1 12 0.665062 0 14 0.665062 1
gene 2 12 8 0.0630215 0 15 0.0630215 1
gene 3 2 12 1.49374 0 24 1.49374 1
genomeend 126

/* Organism #127 Fitness: 45 Error: 0 */
genomestart 127
trait 1 0.1 0 0 0 0 0 0 0 
trait 2 0.2 0 0 0 0 0 0 0 
trait 3 0.3 0 0 0 0 0 0 0 
node 1 2 1 1
node 2 3 1 1
node 3 3 1 1
node 4 1 1 1
node 5 2 1 1
node 6 1 1 1
node 7 2 1 3
node 8 2 0 2
node 12 1 0 0
gene 2 1 8 2.06128 0 1 2.06128 0
gene 2 2 8 1.41776 0 2 1.41776 1
gene 3 3 8 0.676389 0 3 0.676389 0
gene 2 4 8 -0.492898 0 4 -0.492898 1
gene 1 5 8 1.61958 0 5 1.61958 1
gene 1 6 8 1.92468 0 6 1.92468 1
gene 2 7 8 -0.448506 0 7 -0.448506 1
gene 2 1 12 1.13662 0 14 1.13662 1
gene 2 12 8 -1.07379 0 15 -1.07379 1
gene 3 2 12 0.17653 0 24 0.17653 1
genomeend 127

/* Organism #128 Fitness: 6 Error: 0 */
genomestart 128
trait 1 0.1 0 0 0 0 0 0 0 
trait 2 0.2 0 0 0 0 0 0 0 
trait 3 0.3 0 0 0 0 0 0 0 
node 1 2 1 1
node 2 3 1 1
node 3 3 1 1
node 4 1 1 1
node 5 2 1 1
node 6 1 1 1
node 7 2 1 3
node 8 2 0 2
node 12 1 0 0
gene 2 1 8 -2.14306 0 1 -2.14306 0
gene 2 2 8 2.28792 0 2 2.28792 1
gene 3 3 8 -1.52266 0 3 -1.52266 0
gene 2 4 8 -1.3224 0 4 -1.3224 1
gene 1 5 8 -0.305875 0 5 -0.305875 1
gene 1 6 8 -0.395182 0 6 -0.395182 1
gene 2 7 8 -0.289359 0 7 -0.289359 1
gene 2 1 12 2.41153 0 14 2.41153 1
gene 2 12 8 -1.60903 0 15 -1.60903 1
gene 3 2 12 -0.179405 0 24 -0.179405 1
genomeend 128

/* Organism #129 Fitness: 5 Error: 0 */
genomestart 129
trait 1 0.1 0 0 0 0 0 0 0 
trait 2 0.2 0 0 0 0 0 0 0 
trait 3 0.3 0 0 0 0 0 0 0 
node 1 2 1 1
node 2 3 1 1
node 3 3 1 1
node 4 1 1 1
node 5 2 1 1
node 6 1 1 1
node 7 2 1 3
node 8 2 0 2
node 12 1 0 0
gene 2 1 8 0.896377 0 1 0.896377 0
gene 2 2 8 2.67747 0 2 2.67747 1
gene 3 3 8 -1.11773 0 3 -1.11773 0
gene 2 4 8 -0.192053 0 4 -0.192053 1
gene 1 5 8 -0.21218 0 5 -0.21218 1
gene 1 6 8 -1.5517 0 6 -1.5517 1
gene 2 7 8 2.07617 0 7 2.07617 1
gene 2 1 12 0.233844 0 14 0.233844 1
gene 2 12 8 -0.00706624 0 15 -0.00706624 1
gene 3 2 12 2.4341 0 24 2.4341 1
genomeend 129

/* Organism #130 Fitness: 25 Error: 0 */
genomestart 130
trait 1 0.1 0 0 0 0 0 0 0 
trait 2 0.2 0 0 0 0 0 0 0 
trait 3 0.3 0 0 0 0 0 0 0 
node 1 2 1 1
node 2 3 1 1
node 3 3 1 1
node 4 1 1 1
node 5 2 1 1
node 6 1 1 1
node 7 2 1 3
node 8 2 0 2
node 12 1 0 0
gene 2 1 8 1.7203 0 1 1.7203 0
gene 2 2 8 2.17804 0 2 2.17804 1
gene 3 3 8 -1.11916 0 3 -1.11916 0
gene 2 4 8 -1.44499 0 4 -1.44499 1
gene 1 5 8 2.06454 0 5 2.06454 1
gene 1 6 8 1.60526 0 6 1.60526 1
gene 2 7 8 0.528277 0 7 0.528277 1
gene 2 1 12 2.70061 0 14 2.70061 1
gene 2 12 8 2.64105 0 15 2.64105 1
gene 3 2 12 0.382193 0 24 0.382193 1
genomeend 130

/* Organism #131 Fitness: 29 Error: 0 */
genomestart 131
trait 1 0.1 0 0 0 0 0 0 0 
trait 2 0.2 0 0 0 0 0 0 0 
trait 3 0.3 0 0 0 0 0 0 0 
node 1 2 1 1
node 2 3 1 1
node 3 3 1 1
node 4 1 1 1
node 5 2 1 1
node 6 1 1 1
node 7 2 1 3
node 8 2 0 2
node 12 1 0 0
gene 2 1 8 1.46939 0 1 1.46939 0
gene 2 2 8 0.525664 0 2 0.525664 1
gene 3 3 8 -1.46591 0 3 -1.46591 0
gene 2 4 8 0.947548 0 4 0.947548 1
gene 1 5 8 0.813624 0 5 0.813624 1
gene 1 6 8 1.71867 0 6 1.71867 1
gene 2 7 8 -0.982302 0 7 -0.982302 1
gene 2 1 12 0.96651 0 14 0.96651 1
gene 2 12 8 1.72815 0 15 1.72815 1
gene 3 2 12 -1.62946 0 24 -1.62946 1
genomeend 131

/* Organism #132 Fitness: 5 Error: 0 */
genomestart 132
trait 1 0.1 0 0 0 0 0 0 0 
trait 2 0.2 0 0 0 0 0 0 0 
trait 3 0.3 0 0 0 0 0 0 0 
node 1 2 1 1
node 2 3 1 1
node 3 3 1 1
node 4 1 1 1
node 5 2 1 1
node 6 1 1 1
node 7 2 1 3
node 8 2 0 2
node 12 1 0 0
gene 2 1 8 0.0695803 0 1 0.0695803 0
gene 2 2 8 1.55281 0 2 1.55281 1
gene 3 3 8 1.17524 0 3 1.17524 0
gene 2 4 8 -0.489598 0 4 -0.489598 1
gene 2 5 8 1.30378 0 5 1.30378 1
gene 1 6 8 -1.47607 0 6 -1.47607 1
gene 2 7 8 1.29736 0 7 1.29736 1
gene 2 1 12 -1.47531 0 14 -1.47531 1
gene 2 12 8 -2.11339 0 15 -2.11339 1
gene 3 2 12 0.17653 0 24 0.17653 1
genomeend 132

/* Organism #133 Fitness: 35 Error: 0 */
genomestart 133
trait 1 0.1 0 0 0 0 0 0 0 
trait 2 0.2 0 0 0 0 0 0 0 
trait 3 0.3 0 0 0 0 0 0 0 
node 1 2 1 1
node 2 3 1 1
node 3 3 1 1
node 4 1 1 1
node 5 1 1 1
node 6 1 1 1
node 7 2 1 3
node 8 2 0 2
node 12 1 0 0
gene 2 1 8 -0.687164 0 1 -0.687164 0
gene 2 2 8 0.310169 0 2 0.310169 1
gene 3 3 8 -0.079791 0 3 -0.079791 0
gene 2 4 8 -1.63798 0 4 -1.63798 1
gene 1 5 8 -0.500637 0 5 -0.500637 1
gene 1 6 8 1.48516 0 6 1.48516 1
gene 2 7 8 0.159203 0 7 0.159203 1
gene 2 1 12 1.93973 0 14 1.93973 1
gene 2 12 8 -1.19158 0 15 -1.19158 1
gene 3 2 12 -0.314264 0 24 -0.314264 1
genomeend 133

/* Organism #134 Fitness: 9 Error: 0 */
genomestart 134
trait 1 0.1 0 0 0 0 0 0 0 
trait 2 0.2 0 0 0 0 0 0 0 
trait 3 0.3 0 0 0 0 0 0 0 
node 1 2 1 1
node 2 3 1 1
node 3 3 1 1
node 4 1 1 1
node 5 2 1 1
node 6 1 1 1
node 7 2 1 3
node 8 2 0 2
node 12 1 0 0
gene 2 1 8 2.68612 0 1 2.68612 0
gene 2 2 8 -0.608442 0 2 -0.608442 1
gene 3 3 8 1.52201 0 3 1.52201 0
gene 2 4 8 -0.895262 0 4 -0.895262 1
gene 1 5 8 0.960475 0 5 0.960475 1
gene 1 6 8 0.308736 0 6 0.308736 1
gene 2 7 8 -0.396128 0 7 -0.396128 1
gene 2 1 12 2.88131 0 14 2.88131 1
gene 2 12 8 -1.53117 0 15 -1.53117 1
gene 3 2 12 0.17653 0 24 0.17653 1
genomeend 134

/* Organism #135 Fitness: 50 Error: 0 */
genomestart 135
trait 1 0.1 0 0 0 0 0 0 0 
trait 2 0.2 0 0 0 0 0 0 0 
trait 3 0.3 0 0 0 0 0 0 0 
node 1 2 1 1
node 2 3 1 1
node 3 3 1 1
node 4 1 1 1
node 5 2 1 1
node 6 1 1 1
node 7 2 1 3
node 8 2 0 2
node 12 1 0 0
gene 2 1 8 0.189866 0 1 0.189866 0
gene 2 2 8 0.616835 0 2 0.616835 1
gene 3 3 8 0.307578 0 3 0.307578 0
gene 2 4 8 -0.940602 0 4 -0.940602 1
gene 1 5 8 1.25641 0 5 1.25641 1
gene 1 6 8 0.245293 0 6 0.245293 1
gene 2 7 8 -0.289359 0 7 -0.289359 1
gene 2 1 12 1 0 14 0 1
gene 2 12 8 0.189866 0 15 0 1
gene 3 2 12 0.17653 0 24 0.17653 1
genomeend 135

/* Organism #136 Fitness: 26 Error: 0 */
genomestart 136
trait 1 0.1 0 0 0 0 0 0 0 
trait 2 0.2 0 0 0 0 0 0 0 
trait 3 0.3 0 0 0 0 0 0 0 
node 1 2 1 1
node 2 3 1 1
node 3 3 1 1
node 4 1 1 1
node 5 2 1 1
node 6 1 1 1
node 7 2 1 3
node 8 2 0 2
node 12 1 0 0
gene 2 1 8 0.0263834 0 1 0.0263834 0
gene 2 2 8 1.74037 0 2 1.74037 1
gene 3 3 8 1.00368 0 3 1.00368 0
gene 2 4 8 -1.12532 0 4 -1.12532 1
gene 1 5 8 -1.2252 0 5 -1.2252 1
gene 1 6 8 2.48083 0 6 2.48083 1
gene 2 7 8 0.245397 0 7 0.245397 1
gene 2 1 12 -1.45006 0 14 -1.45006 1
gene 2 12 8 1.58487 0 15 1.58487 1
gene 3 2 12 0.157992 0 24 0.157992 1
genomeend 136

/* Organism #137 Fitness: 16 Error: 0 */
genomestart 137
trait 1 0.1 0 0 0 0 0 0 0 
trait 2 0.2 0 0 0 0 0 0 0 
trait 3 0.3 0 0 0 0 0 0 0 
node 1 2 1 1
node 2 3 1 1
node 3 3 1 1
node 4 1 1 1
node 5 2 1 1
node 6 1 1 1
node 7 2 1 3
node 8 2 0 2
node 12 1 0 0
node 19 1 0 0
gene 2 1 8 0.189866 0 1 0.189866 0
gene 2 2 8 0.616835 0 2 0.616835 1
gene 3 3 8 0.307578 0 3 0.307578 0
gene 2 4 8 -0.940602 0 4 -0.940602 1
gene 1 5 8 1.25641 0 5 1.25641 1
gene 1 6 8 0.245293 0 6 0.245293 0
gene 2 7 8 -0.289359 0 7 -0.289359 1
gene 2 1 12 1 0 14 0 1
gene 2 12 8 0.189866 0 15 0 1
gene 3 2 12 0.17653 0 24 0.17653 1
gene 1 6 19 1 0 29 0 1
gene 1 19 8 0.245293 0 30 0 1
genomeend 137

/* Organism #138 Fitness: 31 Error: 0 */
genomestart 138
trait 1 0.1 0 0 0 0 0 0 0 
trait 2 0.2 0 0 0 0 0 0 0 
trait 3 0.3 0 0 0 0 0 0 0 
node 1 2 1 1
node 2 3 1 1
node 3 3 1 1
node 4 1 1 1
node 5 2 1 1
node 6 1 1 1
node 7 2 1 3
node 8 2 0 2
node 12 1 0 0
gene 2 1 8 -2.10644 0 1 -2.10644 0
gene 2 2 8 -1.31851 0 2 -1.31851 1
gene 3 3 8 -0.96099 0 3 -0.96099 0
gene 2 4 8 0.441504 0 4 0.441504 1
gene 1 5 8 0.376246 0 5 0.376246 1
gene 1 6 8 0.245293 0 6 0.245293 1
gene 2 7 8 -0.289359 0 7 -0.289359 1
gene 2 1 12 1.4536 0 14 1.4536 1
gene 2 12 8 0.331683 0 15 0.331683 1
gene 3 2 12 1.38843 0 24 1.38843 1
genomeend 138

/* Organism #139 Fitness: 38 Error: 0 */
genomestart 139
trait 1 0.1 0 0 0 0 0 0 0 
trait 2 0.2 0 0 0 0 0 0 0 
trait 3 0.3 0 0 0 0 0 0 0 
node 1 2 1 1
node 2 3 1 1
node 3 3 1 1
node 4 1 1 1
node 5 2 1 1
node 6 1 1 1
node 7 2 1 3
node 8 2 0 2
node 12 1 0 0
gene 2 1 8 0.189866 0 1 0.189866 0
gene 2 2 8 0.616835 0 2 0.616835 1
gene 3 3 8 2.66159 0 3 2.66159 0
gene 2 4 8 1.45844 0 4 1.45844 1
gene 1 5 8 1.25641 0 5 1.25641 1
gene 1 6 8 0.72934 0 6 0.72934 1
gene 2 7 8 -1.13734 0 7 -1.13734 1
gene 2 1 12 2.58694 0 14 2.58694 1
gene 2 12 8 0.189866 0 15 0.189866 1
gene 3 2 12 1.56827 0 24 1.56827 1
genomeend 139

/* Organism #140 Fitness: 50 Error: 0 */
genomestart 140
trait 1 0.1 0 0 0 0 0 0 0 
trait 2 0.2 0 0 0 0 0 0 0 
trait 3 0.3 0 0 0 0 0 0 0 
node 1 2 1 1
node 2 3 1 1
node 3 3 1 1
node 4 1 1 1
node 5 2 1 1
node 6 1 1 1
node 7 2 1 3
node 8 2 0 2
node 12 1 0 0
gene 2 1 8 0.189866 0 1 0.189866 0
gene 2 2 8 0.616835 0 2 0.616835 1
gene 3 3 8 0.307578 0 3 0.307578 0
gene 2 4 8 -0.940602 0 4 -0.940602 1
gene 1 5 8 1.25641 0 5 1.25641 1
gene 1 6 8 0.245293 0 6 0.245293 1
gene 2 7 8 -0.289359 0 7 -0.289359 1
gene 2 1 12 1 0 14 0 1
gene 2 12 8 0.189866 0 15 0 1
gene 3 2 12 0.17653 0 24 0.17653 1
genomeend 140

/* Organism #141 Fitness: 5 Error: 0 */
genomestart 141
trait 1 0.1 0 0 0 0 0 0 0 
trait 2 0.2 0 0 0 0 0 0 0 
trait 3 0.3 0 0 0 0 0 0 0 
node 1 2 1 1
node 2 3 1 1
node 3 3 1 1
node 4 1 1 1
node 5 2 1 1
node 6 1 1 1
node 7 2 1 3
node 8 2 0 2
node 12 1 0 0
gene 2 1 8 -1.65837 0 1 -1.65837 0
gene 2 2 8 -0.921019 0 2 -0.921019 1
gene 3 3 8 -1.33931 0 3 -1.33931 0
gene 2 4 8 -1.95564 0 4 -1.95564 1
gene 1 5 8 0.131864 0 5 0.131864 1
gene 1 6 8 -0.202667 0 6 -0.202667 1
gene 2 7 8 -1.25909 0 7 -1.25909 1
gene 2 1 12 -0.0077838 0 14 -0.0077838 1
gene 2 12 8 0.398864 0 15 0.398864 1
gene 3 2 12 1.92338 0 24 1.92338 1
genomeend 141

/* Organism #142 Fitness: 31 Error: 0 */
genomestart 142
trait 1 0.1 0 0 0 0 0 0 0 
trait 2 0.2 0 0 0 0 0 0 0 
trait 3 0.3 0 0 0 0 0 0 0 
node 1 2 1 1
node 2 3 1 1
node 3 3 1 1
node 4 1 1 1
node 5 2 1 1
node 6 1 1 1
node 7 2 1 3
node 8 2 0 2
node 12 1 0 0
gene 2 1 8 2.14444 0 1 2.14444 0
gene 2 2 8 2.3836 0 2 2.3836 1
gene 3 3 8 0.544067 0 3 0.544067 0
gene 2 4 8 -1.34461 0 4 -1.34461 1
gene 1 5 8 1.13173 0 5 1.13173 1
gene 1 6 8 1.64957 0 6 1.64957 1
gene 2 7 8 -1.07664 0 7 -1.07664 1
gene 2 1 12 1.81718 0 14 1.81718 1
gene 2 12 8 -1.95545 0 15 -1.95545 1
gene 3 2 12 2.1993 0 24 2.1993 1
genomeend 142

/* Organism #143 Fitness: 5 Error: 0 */
genomestart 143
trait 1 0.1 0 0 0 0 0 0 0 
trait 2 0.2 0 0 0 0 0 0 0 
trait 3 0.3 0 0 0 0 0 0 0 
node 1 2 1 1
node 2 3 1 1
node 3 3 1 1
node 4 1 1 1
node 5 2 1 1
node 6 1 1 1
node 7 2 1 3
node 8 2 0 2
node 12 1 0 0
gene 2 1 8 2.66576 0 1 2.66576 0
gene 2 2 8 0.616835 0 2 0.616835 1
gene 3 3 8 2.06983 0 3 2.06983 0
gene 2 4 8 0.0894543 0 4 0.0894543 1
gene 1 5 8 0.77984 0 5 0.77984 1
gene 1 6 8 -1.43865 0 6 -1.43865 1
gene 2 7 8 0.608248 0 7 0.608248 1
gene 2 1 12 2.73242 0 14 2.73242 1
gene 2 12 8 -2.12335 0 15 -2.12335 1
gene 3 2 12 0.17653 0 24 0.17653 1
genomeend 143

/* Organism #144 Fitness: 45 Error: 0 */
genomestart 144
trait 1 0.1 0 0 0 0 0 0 0 
trait 2 0.2 0 0 0 0 0 0 0 
trait 3 0.3 0 0 0 0 0 0 0 
node 1 2 1 1
node 2 3 1 1
node 3 3 1 1
node 4 1 1 1
node 5 2 1 1
node 6 1 1 1
node 7 2 1 3
node 8 2 0 2
node 12 1 0 0
gene 2 1 8 -2.05255 0 1 -2.05255 0
gene 2 2 8 -1.26245 0 2 -1.26245 1
gene 3 3 8 1.15854 0 3 1.15854 0
gene 2 4 8 0.375638 0 4 0.375638 1
gene 1 5 8 2.85048 0 5 2.85048 1
gene 1 6 8 1.35482 0 6 1.35482 1
gene 2 7 8 -1.69455 0 7 -1.69455 1
gene 2 1 12 -0.607952 0 14 -0.607952 1
gene 2 12 8 2.19104 0 15 2.19104 1
gene 3 2 12 1.38046 0 24 1.38046 1
genomeend 144

/* Organism #145 Fitness: 13 Error: 0 */
genomestart 145
trait 1 0.1 0 0 0 0 0 0 0 
trait 2 0.2 0 0 0 0 0 0 0 
trait 3 0.3 0 0 0 0 0 0 0 
node 1 2 1 1
node 2 3 1 1
node 3 3 1 1
node 4 1 1 1
node 5 2 1 1
node 6 1 1 1
node 7 2 1 3
node 8 2 0 2
node 12 1 0 0
gene 2 1 8 2.53205 0 1 2.53205 0
gene 2 2 8 2.98236 0 2 2.98236 1
gene 3 3 8 -1.92561 0 3 -1.92561 0
gene 2 4 8 -0.0186349 0 4 -0.0186349 1
gene 1 5 8 -0.147773 0 5 -0.147773 1
gene 1 6 8 0.654132 0 6 0.654132 1
gene 2 7 8 -0.15889 0 7 -0.15889 1
gene 2 1 12 -0.316712 0 14 -0.316712 1
gene 2 12 8 1.63197 0 15 1.63197 1
gene 3 2 12 -1.30762 0 24 -1.30762 1
genomeend 145

/* Organism #146 Fitness: 50 Error: 0 */
genomestart 146
trait 1 0.1 0 0 0 0 0 0 0 
trait 2 0.2 0 0 0 0 0 0 0 
trait 3 0.3 0 0 0 0 0 0 0 
node 1 2 1 1
node 2 3 1 1
node 3 3 1 1
node 4 1 1 1
node 5 2 1 1
node 6 1 1 1
node 7 2 1 3
node 8 2 0 2
node 12 1 0 0
gene 2 1 8 0.189866 0 1 0.189866 0
gene 2 2 8 0.616835 0 2 0.616835 1
gene 3 3 8 0.307578 0 3 0.307578 0
gene 2 4 8 -0.940602 0 4 -0.940602 1
gene 1 5 8 1.25641 0 5 1.25641 1
gene 1 6 8 0.245293 0 6 0.245293 1
gene 2 7 8 -0.289359 0 7 -0.289359 1
gene 2 1 12 1 0 14 0 1
gene 2 12 8 0.189866 0 15 0 1
gene 3 2 12 0.17653 0 24 0.17653 1
genomeend 146

/* Organism #147 Fitness: 6 Error: 0 */
genomestart 147
trait 1 0.1 0 0 0 0 0 0 0 
trait 2 0.2 0 0 0 0 0 0 0 
trait 3 0.3 0 0 0 0 0 0 0 
node 1 2 1 1
node 2 3 1 1
node 3 3 1 1
node 4 1 1 1
node 5 2 1 1
node 6 1 1 1
node 7 2 1 3
node 8 2 0 2
node 12 1 0 0
gene 2 1 8 -2.46052 0 1 -2.46052 0
gene 2 2 8 1.73625 0 2 1.73625 1
gene 3 3 8 -1.26393 0 3 -1.26393 0
gene 2 4 8 0.931478 0 4 0.931478 1
gene 1 5 8 3.30824 0 5 3.30824 1
gene 1 6 8 -0.40825 0 6 -0.40825 1
gene 2 7 8 0.238475 0 7 0.238475 1
gene 2 1 12 -1.30613 0 14 -1.30613 1
gene 2 12 8 -1.94355 0 15 -1.94355 1
gene 3 2 12 1.88797 0 24 1.88797 1
genomeend 147

/* Organism #148 Fitness: 5 Error: 0 */
genomestart 148
trait 1 0.1 0 0 0 0 0 0 0 
trait 2 0.2 0 0 0 0 0 0 0 
trait 3 0.3 0 0 0 0 0 0 0 
node 1 2 1 1
node 2 3 1 1
node 3 3 1 1
node 4 1 1 1
node 5 2 1 1
node 6 1 1 1
node 7 2 1 3
node 8 2 0 2
node 12 1 0 0
gene 2 1 8 -0.378427 0 1 -0.378427 0
gene 2 2 8 0.616835 0 2 0.616835 1
gene 3 3 8 -1.65116 0 3 -1.65116 0
gene 2 4 8 -2.56753 0 4 -2.56753 1
gene 1 5 8 -0.0309773 0 5 -0.0309773 1
gene 1 6 8 -1.55498 0 6 -1.55498 1
gene 2 7 8 0.956955 0 7 0.956955 1
gene 2 1 12 -0.0741611 0 14 -0.0741611 1
gene 2 12 8 -0.120917 0 15 -0.120917 1
gene 3 2 12 1.98786 0 24 1.98786 1
genomeend 148

/* Organism #149 Fitness: 40 Error: 0 */
genomestart 149
trait 1 0.1 0 0 0 0 0 0 0 
trait 2 0.2 0 0 0 0 0 0 0 
trait 3 0.3 0 0 0 0 0 0 0 
node 1 2 1 1
node 2 3 1 1
node 3 3 1 1
node 4 1 1 1
node 5 2 1 1
node 6 1 1 1
node 7 2 1 3
node 8 2 0 2
node 12 1 0 0
gene 2 1 8 2.39409 0 1 2.39409 0
gene 2 2 8 0.132905 0 2 0.132905 1
gene 3 3 8 0.0739696 0 3 0.0739696 0
gene 2 4 8 1.18699 0 4 1.18699 1
gene 1 5 8 2.39358 0 5 2.39358 1
gene 1 6 8 0.998723 0 6 0.998723 1
gene 2 7 8 -0.54365 0 7 -0.54365 1
gene 2 1 12 2.90823 0 14 2.90823 1
gene 2 12 8 -1.22344 0 15 -1.22344 1
gene 3 2 12 -1.72071 0 24 -1.72071 1
genomeend 149
