
/* Species #1 : (Size 43) (AF 0.00134651) (Age 5)  */


/* Organism #0 Fitness: 0.0084 Error: 0 */
genomestart 0
trait 1 0.1 0 0 0 0 0 0 0 
node 1 1 1 1
node 2 1 1 1
node 3 1 1 1
node 4 1 1 3
node 5 1 0 2
gene 1 1 5 -0.16629 0 1 -0.16629 1
gene 1 2 5 -0.096623 0 2 -0.096623 1
gene 1 3 5 0.407087 0 3 0.407087 1
gene 1 4 5 -0.0212921 0 4 -0.0212921 1
genomeend 0

/* Organism #1 Fitness: 0.0025 Error: 0 */
genomestart 1
trait 1 0.143909 0 0 0 0 0 0 0 
node 1 1 1 1
node 2 1 1 1
node 3 1 1 1
node 4 1 1 3
node 5 1 0 2
gene 1 1 5 -0.70043 0 1 -0.70043 1
gene 1 2 5 -0.286406 0 2 -0.286406 1
gene 1 3 5 2.79876 0 3 2.79876 1
gene 1 4 5 0.498651 0 4 0.498651 1
genomeend 1

/* Organism #2 Fitness: 0.0004 Error: 0 */
genomestart 2
trait 1 0.1 0 0 0 0 0 0 0 
node 1 1 1 1
node 2 1 1 1
node 3 1 1 1
node 4 1 1 3
node 5 1 0 2
gene 1 1 5 0.864313 0 1 0.864313 1
gene 1 2 5 -2.04028 0 2 -2.04028 1
gene 1 3 5 -0.0977741 0 3 -0.0977741 1
gene 1 4 5 -1.3877 0 4 -1.3877 1
genomeend 2

/* Organism #3 Fitness: 0.0018 Error: 0 */
genomestart 3
trait 1 0.1 0 0 0 0.00768784 0.0686245 0 0 
node 1 1 1 1
node 2 1 1 1
node 3 1 1 1
node 4 1 1 3
node 5 1 0 2
gene 1 1 5 0.0988252 0 1 0.0988252 1
gene 1 2 5 0.225125 0 2 0.225125 1
gene 1 3 5 2.66843 0 3 2.66843 1
gene 1 4 5 0.543123 0 4 0.543123 1
genomeend 3

/* Organism #4 Fitness: 0.0031 Error: 0 */
genomestart 4
trait 1 0.1 0 0 0 0.0153757 0.137249 0 0 
node 1 1 1 1
node 2 1 1 1
node 3 1 1 1
node 4 1 1 3
node 5 1 0 2
gene 1 1 5 0.0367234 0 1 0.0367234 1
gene 1 2 5 -1.79934 0 2 -1.79934 1
gene 1 3 5 2.29271 0 3 2.29271 1
gene 1 4 5 1.22958 0 4 1.22958 1
genomeend 4

/* Organism #5 Fitness: 0.0027 Error: 0 */
genomestart 5
trait 1 0.1 0 0 0 0 0 0 0 
node 1 1 1 1
node 2 1 1 1
node 3 1 1 1
node 4 1 1 3
node 5 1 0 2
gene 1 1 5 2.7688 0 1 2.7688 1
gene 1 2 5 0.225162 0 2 0.225162 1
gene 1 3 5 1.2123 0 3 1.2123 1
gene 1 4 5 -0.697299 0 4 -0.697299 1
genomeend 5

/* Organism #6 Fitness: 0.0027 Error: 0 */
genomestart 6
trait 1 0.187818 0 0 0 0 0 0 0 
node 1 1 1 1
node 2 1 1 1
node 3 1 1 1
node 4 1 1 3
node 5 1 0 2
gene 1 1 5 -0.270189 0 1 -0.270189 1
gene 1 2 5 -1.55215 0 2 -1.55215 1
gene 1 3 5 2.84843 0 3 2.84843 1
gene 1 4 5 1.04079 0 4 1.04079 1
genomeend 6

/* Organism #7 Fitness: 0.0005 Error: 0 */
genomestart 7
trait 1 0.1 0 0 0 0 0 0 0 
node 1 1 1 1
node 2 1 1 1
node 3 1 1 1
node 4 1 1 3
node 5 1 0 2
gene 1 1 5 1.62558 0 1 1.62558 1
gene 1 2 5 -0.285607 0 2 -0.285607 1
gene 1 3 5 -0.43429 0 3 -0.43429 1
gene 1 4 5 0.731061 0 4 0.731061 1
genomeend 7

/* Organism #8 Fitness: 0.0019 Error: 0 */
genomestart 8
trait 1 0.1 0 0 0 0.00768784 0.0686245 0 0 
node 1 1 1 1
node 2 1 1 1
node 3 1 1 1
node 4 1 1 3
node 5 1 0 2
gene 1 1 5 0.840088 0 1 0.840088 1
gene 1 2 5 -0.529086 0 2 -0.529086 1
gene 1 3 5 1.87092 0 3 1.87092 1
gene 1 4 5 1.12973 0 4 1.12973 1
genomeend 8

/* Organism #9 Fitness: 0.0034 Error: 0 */
genomestart 9
trait 1 0.1 0 0 0 0 0 0 0 
node 1 1 1 1
node 2 1 1 1
node 3 1 1 1
node 4 1 1 3
node 5 1 0 2
gene 1 1 5 0.982823 0 1 0.982823 1
gene 1 2 5 -0.119685 0 2 -0.119685 1
gene 1 3 5 1.14254 0 3 1.14254 1
gene 1 4 5 -0.254951 0 4 -0.254951 1
genomeend 9

/* Organism #10 Fitness: 0.0006 Error: 0 */
genomestart 10
trait 1 0.1 0 0 0 0 0 0 0 
node 1 1 1 1
node 2 1 1 1
node 3 1 1 1
node 4 1 1 3
node 5 1 0 2
gene 1 1 5 2.98361 0 1 2.98361 1
gene 1 2 5 -0.396463 0 2 -0.396463 1
gene 1 3 5 0.683661 0 3 0.683661 1
gene 1 4 5 -0.0248705 0 4 -0.0248705 1
gene 1 5 5 0.789259 1 182 0.789259 1
genomeend 10

/* Organism #11 Fitness: 0.0032 Error: 0 */
genomestart 11
trait 1 0.1 0 0 0 0 0 0 0 
node 1 1 1 1
node 2 1 1 1
node 3 1 1 1
node 4 1 1 3
node 5 1 0 2
gene 1 1 5 2.33961 0 1 2.33961 1
gene 1 2 5 -0.241515 0 2 -0.241515 1
gene 1 3 5 2.69112 0 3 2.69112 1
gene 1 4 5 -0.241685 0 4 -0.241685 1
genomeend 11

/* Organism #12 Fitness: 0.0004 Error: 0 */
genomestart 12
trait 1 0.170095 0 0 0 0 0 0 0 
node 1 1 1 1
node 2 1 1 1
node 3 1 1 1
node 4 1 1 3
node 5 1 0 2
gene 1 1 5 1.28604 0 1 1.28604 1
gene 1 2 5 -0.135802 0 2 -0.135802 1
gene 1 3 5 1.3585 0 3 1.3585 1
gene 1 4 5 2.08881 0 4 2.08881 1
genomeend 12

/* Organism #13 Fitness: 0.0026 Error: 0 */
genomestart 13
trait 1 0.1 0.787029 0.382528 0 0 0 0.32118 0 
node 1 1 1 1
node 2 1 1 1
node 3 1 1 1
node 4 1 1 3
node 5 1 0 2
gene 1 1 5 -0.0102318 0 1 -0.0102318 1
gene 1 2 5 1.80179 0 2 1.80179 1
gene 1 3 5 2.51315 0 3 2.51315 1
gene 1 4 5 -0.0245282 0 4 -0.0245282 1
genomeend 13

/* Organism #14 Fitness: 0.0032 Error: 0 */
genomestart 14
trait 1 0.1 0 0 0.921535 0 0.288124 0 0.688638 
node 1 1 1 1
node 2 1 1 1
node 3 1 1 1
node 4 1 1 3
node 5 1 0 2
gene 1 1 5 0.223191 0 1 0.223191 1
gene 1 2 5 0.776524 0 2 0.776524 1
gene 1 3 5 3.65956 0 3 3.65956 1
gene 1 4 5 -0.343579 0 4 -0.343579 1
genomeend 14

/* Organism #15 Fitness: 0.0005 Error: 0 */
genomestart 15
trait 1 0.1 0 0 0 0 0 0 0 
node 1 1 1 1
node 2 1 1 1
node 3 1 1 1
node 4 1 1 3
node 5 1 0 2
node 6 1 0 0
gene 1 1 5 0.515667 0 1 0.515667 0
gene 1 2 5 0.449011 0 2 0.449011 1
gene 1 3 5 0.0880272 0 3 0.0880272 1
gene 1 4 5 0.354478 0 4 0.354478 1
gene 1 1 6 -0.257962 0 10 -0.257962 1
gene 1 6 5 0.294198 0 11 0.294198 1
genomeend 15

/* Organism #16 Fitness: 0.0005 Error: 0 */
genomestart 16
trait 1 0.233228 0.118807 0.00619258 0.0648848 0.0199966 0 0.149444 0.0245524 
node 1 1 1 1
node 2 1 1 1
node 3 1 1 1
node 4 1 1 3
node 5 1 0 2
gene 1 1 5 0.775904 0 1 0.775904 1
gene 1 2 5 2.40743 0 2 2.40743 1
gene 1 3 5 0.238664 0 3 0.238664 1
gene 1 4 5 -1.54064 0 4 -1.54064 1
genomeend 16

/* Organism #17 Fitness: 0.0005 Error: 0 */
genomestart 17
trait 1 0.1 0 0 0 0.00768784 0.0686245 0 0 
node 1 1 1 1
node 2 1 1 1
node 3 1 1 1
node 4 1 1 3
node 5 1 0 2
gene 1 1 5 -0.637037 0 1 -0.637037 1
gene 1 2 5 -1.58736 0 2 -1.58736 1
gene 1 3 5 -1.09735 0 3 -1.09735 1
gene 1 4 5 0.934158 0 4 0.934158 1
genomeend 17

/* Organism #18 Fitness: 0.0006 Error: 0 */
genomestart 18
trait 1 0.1 0 0 0 0 0 0 0 
node 1 1 1 1
node 2 1 1 1
node 3 1 1 1
node 4 1 1 3
node 5 1 0 2
gene 1 1 5 2.94214 0 1 2.94214 1
gene 1 2 5 0.632921 0 2 0.632921 1
gene 1 3 5 0.852947 0 3 0.852947 1
gene 1 4 5 -0.907325 0 4 -0.907325 1
genomeend 18

/* Organism #19 Fitness: 0.0006 Error: 0 */
genomestart 19
trait 1 0.1 0 0 0 0.00768784 0.0686245 0 0 
node 1 1 1 1
node 2 1 1 1
node 3 1 1 1
node 4 1 1 3
node 5 1 0 2
gene 1 1 5 -0.524181 0 1 -0.524181 1
gene 1 2 5 -0.518115 0 2 -0.518115 1
gene 1 3 5 1.18179 0 3 1.18179 1
gene 1 4 5 -0.488121 0 4 -0.488121 1
gene 1 5 5 -0.450338 1 61 -0.450338 1
genomeend 19

/* Organism #20 Fitness: 0.0019 Error: 0 */
genomestart 20
trait 1 0.406517 0.235155 0 0 0 0 0.778379 0 
node 1 1 1 1
node 2 1 1 1
node 3 1 1 1
node 4 1 1 3
node 5 1 0 2
gene 1 1 5 -0.481952 0 1 -0.481952 1
gene 1 2 5 0.0316987 0 2 0.0316987 1
gene 1 3 5 2.14243 0 3 2.14243 1
gene 1 4 5 0.630026 0 4 0.630026 1
genomeend 20

/* Organism #21 Fitness: 0.0004 Error: 0 */
genomestart 21
trait 1 0.05 0.284674 0 0 0 0.437633 0 0 
node 1 1 1 1
node 2 1 1 1
node 3 1 1 1
node 4 1 1 3
node 5 1 0 2
gene 1 1 5 1.12387 0 1 1.12387 1
gene 1 2 5 -0.514481 0 2 -0.514481 1
gene 1 3 5 -0.581135 0 3 -0.581135 1
gene 1 4 5 1.72548 0 4 1.72548 1
genomeend 21

/* Organism #22 Fitness: 0.0018 Error: 0 */
genomestart 22
trait 1 0.1 0 0 0 0 0 0 0 
node 1 1 1 1
node 2 1 1 1
node 3 1 1 1
node 4 1 1 3
node 5 1 0 2
gene 1 1 5 -0.879833 0 1 -0.879833 1
gene 1 2 5 1.96248 0 2 1.96248 1
gene 1 3 5 0.99824 0 3 0.99824 1
gene 1 4 5 -0.273044 0 4 -0.273044 1
genomeend 22

/* Organism #23 Fitness: 0.0005 Error: 0 */
genomestart 23
trait 1 0.0635971 0 0 0 0 0 0 0 
node 1 1 1 1
node 2 1 1 1
node 3 1 1 1
node 4 1 1 3
node 5 1 0 2
gene 1 1 5 -0.597267 0 1 -0.597267 1
gene 1 2 5 1.24073 0 2 1.24073 1
gene 1 3 5 0.349919 0 3 0.349919 1
gene 1 4 5 -1.27413 0 4 -1.27413 1
gene 1 5 5 0.0961912 1 78 0.0961912 1
genomeend 23

/* Organism #24 Fitness: 0.0013 Error: 0 */
genomestart 24
trait 1 0.1 0 0 0 0 0 0 0 
node 1 1 1 1
node 2 1 1 1
node 3 1 1 1
node 4 1 1 3
node 5 1 0 2
gene 1 1 5 -0.198146 0 1 -0.198146 1
gene 1 2 5 1.36496 0 2 1.36496 1
gene 1 3 5 0.354475 0 3 0.354475 1
gene 1 4 5 0.846517 0 4 0.846517 1
gene 1 5 5 -1.67176 1 78 -1.67176 1
genomeend 24

/* Organism #25 Fitness: 0.0005 Error: 0 */
genomestart 25
trait 1 0.1 0 0 0 0 0 0 0 
node 1 1 1 1
node 2 1 1 1
node 3 1 1 1
node 4 1 1 3
node 5 1 0 2
gene 1 1 5 1.04799 0 1 1.04799 1
gene 1 2 5 3.53162 0 2 3.53162 1
gene 1 3 5 0.0301719 0 3 0.0301719 1
gene 1 4 5 -0.111419 0 4 -0.111419 1
genomeend 25

/* Organism #26 Fitness: 0.0006 Error: 0 */
genomestart 26
trait 1 0.1 0 0 0 0 0 0 0 
node 1 1 1 1
node 2 1 1 1
node 3 1 1 1
node 4 1 1 3
node 5 1 0 2
gene 1 1 5 3.09088 0 1 3.09088 1
gene 1 2 5 -0.104537 0 2 -0.104537 1
gene 1 3 5 -1.0753 0 3 -1.0753 1
gene 1 4 5 -0.218659 0 4 -0.218659 1
genomeend 26

/* Organism #27 Fitness: 0.0004 Error: 0 */
genomestart 27
trait 1 0.1 0 0 0 0 0 0 0 
node 1 1 1 1
node 2 1 1 1
node 3 1 1 1
node 4 1 1 3
node 5 1 0 2
gene 1 1 5 0.42311 0 1 0.42311 1
gene 1 2 5 1.52609 0 2 1.52609 1
gene 1 3 5 -1.37709 0 3 -1.37709 1
gene 1 4 5 0.51431 0 4 0.51431 1
genomeend 27

/* Organism #28 Fitness: 0.0004 Error: 0 */
genomestart 28
trait 1 0.1 0 0 0 0 0 0 0 
node 1 1 1 1
node 2 1 1 1
node 3 1 1 1
node 4 1 1 3
node 5 1 0 2
gene 1 1 5 1.31179 0 1 1.31179 1
gene 1 2 5 1.26928 0 2 1.26928 1
gene 1 3 5 -0.188563 0 3 -0.188563 1
gene 1 4 5 -1.66849 0 4 -1.66849 1
genomeend 28

/* Organism #29 Fitness: 0.0004 Error: 0 */
genomestart 29
trait 1 0.1 0 0 0 0.0230635 0.205873 0 0 
node 1 1 1 1
node 2 1 1 1
node 3 1 1 1
node 4 1 1 3
node 5 1 0 2
gene 1 1 5 -0.691432 0 1 -0.691432 1
gene 1 2 5 -1.26227 0 2 -1.26227 1
gene 1 3 5 0.174765 0 3 0.174765 1
gene 1 4 5 2.51504 0 4 2.51504 1
genomeend 29

/* Organism #30 Fitness: 0.0023 Error: 0 */
genomestart 30
trait 1 0.1 0 0 0 0 0 0 0 
node 1 1 1 1
node 2 1 1 1
node 3 1 1 1
node 4 1 1 3
node 5 1 0 2
gene 1 1 5 -1.09069 0 1 -1.09069 1
gene 1 2 5 -0.308556 0 2 -0.308556 1
gene 1 3 5 2.74535 0 3 2.74535 1
gene 1 4 5 -1.34168 0 4 -1.34168 1
genomeend 30

/* Organism #31 Fitness: 0.0004 Error: 0 */
genomestart 31
trait 1 0.1 0 0 0 0 0 0 0 
node 1 1 1 1
node 2 1 1 1
node 3 1 1 1
node 4 1 1 3
node 5 1 0 2
gene 1 1 5 0.355819 0 1 0.355819 1
gene 1 2 5 0.399321 0 2 0.399321 1
gene 1 3 5 -0.0554953 0 3 -0.0554953 1
gene 1 4 5 1.54932 0 4 1.54932 1
gene 1 5 5 0.141834 1 88 0.141834 1
genomeend 31

/* Organism #32 Fitness: 0.0022 Error: 0 */
genomestart 32
trait 1 0.1 0 0 0 0.22708 0.0686245 0 0 
node 1 1 1 1
node 2 1 1 1
node 3 1 1 1
node 4 1 1 3
node 5 1 0 2
gene 1 1 5 -1.37743 0 1 -1.37743 1
gene 1 2 5 -0.739504 0 2 -0.739504 1
gene 1 3 5 2.43397 0 3 2.43397 1
gene 1 4 5 -1.02546 0 4 -1.02546 1
genomeend 32

/* Organism #33 Fitness: 0.0005 Error: 0 */
genomestart 33
trait 1 0.1 0 0 0 0.45416 0.137249 0 0 
node 1 1 1 1
node 2 1 1 1
node 3 1 1 1
node 4 1 1 3
node 5 1 0 2
gene 1 1 5 -0.74927 0 1 -0.74927 1
gene 1 2 5 -1.42295 0 2 -1.42295 1
gene 1 3 5 1.54904 0 3 1.54904 1
gene 1 4 5 1.841 0 4 1.841 1
genomeend 33

/* Organism #34 Fitness: 0.0007 Error: 0 */
genomestart 34
trait 1 0.1 0 0 0 0.45416 0.137249 0 0 
node 1 1 1 1
node 2 1 1 1
node 3 1 1 1
node 4 1 1 3
node 5 1 0 2
gene 1 1 5 -0.111155 0 1 -0.111155 1
gene 1 2 5 -2.0075 0 2 -2.0075 1
gene 1 3 5 1.47029 0 3 1.47029 1
gene 1 4 5 -0.258717 0 4 -0.258717 1
genomeend 34

/* Organism #35 Fitness: 0.0004 Error: 0 */
genomestart 35
trait 1 0.05 0.284674 0 0 0 0.437633 0 0 
node 1 1 1 1
node 2 1 1 1
node 3 1 1 1
node 4 1 1 3
node 5 1 0 2
gene 1 1 5 -0.0951724 0 1 -0.0951724 1
gene 1 2 5 -0.251362 0 2 -0.251362 1
gene 1 3 5 -1.42147 0 3 -1.42147 1
gene 1 4 5 1.38192 0 4 1.38192 1
genomeend 35

/* Organism #36 Fitness: 0.0005 Error: 0 */
genomestart 36
trait 1 0.1 0 0 0 0 0 0 0 
node 1 1 1 1
node 2 1 1 1
node 3 1 1 1
node 4 1 1 3
node 5 1 0 2
node 7 1 0 0
gene 1 1 5 -0.717255 0 1 -0.717255 1
gene 1 2 5 0.173311 0 2 0.173311 1
gene 1 3 5 0.373835 0 3 0.373835 0
gene 1 4 5 0.279816 0 4 0.279816 1
gene 1 3 7 2.04188 0 18 2.04188 1
gene 1 7 5 -2.29754 0 19 -2.29754 1
genomeend 36

/* Organism #37 Fitness: 0.0004 Error: 0 */
genomestart 37
trait 1 0.1 0 0 0 0 0 0.17057 0 
node 1 1 1 1
node 2 1 1 1
node 3 1 1 1
node 4 1 1 3
node 5 1 0 2
gene 1 1 5 -0.984586 0 1 -0.984586 1
gene 1 2 5 0.719879 0 2 0.719879 1
gene 1 3 5 -0.31105 0 3 -0.31105 1
gene 1 4 5 -2.57263 0 4 -2.57263 1
genomeend 37

/* Organism #38 Fitness: 0.0004 Error: 0 */
genomestart 38
trait 1 0.1 0 0 0 0 0 0 0 
node 1 1 1 1
node 2 1 1 1
node 3 1 1 1
node 4 1 1 3
node 5 1 0 2
gene 1 1 5 0.638949 0 1 0.638949 1
gene 1 2 5 3.48056 0 2 3.48056 1
gene 1 3 5 0.131359 0 3 0.131359 1
gene 1 4 5 0.327258 0 4 0.327258 1
genomeend 38

/* Organism #39 Fitness: 0.0004 Error: 0 */
genomestart 39
trait 1 0.0622685 0 0 0 0.376057 0 0.211495 0 
node 1 1 1 1
node 2 1 1 1
node 3 1 1 1
node 4 1 1 3
node 5 1 0 2
gene 1 1 5 -0.448516 0 1 -0.448516 1
gene 1 2 5 -1.31797 0 2 -1.31797 1
gene 1 3 5 0.131266 0 3 0.131266 1
gene 1 4 5 -1.18401 0 4 -1.18401 1
gene 1 5 5 0.025897 1 88 0.025897 1
genomeend 39

/* Organism #40 Fitness: 0.0005 Error: 0 */
genomestart 40
trait 1 0.0622685 0 0 0 0.376057 0 0.211495 0 
node 1 1 1 1
node 2 1 1 1
node 3 1 1 1
node 4 1 1 3
node 5 1 0 2
gene 1 1 5 -1.33812 0 1 -1.33812 1
gene 1 2 5 -0.370317 0 2 -0.370317 1
gene 1 3 5 -0.702474 0 3 -0.702474 1
gene 1 4 5 -0.538761 0 4 -0.538761 1
gene 1 5 5 0.976102 1 88 0.976102 1
genomeend 40

/* Organism #41 Fitness: 0.0004 Error: 0 */
genomestart 41
trait 1 0.1 0 0 0 0 0 0 0 
node 1 1 1 1
node 2 1 1 1
node 3 1 1 1
node 4 1 1 3
node 5 1 0 2
gene 1 1 5 -1.23385 0 1 -1.23385 1
gene 1 2 5 0.445859 0 2 0.445859 1
gene 1 3 5 1.2123 0 3 1.2123 1
gene 1 4 5 1.4841 0 4 1.4841 1
genomeend 41

/* Organism #42 Fitness: 0.0005 Error: 0 */
genomestart 42
trait 1 0.1 0 0 0 0 0 0 0 
node 1 1 1 1
node 2 1 1 1
node 3 1 1 1
node 4 1 1 3
node 5 1 0 2
gene 1 1 5 -0.544405 0 1 -0.544405 1
gene 1 2 5 1.48116 0 2 1.48116 1
gene 1 3 5 1.60241 0 3 1.60241 1
gene 1 4 5 -2.03834 0 4 -2.03834 1
genomeend 42

/* Species #2 : (Size 24) (AF 0.00217083) (Age 5)  */


/* Organism #43 Fitness: 0.0049 Error: 0 */
genomestart 43
trait 1 0.1 0 0 0 0 0 0 0 
node 1 1 1 1
node 2 1 1 1
node 3 1 1 1
node 4 1 1 3
node 5 1 0 2
gene 1 1 5 2.79874 0 1 2.79874 1
gene 1 2 5 -1.36254 0 2 -1.36254 1
gene 1 3 5 1.28179 0 3 1.28179 1
gene 1 4 5 0.312435 0 4 0.312435 1
genomeend 43

/* Organism #44 Fitness: 0.0027 Error: 0 */
genomestart 44
trait 1 0.1 0 0 0 0 0 0 0 
node 1 1 1 1
node 2 1 1 1
node 3 1 1 1
node 4 1 1 3
node 5 1 0 2
gene 1 1 5 3.08868 0 1 3.08868 1
gene 1 2 5 0.0686639 0 2 0.0686639 1
gene 1 3 5 3.66489 0 3 3.66489 1
gene 1 4 5 0.225811 0 4 0.225811 1
genomeend 44

/* Organism #45 Fitness: 0.0004 Error: 0 */
genomestart 45
trait 1 0.1 0 0 0 0 0 0 0 
node 1 1 1 1
node 2 1 1 1
node 3 1 1 1
node 4 1 1 3
node 5 1 0 2
gene 1 1 5 2.89726 0 1 2.89726 1
gene 1 2 5 1.09302 0 2 1.09302 1
gene 1 3 5 -0.627537 0 3 -0.627537 1
gene 1 4 5 0.604936 0 4 0.604936 1
genomeend 45

/* Organism #46 Fitness: 0.0026 Error: 0 */
genomestart 46
trait 1 0.1 0 0 0 0 0 0 0 
node 1 1 1 1
node 2 1 1 1
node 3 1 1 1
node 4 1 1 3
node 5 1 0 2
gene 1 1 5 1.45271 0 1 1.45271 1
gene 1 2 5 -2.86051 0 2 -2.86051 1
gene 1 3 5 3.59579 0 3 3.59579 1
gene 1 4 5 0.288845 0 4 0.288845 1
genomeend 46

/* Organism #47 Fitness: 0.0028 Error: 0 */
genomestart 47
trait 1 0.1 0 0 0 0 0 0 0 
node 1 1 1 1
node 2 1 1 1
node 3 1 1 1
node 4 1 1 3
node 5 1 0 2
gene 1 1 5 3.12462 0 1 3.12462 1
gene 1 2 5 -1.89558 0 2 -1.89558 1
gene 1 3 5 1.95898 0 3 1.95898 1
gene 1 4 5 -0.229343 0 4 -0.229343 1
genomeend 47

/* Organism #48 Fitness: 0.0027 Error: 0 */
genomestart 48
trait 1 0 0 0 0 0 0 0 0 
node 1 1 1 1
node 2 1 1 1
node 3 1 1 1
node 4 1 1 3
node 5 1 0 2
gene 1 1 5 1.83704 0 1 1.83704 1
gene 1 2 5 -2.33966 0 2 -2.33966 1
gene 1 3 5 1.76558 0 3 1.76558 1
gene 1 4 5 1.49132 0 4 1.49132 1
gene 1 5 5 -0.384257 1 72 -0.384257 1
genomeend 48

/* Organism #49 Fitness: 0.0039 Error: 0 */
genomestart 49
trait 1 0.1 0 0 0 0 0 0 0 
node 1 1 1 1
node 2 1 1 1
node 3 1 1 1
node 4 1 1 3
node 5 1 0 2
gene 1 1 5 2.69219 0 1 2.69219 1
gene 1 2 5 -2.65689 0 2 -2.65689 1
gene 1 3 5 2.62045 0 3 2.62045 1
gene 1 4 5 0.63245 0 4 0.63245 1
genomeend 49

/* Organism #50 Fitness: 0.0004 Error: 0 */
genomestart 50
trait 1 0.1 0 0 0 0 0 0 0 
node 1 1 1 1
node 2 1 1 1
node 3 1 1 1
node 4 1 1 3
node 5 1 0 2
gene 1 1 5 2.58027 0 1 2.58027 1
gene 1 2 5 0.64135 0 2 0.64135 1
gene 1 3 5 -0.820234 0 3 -0.820234 1
gene 1 4 5 1.29634 0 4 1.29634 1
genomeend 50

/* Organism #51 Fitness: 0.0026 Error: 0 */
genomestart 51
trait 1 0.1 0 0 0 0 0 0 0 
node 1 1 1 1
node 2 1 1 1
node 3 1 1 1
node 4 1 1 3
node 5 1 0 2
gene 1 1 5 2.17538 0 1 2.17538 1
gene 1 2 5 -2.18017 0 2 -2.18017 1
gene 1 3 5 2.93661 0 3 2.93661 1
gene 1 4 5 1.17179 0 4 1.17179 1
genomeend 51

/* Organism #52 Fitness: 0.002 Error: 0 */
genomestart 52
trait 1 0.1 0 0 0 0 0 0 0 
node 1 1 1 1
node 2 1 1 1
node 3 1 1 1
node 4 1 1 3
node 5 1 0 2
gene 1 1 5 4.55626 0 1 4.55626 1
gene 1 2 5 -2.79693 0 2 -2.79693 1
gene 1 3 5 0.683661 0 3 0.683661 1
gene 1 4 5 0.976271 0 4 0.976271 1
genomeend 52

/* Organism #53 Fitness: 0.0091 Error: 0 */
genomestart 53
trait 1 0.1 0 0 0 0 0 0 0 
node 1 1 1 1
node 2 1 1 1
node 3 1 1 1
node 4 1 1 3
node 5 1 0 2
gene 1 1 5 3.28322 0 1 3.28322 1
gene 1 2 5 -1.94368 0 2 -1.94368 1
gene 1 3 5 1.48335 0 3 1.48335 1
gene 1 4 5 0.947335 0 4 0.947335 1
gene 1 5 5 -0.65573 1 74 -0.65573 1
genomeend 53

/* Organism #54 Fitness: 0.0006 Error: 0 */
genomestart 54
trait 1 0.1 0 0 0 0 0 0 0 
node 1 1 1 1
node 2 1 1 1
node 3 1 1 1
node 4 1 1 3
node 5 1 0 2
gene 1 1 5 4.19128 0 1 4.19128 1
gene 1 2 5 -1.05087 0 2 -1.05087 1
gene 1 3 5 1.63782 0 3 1.63782 1
gene 1 4 5 1.3004 0 4 1.3004 1
genomeend 54

/* Organism #55 Fitness: 0.0005 Error: 0 */
genomestart 55
trait 1 0.1 0 0 0 0 0 0 0 
node 1 1 1 1
node 2 1 1 1
node 3 1 1 1
node 4 1 1 3
node 5 1 0 2
gene 1 1 5 2.53731 0 1 2.53731 1
gene 1 2 5 -2.17225 0 2 -2.17225 1
gene 1 3 5 1.15757 0 3 1.15757 1
gene 1 4 5 -0.454315 0 4 -0.454315 1
genomeend 55

/* Organism #56 Fitness: 0.0004 Error: 0 */
genomestart 56
trait 1 0.05 0 0 0 0 0 0 0 
node 1 1 1 1
node 2 1 1 1
node 3 1 1 1
node 4 1 1 3
node 5 1 0 2
gene 1 1 5 2.80586 0 1 2.80586 1
gene 1 2 5 -0.937983 0 2 -0.937983 1
gene 1 3 5 0.211572 0 3 0.211572 1
gene 1 4 5 -1.1236 0 4 -1.1236 1
gene 1 5 5 -0.0559369 1 74 -0.0559369 1
genomeend 56

/* Organism #57 Fitness: 0.0021 Error: 0 */
genomestart 57
trait 1 0.0570498 0 0.148405 0.216353 0 0 0 0 
node 1 1 1 1
node 2 1 1 1
node 3 1 1 1
node 4 1 1 3
node 5 1 0 2
gene 1 1 5 3.40409 0 1 3.40409 1
gene 1 2 5 1.69132 0 2 1.69132 1
gene 1 3 5 1.13084 0 3 1.13084 1
gene 1 4 5 -0.858693 0 4 -0.858693 1
genomeend 57

/* Organism #58 Fitness: 0.0005 Error: 0 */
genomestart 58
trait 1 0.1 0 0 0 0 0 0 0 
node 1 1 1 1
node 2 1 1 1
node 3 1 1 1
node 4 1 1 3
node 5 1 0 2
gene 1 1 5 2.49177 0 1 2.49177 1
gene 1 2 5 -0.922318 0 2 -0.922318 1
gene 1 3 5 2.82088 0 3 2.82088 1
gene 1 4 5 -1.83294 0 4 -1.83294 1
genomeend 58

/* Organism #59 Fitness: 0.0057 Error: 0 */
genomestart 59
trait 1 0.535849 0 0.198347 0 0.401764 0.0686245 0 0.151247 
node 1 1 1 1
node 2 1 1 1
node 3 1 1 1
node 4 1 1 3
node 5 1 0 2
gene 1 1 5 2.65162 0 1 2.65162 1
gene 1 2 5 -1.70815 0 2 -1.70815 1
gene 1 3 5 2.4039 0 3 2.4039 1
gene 1 4 5 1.197 0 4 1.197 1
gene 1 5 5 -0.992458 1 61 -0.992458 1
genomeend 59

/* Organism #60 Fitness: 0.0004 Error: 0 */
genomestart 60
trait 1 0.1 0 0 0 0 0 0 0 
node 1 1 1 1
node 2 1 1 1
node 3 1 1 1
node 4 1 1 3
node 5 1 0 2
gene 1 1 5 3.14568 0 1 3.14568 1
gene 1 2 5 -2.50923 0 2 -2.50923 1
gene 1 3 5 0.183652 0 3 0.183652 1
gene 1 4 5 1.68317 0 4 1.68317 1
gene 1 5 5 0.890334 1 55 0.890334 1
genomeend 60

/* Organism #61 Fitness: 0.0027 Error: 0 */
genomestart 61
trait 1 0.1 0 0 0 0.45416 0.137249 0 0 
node 1 1 1 1
node 2 1 1 1
node 3 1 1 1
node 4 1 1 3
node 5 1 0 2
gene 1 1 5 0.658639 0 1 0.658639 1
gene 1 2 5 -2.37699 0 2 -2.37699 1
gene 1 3 5 2.54263 0 3 2.54263 1
gene 1 4 5 0.256712 0 4 0.256712 1
genomeend 61

/* Organism #62 Fitness: 0.0005 Error: 0 */
genomestart 62
trait 1 0.331581 0.488768 0 0 0.244678 0 0 0 
node 1 1 1 1
node 2 1 1 1
node 3 1 1 1
node 4 1 1 3
node 5 1 0 2
gene 1 1 5 2.16207 0 1 2.16207 1
gene 1 2 5 -0.56063 0 2 -0.56063 1
gene 1 3 5 2.03315 0 3 2.03315 1
gene 1 4 5 0.450658 0 4 0.450658 1
gene 1 5 5 1.72917 1 74 1.72917 1
genomeend 62

/* Organism #63 Fitness: 0.0005 Error: 0 */
genomestart 63
trait 1 0.934463 0 0 0 0.803528 0.137249 0 0.302495 
node 1 1 1 1
node 2 1 1 1
node 3 1 1 1
node 4 1 1 3
node 5 1 0 2
gene 1 1 5 1.38599 0 1 1.38599 1
gene 1 2 5 -0.960501 0 2 -0.960501 1
gene 1 3 5 1.54063 0 3 1.54063 1
gene 1 4 5 -0.553725 0 4 -0.553725 1
gene 1 5 5 -3.35627 1 61 -3.35627 1
genomeend 63

/* Organism #64 Fitness: 0.003 Error: 0 */
genomestart 64
trait 1 0.37222 0 0 0.141135 0 0.481785 0.142586 0 
node 1 1 1 1
node 2 1 1 1
node 3 1 1 1
node 4 1 1 3
node 5 1 0 2
gene 1 1 5 2.35998 0 1 2.35998 1
gene 1 2 5 -2.22071 0 2 -2.22071 1
gene 1 3 5 4.36627 0 3 4.36627 1
gene 1 4 5 0.55743 0 4 0.55743 1
genomeend 64

/* Organism #65 Fitness: 0.0006 Error: 0 */
genomestart 65
trait 1 0.1 0 0 0 0 0 0 0 
node 1 1 1 1
node 2 1 1 1
node 3 1 1 1
node 4 1 1 3
node 5 1 0 2
gene 1 1 5 2.24341 0 1 2.24341 1
gene 1 2 5 -1.66687 0 2 -1.66687 1
gene 1 3 5 1.73613 0 3 1.73613 1
gene 1 4 5 0.280377 0 4 0.280377 1
gene 1 5 5 1.07233 1 78 1.07233 1
genomeend 65

/* Organism #66 Fitness: 0.0005 Error: 0 */
genomestart 66
trait 1 0.1 0 0 0 0 0 0 0 
node 1 1 1 1
node 2 1 1 1
node 3 1 1 1
node 4 1 1 3
node 5 1 0 2
gene 1 1 5 4.29283 0 1 4.29283 1
gene 1 2 5 -2.33251 0 2 -2.33251 1
gene 1 3 5 1.44373 0 3 1.44373 1
gene 1 4 5 -0.505956 0 4 -0.505956 1
genomeend 66

/* Species #3 : (Size 24) (AF 0.00224167) (Age 4)  */


/* Organism #67 Fitness: 0.0015 Error: 0 */
genomestart 67
trait 1 0.1 0 0 0 0 0 0 0 
node 1 1 1 1
node 2 1 1 1
node 3 1 1 1
node 4 1 1 3
node 5 1 0 2
gene 1 1 5 -0.628402 0 1 -0.628402 1
gene 1 2 5 3.71737 0 2 3.71737 1
gene 1 3 5 2.79195 0 3 2.79195 1
gene 1 4 5 -0.355977 0 4 -0.355977 1
genomeend 67

/* Organism #68 Fitness: 0.0028 Error: 0 */
genomestart 68
trait 1 0.1 0 0 0 0 0 0 0 
node 1 1 1 1
node 2 1 1 1
node 3 1 1 1
node 4 1 1 3
node 5 1 0 2
gene 1 1 5 -0.610588 0 1 -0.610588 1
gene 1 2 5 1.07242 0 2 1.07242 1
gene 1 3 5 4.40443 0 3 4.40443 1
gene 1 4 5 -0.555735 0 4 -0.555735 1
genomeend 68

/* Organism #69 Fitness: 0.0004 Error: 0 */
genomestart 69
trait 1 0.1 0 0 0 0 0 0 0 
node 1 1 1 1
node 2 1 1 1
node 3 1 1 1
node 4 1 1 3
node 5 1 0 2
gene 1 1 5 -1.19083 0 1 -1.19083 1
gene 1 2 5 2.83682 0 2 2.83682 1
gene 1 3 5 2.19374 0 3 2.19374 1
gene 1 4 5 1.59839 0 4 1.59839 1
genomeend 69

/* Organism #70 Fitness: 0.0031 Error: 0 */
genomestart 70
trait 1 0.1 0 0 0 0 0 0 0 
node 1 1 1 1
node 2 1 1 1
node 3 1 1 1
node 4 1 1 3
node 5 1 0 2
gene 1 1 5 0.52901 0 1 0.52901 1
gene 1 2 5 2.46702 0 2 2.46702 1
gene 1 3 5 2.36499 0 3 2.36499 1
gene 1 4 5 -0.597592 0 4 -0.597592 1
genomeend 70

/* Organism #71 Fitness: 0.0021 Error: 0 */
genomestart 71
trait 1 0.1 0 0 0 0 0 0 0 
node 1 1 1 1
node 2 1 1 1
node 3 1 1 1
node 4 1 1 3
node 5 1 0 2
gene 1 1 5 2.3327 0 1 2.3327 1
gene 1 2 5 1.97818 0 2 1.97818 1
gene 1 3 5 1.58146 0 3 1.58146 1
gene 1 4 5 -0.988413 0 4 -0.988413 1
genomeend 71

/* Organism #72 Fitness: 0.0042 Error: 0 */
genomestart 72
trait 1 0.1 0 0 0 0 0 0 0 
node 1 1 1 1
node 2 1 1 1
node 3 1 1 1
node 4 1 1 3
node 5 1 0 2
gene 1 1 5 -1.56482 0 1 -1.56482 1
gene 1 2 5 1.64755 0 2 1.64755 1
gene 1 3 5 2.03837 0 3 2.03837 1
gene 1 4 5 -0.79818 0 4 -0.79818 1
genomeend 72

/* Organism #73 Fitness: 0.003 Error: 0 */
genomestart 73
trait 1 0.1 0 0 0 0 0 0 0 
node 1 1 1 1
node 2 1 1 1
node 3 1 1 1
node 4 1 1 3
node 5 1 0 2
gene 1 1 5 0.52901 0 1 0.52901 1
gene 1 2 5 2.46702 0 2 2.46702 1
gene 1 3 5 2.36499 0 3 2.36499 1
gene 1 4 5 -0.79818 0 4 -0.79818 1
genomeend 73

/* Organism #74 Fitness: 0.0032 Error: 0 */
genomestart 74
trait 1 0.275636 0 0 0 0 0 0 0 
node 1 1 1 1
node 2 1 1 1
node 3 1 1 1
node 4 1 1 3
node 5 1 0 2
gene 1 1 5 -0.0135331 0 1 -0.0135331 1
gene 1 2 5 1.99819 0 2 1.99819 1
gene 1 3 5 3.55106 0 3 3.55106 1
gene 1 4 5 -0.439861 0 4 -0.439861 1
genomeend 74

/* Organism #75 Fitness: 0.0017 Error: 0 */
genomestart 75
trait 1 0.1 0 0 0 0.00768784 0.0686245 0 0 
node 1 1 1 1
node 2 1 1 1
node 3 1 1 1
node 4 1 1 3
node 5 1 0 2
gene 1 1 5 -0.194371 0 1 -0.194371 1
gene 1 2 5 1.36524 0 2 1.36524 1
gene 1 3 5 3.93374 0 3 3.93374 1
gene 1 4 5 -1.07958 0 4 -1.07958 1
genomeend 75

/* Organism #76 Fitness: 0.0031 Error: 0 */
genomestart 76
trait 1 0.1 0 0 0 0 0 0 0 
node 1 1 1 1
node 2 1 1 1
node 3 1 1 1
node 4 1 1 3
node 5 1 0 2
gene 1 1 5 1.17037 0 1 1.17037 1
gene 1 2 5 2.45608 0 2 2.45608 1
gene 1 3 5 2.83256 0 3 2.83256 1
gene 1 4 5 -0.833101 0 4 -0.833101 1
genomeend 76

/* Organism #77 Fitness: 0.0017 Error: 0 */
genomestart 77
trait 1 0.1 0 0 0 0 0 0 0 
node 1 1 1 1
node 2 1 1 1
node 3 1 1 1
node 4 1 1 3
node 5 1 0 2
gene 1 1 5 -1.02513 0 1 -1.02513 0
gene 1 2 5 1.8935 0 2 1.8935 1
gene 1 3 5 3.98028 0 3 3.98028 1
gene 1 4 5 -0.744581 0 4 -0.744581 1
gene 1 5 5 0.824916 1 183 0.824916 1
genomeend 77

/* Organism #78 Fitness: 0.0036 Error: 0 */
genomestart 78
trait 1 0.1 0 0 0 0 0 0 0 
node 1 1 1 1
node 2 1 1 1
node 3 1 1 1
node 4 1 1 3
node 5 1 0 2
gene 1 1 5 -1.25573 0 1 -1.25573 0
gene 1 2 5 1.7231 0 2 1.7231 1
gene 1 3 5 2.20168 0 3 2.20168 1
gene 1 4 5 -0.671086 0 4 -0.671086 1
genomeend 78

/* Organism #79 Fitness: 0.0027 Error: 0 */
genomestart 79
trait 1 0.1 0 0 0 0 0 0 0 
node 1 1 1 1
node 2 1 1 1
node 3 1 1 1
node 4 1 1 3
node 5 1 0 2
gene 1 1 5 -2.74745 0 1 -2.74745 1
gene 1 2 5 1.72778 0 2 1.72778 1
gene 1 3 5 5.08262 0 3 5.08262 1
gene 1 4 5 -0.810119 0 4 -0.810119 1
genomeend 79

/* Organism #80 Fitness: 0.0017 Error: 0 */
genomestart 80
trait 1 0.187818 0 0 0 0 0 0 0 
node 1 1 1 1
node 2 1 1 1
node 3 1 1 1
node 4 1 1 3
node 5 1 0 2
gene 1 1 5 -1.05863 0 1 -1.05863 1
gene 1 2 5 2.83222 0 2 2.83222 1
gene 1 3 5 3.55106 0 3 3.55106 1
gene 1 4 5 0.492488 0 4 0.492488 1
genomeend 80

/* Organism #81 Fitness: 0.0026 Error: 0 */
genomestart 81
trait 1 0.1 0 0 0 0 0 0 0 
node 1 1 1 1
node 2 1 1 1
node 3 1 1 1
node 4 1 1 3
node 5 1 0 2
gene 1 1 5 -0.695461 0 1 -0.695461 1
gene 1 2 5 1.84467 0 2 1.84467 1
gene 1 3 5 3.98455 0 3 3.98455 1
gene 1 4 5 -0.955494 0 4 -0.955494 1
genomeend 81

/* Organism #82 Fitness: 0.0031 Error: 0 */
genomestart 82
trait 1 0.1 0 0 0 0 0 0 0 
node 1 1 1 1
node 2 1 1 1
node 3 1 1 1
node 4 1 1 3
node 5 1 0 2
gene 1 1 5 1.17037 0 1 1.17037 1
gene 1 2 5 2.46702 0 2 2.46702 1
gene 1 3 5 2.36499 0 3 2.36499 1
gene 1 4 5 -0.597592 0 4 -0.597592 1
genomeend 82

/* Organism #83 Fitness: 0.0019 Error: 0 */
genomestart 83
trait 1 0.1 0 0 0 0 0 0 0 
node 1 1 1 1
node 2 1 1 1
node 3 1 1 1
node 4 1 1 3
node 5 1 0 2
gene 1 1 5 -4.06885 0 1 -4.06885 0
gene 1 2 5 2.09235 0 2 2.09235 1
gene 1 3 5 2.33727 0 3 2.33727 1
gene 1 4 5 0.613653 0 4 0.613653 1
genomeend 83

/* Organism #84 Fitness: 0.0027 Error: 0 */
genomestart 84
trait 1 0.1 0 0 0 0 0 0 0 
node 1 1 1 1
node 2 1 1 1
node 3 1 1 1
node 4 1 1 3
node 5 1 0 2
gene 1 1 5 1.67514 0 1 1.67514 1
gene 1 2 5 0.766753 0 2 0.766753 1
gene 1 3 5 2.90762 0 3 2.90762 1
gene 1 4 5 -0.695125 0 4 -0.695125 1
genomeend 84

/* Organism #85 Fitness: 0.0021 Error: 0 */
genomestart 85
trait 1 0.1 0 0 0 0 0 0 0 
node 1 1 1 1
node 2 1 1 1
node 3 1 1 1
node 4 1 1 3
node 5 1 0 2
gene 1 1 5 1.407 0 1 1.407 1
gene 1 2 5 0.766753 0 2 0.766753 1
gene 1 3 5 2.79374 0 3 2.79374 1
gene 1 4 5 -1.40734 0 4 -1.40734 1
genomeend 85

/* Organism #86 Fitness: 0.002 Error: 0 */
genomestart 86
trait 1 0.143909 0 0 0 0 0 0 0 
node 1 1 1 1
node 2 1 1 1
node 3 1 1 1
node 4 1 1 3
node 5 1 0 2
gene 1 1 5 -1.59659 0 1 -1.59659 1
gene 1 2 5 1.46677 0 2 1.46677 1
gene 1 3 5 3.01991 0 3 3.01991 1
gene 1 4 5 -1.72044 0 4 -1.72044 1
genomeend 86

/* Organism #87 Fitness: 0.0026 Error: 0 */
genomestart 87
trait 1 0.1 0 0 0 0 0 0 0 
node 1 1 1 1
node 2 1 1 1
node 3 1 1 1
node 4 1 1 3
node 5 1 0 2
gene 1 1 5 -1.50053 0 1 -1.50053 1
gene 1 2 5 1.86877 0 2 1.86877 1
gene 1 3 5 5.37399 0 3 5.37399 1
gene 1 4 5 0.122989 0 4 0.122989 1
genomeend 87

/* Organism #88 Fitness: 0.001 Error: 0 */
genomestart 88
trait 1 0.451272 0 0.895221 0 0 0 0 0 
node 1 1 1 1
node 2 1 1 1
node 3 1 1 1
node 4 1 1 3
node 5 1 0 2
gene 1 1 5 -1.32621 0 1 -1.32621 1
gene 1 2 5 1.59868 0 2 1.59868 1
gene 1 3 5 0.828407 0 3 0.828407 1
gene 1 4 5 1.27331 0 4 1.27331 1
gene 1 5 5 -1.30686 1 55 -1.30686 1
genomeend 88

/* Organism #89 Fitness: 0.0005 Error: 0 */
genomestart 89
trait 1 0.1 0 0 0 0 0 0 0 
node 1 1 1 1
node 2 1 1 1
node 3 1 1 1
node 4 1 1 3
node 5 1 0 2
gene 1 1 5 -1.75843 0 1 -1.75843 1
gene 1 2 5 0.814991 0 2 0.814991 1
gene 1 3 5 3.52208 0 3 3.52208 1
gene 1 4 5 -2.95536 0 4 -2.95536 1
genomeend 89

/* Organism #90 Fitness: 0.0005 Error: 0 */
genomestart 90
trait 1 0.1 0 0 0 0 0 0 0 
node 1 1 1 1
node 2 1 1 1
node 3 1 1 1
node 4 1 1 3
node 5 1 0 2
gene 1 1 5 -2.81509 0 1 -2.81509 1
gene 1 2 5 -0.127468 0 2 -0.127468 1
gene 1 3 5 2.51172 0 3 2.51172 1
gene 1 4 5 -1.8872 0 4 -1.8872 1
genomeend 90

/* Species #4 : (Size 8) (AF 0.0012) (Age 4)  */


/* Organism #91 Fitness: 0.0034 Error: 0 */
genomestart 91
trait 1 0.1 0 0 0 0 0 0 0 
node 1 1 1 1
node 2 1 1 1
node 3 1 1 1
node 4 1 1 3
node 5 1 0 2
node 6 1 0 0
gene 1 1 5 0.265864 0 1 0.265864 0
gene 1 2 5 -0.695717 0 2 -0.695717 1
gene 1 3 5 0.943441 0 3 0.943441 1
gene 1 4 5 1.42442 0 4 1.42442 1
gene 1 1 6 0.157846 0 10 0.157846 1
gene 1 6 5 -1.39839 0 11 -1.39839 1
genomeend 91

/* Organism #92 Fitness: 0.0007 Error: 0 */
genomestart 92
trait 1 0.1 0 0 0 0 0 0 0 
node 1 1 1 1
node 2 1 1 1
node 3 1 1 1
node 4 1 1 3
node 5 1 0 2
node 6 1 0 0
gene 1 1 5 -1.01759 0 1 -1.01759 0
gene 1 2 5 -0.695717 0 2 -0.695717 1
gene 1 3 5 -0.934408 0 3 -0.934408 1
gene 1 4 5 1.42442 0 4 1.42442 1
gene 1 1 6 2.0373 0 10 2.0373 1
gene 1 6 5 -1.88822 0 11 -1.88822 1
gene 1 3 6 -0.854785 0 185 -0.854785 1
genomeend 92

/* Organism #93 Fitness: 0.0008 Error: 0 */
genomestart 93
trait 1 0.1 0 0 0 0 0 0 0 
node 1 1 1 1
node 2 1 1 1
node 3 1 1 1
node 4 1 1 3
node 5 1 0 2
node 6 1 0 0
gene 1 1 5 -1.01759 0 1 -1.01759 0
gene 1 2 5 0.923782 0 2 0.923782 1
gene 1 3 5 -0.934408 0 3 -0.934408 1
gene 1 4 5 0.949808 0 4 0.949808 1
gene 1 1 6 2.0373 0 10 2.0373 1
gene 1 6 5 -1.88822 0 11 -1.88822 1
genomeend 93

/* Organism #94 Fitness: 0.0007 Error: 0 */
genomestart 94
trait 1 0.1 0 0 0 0 0 0 0 
node 1 1 1 1
node 2 1 1 1
node 3 1 1 1
node 4 1 1 3
node 5 1 0 2
node 6 1 0 0
gene 1 1 5 0.116967 0 1 0.116967 1
gene 1 2 5 0.345888 0 2 0.345888 1
gene 1 3 5 0.0319319 0 3 0.0319319 1
gene 1 4 5 -0.499175 0 4 -0.499175 1
gene 1 1 6 1 0 10 0 1
gene 1 6 5 0.930015 0 11 0 1
gene 1 2 6 0.202937 0 184 0 1
genomeend 94

/* Organism #95 Fitness: 0.0028 Error: 0 */
genomestart 95
trait 1 0.1 0 0 0 0 0 0 0 
node 1 1 1 1
node 2 1 1 1
node 3 1 1 1
node 4 1 1 3
node 5 1 0 2
node 6 1 0 0
gene 1 1 5 -0.340172 0 1 -0.340172 0
gene 1 2 5 -1.21592 0 2 -1.21592 1
gene 1 3 5 3.07333 0 3 3.07333 1
gene 1 4 5 -0.781064 0 4 -0.781064 1
gene 1 1 6 -0.193626 0 10 -0.193626 1
gene 1 6 5 0.740391 0 11 0.740391 1
genomeend 95

/* Organism #96 Fitness: 0.0004 Error: 0 */
genomestart 96
trait 1 0.1 0 0 0.332293 0 0 0 0.015927 
node 1 1 1 1
node 2 1 1 1
node 3 1 1 1
node 4 1 1 3
node 5 1 0 2
node 6 1 0 0
gene 1 1 5 0.671411 0 1 0.671411 0
gene 1 2 5 -0.951995 0 2 -0.951995 1
gene 1 3 5 0.319037 0 3 0.319037 1
gene 1 4 5 -1.67508 0 4 -1.67508 1
gene 1 1 6 -0.214894 0 10 -0.214894 1
gene 1 6 5 0.122524 0 11 0.122524 1
genomeend 96

/* Organism #97 Fitness: 0.0004 Error: 0 */
genomestart 97
trait 1 0.18945 0 0 0 0 0 0.460568 0.289331 
node 1 1 1 1
node 2 1 1 1
node 3 1 1 1
node 4 1 1 3
node 5 1 0 2
node 6 1 0 0
gene 1 1 5 -0.429903 0 1 -0.429903 0
gene 1 2 5 -0.211269 0 2 -0.211269 1
gene 1 3 5 -1.04337 0 3 -1.04337 1
gene 1 4 5 1.12628 0 4 1.12628 1
gene 1 1 6 -0.125082 0 10 -0.125082 1
gene 1 6 5 0.886723 0 11 0.886723 1
genomeend 97

/* Organism #98 Fitness: 0.0004 Error: 0 */
genomestart 98
trait 1 0.1 0 0 0 0 0 0 0 
node 1 1 1 1
node 2 1 1 1
node 3 1 1 1
node 4 1 1 3
node 5 1 0 2
node 6 1 0 0
gene 1 1 5 0.48776 0 1 0.48776 0
gene 1 2 5 -0.151813 0 2 -0.151813 1
gene 1 3 5 0.300486 0 3 0.300486 1
gene 1 4 5 -2.78311 0 4 -2.78311 1
gene 1 1 6 -0.836517 0 10 -0.836517 1
gene 1 6 5 -0.167935 0 11 -0.167935 1
genomeend 98

/* Species #5 : (Size 19) (AF 0.000484211) (Age 4)  */


/* Organism #99 Fitness: 0.0005 Error: 0 */
genomestart 99
trait 1 0.233228 0.118807 0.00619258 0.0648848 0.0199966 0 0.149444 0.0245524 
node 1 1 1 1
node 2 1 1 1
node 3 1 1 1
node 4 1 1 3
node 5 1 0 2
gene 1 1 5 -2.26643 0 1 -2.26643 1
gene 1 2 5 -1.54276 0 2 -1.54276 1
gene 1 3 5 -4.3626 0 3 -4.3626 1
gene 1 4 5 -0.0981669 0 4 -0.0981669 1
genomeend 99

/* Organism #100 Fitness: 0.0004 Error: 0 */
genomestart 100
trait 1 0.1 0 0 0 0 0 0.0852848 0 
node 1 1 1 1
node 2 1 1 1
node 3 1 1 1
node 4 1 1 3
node 5 1 0 2
gene 1 1 5 -2.869 0 1 -2.869 1
gene 1 2 5 -0.303814 0 2 -0.303814 1
gene 1 3 5 -2.90005 0 3 -2.90005 1
gene 1 4 5 1.14725 0 4 1.14725 1
genomeend 100

/* Organism #101 Fitness: 0.0007 Error: 0 */
genomestart 101
trait 1 0.1 0.237614 0.0123852 0.12977 0.0201211 0.00835177 0.30785 0.197752 
node 1 1 1 1
node 2 1 1 1
node 3 1 1 1
node 4 1 1 3
node 5 1 0 2
gene 1 1 5 0.635641 0 1 0.635641 1
gene 1 2 5 -0.572187 0 2 -0.572187 1
gene 1 3 5 -3.50065 0 3 -3.50065 1
gene 1 4 5 0.199344 0 4 0.199344 1
genomeend 101

/* Organism #102 Fitness: 0.0005 Error: 0 */
genomestart 102
trait 1 0.1 0 0 0 0.00768784 0.0686245 0 0 
node 1 1 1 1
node 2 1 1 1
node 3 1 1 1
node 4 1 1 3
node 5 1 0 2
gene 1 1 5 1.1379 0 1 1.1379 1
gene 1 2 5 -3.52941 0 2 -3.52941 1
gene 1 3 5 -1.26856 0 3 -1.26856 1
gene 1 4 5 0.584097 0 4 0.584097 1
genomeend 102

/* Organism #103 Fitness: 0.0004 Error: 0 */
genomestart 103
trait 1 0.1 0 0 0 0 0 0 0 
node 1 1 1 1
node 2 1 1 1
node 3 1 1 1
node 4 1 1 3
node 5 1 0 2
gene 1 1 5 -0.12022 0 1 -0.12022 1
gene 1 2 5 -1.55552 0 2 -1.55552 1
gene 1 3 5 -2.48026 0 3 -2.48026 1
gene 1 4 5 2.30264 0 4 2.30264 1
genomeend 103

/* Organism #104 Fitness: 0.0004 Error: 0 */
genomestart 104
trait 1 0.1 0 0 0 0 0 0.341139 0 
node 1 1 1 1
node 2 1 1 1
node 3 1 1 1
node 4 1 1 3
node 5 1 0 2
gene 1 1 5 -3.30945 0 1 -3.30945 1
gene 1 2 5 -2.04516 0 2 -2.04516 1
gene 1 3 5 -2.5889 0 3 -2.5889 1
gene 1 4 5 -0.770741 0 4 -0.770741 1
genomeend 104

/* Organism #105 Fitness: 0.0004 Error: 0 */
genomestart 105
trait 1 0.1 0 0 0 0 0 0.341139 0 
node 1 1 1 1
node 2 1 1 1
node 3 1 1 1
node 4 1 1 3
node 5 1 0 2
gene 1 1 5 -3.30945 0 1 -3.30945 1
gene 1 2 5 -2.04516 0 2 -2.04516 1
gene 1 3 5 -2.5889 0 3 -2.5889 1
gene 1 4 5 -0.770741 0 4 -0.770741 1
genomeend 105

/* Organism #106 Fitness: 0.0004 Error: 0 */
genomestart 106
trait 1 0.09375 0 0 0 0.0360151 0.0343122 0.0206594 0.0174813 
node 1 1 1 1
node 2 1 1 1
node 3 1 1 1
node 4 1 1 3
node 5 1 0 2
gene 1 1 5 0.810023 0 1 0.810023 1
gene 1 2 5 -3.67121 0 2 -3.67121 1
gene 1 3 5 -2.87965 0 3 -2.87965 1
gene 1 4 5 0.101801 0 4 0.101801 1
genomeend 106

/* Organism #107 Fitness: 0.0006 Error: 0 */
genomestart 107
trait 1 0.1 0 0 0 0.00768784 0.0686245 0 0 
node 1 1 1 1
node 2 1 1 1
node 3 1 1 1
node 4 1 1 3
node 5 1 0 2
gene 1 1 5 0.993859 0 1 0.993859 1
gene 1 2 5 -3.29092 0 2 -3.29092 1
gene 1 3 5 -3.0648 0 3 -3.0648 1
gene 1 4 5 1.06963 0 4 1.06963 1
genomeend 107

/* Organism #108 Fitness: 0.0005 Error: 0 */
genomestart 108
trait 1 0.98006 0 0 0 0.798471 0.0783986 0.0284875 0 
node 1 1 1 1
node 2 1 1 1
node 3 1 1 1
node 4 1 1 3
node 5 1 0 2
gene 1 1 5 0.190366 0 1 0.190366 1
gene 1 2 5 -3.56172 0 2 -3.56172 1
gene 1 3 5 -2.45919 0 3 -2.45919 1
gene 1 4 5 0.419678 0 4 0.419678 1
gene 1 5 5 0.300152 1 67 0.300152 1
genomeend 108

/* Organism #109 Fitness: 0.0007 Error: 0 */
genomestart 109
trait 1 0.54003 0 0 0 0.414611 0.176448 0.0142437 0 
node 1 1 1 1
node 2 1 1 1
node 3 1 1 1
node 4 1 1 3
node 5 1 0 2
gene 1 1 5 -0.818901 0 1 -0.818901 1
gene 1 2 5 -4.54766 0 2 -4.54766 1
gene 1 3 5 -2.55473 0 3 -2.55473 1
gene 1 4 5 1.50633 0 4 1.50633 1
gene 1 5 5 -1.63536 1 67 -1.63536 1
genomeend 109

/* Organism #110 Fitness: 0.0004 Error: 0 */
genomestart 110
trait 1 0.1 0 0 0 0.0307514 0.274498 0 0 
node 1 1 1 1
node 2 1 1 1
node 3 1 1 1
node 4 1 1 3
node 5 1 0 2
gene 1 1 5 0.252776 0 1 0.252776 1
gene 1 2 5 -1.70368 0 2 -1.70368 1
gene 1 3 5 -3.46443 0 3 -3.46443 1
gene 1 4 5 -0.896397 0 4 -0.896397 1
gene 1 5 5 -0.812848 1 67 -0.812848 1
genomeend 110

/* Organism #111 Fitness: 0.0005 Error: 0 */
genomestart 111
trait 1 0.54003 0 0 0 0.414611 0.176448 0.0142437 0 
node 1 1 1 1
node 2 1 1 1
node 3 1 1 1
node 4 1 1 3
node 5 1 0 2
gene 1 1 5 0.190366 0 1 0.190366 1
gene 1 2 5 -3.56172 0 2 -3.56172 1
gene 1 3 5 -2.45919 0 3 -2.45919 1
gene 1 4 5 0.419678 0 4 0.419678 1
gene 1 5 5 0.300152 1 67 0.300152 1
genomeend 111

/* Organism #112 Fitness: 0.0004 Error: 0 */
genomestart 112
trait 1 0.1 0 0 0 0 0 0 0 
node 1 1 1 1
node 2 1 1 1
node 3 1 1 1
node 4 1 1 3
node 5 1 0 2
gene 1 1 5 0.923761 0 1 0.923761 1
gene 1 2 5 -1.49528 0 2 -1.49528 1
gene 1 3 5 -2.88459 0 3 -2.88459 1
gene 1 4 5 2.52626 0 4 2.52626 1
genomeend 112

/* Organism #113 Fitness: 0.0004 Error: 0 */
genomestart 113
trait 1 0.1 0 0 0 0 0 0 0 
node 1 1 1 1
node 2 1 1 1
node 3 1 1 1
node 4 1 1 3
node 5 1 0 2
gene 1 1 5 -0.878931 0 1 -0.878931 1
gene 1 2 5 -1.49528 0 2 -1.49528 1
gene 1 3 5 -2.66249 0 3 -2.66249 1
gene 1 4 5 2.84966 0 4 2.84966 1
gene 1 5 5 0.177485 1 156 0.177485 1
genomeend 113

/* Organism #114 Fitness: 0.0004 Error: 0 */
genomestart 114
trait 1 0.1 0 0 0 0 0 0 0 
node 1 1 1 1
node 2 1 1 1
node 3 1 1 1
node 4 1 1 3
node 5 1 0 2
gene 1 1 5 -1.08803 0 1 -1.08803 1
gene 1 2 5 -2.41622 0 2 -2.41622 1
gene 1 3 5 -2.20734 0 3 -2.20734 1
gene 1 4 5 -1.9919 0 4 -1.9919 1
gene 1 5 5 -3.60585 1 51 -3.60585 1
genomeend 114

/* Organism #115 Fitness: 0.0004 Error: 0 */
genomestart 115
trait 1 0.1 0 0 0 0 0 0 0 
node 1 1 1 1
node 2 1 1 1
node 3 1 1 1
node 4 1 1 3
node 5 1 0 2
gene 1 1 5 -0.899803 0 1 -0.899803 1
gene 1 2 5 -0.417212 0 2 -0.417212 1
gene 1 3 5 -2.73194 0 3 -2.73194 1
gene 1 4 5 -0.532632 0 4 -0.532632 1
gene 1 5 5 -1.91409 1 51 -1.91409 1
genomeend 115

/* Organism #116 Fitness: 0.0006 Error: 0 */
genomestart 116
trait 1 0.53965 0 0 0 0 0.0836292 0.341139 0 
node 1 1 1 1
node 2 1 1 1
node 3 1 1 1
node 4 1 1 3
node 5 1 0 2
gene 1 1 5 -3.25349 0 1 -3.25349 1
gene 1 2 5 -3.44224 0 2 -3.44224 1
gene 1 3 5 -3.7225 0 3 -3.7225 1
gene 1 4 5 1.11049 0 4 1.11049 1
genomeend 116

/* Organism #117 Fitness: 0.0006 Error: 0 */
genomestart 117
trait 1 0.1 0 0 0 0 0 0.341139 0 
node 1 1 1 1
node 2 1 1 1
node 3 1 1 1
node 4 1 1 3
node 5 1 0 2
gene 1 1 5 -1.11708 0 1 -1.11708 1
gene 1 2 5 -2.86368 0 2 -2.86368 1
gene 1 3 5 -4.9644 0 3 -4.9644 1
gene 1 4 5 0.660549 0 4 0.660549 1
genomeend 117

/* Species #6 : (Size 31) (AF 0.0022871) (Age 4)  */


/* Organism #118 Fitness: 0.0032 Error: 0 */
genomestart 118
trait 1 0.187818 0 0 0 0 0 0 0 
node 1 1 1 1
node 2 1 1 1
node 3 1 1 1
node 4 1 1 3
node 5 1 0 2
gene 1 1 5 2.67486 0 1 2.67486 1
gene 1 2 5 2.45608 0 2 2.45608 1
gene 1 3 5 3.55106 0 3 3.55106 1
gene 1 4 5 -0.833101 0 4 -0.833101 1
genomeend 118

/* Organism #119 Fitness: 0.0058 Error: 0 */
genomestart 119
trait 1 0.1 0 0 0 0 0 0 0 
node 1 1 1 1
node 2 1 1 1
node 3 1 1 1
node 4 1 1 3
node 5 1 0 2
gene 1 1 5 2.34532 0 1 2.34532 1
gene 1 2 5 1.94328 0 2 1.94328 1
gene 1 3 5 1.87751 0 3 1.87751 1
gene 1 4 5 -0.322828 0 4 -0.322828 1
gene 1 5 5 -0.800131 1 74 -0.800131 1
genomeend 119

/* Organism #120 Fitness: 0.0037 Error: 0 */
genomestart 120
trait 1 0.1 0 0 0 0 0 0 0 
node 1 1 1 1
node 2 1 1 1
node 3 1 1 1
node 4 1 1 3
node 5 1 0 2
gene 1 1 5 3.1416 0 1 3.1416 1
gene 1 2 5 2.05642 0 2 2.05642 1
gene 1 3 5 3.25776 0 3 3.25776 1
gene 1 4 5 -0.0730431 0 4 -0.0730431 1
gene 1 5 5 -0.800131 1 74 -0.800131 1
genomeend 120

/* Organism #121 Fitness: 0.0005 Error: 0 */
genomestart 121
trait 1 0.399941 0 0 0 0.317783 0 0.404782 0 
node 1 1 1 1
node 2 1 1 1
node 3 1 1 1
node 4 1 1 3
node 5 1 0 2
gene 1 1 5 3.90614 0 1 3.90614 1
gene 1 2 5 2.72145 0 2 2.72145 1
gene 1 3 5 1.86877 0 3 1.86877 1
gene 1 4 5 -2.01889 0 4 -2.01889 1
gene 1 5 5 -1.62406 1 74 -1.62406 1
genomeend 121

/* Organism #122 Fitness: 0.0021 Error: 0 */
genomestart 122
trait 1 0.1 0 0 0 0 0 0 0 
node 1 1 1 1
node 2 1 1 1
node 3 1 1 1
node 4 1 1 3
node 5 1 0 2
gene 1 1 5 0.860315 0 1 0.860315 1
gene 1 2 5 4.34695 0 2 4.34695 1
gene 1 3 5 2.84068 0 3 2.84068 1
gene 1 4 5 0.611821 0 4 0.611821 1
gene 1 5 5 -1.49238 1 74 -1.49238 1
genomeend 122

/* Organism #123 Fitness: 0.0032 Error: 0 */
genomestart 123
trait 1 0.143909 0 0 0 0 0 0 0 
node 1 1 1 1
node 2 1 1 1
node 3 1 1 1
node 4 1 1 3
node 5 1 0 2
gene 1 1 5 4.26646 0 1 4.26646 1
gene 1 2 5 2.54187 0 2 2.54187 1
gene 1 3 5 3.12271 0 3 3.12271 1
gene 1 4 5 -0.744587 0 4 -0.744587 1
gene 1 5 5 -1.43607 1 74 -1.43607 1
genomeend 123

/* Organism #124 Fitness: 0.0031 Error: 0 */
genomestart 124
trait 1 0.1 0 0 0 0 0 0 0 
node 1 1 1 1
node 2 1 1 1
node 3 1 1 1
node 4 1 1 3
node 5 1 0 2
gene 1 1 5 2.65142 0 1 2.65142 1
gene 1 2 5 1.72514 0 2 1.72514 1
gene 1 3 5 2.83256 0 3 2.83256 1
gene 1 4 5 -0.348574 0 4 -0.348574 1
genomeend 124

/* Organism #125 Fitness: 0.003 Error: 0 */
genomestart 125
trait 1 0.1 0 0 0 0 0 0 0 
node 1 1 1 1
node 2 1 1 1
node 3 1 1 1
node 4 1 1 3
node 5 1 0 2
gene 1 1 5 0.39881 0 1 0.39881 1
gene 1 2 5 3.64975 0 2 3.64975 1
gene 1 3 5 2.03704 0 3 2.03704 1
gene 1 4 5 -0.904764 0 4 -0.904764 1
gene 1 5 5 -1.03917 1 74 -1.03917 1
genomeend 125

/* Organism #126 Fitness: 0.0025 Error: 0 */
genomestart 126
trait 1 0.1 0 0 0 0 0 0 0 
node 1 1 1 1
node 2 1 1 1
node 3 1 1 1
node 4 1 1 3
node 5 1 0 2
gene 1 1 5 2.97905 0 1 2.97905 1
gene 1 2 5 2.41504 0 2 2.41504 1
gene 1 3 5 2.94049 0 3 2.94049 1
gene 1 4 5 -0.387816 0 4 -0.387816 1
genomeend 126

/* Organism #127 Fitness: 0.0035 Error: 0 */
genomestart 127
trait 1 0.143909 0 0 0 0 0 0 0 
node 1 1 1 1
node 2 1 1 1
node 3 1 1 1
node 4 1 1 3
node 5 1 0 2
gene 1 1 5 3.13263 0 1 3.13263 1
gene 1 2 5 2.09061 0 2 2.09061 1
gene 1 3 5 3.80564 0 3 3.80564 1
gene 1 4 5 -0.590837 0 4 -0.590837 1
genomeend 127

/* Organism #128 Fitness: 0.0049 Error: 0 */
genomestart 128
trait 1 0.1 0 0 0 0 0 0 0 
node 1 1 1 1
node 2 1 1 1
node 3 1 1 1
node 4 1 1 3
node 5 1 0 2
gene 1 1 5 2.34532 0 1 2.34532 1
gene 1 2 5 1.94328 0 2 1.94328 1
gene 1 3 5 1.82148 0 3 1.82148 1
gene 1 4 5 -0.322828 0 4 -0.322828 1
gene 1 5 5 -0.800131 1 74 -0.800131 1
genomeend 128

/* Organism #129 Fitness: 0.0032 Error: 0 */
genomestart 129
trait 1 0.143909 0 0 0 0 0 0 0 
node 1 1 1 1
node 2 1 1 1
node 3 1 1 1
node 4 1 1 3
node 5 1 0 2
gene 1 1 5 2.52128 0 1 2.52128 1
gene 1 2 5 2.78051 0 2 2.78051 1
gene 1 3 5 2.68591 0 3 2.68591 1
gene 1 4 5 -0.63008 0 4 -0.63008 1
gene 1 5 5 -1.35437 1 74 -1.35437 1
genomeend 129

/* Organism #130 Fitness: 0.0018 Error: 0 */
genomestart 130
trait 1 0.0939091 0 0 0 0 0 0 0 
node 1 1 1 1
node 2 1 1 1
node 3 1 1 1
node 4 1 1 3
node 5 1 0 2
gene 1 1 5 2.66314 0 1 2.66314 1
gene 1 2 5 1.61142 0 2 1.61142 1
gene 1 3 5 3.19181 0 3 3.19181 1
gene 1 4 5 -1.24027 0 4 -1.24027 1
genomeend 130

/* Organism #131 Fitness: 0.0029 Error: 0 */
genomestart 131
trait 1 0.1 0 0 0 0 0 0 0 
node 1 1 1 1
node 2 1 1 1
node 3 1 1 1
node 4 1 1 3
node 5 1 0 2
gene 1 1 5 3.02665 0 1 3.02665 1
gene 1 2 5 1.94896 0 2 1.94896 1
gene 1 3 5 4.59181 0 3 4.59181 1
gene 1 4 5 -0.852427 0 4 -0.852427 1
genomeend 131

/* Organism #132 Fitness: 0.0041 Error: 0 */
genomestart 132
trait 1 0.1 0 0 0 0 0 0 0 
node 1 1 1 1
node 2 1 1 1
node 3 1 1 1
node 4 1 1 3
node 5 1 0 2
gene 1 1 5 2.67211 0 1 2.67211 1
gene 1 2 5 1.57722 0 2 1.57722 1
gene 1 3 5 2.64393 0 3 2.64393 1
gene 1 4 5 -0.722477 0 4 -0.722477 1
gene 1 5 5 -0.800131 1 74 -0.800131 1
genomeend 132

/* Organism #133 Fitness: 0.0018 Error: 0 */
genomestart 133
trait 1 0.05 0 0 0 0 0 0 0 
node 1 1 1 1
node 2 1 1 1
node 3 1 1 1
node 4 1 1 3
node 5 1 0 2
gene 1 1 5 2.28475 0 1 2.28475 1
gene 1 2 5 2.98827 0 2 2.98827 1
gene 1 3 5 2.83256 0 3 2.83256 1
gene 1 4 5 -1.64744 0 4 -1.64744 1
genomeend 133

/* Organism #134 Fitness: 0.0006 Error: 0 */
genomestart 134
trait 1 0.1 0 0 0 0 0 0 0 
node 1 1 1 1
node 2 1 1 1
node 3 1 1 1
node 4 1 1 3
node 5 1 0 2
gene 1 1 5 3.53877 0 1 3.53877 1
gene 1 2 5 1.96317 0 2 1.96317 1
gene 1 3 5 1.88761 0 3 1.88761 1
gene 1 4 5 -1.8808 0 4 -1.8808 1
genomeend 134

/* Organism #135 Fitness: 0.0018 Error: 0 */
genomestart 135
trait 1 0 0 0 0 0.675293 0 0 0 
node 1 1 1 1
node 2 1 1 1
node 3 1 1 1
node 4 1 1 3
node 5 1 0 2
gene 1 1 5 3.56076 0 1 3.56076 1
gene 1 2 5 1.81417 0 2 1.81417 1
gene 1 3 5 3.31452 0 3 3.31452 1
gene 1 4 5 -1.31312 0 4 -1.31312 1
genomeend 135

/* Organism #136 Fitness: 0.0005 Error: 0 */
genomestart 136
trait 1 0.1 0 0 0 0 0 0 0 
node 1 1 1 1
node 2 1 1 1
node 3 1 1 1
node 4 1 1 3
node 5 1 0 2
gene 1 1 5 2.99664 0 1 2.99664 1
gene 1 2 5 1.72548 0 2 1.72548 1
gene 1 3 5 1.62325 0 3 1.62325 1
gene 1 4 5 -1.78324 0 4 -1.78324 1
genomeend 136

/* Organism #137 Fitness: 0.0018 Error: 0 */
genomestart 137
trait 1 0.1 0 0 0 0 0 0 0 
node 1 1 1 1
node 2 1 1 1
node 3 1 1 1
node 4 1 1 3
node 5 1 0 2
gene 1 1 5 4.54392 0 1 4.54392 1
gene 1 2 5 1.90906 0 2 1.90906 1
gene 1 3 5 2.40945 0 3 2.40945 1
gene 1 4 5 -1.27738 0 4 -1.27738 1
genomeend 137

/* Organism #138 Fitness: 0.0018 Error: 0 */
genomestart 138
trait 1 0.1 0 0 0 0 0 0 0 
node 1 1 1 1
node 2 1 1 1
node 3 1 1 1
node 4 1 1 3
node 5 1 0 2
gene 1 1 5 2.136 0 1 2.136 1
gene 1 2 5 1.70028 0 2 1.70028 1
gene 1 3 5 3.89795 0 3 3.89795 1
gene 1 4 5 -1.14967 0 4 -1.14967 1
genomeend 138

/* Organism #139 Fitness: 0.0005 Error: 0 */
genomestart 139
trait 1 0.1 0 0 0 0 0 0 0 
node 1 1 1 1
node 2 1 1 1
node 3 1 1 1
node 4 1 1 3
node 5 1 0 2
gene 1 1 5 3.59999 0 1 3.59999 1
gene 1 2 5 3.28418 0 2 3.28418 1
gene 1 3 5 1.52271 0 3 1.52271 1
gene 1 4 5 0.516913 0 4 0.516913 1
genomeend 139

/* Organism #140 Fitness: 0.0016 Error: 0 */
genomestart 140
trait 1 0.1 0 0 0 0 0 0 0 
node 1 1 1 1
node 2 1 1 1
node 3 1 1 1
node 4 1 1 3
node 5 1 0 2
gene 1 1 5 2.27756 0 1 2.27756 1
gene 1 2 5 3.7905 0 2 3.7905 1
gene 1 3 5 3.67239 0 3 3.67239 1
gene 1 4 5 -0.128103 0 4 -0.128103 1
genomeend 140

/* Organism #141 Fitness: 0.0006 Error: 0 */
genomestart 141
trait 1 0.1 0 0.322933 0 0 0 0 0.334064 
node 1 1 1 1
node 2 1 1 1
node 3 1 1 1
node 4 1 1 3
node 5 1 0 2
gene 1 1 5 1.78633 0 1 1.78633 1
gene 1 2 5 3.29784 0 2 3.29784 1
gene 1 3 5 0.582901 0 3 0.582901 1
gene 1 4 5 -0.229858 0 4 -0.229858 1
genomeend 141

/* Organism #142 Fitness: 0.0019 Error: 0 */
genomestart 142
trait 1 0.1 0 0 0 0 0 0 0 
node 1 1 1 1
node 2 1 1 1
node 3 1 1 1
node 4 1 1 3
node 5 1 0 2
gene 1 1 5 2.45555 0 1 2.45555 1
gene 1 2 5 2.30556 0 2 2.30556 1
gene 1 3 5 1.24931 0 3 1.24931 1
gene 1 4 5 -1.1858 0 4 -1.1858 1
genomeend 142

/* Organism #143 Fitness: 0.0007 Error: 0 */
genomestart 143
trait 1 0.1 0 0 0 0 0 0 0 
node 1 1 1 1
node 2 1 1 1
node 3 1 1 1
node 4 1 1 3
node 5 1 0 2
gene 1 1 5 1.35407 0 1 1.35407 1
gene 1 2 5 1.463 0 2 1.463 1
gene 1 3 5 -0.564519 0 3 -0.564519 1
gene 1 4 5 -0.16332 0 4 -0.16332 1
gene 1 5 5 -1.21675 1 74 -1.21675 1
genomeend 143

/* Organism #144 Fitness: 0.0025 Error: 0 */
genomestart 144
trait 1 0.1 0 0 0 0 0 0 0 
node 1 1 1 1
node 2 1 1 1
node 3 1 1 1
node 4 1 1 3
node 5 1 0 2
gene 1 1 5 1.68335 0 1 1.68335 1
gene 1 2 5 0.113071 0 2 0.113071 1
gene 1 3 5 3.27925 0 3 3.27925 1
gene 1 4 5 0.761703 0 4 0.761703 1
gene 1 5 5 0.273301 1 74 0.273301 1
genomeend 144

/* Organism #145 Fitness: 0.0027 Error: 0 */
genomestart 145
trait 1 0.1 0 0 0 0 0 0 0 
node 1 1 1 1
node 2 1 1 1
node 3 1 1 1
node 4 1 1 3
node 5 1 0 2
gene 1 1 5 2.09849 0 1 2.09849 1
gene 1 2 5 -0.280055 0 2 -0.280055 1
gene 1 3 5 2.87709 0 3 2.87709 1
gene 1 4 5 2.17555 0 4 2.17555 1
gene 1 5 5 -1.05216 1 74 -1.05216 1
genomeend 145

/* Organism #146 Fitness: 0.0037 Error: 0 */
genomestart 146
trait 1 0.1 0 0 0 0 0.206855 0 0 
node 1 1 1 1
node 2 1 1 1
node 3 1 1 1
node 4 1 1 3
node 5 1 0 2
gene 1 1 5 2.06046 0 1 2.06046 1
gene 1 2 5 1.93259 0 2 1.93259 1
gene 1 3 5 4.78743 0 3 4.78743 1
gene 1 4 5 -0.741209 0 4 -0.741209 1
genomeend 146

/* Organism #147 Fitness: 0.0005 Error: 0 */
genomestart 147
trait 1 0.1 0 0 0 0 0 0 0 
node 1 1 1 1
node 2 1 1 1
node 3 1 1 1
node 4 1 1 3
node 5 1 0 2
gene 1 1 5 1.84963 0 1 1.84963 1
gene 1 2 5 1.55871 0 2 1.55871 1
gene 1 3 5 0.731244 0 3 0.731244 1
gene 1 4 5 -1.36997 0 4 -1.36997 1
genomeend 147

/* Organism #148 Fitness: 0.0004 Error: 0 */
genomestart 148
trait 1 0.331581 0.488768 0 0 0.244678 0 0 0 
node 1 1 1 1
node 2 1 1 1
node 3 1 1 1
node 4 1 1 3
node 5 1 0 2
gene 1 1 5 1.63622 0 1 1.63622 1
gene 1 2 5 1.52297 0 2 1.52297 1
gene 1 3 5 3.19573 0 3 3.19573 1
gene 1 4 5 0.990932 0 4 0.990932 1
gene 1 5 5 2.07267 1 74 2.07267 1
genomeend 148

/* Species #7 : (Size 4) (AF 0.000625) (Age 4)  */


/* Organism #149 Fitness: 0.0012 Error: 0 */
genomestart 149
trait 1 0.1 0 0 0 0 0 0 0 
node 1 1 1 1
node 2 1 1 1
node 3 1 1 1
node 4 1 1 3
node 5 1 0 2
node 7 1 0 0
gene 1 1 5 2.8583 0 1 2.8583 1
gene 1 2 5 -1.62665 0 2 -1.62665 1
gene 1 3 5 -0.775694 0 3 -0.775694 0
gene 1 4 5 2.13515 0 4 2.13515 1
gene 1 3 7 -0.466802 0 18 -0.466802 1
gene 1 7 5 -1.75146 0 19 -1.75146 1
genomeend 149

/* Organism #150 Fitness: 0.0005 Error: 0 */
genomestart 150
trait 1 0.1 0 0 0 0 0 0 0 
node 1 1 1 1
node 2 1 1 1
node 3 1 1 1
node 4 1 1 3
node 5 1 0 2
node 7 1 0 0
gene 1 1 5 2.33258 0 1 2.33258 1
gene 1 2 5 -0.516079 0 2 -0.516079 1
gene 1 3 5 0.475721 0 3 0.475721 0
gene 1 4 5 1.15079 0 4 1.15079 1
gene 1 3 7 -0.466802 0 18 -0.466802 1
gene 1 7 5 -0.912627 0 19 -0.912627 1
gene 1 7 7 -0.630893 1 194 -0.630893 1
genomeend 150

/* Organism #151 Fitness: 0.0004 Error: 0 */
genomestart 151
trait 1 0.1 0 0 0 0 0 0 0 
node 1 1 1 1
node 2 1 1 1
node 3 1 1 1
node 4 1 1 3
node 5 1 0 2
node 7 1 0 0
gene 1 1 5 1.6772 0 1 1.6772 1
gene 1 2 5 -1.23038 0 2 -1.23038 1
gene 1 3 5 -1.94672 0 3 -1.94672 0
gene 1 4 5 1.90376 0 4 1.90376 1
gene 1 3 7 2.9384 0 18 2.9384 1
gene 1 7 5 -0.45603 0 19 -0.45603 1
genomeend 151

/* Organism #152 Fitness: 0.0004 Error: 0 */
genomestart 152
trait 1 0.1 0 0 0 0 0 0 0 
node 1 1 1 1
node 2 1 1 1
node 3 1 1 1
node 4 1 1 3
node 5 1 0 2
node 7 1 0 0
gene 1 1 5 -0.428796 0 1 -0.428796 1
gene 1 2 5 -0.303778 0 2 -0.303778 1
gene 1 3 5 -1.41141 0 3 -1.41141 0
gene 1 4 5 2.18019 0 4 2.18019 1
gene 1 3 7 0.856439 0 18 0.856439 1
gene 1 7 5 -1.29009 0 19 -1.29009 1
genomeend 152

/* Species #8 : (Size 52) (AF 0.00192692) (Age 4)  */


/* Organism #153 Fitness: 0.002 Error: 0 */
genomestart 153
trait 1 0.1 0 0 0 0 0 0 0 
node 1 1 1 1
node 2 1 1 1
node 3 1 1 1
node 4 1 1 3
node 5 1 0 2
gene 1 1 5 3.1625 0 1 3.1625 1
gene 1 2 5 2.9084 0 2 2.9084 1
gene 1 3 5 2.77745 0 3 2.77745 1
gene 1 4 5 -2.11691 0 4 -2.11691 1
genomeend 153

/* Organism #154 Fitness: 0.0004 Error: 0 */
genomestart 154
trait 1 0.1 0 0 0 0 0 0 0 
node 1 1 1 1
node 2 1 1 1
node 3 1 1 1
node 4 1 1 3
node 5 1 0 2
gene 1 1 5 3.91504 0 1 3.91504 1
gene 1 2 5 1.01794 0 2 1.01794 1
gene 1 3 5 0.997761 0 3 0.997761 1
gene 1 4 5 -1.64469 0 4 -1.64469 1
genomeend 154

/* Organism #155 Fitness: 0.0004 Error: 0 */
genomestart 155
trait 1 0.1 0 0 0 0 0 0 0 
node 1 1 1 1
node 2 1 1 1
node 3 1 1 1
node 4 1 1 3
node 5 1 0 2
gene 1 1 5 1.02114 0 1 1.02114 1
gene 1 2 5 0.399584 0 2 0.399584 1
gene 1 3 5 2.39356 0 3 2.39356 1
gene 1 4 5 -2.65915 0 4 -2.65915 1
genomeend 155

/* Organism #156 Fitness: 0.0011 Error: 0 */
genomestart 156
trait 1 0.1 0 0 0 0 0 0 0 
node 1 1 1 1
node 2 1 1 1
node 3 1 1 1
node 4 1 1 3
node 5 1 0 2
node 16 1 0 0
gene 1 1 5 2.65142 0 1 2.65142 0
gene 1 2 5 0.766753 0 2 0.766753 1
gene 1 3 5 2.83256 0 3 2.83256 1
gene 1 4 5 -1.64744 0 4 -1.64744 1
gene 1 1 16 1 0 186 0 1
gene 1 16 5 2.65142 0 187 0 1
genomeend 156

/* Organism #157 Fitness: 0.0024 Error: 0 */
genomestart 157
trait 1 0.1 0 0 0 0 0 0 0 
node 1 1 1 1
node 2 1 1 1
node 3 1 1 1
node 4 1 1 3
node 5 1 0 2
gene 1 1 5 2.94214 0 1 2.94214 1
gene 1 2 5 0.632921 0 2 0.632921 1
gene 1 3 5 2.80246 0 3 2.80246 1
gene 1 4 5 -1.51079 0 4 -1.51079 1
genomeend 157

/* Organism #158 Fitness: 0.002 Error: 0 */
genomestart 158
trait 1 0.1 0 0 0 0 0 0 0 
node 1 1 1 1
node 2 1 1 1
node 3 1 1 1
node 4 1 1 3
node 5 1 0 2
gene 1 1 5 3.29149 0 1 3.29149 1
gene 1 2 5 0.156302 0 2 0.156302 1
gene 1 3 5 3.84048 0 3 3.84048 1
gene 1 4 5 -1.44708 0 4 -1.44708 1
genomeend 158

/* Organism #159 Fitness: 0.0023 Error: 0 */
genomestart 159
trait 1 0.1 0 0 0 0 0 0 0 
node 1 1 1 1
node 2 1 1 1
node 3 1 1 1
node 4 1 1 3
node 5 1 0 2
gene 1 1 5 3.1625 0 1 3.1625 1
gene 1 2 5 0.593251 0 2 0.593251 1
gene 1 3 5 3.39926 0 3 3.39926 1
gene 1 4 5 -1.60473 0 4 -1.60473 1
genomeend 159

/* Organism #160 Fitness: 0.0024 Error: 0 */
genomestart 160
trait 1 0.1 0 0 0 0 0 0 0 
node 1 1 1 1
node 2 1 1 1
node 3 1 1 1
node 4 1 1 3
node 5 1 0 2
gene 1 1 5 4.71245 0 1 4.71245 1
gene 1 2 5 0.699837 0 2 0.699837 1
gene 1 3 5 5.06919 0 3 5.06919 1
gene 1 4 5 -0.782415 0 4 -0.782415 1
genomeend 160

/* Organism #161 Fitness: 0.0024 Error: 0 */
genomestart 161
trait 1 0.1 0 0 0 0 0 0 0 
node 1 1 1 1
node 2 1 1 1
node 3 1 1 1
node 4 1 1 3
node 5 1 0 2
gene 1 1 5 2.94214 0 1 2.94214 1
gene 1 2 5 0.632921 0 2 0.632921 1
gene 1 3 5 2.80246 0 3 2.80246 1
gene 1 4 5 -1.51079 0 4 -1.51079 1
genomeend 161

/* Organism #162 Fitness: 0.0006 Error: 0 */
genomestart 162
trait 1 0.1 0 0 0 0 0 0 0 
node 1 1 1 1
node 2 1 1 1
node 3 1 1 1
node 4 1 1 3
node 5 1 0 2
gene 1 1 5 3.38356 0 1 3.38356 1
gene 1 2 5 0.399584 0 2 0.399584 1
gene 1 3 5 2.39356 0 3 2.39356 1
gene 1 4 5 -1.60473 0 4 -1.60473 1
genomeend 162

/* Organism #163 Fitness: 0.0006 Error: 0 */
genomestart 163
trait 1 0.1 0 0 0 0 0 0 0 
node 1 1 1 1
node 2 1 1 1
node 3 1 1 1
node 4 1 1 3
node 5 1 0 2
gene 1 1 5 2.56842 0 1 2.56842 1
gene 1 2 5 0.583168 0 2 0.583168 1
gene 1 3 5 3.17976 0 3 3.17976 1
gene 1 4 5 -2.1533 0 4 -2.1533 1
genomeend 163

/* Organism #164 Fitness: 0.0005 Error: 0 */
genomestart 164
trait 1 0.1 0 0 0 0 0 0 0 
node 1 1 1 1
node 2 1 1 1
node 3 1 1 1
node 4 1 1 3
node 5 1 0 2
gene 1 1 5 3.38356 0 1 3.38356 1
gene 1 2 5 0.399584 0 2 0.399584 1
gene 1 3 5 3.39926 0 3 3.39926 1
gene 1 4 5 -2.65915 0 4 -2.65915 1
genomeend 164

/* Organism #165 Fitness: 0.0021 Error: 0 */
genomestart 165
trait 1 0.1 0 0 0 0 0 0 0 
node 1 1 1 1
node 2 1 1 1
node 3 1 1 1
node 4 1 1 3
node 5 1 0 2
gene 1 1 5 2.04446 0 1 2.04446 1
gene 1 2 5 0.387961 0 2 0.387961 1
gene 1 3 5 5.13206 0 3 5.13206 1
gene 1 4 5 -2.19804 0 4 -2.19804 1
genomeend 165

/* Organism #166 Fitness: 0.0024 Error: 0 */
genomestart 166
trait 1 0.1 0 0 0 0 0 0 0 
node 1 1 1 1
node 2 1 1 1
node 3 1 1 1
node 4 1 1 3
node 5 1 0 2
gene 1 1 5 2.94214 0 1 2.94214 1
gene 1 2 5 0.632921 0 2 0.632921 1
gene 1 3 5 2.80246 0 3 2.80246 1
gene 1 4 5 -1.51079 0 4 -1.51079 1
genomeend 166

/* Organism #167 Fitness: 0.002 Error: 0 */
genomestart 167
trait 1 0.1 0 0 0 0 0 0 0 
node 1 1 1 1
node 2 1 1 1
node 3 1 1 1
node 4 1 1 3
node 5 1 0 2
gene 1 1 5 3.38356 0 1 3.38356 1
gene 1 2 5 0.766753 0 2 0.766753 1
gene 1 3 5 3.96596 0 3 3.96596 1
gene 1 4 5 -1.64744 0 4 -1.64744 1
genomeend 167

/* Organism #168 Fitness: 0.0004 Error: 0 */
genomestart 168
trait 1 0.1 0 0 0 0 0 0 0 
node 1 1 1 1
node 2 1 1 1
node 3 1 1 1
node 4 1 1 3
node 5 1 0 2
gene 1 1 5 4.11569 0 1 4.11569 1
gene 1 2 5 1.01794 0 2 1.01794 1
gene 1 3 5 0.997761 0 3 0.997761 1
gene 1 4 5 -1.64469 0 4 -1.64469 1
genomeend 168

/* Organism #169 Fitness: 0.0031 Error: 0 */
genomestart 169
trait 1 0.1 0 0 0 0 0 0 0 
node 1 1 1 1
node 2 1 1 1
node 3 1 1 1
node 4 1 1 3
node 5 1 0 2
gene 1 1 5 3.10163 0 1 3.10163 1
gene 1 2 5 2.63381 0 2 2.63381 1
gene 1 3 5 4.4493 0 3 4.4493 1
gene 1 4 5 -0.891996 0 4 -0.891996 1
genomeend 169

/* Organism #170 Fitness: 0.0021 Error: 0 */
genomestart 170
trait 1 0.1 0 0 0 0 0 0 0 
node 1 1 1 1
node 2 1 1 1
node 3 1 1 1
node 4 1 1 3
node 5 1 0 2
gene 1 1 5 1.407 0 1 1.407 1
gene 1 2 5 0.20731 0 2 0.20731 1
gene 1 3 5 2.79374 0 3 2.79374 1
gene 1 4 5 1.30458 0 4 1.30458 1
genomeend 170

/* Organism #171 Fitness: 0.0018 Error: 0 */
genomestart 171
trait 1 0.1 0 0 0 0 0 0 0 
node 1 1 1 1
node 2 1 1 1
node 3 1 1 1
node 4 1 1 3
node 5 1 0 2
gene 1 1 5 1.13785 0 1 1.13785 1
gene 1 2 5 1.1065 0 2 1.1065 1
gene 1 3 5 4.72329 0 3 4.72329 1
gene 1 4 5 -1.62066 0 4 -1.62066 1
genomeend 171

/* Organism #172 Fitness: 0.002 Error: 0 */
genomestart 172
trait 1 0.1 0 0 0 0 0 0 0 
node 1 1 1 1
node 2 1 1 1
node 3 1 1 1
node 4 1 1 3
node 5 1 0 2
gene 1 1 5 1.17037 0 1 1.17037 1
gene 1 2 5 0.766753 0 2 0.766753 1
gene 1 3 5 3.34661 0 3 3.34661 1
gene 1 4 5 -1.40734 0 4 -1.40734 1
genomeend 172

/* Organism #173 Fitness: 0.0031 Error: 0 */
genomestart 173
trait 1 0.1 0 0 0 0 0 0 0 
node 1 1 1 1
node 2 1 1 1
node 3 1 1 1
node 4 1 1 3
node 5 1 0 2
gene 1 1 5 3.67088 0 1 3.67088 1
gene 1 2 5 2.63381 0 2 2.63381 1
gene 1 3 5 4.4493 0 3 4.4493 1
gene 1 4 5 -0.891996 0 4 -0.891996 1
genomeend 173

/* Organism #174 Fitness: 0.0019 Error: 0 */
genomestart 174
trait 1 0.1 0 0 0 0 0 0 0 
node 1 1 1 1
node 2 1 1 1
node 3 1 1 1
node 4 1 1 3
node 5 1 0 2
gene 1 1 5 2.68155 0 1 2.68155 1
gene 1 2 5 0.707081 0 2 0.707081 1
gene 1 3 5 4.55447 0 3 4.55447 1
gene 1 4 5 -1.74071 0 4 -1.74071 1
genomeend 174

/* Organism #175 Fitness: 0.0024 Error: 0 */
genomestart 175
trait 1 0.1 0 0 0 0 0 0 0 
node 1 1 1 1
node 2 1 1 1
node 3 1 1 1
node 4 1 1 3
node 5 1 0 2
gene 1 1 5 1.17037 0 1 1.17037 1
gene 1 2 5 0.766753 0 2 0.766753 1
gene 1 3 5 3.51312 0 3 3.51312 1
gene 1 4 5 -1.95387 0 4 -1.95387 1
genomeend 175

/* Organism #176 Fitness: 0.0021 Error: 0 */
genomestart 176
trait 1 0.1 0 0 0 0 0 0 0 
node 1 1 1 1
node 2 1 1 1
node 3 1 1 1
node 4 1 1 3
node 5 1 0 2
gene 1 1 5 1.407 0 1 1.407 1
gene 1 2 5 0.20731 0 2 0.20731 1
gene 1 3 5 2.79374 0 3 2.79374 1
gene 1 4 5 1.30458 0 4 1.30458 1
genomeend 176

/* Organism #177 Fitness: 0.0043 Error: 0 */
genomestart 177
trait 1 0.1 0 0 0 0 0 0 0 
node 1 1 1 1
node 2 1 1 1
node 3 1 1 1
node 4 1 1 3
node 5 1 0 2
gene 1 1 5 2.42739 0 1 2.42739 1
gene 1 2 5 1.77435 0 2 1.77435 1
gene 1 3 5 3.87561 0 3 3.87561 1
gene 1 4 5 -1.10574 0 4 -1.10574 1
gene 1 5 5 -0.89556 1 192 -0.89556 1
genomeend 177

/* Organism #178 Fitness: 0.0032 Error: 0 */
genomestart 178
trait 1 0.1 0 0 0 0 0 0 0 
node 1 1 1 1
node 2 1 1 1
node 3 1 1 1
node 4 1 1 3
node 5 1 0 2
gene 1 1 5 2.42192 0 1 2.42192 1
gene 1 2 5 0.576326 0 2 0.576326 1
gene 1 3 5 4.09622 0 3 4.09622 1
gene 1 4 5 0.019417 0 4 0.019417 1
genomeend 178

/* Organism #179 Fitness: 0.0028 Error: 0 */
genomestart 179
trait 1 0.1 0 0 0 0 0 0 0 
node 1 1 1 1
node 2 1 1 1
node 3 1 1 1
node 4 1 1 3
node 5 1 0 2
gene 1 1 5 2.65142 0 1 2.65142 1
gene 1 2 5 0.766753 0 2 0.766753 1
gene 1 3 5 4.4493 0 3 4.4493 1
gene 1 4 5 -0.891996 0 4 -0.891996 1
genomeend 179

/* Organism #180 Fitness: 0.0021 Error: 0 */
genomestart 180
trait 1 0.1 0 0 0 0 0 0 0 
node 1 1 1 1
node 2 1 1 1
node 3 1 1 1
node 4 1 1 3
node 5 1 0 2
gene 1 1 5 1.37538 0 1 1.37538 1
gene 1 2 5 1.98835 0 2 1.98835 1
gene 1 3 5 4.13788 0 3 4.13788 1
gene 1 4 5 -2.43246 0 4 -2.43246 1
genomeend 180

/* Organism #181 Fitness: 0.0023 Error: 0 */
genomestart 181
trait 1 0.326757 0.16775 0.341831 0.098236 0.448249 0 0.382033 0 
node 1 1 1 1
node 2 1 1 1
node 3 1 1 1
node 4 1 1 3
node 5 1 0 2
gene 1 1 5 0.814352 0 1 0.814352 1
gene 1 2 5 0.301885 0 2 0.301885 1
gene 1 3 5 4.41364 0 3 4.41364 1
gene 1 4 5 -2.08019 0 4 -2.08019 1
genomeend 181

/* Organism #182 Fitness: 0.0018 Error: 0 */
genomestart 182
trait 1 0.1 0 0 0 0 0 0 0 
node 1 1 1 1
node 2 1 1 1
node 3 1 1 1
node 4 1 1 3
node 5 1 0 2
gene 1 1 5 1.38353 0 1 1.38353 1
gene 1 2 5 1.02933 0 2 1.02933 1
gene 1 3 5 3.61132 0 3 3.61132 1
gene 1 4 5 0.93214 0 4 0.93214 1
genomeend 182

/* Organism #183 Fitness: 0.0004 Error: 0 */
genomestart 183
trait 1 0.1 0 0 0 0 0 0 0 
node 1 1 1 1
node 2 1 1 1
node 3 1 1 1
node 4 1 1 3
node 5 1 0 2
gene 1 1 5 3.78481 0 1 3.78481 1
gene 1 2 5 1.06289 0 2 1.06289 1
gene 1 3 5 0.653102 0 3 0.653102 1
gene 1 4 5 -1.76643 0 4 -1.76643 1
gene 1 5 5 -1.58264 1 91 -1.58264 1
genomeend 183

/* Organism #184 Fitness: 0.002 Error: 0 */
genomestart 184
trait 1 0.1 0 0 0 0 0 0 0 
node 1 1 1 1
node 2 1 1 1
node 3 1 1 1
node 4 1 1 3
node 5 1 0 2
gene 1 1 5 3.7766 0 1 3.7766 1
gene 1 2 5 1.18377 0 2 1.18377 1
gene 1 3 5 5.65706 0 3 5.65706 1
gene 1 4 5 -2.57099 0 4 -2.57099 1
genomeend 184

/* Organism #185 Fitness: 0.0023 Error: 0 */
genomestart 185
trait 1 0.1 0 0 0 0 0 0 0 
node 1 1 1 1
node 2 1 1 1
node 3 1 1 1
node 4 1 1 3
node 5 1 0 2
gene 1 1 5 3.80779 0 1 3.80779 1
gene 1 2 5 0.0346688 0 2 0.0346688 1
gene 1 3 5 5.16077 0 3 5.16077 1
gene 1 4 5 -2.48683 0 4 -2.48683 1
genomeend 185

/* Organism #186 Fitness: 0.0005 Error: 0 */
genomestart 186
trait 1 0.1 0 0 0 0 0 0 0 
node 1 1 1 1
node 2 1 1 1
node 3 1 1 1
node 4 1 1 3
node 5 1 0 2
gene 1 1 5 2.17531 0 1 2.17531 1
gene 1 2 5 -0.111151 0 2 -0.111151 1
gene 1 3 5 3.8078 0 3 3.8078 1
gene 1 4 5 -3.42536 0 4 -3.42536 1
genomeend 186

/* Organism #187 Fitness: 0.0018 Error: 0 */
genomestart 187
trait 1 0.1 0 0 0 0 0 0 0 
node 1 1 1 1
node 2 1 1 1
node 3 1 1 1
node 4 1 1 3
node 5 1 0 2
gene 1 1 5 2.17531 0 1 2.17531 1
gene 1 2 5 1.67309 0 2 1.67309 1
gene 1 3 5 4.47641 0 3 4.47641 1
gene 1 4 5 -1.56202 0 4 -1.56202 1
genomeend 187

/* Organism #188 Fitness: 0.002 Error: 0 */
genomestart 188
trait 1 0.1 0 0 0 0 0 0 0 
node 1 1 1 1
node 2 1 1 1
node 3 1 1 1
node 4 1 1 3
node 5 1 0 2
gene 1 1 5 2.18644 0 1 2.18644 1
gene 1 2 5 2.0692 0 2 2.0692 1
gene 1 3 5 4.14488 0 3 4.14488 1
gene 1 4 5 -2.3481 0 4 -2.3481 1
genomeend 188

/* Organism #189 Fitness: 0.0018 Error: 0 */
genomestart 189
trait 1 0.1 0 0 0 0 0 0 0 
node 1 1 1 1
node 2 1 1 1
node 3 1 1 1
node 4 1 1 3
node 5 1 0 2
gene 1 1 5 2.17531 0 1 2.17531 1
gene 1 2 5 1.67309 0 2 1.67309 1
gene 1 3 5 4.47641 0 3 4.47641 1
gene 1 4 5 -1.37752 0 4 -1.37752 1
genomeend 189

/* Organism #190 Fitness: 0.0004 Error: 0 */
genomestart 190
trait 1 0.1 0 0 0 0 0.0410846 0 0 
node 1 1 1 1
node 2 1 1 1
node 3 1 1 1
node 4 1 1 3
node 5 1 0 2
gene 1 1 5 3.04288 0 1 3.04288 1
gene 1 2 5 0.593744 0 2 0.593744 1
gene 1 3 5 -0.67344 0 3 -0.67344 1
gene 1 4 5 -1.46277 0 4 -1.46277 1
gene 1 5 5 -0.451772 1 196 -0.451772 1
genomeend 190

/* Organism #191 Fitness: 0.0032 Error: 0 */
genomestart 191
trait 1 0.1 0 0 0 0 0 0 0 
node 1 1 1 1
node 2 1 1 1
node 3 1 1 1
node 4 1 1 3
node 5 1 0 2
gene 1 1 5 3.18025 0 1 3.18025 1
gene 1 2 5 1.91256 0 2 1.91256 1
gene 1 3 5 5.64105 0 3 5.64105 1
gene 1 4 5 -0.560215 0 4 -0.560215 1
genomeend 191

/* Organism #192 Fitness: 0.0033 Error: 0 */
genomestart 192
trait 1 0.1 0 0 0 0 0.206855 0 0 
node 1 1 1 1
node 2 1 1 1
node 3 1 1 1
node 4 1 1 3
node 5 1 0 2
gene 1 1 5 3.18025 0 1 3.18025 1
gene 1 2 5 2.84108 0 2 2.84108 1
gene 1 3 5 4.78743 0 3 4.78743 1
gene 1 4 5 -0.741209 0 4 -0.741209 1
genomeend 192

/* Organism #193 Fitness: 0.0018 Error: 0 */
genomestart 193
trait 1 0.1 0 0 0 0 0.206855 0 0 
node 1 1 1 1
node 2 1 1 1
node 3 1 1 1
node 4 1 1 3
node 5 1 0 2
gene 1 1 5 3.3296 0 1 3.3296 1
gene 1 2 5 2.60788 0 2 2.60788 1
gene 1 3 5 4.98407 0 3 4.98407 1
gene 1 4 5 -2.09851 0 4 -2.09851 1
genomeend 193

/* Organism #194 Fitness: 0.0032 Error: 0 */
genomestart 194
trait 1 0.1 0 0 0 0 0 0 0 
node 1 1 1 1
node 2 1 1 1
node 3 1 1 1
node 4 1 1 3
node 5 1 0 2
gene 1 1 5 3.18025 0 1 3.18025 1
gene 1 2 5 1.91256 0 2 1.91256 1
gene 1 3 5 5.64105 0 3 5.64105 1
gene 1 4 5 -0.560215 0 4 -0.560215 1
genomeend 194

/* Organism #195 Fitness: 0.0034 Error: 0 */
genomestart 195
trait 1 0.1 0 0 0 0 0.206855 0 0 
node 1 1 1 1
node 2 1 1 1
node 3 1 1 1
node 4 1 1 3
node 5 1 0 2
gene 1 1 5 3.54922 0 1 3.54922 1
gene 1 2 5 1.91256 0 2 1.91256 1
gene 1 3 5 4.78743 0 3 4.78743 1
gene 1 4 5 -0.560215 0 4 -0.560215 1
genomeend 195

/* Organism #196 Fitness: 0.0019 Error: 0 */
genomestart 196
trait 1 0.1 0 0 0 0 0 0 0 
node 1 1 1 1
node 2 1 1 1
node 3 1 1 1
node 4 1 1 3
node 5 1 0 2
gene 1 1 5 2.32628 0 1 2.32628 1
gene 1 2 5 0.621982 0 2 0.621982 1
gene 1 3 5 3.89649 0 3 3.89649 1
gene 1 4 5 1.1576 0 4 1.1576 1
genomeend 196

/* Organism #197 Fitness: 0.0032 Error: 0 */
genomestart 197
trait 1 0.1 0 0 0 0 0 0 0 
node 1 1 1 1
node 2 1 1 1
node 3 1 1 1
node 4 1 1 3
node 5 1 0 2
gene 1 1 5 3.18025 0 1 3.18025 1
gene 1 2 5 1.91256 0 2 1.91256 1
gene 1 3 5 5.64105 0 3 5.64105 1
gene 1 4 5 -0.560215 0 4 -0.560215 1
genomeend 197

/* Organism #198 Fitness: 0.0032 Error: 0 */
genomestart 198
trait 1 0.1 0 0.50622 0.914631 0 0.62557 0.866207 0 
node 1 1 1 1
node 2 1 1 1
node 3 1 1 1
node 4 1 1 3
node 5 1 0 2
gene 1 1 5 3.18025 0 1 3.18025 1
gene 1 2 5 1.91256 0 2 1.91256 1
gene 1 3 5 5.64105 0 3 5.64105 1
gene 1 4 5 -0.560215 0 4 -0.560215 1
genomeend 198

/* Organism #199 Fitness: 0.0005 Error: 0 */
genomestart 199
trait 1 0.1 0 0 0 0 0 0 0 
node 1 1 1 1
node 2 1 1 1
node 3 1 1 1
node 4 1 1 3
node 5 1 0 2
gene 1 1 5 1.30662 0 1 1.30662 1
gene 1 2 5 0.379423 0 2 0.379423 1
gene 1 3 5 3.76373 0 3 3.76373 1
gene 1 4 5 -1.75114 0 4 -1.75114 1
gene 1 5 5 -3.75554 1 72 -3.75554 1
genomeend 199

/* Organism #200 Fitness: 0.0009 Error: 0 */
genomestart 200
trait 1 0.1 0 0 0 0 0 0 0 
node 1 1 1 1
node 2 1 1 1
node 3 1 1 1
node 4 1 1 3
node 5 1 0 2
gene 1 1 5 1.17037 0 1 1.17037 1
gene 1 2 5 -0.582921 0 2 -0.582921 1
gene 1 3 5 3.42576 0 3 3.42576 1
gene 1 4 5 -1.56202 0 4 -1.56202 1
genomeend 200

/* Organism #201 Fitness: 0.0005 Error: 0 */
genomestart 201
trait 1 0.1 0 0 0 0 0 0 0 
node 1 1 1 1
node 2 1 1 1
node 3 1 1 1
node 4 1 1 3
node 5 1 0 2
gene 1 1 5 1.60048 0 1 1.60048 1
gene 1 2 5 0.190654 0 2 0.190654 1
gene 1 3 5 2.36398 0 3 2.36398 1
gene 1 4 5 -2.19076 0 4 -2.19076 1
genomeend 201

/* Organism #202 Fitness: 0.0006 Error: 0 */
genomestart 202
trait 1 0.1 0 0 0 0 0 0 0 
node 1 1 1 1
node 2 1 1 1
node 3 1 1 1
node 4 1 1 3
node 5 1 0 2
gene 1 1 5 1.29716 0 1 1.29716 1
gene 1 2 5 -0.2368 0 2 -0.2368 1
gene 1 3 5 4.07451 0 3 4.07451 1
gene 1 4 5 -2.09917 0 4 -2.09917 1
genomeend 202

/* Organism #203 Fitness: 0.0024 Error: 0 */
genomestart 203
trait 1 0.1 0 0 0 0 0 0 0 
node 1 1 1 1
node 2 1 1 1
node 3 1 1 1
node 4 1 1 3
node 5 1 0 2
gene 1 1 5 2.81592 0 1 2.81592 1
gene 1 2 5 2.07926 0 2 2.07926 1
gene 1 3 5 5.49224 0 3 5.49224 1
gene 1 4 5 -1.04538 0 4 -1.04538 1
genomeend 203

/* Organism #204 Fitness: 0.0019 Error: 0 */
genomestart 204
trait 1 0.1 0 0 0 0 0.224608 0 0.391555 
node 1 1 1 1
node 2 1 1 1
node 3 1 1 1
node 4 1 1 3
node 5 1 0 2
gene 1 1 5 2.62951 0 1 2.62951 1
gene 1 2 5 2.50953 0 2 2.50953 1
gene 1 3 5 4.95077 0 3 4.95077 1
gene 1 4 5 -2.34346 0 4 -2.34346 1
genomeend 204

/* Species #9 : (Size 7) (AF 0.00102857) (Age 4)  */


/* Organism #205 Fitness: 0.0009 Error: 0 */
genomestart 205
trait 1 0.1 0 0 0 0 0 0 0 
node 1 1 1 1
node 2 1 1 1
node 3 1 1 1
node 4 1 1 3
node 5 1 0 2
node 11 1 0 0
gene 1 1 5 -2.01665 0 1 -2.01665 1
gene 1 2 5 2.32509 0 2 2.32509 1
gene 1 3 5 3.25821 0 3 3.25821 0
gene 1 4 5 -2.65563 0 4 -2.65563 1
gene 1 3 11 1 0 93 0 1
gene 1 11 5 2.38093 0 94 0 1
genomeend 205

/* Organism #206 Fitness: 0.001 Error: 0 */
genomestart 206
trait 1 0.1 0 0 0 0 0 0 0 
node 1 1 1 1
node 2 1 1 1
node 3 1 1 1
node 4 1 1 3
node 5 1 0 2
node 11 1 0 0
gene 1 1 5 -0.866467 0 1 -0.866467 1
gene 1 2 5 1.60908 0 2 1.60908 1
gene 1 3 5 4.69995 0 3 4.69995 0
gene 1 4 5 -3.23518 0 4 -3.23518 1
gene 1 3 11 -0.335441 0 93 -0.335441 1
gene 1 11 5 3.41379 0 94 3.41379 1
genomeend 206

/* Organism #207 Fitness: 0.0022 Error: 0 */
genomestart 207
trait 1 0.1 0 0 0 0 0 0 0 
node 1 1 1 1
node 2 1 1 1
node 3 1 1 1
node 4 1 1 3
node 5 1 0 2
node 11 1 0 0
gene 1 1 5 -1.52718 0 1 -1.52718 1
gene 1 2 5 0.922259 0 2 0.922259 1
gene 1 3 5 2.90335 0 3 2.90335 0
gene 1 4 5 -2.09744 0 4 -2.09744 1
gene 1 3 11 1 0 93 0 1
gene 1 11 5 2.38093 0 94 0 1
gene 1 5 5 -0.925399 1 189 -0.925399 1
genomeend 207

/* Organism #208 Fitness: 0.0008 Error: 0 */
genomestart 208
trait 1 0.1 0 0 0 0 0 0 0 
node 1 1 1 1
node 2 1 1 1
node 3 1 1 1
node 4 1 1 3
node 5 1 0 2
node 11 1 0 0
gene 1 1 5 -1.52718 0 1 -1.52718 1
gene 1 2 5 0.922259 0 2 0.922259 1
gene 1 3 5 2.90335 0 3 2.90335 0
gene 1 4 5 -2.09744 0 4 -2.09744 1
gene 1 3 11 1 0 93 0 1
gene 1 11 5 2.38093 0 94 0 1
genomeend 208

/* Organism #209 Fitness: 0.0008 Error: 0 */
genomestart 209
trait 1 0.1 0 0 0 0 0 0 0 
node 1 1 1 1
node 2 1 1 1
node 3 1 1 1
node 4 1 1 3
node 5 1 0 2
node 11 1 0 0
gene 1 1 5 -1.52718 0 1 -1.52718 1
gene 1 2 5 0.922259 0 2 0.922259 1
gene 1 3 5 2.90335 0 3 2.90335 0
gene 1 4 5 -2.09744 0 4 -2.09744 1
gene 1 3 11 1 0 93 0 1
gene 1 11 5 2.38093 0 94 0 1
genomeend 209

/* Organism #210 Fitness: 0.0008 Error: 0 */
genomestart 210
trait 1 0.1 0 0 0 0 0 0 0 
node 1 1 1 1
node 2 1 1 1
node 3 1 1 1
node 4 1 1 3
node 5 1 0 2
node 11 1 0 0
gene 1 1 5 -1.77192 0 1 -1.77192 1
gene 1 2 5 1.62367 0 2 1.62367 1
gene 1 3 5 3.08078 0 3 3.08078 0
gene 1 4 5 -2.37653 0 4 -2.37653 1
gene 1 3 11 1 0 93 0 1
gene 1 11 5 2.38093 0 94 0 1
genomeend 210

/* Organism #211 Fitness: 0.0007 Error: 0 */
genomestart 211
trait 1 0.1 0 0 0 0 0 0 0 
node 1 1 1 1
node 2 1 1 1
node 3 1 1 1
node 4 1 1 3
node 5 1 0 2
node 11 1 0 0
gene 1 1 5 -2.01665 0 1 -2.01665 1
gene 1 2 5 2.32509 0 2 2.32509 1
gene 1 3 5 3.25821 0 3 3.25821 0
gene 1 4 5 -2.65563 0 4 -2.65563 1
gene 1 3 11 1 0 93 0 1
gene 1 11 5 2.38093 0 94 0 1
gene 1 11 11 0.554488 1 190 0.554488 1
genomeend 211

/* Species #10 : (Size 57) (AF 0.00201228) (Age 4)  */


/* Organism #212 Fitness: 0.0004 Error: 0 */
genomestart 212
trait 1 0.1 0 0 0 0 0 0 0 
node 1 1 1 1
node 2 1 1 1
node 3 1 1 1
node 4 1 1 3
node 5 1 0 2
gene 1 1 5 4.63294 0 1 4.63294 1
gene 1 2 5 -2.84386 0 2 -2.84386 1
gene 1 3 5 1.10598 0 3 1.10598 1
gene 1 4 5 2.31639 0 4 2.31639 1
genomeend 212

/* Organism #213 Fitness: 0.0025 Error: 0 */
genomestart 213
trait 1 0.1 0 0 0 0 0 0 0 
node 1 1 1 1
node 2 1 1 1
node 3 1 1 1
node 4 1 1 3
node 5 1 0 2
gene 1 1 5 3.8052 0 1 3.8052 1
gene 1 2 5 -3.65285 0 2 -3.65285 1
gene 1 3 5 2.6907 0 3 2.6907 1
gene 1 4 5 1.49712 0 4 1.49712 1
genomeend 213

/* Organism #214 Fitness: 0.0005 Error: 0 */
genomestart 214
trait 1 0.1 0 0 0 0 0 0 0 
node 1 1 1 1
node 2 1 1 1
node 3 1 1 1
node 4 1 1 3
node 5 1 0 2
gene 1 1 5 3.74612 0 1 3.74612 1
gene 1 2 5 -4.27212 0 2 -4.27212 1
gene 1 3 5 0.0274181 0 3 0.0274181 1
gene 1 4 5 0.885838 0 4 0.885838 1
gene 1 5 5 -0.605716 1 102 -0.605716 1
genomeend 214

/* Organism #215 Fitness: 0.0017 Error: 0 */
genomestart 215
trait 1 0.1 0 0 0 0 0 0 0 
node 1 1 1 1
node 2 1 1 1
node 3 1 1 1
node 4 1 1 3
node 5 1 0 2
gene 1 1 5 4.18953 0 1 4.18953 1
gene 1 2 5 -3.55799 0 2 -3.55799 1
gene 1 3 5 0.566697 0 3 0.566697 1
gene 1 4 5 1.60112 0 4 1.60112 1
gene 1 5 5 -0.605716 1 102 -0.605716 1
genomeend 215

/* Organism #216 Fitness: 0.0024 Error: 0 */
genomestart 216
trait 1 0.1 0 0 0 0 0 0 0 
node 1 1 1 1
node 2 1 1 1
node 3 1 1 1
node 4 1 1 3
node 5 1 0 2
gene 1 1 5 4.54583 0 1 4.54583 1
gene 1 2 5 -3.63836 0 2 -3.63836 1
gene 1 3 5 2.87182 0 3 2.87182 1
gene 1 4 5 1.469 0 4 1.469 1
genomeend 216

/* Organism #217 Fitness: 0.0007 Error: 0 */
genomestart 217
trait 1 0.1 0 0 0 0 0 0 0 
node 1 1 1 1
node 2 1 1 1
node 3 1 1 1
node 4 1 1 3
node 5 1 0 2
gene 1 1 5 4.51678 0 1 4.51678 1
gene 1 2 5 -3.27588 0 2 -3.27588 1
gene 1 3 5 1.93283 0 3 1.93283 1
gene 1 4 5 1.88737 0 4 1.88737 1
genomeend 217

/* Organism #218 Fitness: 0.0018 Error: 0 */
genomestart 218
trait 1 0.1 0 0 0 0.109696 0 0 0 
node 1 1 1 1
node 2 1 1 1
node 3 1 1 1
node 4 1 1 3
node 5 1 0 2
gene 1 1 5 2.17717 0 1 2.17717 1
gene 1 2 5 -3.92608 0 2 -3.92608 1
gene 1 3 5 3.30842 0 3 3.30842 1
gene 1 4 5 0.43699 0 4 0.43699 1
genomeend 218

/* Organism #219 Fitness: 0.0021 Error: 0 */
genomestart 219
trait 1 0.1 0 0 0 0 0 0 0 
node 1 1 1 1
node 2 1 1 1
node 3 1 1 1
node 4 1 1 3
node 5 1 0 2
gene 1 1 5 2.70503 0 1 2.70503 1
gene 1 2 5 -3.62387 0 2 -3.62387 1
gene 1 3 5 3.964 0 3 3.964 1
gene 1 4 5 1.44089 0 4 1.44089 1
genomeend 219

/* Organism #220 Fitness: 0.0023 Error: 0 */
genomestart 220
trait 1 0.1 0 0 0 0 0 0 0 
node 1 1 1 1
node 2 1 1 1
node 3 1 1 1
node 4 1 1 3
node 5 1 0 2
gene 1 1 5 1.50139 0 1 1.50139 1
gene 1 2 5 -4.01526 0 2 -4.01526 1
gene 1 3 5 2.2924 0 3 2.2924 1
gene 1 4 5 1.6598 0 4 1.6598 1
gene 1 5 5 -0.195589 1 61 -0.195589 1
genomeend 220

/* Organism #221 Fitness: 0.0008 Error: 0 */
genomestart 221
trait 1 0.1 0 0 0 0 0 0 0 
node 1 1 1 1
node 2 1 1 1
node 3 1 1 1
node 4 1 1 3
node 5 1 0 2
gene 1 1 5 2.9858 0 1 2.9858 1
gene 1 2 5 -5.95066 0 2 -5.95066 1
gene 1 3 5 3.11825 0 3 3.11825 1
gene 1 4 5 1.52632 0 4 1.52632 1
gene 1 5 5 -1.56585 1 61 -1.56585 1
genomeend 221

/* Organism #222 Fitness: 0.0021 Error: 0 */
genomestart 222
trait 1 0.1 0 0 0 0.329088 0 0 0 
node 1 1 1 1
node 2 1 1 1
node 3 1 1 1
node 4 1 1 3
node 5 1 0 2
gene 1 1 5 0.384953 0 1 0.384953 1
gene 1 2 5 -3.5707 0 2 -3.5707 1
gene 1 3 5 2.96971 0 3 2.96971 1
gene 1 4 5 1.30243 0 4 1.30243 1
genomeend 222

/* Organism #223 Fitness: 0.0023 Error: 0 */
genomestart 223
trait 1 0.23611 0 0 0.0705675 0 0.240893 0.071293 0 
node 1 1 1 1
node 2 1 1 1
node 3 1 1 1
node 4 1 1 3
node 5 1 0 2
gene 1 1 5 1.12568 0 1 1.12568 1
gene 1 2 5 -4.11278 0 2 -4.11278 1
gene 1 3 5 3.92303 0 3 3.92303 1
gene 1 4 5 1.6866 0 4 1.6866 1
genomeend 223

/* Organism #224 Fitness: 0.0023 Error: 0 */
genomestart 224
trait 1 0.440275 0 0 0.176419 0 0.602232 0.178232 0 
node 1 1 1 1
node 2 1 1 1
node 3 1 1 1
node 4 1 1 3
node 5 1 0 2
gene 1 1 5 3.44423 0 1 3.44423 1
gene 1 2 5 -3.37771 0 2 -3.37771 1
gene 1 3 5 4.89063 0 3 4.89063 1
gene 1 4 5 0.739145 0 4 0.739145 1
genomeend 224

/* Organism #225 Fitness: 0.0025 Error: 0 */
genomestart 225
trait 1 0.1 0 0 0 0 0 0 0 
node 1 1 1 1
node 2 1 1 1
node 3 1 1 1
node 4 1 1 3
node 5 1 0 2
gene 1 1 5 2.72986 0 1 2.72986 1
gene 1 2 5 -5.90324 0 2 -5.90324 1
gene 1 3 5 4.43529 0 3 4.43529 1
gene 1 4 5 1.6613 0 4 1.6613 1
genomeend 225

/* Organism #226 Fitness: 0.0005 Error: 0 */
genomestart 226
trait 1 0.1 0 0 0 0 0 0 0 
node 1 1 1 1
node 2 1 1 1
node 3 1 1 1
node 4 1 1 3
node 5 1 0 2
gene 1 1 5 4.17253 0 1 4.17253 1
gene 1 2 5 -4.50313 0 2 -4.50313 1
gene 1 3 5 -0.134995 0 3 -0.134995 1
gene 1 4 5 0.853846 0 4 0.853846 1
genomeend 226

/* Organism #227 Fitness: 0.0046 Error: 0 */
genomestart 227
trait 1 0.1 0 0 0 0 0 0 0 
node 1 1 1 1
node 2 1 1 1
node 3 1 1 1
node 4 1 1 3
node 5 1 0 2
gene 1 1 5 5.28645 0 1 5.28645 1
gene 1 2 5 -4.4927 0 2 -4.4927 1
gene 1 3 5 3.964 0 3 3.964 1
gene 1 4 5 1.44089 0 4 1.44089 1
gene 1 5 5 -0.188545 1 165 -0.188545 1
genomeend 227

/* Organism #228 Fitness: 0.0046 Error: 0 */
genomestart 228
trait 1 0.1 0 0 0 0 0 0 0 
node 1 1 1 1
node 2 1 1 1
node 3 1 1 1
node 4 1 1 3
node 5 1 0 2
gene 1 1 5 5.28645 0 1 5.28645 1
gene 1 2 5 -4.4927 0 2 -4.4927 1
gene 1 3 5 3.964 0 3 3.964 1
gene 1 4 5 1.44089 0 4 1.44089 1
gene 1 5 5 -0.188545 1 165 -0.188545 1
genomeend 228

/* Organism #229 Fitness: 0.0033 Error: 0 */
genomestart 229
trait 1 0.1 0 0 0 0 0 0 0 
node 1 1 1 1
node 2 1 1 1
node 3 1 1 1
node 4 1 1 3
node 5 1 0 2
gene 1 1 5 5.28645 0 1 5.28645 1
gene 1 2 5 -4.4927 0 2 -4.4927 1
gene 1 3 5 3.964 0 3 3.964 1
gene 1 4 5 1.44089 0 4 1.44089 1
genomeend 229

/* Organism #230 Fitness: 0.0033 Error: 0 */
genomestart 230
trait 1 0.1 0 0 0 0 0 0 0 
node 1 1 1 1
node 2 1 1 1
node 3 1 1 1
node 4 1 1 3
node 5 1 0 2
gene 1 1 5 5.28645 0 1 5.28645 1
gene 1 2 5 -4.4927 0 2 -4.4927 1
gene 1 3 5 3.964 0 3 3.964 1
gene 1 4 5 1.44089 0 4 1.44089 1
genomeend 230

/* Organism #231 Fitness: 0.0046 Error: 0 */
genomestart 231
trait 1 0.1 0 0 0.0259718 0 0 0 0.242251 
node 1 1 1 1
node 2 1 1 1
node 3 1 1 1
node 4 1 1 3
node 5 1 0 2
gene 1 1 5 5.28645 0 1 5.28645 1
gene 1 2 5 -4.4927 0 2 -4.4927 1
gene 1 3 5 3.964 0 3 3.964 1
gene 1 4 5 1.44089 0 4 1.44089 1
gene 1 5 5 -0.188545 1 165 -0.188545 1
genomeend 231

/* Organism #232 Fitness: 0.0007 Error: 0 */
genomestart 232
trait 1 0.1 0 0 0 0 0 0 0 
node 1 1 1 1
node 2 1 1 1
node 3 1 1 1
node 4 1 1 3
node 5 1 0 2
gene 1 1 5 4.3827 0 1 4.3827 1
gene 1 2 5 -3.69527 0 2 -3.69527 1
gene 1 3 5 2.97591 0 3 2.97591 1
gene 1 4 5 -0.445766 0 4 -0.445766 1
genomeend 232

/* Organism #233 Fitness: 0.0016 Error: 0 */
genomestart 233
trait 1 0.1 0 0 0 0 0 0 0 
node 1 1 1 1
node 2 1 1 1
node 3 1 1 1
node 4 1 1 3
node 5 1 0 2
gene 1 1 5 5.50729 0 1 5.50729 1
gene 1 2 5 -4.44315 0 2 -4.44315 1
gene 1 3 5 3.67468 0 3 3.67468 1
gene 1 4 5 2.73751 0 4 2.73751 1
genomeend 233

/* Organism #234 Fitness: 0.0024 Error: 0 */
genomestart 234
trait 1 0.1 0 0 0.0259718 0 0 0 0.242251 
node 1 1 1 1
node 2 1 1 1
node 3 1 1 1
node 4 1 1 3
node 5 1 0 2
gene 1 1 5 5.46834 0 1 5.46834 1
gene 1 2 5 -2.69918 0 2 -2.69918 1
gene 1 3 5 4.06908 0 3 4.06908 1
gene 1 4 5 1.32276 0 4 1.32276 1
genomeend 234

/* Organism #235 Fitness: 0.0033 Error: 0 */
genomestart 235
trait 1 0.1 0 0 0 0 0 0 0 
node 1 1 1 1
node 2 1 1 1
node 3 1 1 1
node 4 1 1 3
node 5 1 0 2
gene 1 1 5 5.28645 0 1 5.28645 1
gene 1 2 5 -4.4927 0 2 -4.4927 1
gene 1 3 5 3.964 0 3 3.964 1
gene 1 4 5 1.44089 0 4 1.44089 1
genomeend 235

/* Organism #236 Fitness: 0.0033 Error: 0 */
genomestart 236
trait 1 0.1 0 0 0 0 0 0 0 
node 1 1 1 1
node 2 1 1 1
node 3 1 1 1
node 4 1 1 3
node 5 1 0 2
gene 1 1 5 5.28645 0 1 5.28645 1
gene 1 2 5 -4.4927 0 2 -4.4927 1
gene 1 3 5 3.964 0 3 3.964 1
gene 1 4 5 1.44089 0 4 1.44089 1
genomeend 236

/* Organism #237 Fitness: 0.0024 Error: 0 */
genomestart 237
trait 1 0.1 0 0 0 0 0 0 0 
node 1 1 1 1
node 2 1 1 1
node 3 1 1 1
node 4 1 1 3
node 5 1 0 2
gene 1 1 5 4.67726 0 1 4.67726 1
gene 1 2 5 -3.21142 0 2 -3.21142 1
gene 1 3 5 4.0227 0 3 4.0227 1
gene 1 4 5 1.51735 0 4 1.51735 1
genomeend 237

/* Organism #238 Fitness: 0.0006 Error: 0 */
genomestart 238
trait 1 0.081346 0 0 0 0 0 0 0.0410716 
node 1 1 1 1
node 2 1 1 1
node 3 1 1 1
node 4 1 1 3
node 5 1 0 2
gene 1 1 5 5.20025 0 1 5.20025 1
gene 1 2 5 -5.23176 0 2 -5.23176 1
gene 1 3 5 2.74583 0 3 2.74583 1
gene 1 4 5 2.89468 0 4 2.89468 1
genomeend 238

/* Organism #239 Fitness: 0.0033 Error: 0 */
genomestart 239
trait 1 0.1 0 0 0 0 0.302099 0.718277 0 
node 1 1 1 1
node 2 1 1 1
node 3 1 1 1
node 4 1 1 3
node 5 1 0 2
gene 1 1 5 5.28645 0 1 5.28645 1
gene 1 2 5 -4.4927 0 2 -4.4927 1
gene 1 3 5 3.964 0 3 3.964 1
gene 1 4 5 1.44089 0 4 1.44089 1
genomeend 239

/* Organism #240 Fitness: 0.0016 Error: 0 */
genomestart 240
trait 1 0.1 0 0 0 0 0 0 0 
node 1 1 1 1
node 2 1 1 1
node 3 1 1 1
node 4 1 1 3
node 5 1 0 2
gene 1 1 5 4.53406 0 1 4.53406 1
gene 1 2 5 -3.11285 0 2 -3.11285 1
gene 1 3 5 2.97058 0 3 2.97058 1
gene 1 4 5 2.32424 0 4 2.32424 1
gene 1 5 5 -0.26428 1 165 -0.26428 1
genomeend 240

/* Organism #241 Fitness: 0.0033 Error: 0 */
genomestart 241
trait 1 0.1 0 0 0 0 0 0 0 
node 1 1 1 1
node 2 1 1 1
node 3 1 1 1
node 4 1 1 3
node 5 1 0 2
gene 1 1 5 5.28645 0 1 5.28645 1
gene 1 2 5 -4.4927 0 2 -4.4927 1
gene 1 3 5 3.964 0 3 3.964 1
gene 1 4 5 1.44089 0 4 1.44089 1
genomeend 241

/* Organism #242 Fitness: 0.0005 Error: 0 */
genomestart 242
trait 1 0.753498 0.73135 0 0 0 0 0 0 
node 1 1 1 1
node 2 1 1 1
node 3 1 1 1
node 4 1 1 3
node 5 1 0 2
gene 1 1 5 5.59428 0 1 5.59428 1
gene 1 2 5 -3.57674 0 2 -3.57674 1
gene 1 3 5 0.700153 0 3 0.700153 1
gene 1 4 5 0.35986 0 4 0.35986 1
genomeend 242

/* Organism #243 Fitness: 0.0018 Error: 0 */
genomestart 243
trait 1 0.1 0 0 0 0 0 0 0 
node 1 1 1 1
node 2 1 1 1
node 3 1 1 1
node 4 1 1 3
node 5 1 0 2
gene 1 1 5 4.6411 0 1 4.6411 1
gene 1 2 5 -4.27549 0 2 -4.27549 1
gene 1 3 5 3.73623 0 3 3.73623 1
gene 1 4 5 1.68086 0 4 1.68086 1
gene 1 5 5 0.699648 1 202 0.699648 1
genomeend 243

/* Organism #244 Fitness: 0.0033 Error: 0 */
genomestart 244
trait 1 0.156995 0 0 0.204275 0 0 0 0.806155 
node 1 1 1 1
node 2 1 1 1
node 3 1 1 1
node 4 1 1 3
node 5 1 0 2
gene 1 1 5 5.28645 0 1 5.28645 1
gene 1 2 5 -4.4927 0 2 -4.4927 1
gene 1 3 5 3.964 0 3 3.964 1
gene 1 4 5 1.44089 0 4 1.44089 1
genomeend 244

/* Organism #245 Fitness: 0.0033 Error: 0 */
genomestart 245
trait 1 0.1 0 0 0 0 0 0 0 
node 1 1 1 1
node 2 1 1 1
node 3 1 1 1
node 4 1 1 3
node 5 1 0 2
gene 1 1 5 5.28645 0 1 5.28645 1
gene 1 2 5 -4.4927 0 2 -4.4927 1
gene 1 3 5 3.964 0 3 3.964 1
gene 1 4 5 1.44089 0 4 1.44089 1
genomeend 245

/* Organism #246 Fitness: 0.0004 Error: 0 */
genomestart 246
trait 1 0.1 0 0 0 0 0 0 0 
node 1 1 1 1
node 2 1 1 1
node 3 1 1 1
node 4 1 1 3
node 5 1 0 2
gene 1 1 5 3.93033 0 1 3.93033 1
gene 1 2 5 -3.00471 0 2 -3.00471 1
gene 1 3 5 2.1318 0 3 2.1318 1
gene 1 4 5 1.51708 0 4 1.51708 1
gene 1 5 5 1.19637 1 55 1.19637 1
genomeend 246

/* Organism #247 Fitness: 0.0016 Error: 0 */
genomestart 247
trait 1 0.187818 0 0 0 0.0230635 0 0 0 
node 1 1 1 1
node 2 1 1 1
node 3 1 1 1
node 4 1 1 3
node 5 1 0 2
gene 1 1 5 0.500538 0 1 0.500538 1
gene 1 2 5 -3.69746 0 2 -3.69746 1
gene 1 3 5 2.28834 0 3 2.28834 1
gene 1 4 5 2.01244 0 4 2.01244 1
genomeend 247

/* Organism #248 Fitness: 0.0006 Error: 0 */
genomestart 248
trait 1 0.187818 0 0 0 0.0153757 0.137249 0 0 
node 1 1 1 1
node 2 1 1 1
node 3 1 1 1
node 4 1 1 3
node 5 1 0 2
gene 1 1 5 1.81267 0 1 1.81267 1
gene 1 2 5 -4.37953 0 2 -4.37953 1
gene 1 3 5 2.23019 0 3 2.23019 1
gene 1 4 5 2.36253 0 4 2.36253 1
genomeend 248

/* Organism #249 Fitness: 0.0018 Error: 0 */
genomestart 249
trait 1 0.23611 0 0 0.0705675 0 0.240893 0.071293 0 
node 1 1 1 1
node 2 1 1 1
node 3 1 1 1
node 4 1 1 3
node 5 1 0 2
gene 1 1 5 4.22729 0 1 4.22729 1
gene 1 2 5 -2.7891 0 2 -2.7891 1
gene 1 3 5 4.51829 0 3 4.51829 1
gene 1 4 5 2.83951 0 4 2.83951 1
genomeend 249

/* Organism #250 Fitness: 0.0005 Error: 0 */
genomestart 250
trait 1 0.23611 0 0 0.0705675 0 0.240893 0.071293 0 
node 1 1 1 1
node 2 1 1 1
node 3 1 1 1
node 4 1 1 3
node 5 1 0 2
gene 1 1 5 3.69981 0 1 3.69981 1
gene 1 2 5 -3.65788 0 2 -3.65788 1
gene 1 3 5 4.55574 0 3 4.55574 1
gene 1 4 5 4.64862 0 4 4.64862 1
genomeend 250

/* Organism #251 Fitness: 0.0006 Error: 0 */
genomestart 251
trait 1 0.1 0 0 0 0 0 0 0 
node 1 1 1 1
node 2 1 1 1
node 3 1 1 1
node 4 1 1 3
node 5 1 0 2
gene 1 1 5 1.85622 0 1 1.85622 1
gene 1 2 5 -3.78998 0 2 -3.78998 1
gene 1 3 5 3.91423 0 3 3.91423 1
gene 1 4 5 0.875623 0 4 0.875623 1
gene 1 5 5 1.44611 1 120 1.44611 1
genomeend 251

/* Organism #252 Fitness: 0.0033 Error: 0 */
genomestart 252
trait 1 0.1 0 0 0 0 0 0 0 
node 1 1 1 1
node 2 1 1 1
node 3 1 1 1
node 4 1 1 3
node 5 1 0 2
gene 1 1 5 1.31417 0 1 1.31417 1
gene 1 2 5 -4.49046 0 2 -4.49046 1
gene 1 3 5 2.66656 0 3 2.66656 1
gene 1 4 5 0.96638 0 4 0.96638 1
gene 1 5 5 0.24383 1 120 0.24383 1
genomeend 252

/* Organism #253 Fitness: 0.0006 Error: 0 */
genomestart 253
trait 1 0.1 0 0 0 0 0 0 0 
node 1 1 1 1
node 2 1 1 1
node 3 1 1 1
node 4 1 1 3
node 5 1 0 2
gene 1 1 5 1.85622 0 1 1.85622 1
gene 1 2 5 -3.78998 0 2 -3.78998 1
gene 1 3 5 3.91423 0 3 3.91423 1
gene 1 4 5 0.875623 0 4 0.875623 1
gene 1 5 5 1.44611 1 120 1.44611 1
genomeend 253

/* Organism #254 Fitness: 0.0006 Error: 0 */
genomestart 254
trait 1 0.1 0 0 0 0 0 0 0 
node 1 1 1 1
node 2 1 1 1
node 3 1 1 1
node 4 1 1 3
node 5 1 0 2
gene 1 1 5 1.85622 0 1 1.85622 1
gene 1 2 5 -3.78998 0 2 -3.78998 1
gene 1 3 5 3.91423 0 3 3.91423 1
gene 1 4 5 0.875623 0 4 0.875623 1
gene 1 5 5 1.44611 1 120 1.44611 1
genomeend 254

/* Organism #255 Fitness: 0.0013 Error: 0 */
genomestart 255
trait 1 0.1 0 0 0 0 0 0 0 
node 1 1 1 1
node 2 1 1 1
node 3 1 1 1
node 4 1 1 3
node 5 1 0 2
gene 1 1 5 3.60406 0 1 3.60406 1
gene 1 2 5 -6.10252 0 2 -6.10252 1
gene 1 3 5 3.19671 0 3 3.19671 1
gene 1 4 5 2.72599 0 4 2.72599 1
genomeend 255

/* Organism #256 Fitness: 0.0013 Error: 0 */
genomestart 256
trait 1 0.1 0 0 0 0 0 0 0 
node 1 1 1 1
node 2 1 1 1
node 3 1 1 1
node 4 1 1 3
node 5 1 0 2
gene 1 1 5 3.60406 0 1 3.60406 1
gene 1 2 5 -6.10252 0 2 -6.10252 1
gene 1 3 5 3.19671 0 3 3.19671 1
gene 1 4 5 2.72599 0 4 2.72599 1
genomeend 256

/* Organism #257 Fitness: 0.0027 Error: 0 */
genomestart 257
trait 1 0.1 0 0 0 0 0 0 0 
node 1 1 1 1
node 2 1 1 1
node 3 1 1 1
node 4 1 1 3
node 5 1 0 2
gene 1 1 5 3.60995 0 1 3.60995 1
gene 1 2 5 -7.76713 0 2 -7.76713 1
gene 1 3 5 3.04745 0 3 3.04745 1
gene 1 4 5 1.3443 0 4 1.3443 1
genomeend 257

/* Organism #258 Fitness: 0.0013 Error: 0 */
genomestart 258
trait 1 0.1 0 0 0 0 0 0 0 
node 1 1 1 1
node 2 1 1 1
node 3 1 1 1
node 4 1 1 3
node 5 1 0 2
gene 1 1 5 3.60406 0 1 3.60406 1
gene 1 2 5 -6.10252 0 2 -6.10252 1
gene 1 3 5 3.19671 0 3 3.19671 1
gene 1 4 5 2.72599 0 4 2.72599 1
genomeend 258

/* Organism #259 Fitness: 0.0004 Error: 0 */
genomestart 259
trait 1 0 0 0 0.41783 0 0.374894 0.817766 0 
node 1 1 1 1
node 2 1 1 1
node 3 1 1 1
node 4 1 1 3
node 5 1 0 2
gene 1 1 5 3.60406 0 1 3.60406 1
gene 1 2 5 -5.88318 0 2 -5.88318 1
gene 1 3 5 2.89577 0 3 2.89577 1
gene 1 4 5 -0.718653 0 4 -0.718653 1
genomeend 259

/* Organism #260 Fitness: 0.0013 Error: 0 */
genomestart 260
trait 1 0.1 0 0 0 0 0 0 0 
node 1 1 1 1
node 2 1 1 1
node 3 1 1 1
node 4 1 1 3
node 5 1 0 2
gene 1 1 5 3.60406 0 1 3.60406 1
gene 1 2 5 -6.10252 0 2 -6.10252 1
gene 1 3 5 3.19671 0 3 3.19671 1
gene 1 4 5 2.72599 0 4 2.72599 1
genomeend 260

/* Organism #261 Fitness: 0.0019 Error: 0 */
genomestart 261
trait 1 0.1 0 0 0 0 0 0 0 
node 1 1 1 1
node 2 1 1 1
node 3 1 1 1
node 4 1 1 3
node 5 1 0 2
gene 1 1 5 4.64124 0 1 4.64124 1
gene 1 2 5 -5.41907 0 2 -5.41907 1
gene 1 3 5 4.81329 0 3 4.81329 1
gene 1 4 5 1.7373 0 4 1.7373 1
genomeend 261

/* Organism #262 Fitness: 0.0013 Error: 0 */
genomestart 262
trait 1 0.1 0 0 0 0 0 0 0 
node 1 1 1 1
node 2 1 1 1
node 3 1 1 1
node 4 1 1 3
node 5 1 0 2
gene 1 1 5 3.60406 0 1 3.60406 1
gene 1 2 5 -6.10252 0 2 -6.10252 1
gene 1 3 5 3.19671 0 3 3.19671 1
gene 1 4 5 2.72599 0 4 2.72599 1
genomeend 262

/* Organism #263 Fitness: 0.0013 Error: 0 */
genomestart 263
trait 1 0.1 0 0 0 0 0 0 0 
node 1 1 1 1
node 2 1 1 1
node 3 1 1 1
node 4 1 1 3
node 5 1 0 2
gene 1 1 5 3.60406 0 1 3.60406 1
gene 1 2 5 -6.10252 0 2 -6.10252 1
gene 1 3 5 3.19671 0 3 3.19671 1
gene 1 4 5 2.72599 0 4 2.72599 1
genomeend 263

/* Organism #264 Fitness: 0.0013 Error: 0 */
genomestart 264
trait 1 0.1 0 0 0 0 0 0 0 
node 1 1 1 1
node 2 1 1 1
node 3 1 1 1
node 4 1 1 3
node 5 1 0 2
gene 1 1 5 3.60406 0 1 3.60406 1
gene 1 2 5 -6.10252 0 2 -6.10252 1
gene 1 3 5 3.19671 0 3 3.19671 1
gene 1 4 5 2.72599 0 4 2.72599 1
genomeend 264

/* Organism #265 Fitness: 0.0028 Error: 0 */
genomestart 265
trait 1 0.1 0 0 0 0 0 0 0 
node 1 1 1 1
node 2 1 1 1
node 3 1 1 1
node 4 1 1 3
node 5 1 0 2
gene 1 1 5 6.46221 0 1 6.46221 1
gene 1 2 5 -4.26624 0 2 -4.26624 1
gene 1 3 5 3.25417 0 3 3.25417 1
gene 1 4 5 0.88088 0 4 0.88088 1
genomeend 265

/* Organism #266 Fitness: 0.0069 Error: 0 */
genomestart 266
trait 1 0.1 0 0.491737 0.123573 0 0 0 0 
node 1 1 1 1
node 2 1 1 1
node 3 1 1 1
node 4 1 1 3
node 5 1 0 2
gene 1 1 5 3.54684 0 1 3.54684 1
gene 1 2 5 -4.50395 0 2 -4.50395 1
gene 1 3 5 2.99691 0 3 2.99691 1
gene 1 4 5 3.00071 0 4 3.00071 1
gene 1 5 5 -1.35019 1 102 -1.35019 1
genomeend 266

/* Organism #267 Fitness: 0.0025 Error: 0 */
genomestart 267
trait 1 0.735961 0.277466 0 0.984531 0 0 0 0.223352 
node 1 1 1 1
node 2 1 1 1
node 3 1 1 1
node 4 1 1 3
node 5 1 0 2
gene 1 1 5 5.03778 0 1 5.03778 1
gene 1 2 5 -3.24399 0 2 -3.24399 1
gene 1 3 5 3.9496 0 3 3.9496 1
gene 1 4 5 -0.538605 0 4 -0.538605 1
genomeend 267

/* Organism #268 Fitness: 0.0017 Error: 0 */
genomestart 268
trait 1 0.1 0 0 0 0 0 0 0 
node 1 1 1 1
node 2 1 1 1
node 3 1 1 1
node 4 1 1 3
node 5 1 0 2
gene 1 1 5 6.00221 0 1 6.00221 1
gene 1 2 5 -3.18582 0 2 -3.18582 1
gene 1 3 5 3.8795 0 3 3.8795 1
gene 1 4 5 0.0549389 0 4 0.0549389 1
genomeend 268

/* Species #11 : (Size 30) (AF 0.00276782) (Age 4)  */


/* Organism #269 Fitness: 0.01 Error: 0 */
genomestart 269
trait 1 0.1 0 0 0 0 0 0 0 
node 1 1 1 1
node 2 1 1 1
node 3 1 1 1
node 4 1 1 3
node 5 1 0 2
gene 1 1 5 0.411687 0 1 0.411687 1
gene 1 2 5 -4.26197 0 2 -4.26197 1
gene 1 3 5 2.2924 0 3 2.2924 1
gene 1 4 5 1.63005 0 4 1.63005 1
gene 1 5 5 -0.54579 1 61 -0.54579 1
genomeend 269

/* Organism #270 Fitness: 0.0066 Error: 0 */
genomestart 270
trait 1 0.308616 0 0 0 0.200882 0.0343122 0 0.0756237 
node 1 1 1 1
node 2 1 1 1
node 3 1 1 1
node 4 1 1 3
node 5 1 0 2
gene 1 1 5 0.974495 0 1 0.974495 1
gene 1 2 5 -4.13862 0 2 -4.13862 1
gene 1 3 5 3.79384 0 3 3.79384 1
gene 1 4 5 1.90246 0 4 1.90246 1
gene 1 5 5 -0.825514 1 61 -0.825514 1
genomeend 270

/* Organism #271 Fitness: 0.0019 Error: 0 */
genomestart 271
trait 1 0.23611 0 0 0.0705675 0 0.240893 0.071293 0 
node 1 1 1 1
node 2 1 1 1
node 3 1 1 1
node 4 1 1 3
node 5 1 0 2
gene 1 1 5 0.489409 0 1 0.489409 1
gene 1 2 5 -4.85143 0 2 -4.85143 1
gene 1 3 5 4.82345 0 3 4.82345 1
gene 1 4 5 1.68739 0 4 1.68739 1
genomeend 271

/* Organism #272 Fitness: 0.0007 Error: 0 */
genomestart 272
trait 1 0.1 0 0 0 0 0 0 0 
node 1 1 1 1
node 2 1 1 1
node 3 1 1 1
node 4 1 1 3
node 5 1 0 2
gene 1 1 5 -0.951585 0 1 -0.951585 1
gene 1 2 5 -5.93437 0 2 -5.93437 1
gene 1 3 5 3.03118 0 3 3.03118 1
gene 1 4 5 0.184236 0 4 0.184236 1
gene 1 5 5 0.103749 1 61 0.103749 1
genomeend 272

/* Organism #273 Fitness: 0.0039 Error: 0 */
genomestart 273
trait 1 0.1 0 0 0 0 0 0 0 
node 1 1 1 1
node 2 1 1 1
node 3 1 1 1
node 4 1 1 3
node 5 1 0 2
gene 1 1 5 -0.0875858 0 1 -0.0875858 1
gene 1 2 5 -4.58173 0 2 -4.58173 1
gene 1 3 5 3.67023 0 3 3.67023 1
gene 1 4 5 1.93067 0 4 1.93067 1
gene 1 5 5 -0.54579 1 61 -0.54579 1
genomeend 273

/* Organism #274 Fitness: 0.0028 Error: 0 */
genomestart 274
trait 1 0.137235 0 0.396694 0 0 0 0 0 
node 1 1 1 1
node 2 1 1 1
node 3 1 1 1
node 4 1 1 3
node 5 1 0 2
gene 1 1 5 1.06564 0 1 1.06564 1
gene 1 2 5 -3.02777 0 2 -3.02777 1
gene 1 3 5 2.4039 0 3 2.4039 1
gene 1 4 5 2.44128 0 4 2.44128 1
gene 1 5 5 -0.992458 1 61 -0.992458 1
genomeend 274

/* Organism #275 Fitness: 0.0047 Error: 0 */
genomestart 275
trait 1 0.1 0 0 0 0.00768784 0.0686245 0 0 
node 1 1 1 1
node 2 1 1 1
node 3 1 1 1
node 4 1 1 3
node 5 1 0 2
gene 1 1 5 0.411687 0 1 0.411687 1
gene 1 2 5 -4.12172 0 2 -4.12172 1
gene 1 3 5 3.7036 0 3 3.7036 1
gene 1 4 5 1.63005 0 4 1.63005 1
gene 1 5 5 -0.54579 1 61 -0.54579 1
genomeend 275

/* Organism #276 Fitness: 0.0083 Error: 0 */
genomestart 276
trait 1 0.517232 0 0 0 0.401764 0.0686245 0 0.151247 
node 1 1 1 1
node 2 1 1 1
node 3 1 1 1
node 4 1 1 3
node 5 1 0 2
gene 1 1 5 2.15586 0 1 2.15586 1
gene 1 2 5 -4.55493 0 2 -4.55493 1
gene 1 3 5 4.28674 0 3 4.28674 1
gene 1 4 5 1.91733 0 4 1.91733 1
gene 1 5 5 -1.10524 1 61 -1.10524 1
genomeend 276

/* Organism #277 Fitness: 0.0135345 Error: 0 */
genomestart 277
trait 1 0.118617 0 0.198347 0 0 0 0 0 
node 1 1 1 1
node 2 1 1 1
node 3 1 1 1
node 4 1 1 3
node 5 1 0 2
gene 1 1 5 0.357297 0 1 0.357297 1
gene 1 2 5 -4.50298 0 2 -4.50298 1
gene 1 3 5 1.98314 0 3 1.98314 1
gene 1 4 5 2.03295 0 4 2.03295 1
gene 1 5 5 -0.841073 1 61 -0.841073 1
genomeend 277

/* Organism #278 Fitness: 0.0007 Error: 0 */
genomestart 278
trait 1 0.17447 0 0.793388 0 0 0 0 0 
node 1 1 1 1
node 2 1 1 1
node 3 1 1 1
node 4 1 1 3
node 5 1 0 2
gene 1 1 5 0.629892 0 1 0.629892 1
gene 1 2 5 -2.04028 0 2 -2.04028 1
gene 1 3 5 2.51541 0 3 2.51541 1
gene 1 4 5 4.11132 0 4 4.11132 1
gene 1 5 5 -1.78933 1 61 -1.78933 1
genomeend 278

/* Organism #279 Fitness: 0.0006 Error: 0 */
genomestart 279
trait 1 0.137235 0 0.396694 0 0 0 0 0 
node 1 1 1 1
node 2 1 1 1
node 3 1 1 1
node 4 1 1 3
node 5 1 0 2
gene 1 1 5 0.800659 0 1 0.800659 1
gene 1 2 5 -2.83524 0 2 -2.83524 1
gene 1 3 5 1.48904 0 3 1.48904 1
gene 1 4 5 4.41187 0 4 4.41187 1
gene 1 5 5 -1.78933 1 61 -1.78933 1
genomeend 279

/* Organism #280 Fitness: 0.004 Error: 0 */
genomestart 280
trait 1 0.1 0 0 0 0 0 0 0 
node 1 1 1 1
node 2 1 1 1
node 3 1 1 1
node 4 1 1 3
node 5 1 0 2
gene 1 1 5 -0.827583 0 1 -0.827583 1
gene 1 2 5 -2.62702 0 2 -2.62702 1
gene 1 3 5 2.25095 0 3 2.25095 1
gene 1 4 5 0.714268 0 4 0.714268 1
genomeend 280

/* Organism #281 Fitness: 0.0025 Error: 0 */
genomestart 281
trait 1 0.187818 0 0 0 0.0153757 0.137249 0 0 
node 1 1 1 1
node 2 1 1 1
node 3 1 1 1
node 4 1 1 3
node 5 1 0 2
gene 1 1 5 -0.0839173 0 1 -0.0839173 1
gene 1 2 5 -4.28996 0 2 -4.28996 1
gene 1 3 5 1.45664 0 3 1.45664 1
gene 1 4 5 0.883263 0 4 0.883263 1
genomeend 281

/* Organism #282 Fitness: 0.004 Error: 0 */
genomestart 282
trait 1 0.1 0 0 0 0.0153757 0.137249 0 0 
node 1 1 1 1
node 2 1 1 1
node 3 1 1 1
node 4 1 1 3
node 5 1 0 2
gene 1 1 5 -0.827583 0 1 -0.827583 1
gene 1 2 5 -2.62702 0 2 -2.62702 1
gene 1 3 5 2.25095 0 3 2.25095 1
gene 1 4 5 0.714268 0 4 0.714268 1
genomeend 282

/* Organism #283 Fitness: 0.0005 Error: 0 */
genomestart 283
trait 1 0.1 0 0 0 0.0307514 0.274498 0 0 
node 1 1 1 1
node 2 1 1 1
node 3 1 1 1
node 4 1 1 3
node 5 1 0 2
gene 1 1 5 -0.546579 0 1 -0.546579 1
gene 1 2 5 -4.93581 0 2 -4.93581 1
gene 1 3 5 1.61417 0 3 1.61417 1
gene 1 4 5 0.309471 0 4 0.309471 1
genomeend 283

/* Organism #284 Fitness: 0.0032 Error: 0 */
genomestart 284
trait 1 0.1 0 0 0 0.45416 0.137249 0 0 
node 1 1 1 1
node 2 1 1 1
node 3 1 1 1
node 4 1 1 3
node 5 1 0 2
gene 1 1 5 -0.0160091 0 1 -0.0160091 1
gene 1 2 5 -2.01506 0 2 -2.01506 1
gene 1 3 5 2.52423 0 3 2.52423 1
gene 1 4 5 1.37886 0 4 1.37886 1
genomeend 284

/* Organism #285 Fitness: 0.0032 Error: 0 */
genomestart 285
trait 1 0.1 0 0 0 0.45416 0.137249 0 0 
node 1 1 1 1
node 2 1 1 1
node 3 1 1 1
node 4 1 1 3
node 5 1 0 2
gene 1 1 5 -0.0160091 0 1 -0.0160091 1
gene 1 2 5 -2.01506 0 2 -2.01506 1
gene 1 3 5 2.52423 0 3 2.52423 1
gene 1 4 5 1.37886 0 4 1.37886 1
genomeend 285

/* Organism #286 Fitness: 0.0017 Error: 0 */
genomestart 286
trait 1 0.1 0 0 0 0.22708 0.0686245 0 0 
node 1 1 1 1
node 2 1 1 1
node 3 1 1 1
node 4 1 1 3
node 5 1 0 2
gene 1 1 5 0.34488 0 1 0.34488 1
gene 1 2 5 -1.9115 0 2 -1.9115 1
gene 1 3 5 3.33379 0 3 3.33379 1
gene 1 4 5 1.81594 0 4 1.81594 1
genomeend 286

/* Organism #287 Fitness: 0.0005 Error: 0 */
genomestart 287
trait 1 0.1 0 0 0 0.45416 0.137249 0 0 
node 1 1 1 1
node 2 1 1 1
node 3 1 1 1
node 4 1 1 3
node 5 1 0 2
gene 1 1 5 -0.0160091 0 1 -0.0160091 1
gene 1 2 5 -3.33748 0 2 -3.33748 1
gene 1 3 5 2.52423 0 3 2.52423 1
gene 1 4 5 -0.685946 0 4 -0.685946 1
genomeend 287

/* Organism #288 Fitness: 0.0017 Error: 0 */
genomestart 288
trait 1 0.1 0 0 0 0.22708 0.0686245 0 0 
node 1 1 1 1
node 2 1 1 1
node 3 1 1 1
node 4 1 1 3
node 5 1 0 2
gene 1 1 5 0.34488 0 1 0.34488 1
gene 1 2 5 -1.9115 0 2 -1.9115 1
gene 1 3 5 3.33379 0 3 3.33379 1
gene 1 4 5 1.81594 0 4 1.81594 1
genomeend 288

/* Organism #289 Fitness: 0.0029 Error: 0 */
genomestart 289
trait 1 0.1 0 0 0 0.45416 0.137249 0 0 
node 1 1 1 1
node 2 1 1 1
node 3 1 1 1
node 4 1 1 3
node 5 1 0 2
gene 1 1 5 0.226918 0 1 0.226918 1
gene 1 2 5 -3.09999 0 2 -3.09999 1
gene 1 3 5 2.00058 0 3 2.00058 1
gene 1 4 5 0.710613 0 4 0.710613 1
genomeend 289

/* Organism #290 Fitness: 0.0017 Error: 0 */
genomestart 290
trait 1 0.1 0 0 0 0.22708 0.0686245 0 0 
node 1 1 1 1
node 2 1 1 1
node 3 1 1 1
node 4 1 1 3
node 5 1 0 2
gene 1 1 5 0.34488 0 1 0.34488 1
gene 1 2 5 -1.9115 0 2 -1.9115 1
gene 1 3 5 3.33379 0 3 3.33379 1
gene 1 4 5 1.81594 0 4 1.81594 1
genomeend 290

/* Organism #291 Fitness: 0.0004 Error: 0 */
genomestart 291
trait 1 0.603213 0.578344 0.241398 0 0 0 0 0 
node 1 1 1 1
node 2 1 1 1
node 3 1 1 1
node 4 1 1 3
node 5 1 0 2
gene 1 1 5 0.169475 0 1 0.169475 1
gene 1 2 5 -4.20215 0 2 -4.20215 1
gene 1 3 5 2.31754 0 3 2.31754 1
gene 1 4 5 -0.785127 0 4 -0.785127 1
genomeend 291

/* Organism #292 Fitness: 0.0004 Error: 0 */
genomestart 292
trait 1 0.603213 0.578344 0.241398 0 0 0 0 0 
node 1 1 1 1
node 2 1 1 1
node 3 1 1 1
node 4 1 1 3
node 5 1 0 2
gene 1 1 5 0.169475 0 1 0.169475 1
gene 1 2 5 -4.20215 0 2 -4.20215 1
gene 1 3 5 2.31754 0 3 2.31754 1
gene 1 4 5 -0.785127 0 4 -0.785127 1
genomeend 292

/* Organism #293 Fitness: 0.0004 Error: 0 */
genomestart 293
trait 1 0.603213 0.578344 0.241398 0 0 0 0 0 
node 1 1 1 1
node 2 1 1 1
node 3 1 1 1
node 4 1 1 3
node 5 1 0 2
gene 1 1 5 0.169475 0 1 0.169475 1
gene 1 2 5 -4.20215 0 2 -4.20215 1
gene 1 3 5 2.31754 0 3 2.31754 1
gene 1 4 5 -0.785127 0 4 -0.785127 1
genomeend 293

/* Organism #294 Fitness: 0.0006 Error: 0 */
genomestart 294
trait 1 0.1 0 0 0 0 0 0 0 
node 1 1 1 1
node 2 1 1 1
node 3 1 1 1
node 4 1 1 3
node 5 1 0 2
node 12 1 0 0
gene 1 1 5 -0.054746 0 1 -0.054746 1
gene 1 2 5 -4.17872 0 2 -4.17872 0
gene 1 3 5 1.69389 0 3 1.69389 1
gene 1 4 5 1.37848 0 4 1.37848 1
gene 1 5 5 -0.225879 1 61 -0.225879 1
gene 1 2 12 1.17514 0 139 1.17514 1
gene 1 12 5 -3.9962 0 140 -3.9962 1
genomeend 294

/* Organism #295 Fitness: 0.0004 Error: 0 */
genomestart 295
trait 1 0.1 0 0 0 0 0 0 0 
node 1 1 1 1
node 2 1 1 1
node 3 1 1 1
node 4 1 1 3
node 5 1 0 2
gene 1 1 5 1.23541 0 1 1.23541 1
gene 1 2 5 -3.45381 0 2 -3.45381 1
gene 1 3 5 -0.126811 0 3 -0.126811 1
gene 1 4 5 -0.0269259 0 4 -0.0269259 1
gene 1 5 5 -0.559684 1 61 -0.559684 1
genomeend 295

/* Organism #296 Fitness: 0.0004 Error: 0 */
genomestart 296
trait 1 0.1 0 0 0 0 0 0 0 
node 1 1 1 1
node 2 1 1 1
node 3 1 1 1
node 4 1 1 3
node 5 1 0 2
gene 1 1 5 1.23541 0 1 1.23541 1
gene 1 2 5 -3.45381 0 2 -3.45381 1
gene 1 3 5 -0.126811 0 3 -0.126811 1
gene 1 4 5 -0.0269259 0 4 -0.0269259 1
gene 1 5 5 -0.559684 1 61 -0.559684 1
genomeend 296

/* Organism #297 Fitness: 0.0004 Error: 0 */
genomestart 297
trait 1 0.1 0 0 0 0 0 0 0 
node 1 1 1 1
node 2 1 1 1
node 3 1 1 1
node 4 1 1 3
node 5 1 0 2
gene 1 1 5 1.23541 0 1 1.23541 1
gene 1 2 5 -3.45381 0 2 -3.45381 1
gene 1 3 5 -0.126811 0 3 -0.126811 1
gene 1 4 5 -0.0269259 0 4 -0.0269259 1
gene 1 5 5 -0.559684 1 61 -0.559684 1
genomeend 297

/* Organism #298 Fitness: 0.0004 Error: 0 */
genomestart 298
trait 1 0.1 0 0 0 0 0 0 0 
node 1 1 1 1
node 2 1 1 1
node 3 1 1 1
node 4 1 1 3
node 5 1 0 2
gene 1 1 5 1.23541 0 1 1.23541 1
gene 1 2 5 -3.45381 0 2 -3.45381 1
gene 1 3 5 -0.126811 0 3 -0.126811 1
gene 1 4 5 -0.0269259 0 4 -0.0269259 1
gene 1 5 5 -0.559684 1 61 -0.559684 1
genomeend 298

/* Species #12 : (Size 12) (AF 0.000941667) (Age 4)  */


/* Organism #299 Fitness: 0.0005 Error: 0 */
genomestart 299
trait 1 0.1 0 0 0 0 0 0 0 
node 1 1 1 1
node 2 1 1 1
node 3 1 1 1
node 4 1 1 3
node 5 1 0 2
gene 1 1 5 2.70723 0 1 2.70723 1
gene 1 2 5 -2.91491 0 2 -2.91491 1
gene 1 3 5 -1.78107 0 3 -1.78107 1
gene 1 4 5 1.09336 0 4 1.09336 1
gene 1 5 5 0.171996 1 188 0.171996 1
genomeend 299

/* Organism #300 Fitness: 0.001 Error: 0 */
genomestart 300
trait 1 0.1 0 0 0 0 0 0 0 
node 1 1 1 1
node 2 1 1 1
node 3 1 1 1
node 4 1 1 3
node 5 1 0 2
gene 1 1 5 1.51772 0 1 1.51772 1
gene 1 2 5 -1.82131 0 2 -1.82131 1
gene 1 3 5 -0.834305 0 3 -0.834305 1
gene 1 4 5 1.48922 0 4 1.48922 1
gene 1 5 5 -1.33838 1 55 -1.33838 1
genomeend 300

/* Organism #301 Fitness: 0.0005 Error: 0 */
genomestart 301
trait 1 0.1 0 0 0 0 0 0 0 
node 1 1 1 1
node 2 1 1 1
node 3 1 1 1
node 4 1 1 3
node 5 1 0 2
gene 1 1 5 2.70723 0 1 2.70723 1
gene 1 2 5 -2.91491 0 2 -2.91491 1
gene 1 3 5 -1.78107 0 3 -1.78107 1
gene 1 4 5 1.09336 0 4 1.09336 1
gene 1 5 5 0.171996 1 188 0.171996 1
genomeend 301

/* Organism #302 Fitness: 0.0011 Error: 0 */
genomestart 302
trait 1 0.1 0 0 0 0 0 0 0 
node 1 1 1 1
node 2 1 1 1
node 3 1 1 1
node 4 1 1 3
node 5 1 0 2
gene 1 1 5 1.0487 0 1 1.0487 1
gene 1 2 5 -3.26781 0 2 -3.26781 1
gene 1 3 5 -0.834305 0 3 -0.834305 1
gene 1 4 5 1.48922 0 4 1.48922 1
gene 1 5 5 -1.68566 1 55 -1.68566 1
genomeend 302

/* Organism #303 Fitness: 0.0015 Error: 0 */
genomestart 303
trait 1 0.0875 0 0 0 0.0797181 0.137249 0.0413189 0.0349626 
node 1 1 1 1
node 2 1 1 1
node 3 1 1 1
node 4 1 1 3
node 5 1 0 2
gene 1 1 5 -0.439982 0 1 -0.439982 1
gene 1 2 5 -3.64772 0 2 -3.64772 1
gene 1 3 5 -1.79949 0 3 -1.79949 1
gene 1 4 5 1.66723 0 4 1.66723 1
gene 1 5 5 -2.27211 1 55 -2.27211 1
genomeend 303

/* Organism #304 Fitness: 0.0005 Error: 0 */
genomestart 304
trait 1 0.1 0 0 0 0.0230635 0.205873 0 0 
node 1 1 1 1
node 2 1 1 1
node 3 1 1 1
node 4 1 1 3
node 5 1 0 2
gene 1 1 5 0.978938 0 1 0.978938 1
gene 1 2 5 -4.20125 0 2 -4.20125 1
gene 1 3 5 -1.10682 0 3 -1.10682 1
gene 1 4 5 1.50806 0 4 1.50806 1
genomeend 304

/* Organism #305 Fitness: 0.0028 Error: 0 */
genomestart 305
trait 1 0.1 0 0 0 0 0 0 0 
node 1 1 1 1
node 2 1 1 1
node 3 1 1 1
node 4 1 1 3
node 5 1 0 2
gene 1 1 5 0.85178 0 1 0.85178 1
gene 1 2 5 -3.47536 0 2 -3.47536 1
gene 1 3 5 -1.64768 0 3 -1.64768 1
