
/* Species #1 : (Size 32) (AF 77.9375) (Age 11)  */


/* Organism #0 Fitness: 353 Error: 0 */
genomestart 0
trait 1 0.1 0 0 0 0 0 0 0 
trait 2 0.2 0 0 0 0 0 0 0 
trait 3 0.3 0 0 0 0 0 0 0 
node 1 2 1 1
node 2 2 1 1
node 3 1 1 1
node 4 2 1 1
node 5 1 1 1
node 6 3 1 1
node 7 3 1 3
node 8 3 0 2
gene 1 1 8 1.20812 0 1 1.20812 1
gene 1 2 8 -1.41644 0 2 -1.41644 1
gene 1 3 8 -2.67283 0 3 -2.67283 1
gene 2 4 8 -3.24165 0 4 -3.24165 1
gene 2 5 8 2.14355 0 5 2.14355 1
gene 1 6 8 0.45725 0 6 0.45725 1
gene 3 7 8 -0.242685 0 7 -0.242685 1
genomeend 0

/* Organism #1 Fitness: 165 Error: 0 */
genomestart 1
trait 1 0.1 0 0 0 0 0 0 0 
trait 2 0.2 0 0 0 0 0 0 0 
trait 3 0.29992 0 0.00070516 0 0 0 0.00211765 0.00662134 
node 1 2 1 1
node 2 2 1 1
node 3 1 1 1
node 4 2 1 1
node 5 1 1 1
node 6 3 1 1
node 7 3 1 3
node 8 3 0 2
gene 2 1 8 -0.294185 0 1 -0.294185 1
gene 1 2 8 -0.731741 0 2 -0.731741 1
gene 1 3 8 -2.55505 0 3 -2.55505 1
gene 2 4 8 -3.52811 0 4 -3.52811 1
gene 2 5 8 3.27138 0 5 3.27138 1
gene 1 6 8 0.45725 0 6 0.45725 1
gene 3 7 8 -0.176438 0 7 -0.176438 1
genomeend 1

/* Organism #2 Fitness: 38 Error: 0 */
genomestart 2
trait 1 0.0853642 0 0.215728 0 0 0.135583 0 0 
trait 2 0.2 0 0 0 0 0 0 0 
trait 3 0.3 0 0 0 0 0 0 0 
node 1 2 1 1
node 2 2 1 1
node 3 1 1 1
node 4 2 1 1
node 5 1 1 1
node 6 3 1 1
node 7 3 1 3
node 8 3 0 2
node 34 1 0 0
gene 1 1 8 -2.12034 0 1 -2.12034 1
gene 1 2 8 -1.91978 0 2 -1.91978 0
gene 2 3 8 -5.06425 0 3 -5.06425 1
gene 3 4 8 -2.70379 0 4 -2.70379 1
gene 1 5 8 4.32301 0 5 4.32301 1
gene 1 6 8 1.05962 0 6 1.05962 1
gene 3 7 8 1.62548 0 7 1.62548 1
gene 1 2 34 -0.246751 0 71 -0.246751 1
gene 1 34 8 1.44376 0 72 1.44376 1
genomeend 2

/* Organism #3 Fitness: 6 Error: 0 */
genomestart 3
trait 1 0.1 0 0 0 0 0 0 0 
trait 2 0.2 0 0 0 0 0 0 0 
trait 3 0.29992 0 0.00070516 0 0 0 0.00211765 0.00662134 
node 1 2 1 1
node 2 2 1 1
node 3 1 1 1
node 4 2 1 1
node 5 1 1 1
node 6 3 1 1
node 7 3 1 3
node 8 3 0 2
gene 2 1 8 0.146278 0 1 0.146278 1
gene 1 2 8 -2.15403 0 2 -2.15403 1
gene 1 3 8 -3.29576 0 3 -3.29576 1
gene 2 4 8 -1.60039 0 4 -1.60039 1
gene 2 5 8 4.50914 0 5 4.50914 1
gene 1 6 8 -1.38674 0 6 -1.38674 1
gene 3 7 8 1.11782 0 7 1.11782 1
genomeend 3

/* Organism #4 Fitness: 46 Error: 0 */
genomestart 4
trait 1 0.1 0 0 0 0 0 0 0 
trait 2 0.2 0 0 0 0 0 0 0 
trait 3 0.29992 0 0.00070516 0 0 0 0.00211765 0.00662134 
node 1 2 1 1
node 2 2 1 1
node 3 1 1 1
node 4 2 1 1
node 5 1 1 1
node 6 3 1 1
node 7 3 1 3
node 8 3 0 2
gene 3 1 8 -2.73209 0 1 -2.73209 1
gene 1 2 8 1.86563 0 2 1.86563 1
gene 1 3 8 -2.82412 0 3 -2.82412 1
gene 2 4 8 0.417894 0 4 0.417894 1
gene 2 5 8 3.27138 0 5 3.27138 1
gene 1 6 8 0.421892 0 6 0.421892 1
gene 3 7 8 0.501088 0 7 0.501088 1
genomeend 4

/* Organism #5 Fitness: 20 Error: 0 */
genomestart 5
trait 1 0.1 0 0 0 0 0 0 0 
trait 2 0.2 0 0 0 0 0 0 0 
trait 3 0.3 0 0 0 0 0 0 0 
node 1 2 1 1
node 2 2 1 1
node 3 1 1 1
node 4 2 1 1
node 5 1 1 1
node 6 3 1 1
node 7 3 1 3
node 8 3 0 2
gene 1 1 8 0.952794 0 1 0.952794 1
gene 1 2 8 -1.84952 0 2 -1.84952 1
gene 1 3 8 -1.73054 0 3 -1.73054 1
gene 1 4 8 -5.7115 0 4 -5.7115 1
gene 2 5 8 -0.0751932 0 5 -0.0751932 1
gene 1 6 8 0.853518 0 6 0.853518 1
gene 3 7 8 -0.242685 0 7 -0.242685 1
genomeend 5

/* Organism #6 Fitness: 5 Error: 0 */
genomestart 6
trait 1 0.0926821 0 0.107864 0 0 0.0677916 0 0 
trait 2 0.2 0 0 0 0 0 0 0 
trait 3 0.3 0 0 0 0 0 0 0 
node 1 2 1 1
node 2 2 1 1
node 3 1 1 1
node 4 2 1 1
node 5 1 1 1
node 6 3 1 1
node 7 3 1 3
node 8 3 0 2
gene 1 1 8 -0.329758 0 1 -0.329758 1
gene 1 2 8 -0.693971 0 2 -0.693971 1
gene 1 3 8 -2.80399 0 3 -2.80399 1
gene 3 4 8 -0.15318 0 4 -0.15318 1
gene 1 5 8 4.72986 0 5 4.72986 1
gene 1 6 8 -1.1498 0 6 -1.1498 1
gene 3 7 8 0.190132 0 7 0.190132 1
genomeend 6

/* Organism #7 Fitness: 5 Error: 0 */
genomestart 7
trait 1 0.1 0 0 0 0 0 0 0 
trait 2 0.2 0 0 0 0 0 0 0 
trait 3 0.29992 0 0.00070516 0 0 0 0.00211765 0.00662134 
node 1 2 1 1
node 2 2 1 1
node 3 1 1 1
node 4 2 1 1
node 5 1 1 1
node 6 3 1 1
node 7 3 1 3
node 8 3 0 2
gene 2 1 8 -2.43782 0 1 -2.43782 1
gene 1 2 8 0.790865 0 2 0.790865 1
gene 1 3 8 -4.72605 0 3 -4.72605 1
gene 2 4 8 -4.45377 0 4 -4.45377 1
gene 2 5 8 1.97987 0 5 1.97987 1
gene 1 6 8 -1.25599 0 6 -1.25599 1
gene 3 7 8 -0.145854 0 7 -0.145854 1
genomeend 7

/* Organism #8 Fitness: 136 Error: 0 */
genomestart 8
trait 1 0.0926821 0 0.107864 0 0 0.0677916 0 0 
trait 2 0.2 0 0 0 0 0 0 0 
trait 3 0.3 0 0 0 0 0 0 0 
node 1 2 1 1
node 2 2 1 1
node 3 1 1 1
node 4 2 1 1
node 5 1 1 1
node 6 3 1 1
node 7 3 1 3
node 8 3 0 2
gene 1 1 8 0.475375 0 1 0.475375 1
gene 1 2 8 -0.693971 0 2 -0.693971 0
gene 2 3 8 -3.37371 0 3 -3.37371 1
gene 3 4 8 -3.11595 0 4 -3.11595 1
gene 1 5 8 2.85336 0 5 2.85336 1
gene 1 6 8 1.13036 0 6 1.13036 1
gene 3 7 8 0.190132 0 7 0.190132 1
genomeend 8

/* Organism #9 Fitness: 82 Error: 0 */
genomestart 9
trait 1 0.1 0 0 0 0 0 0 0 
trait 2 0.2 0 0 0 0 0 0 0 
trait 3 0.29992 0 0.00070516 0 0 0 0.00211765 0.00662134 
node 1 2 1 1
node 2 2 1 1
node 3 1 1 1
node 4 2 1 1
node 5 1 1 1
node 6 3 1 1
node 7 3 1 3
node 8 3 0 2
gene 2 1 8 -0.164647 0 1 -0.164647 1
gene 1 2 8 0.602859 0 2 0.602859 1
gene 1 3 8 -4.77279 0 3 -4.77279 1
gene 2 4 8 -3.48055 0 4 -3.48055 1
gene 2 5 8 5.74191 0 5 5.74191 1
gene 1 6 8 0.868549 0 6 0.868549 1
gene 3 7 8 0.31387 0 7 0.31387 1
genomeend 9

/* Organism #10 Fitness: 21 Error: 0 */
genomestart 10
trait 1 0.1 0 0 0 0 0 0 0 
trait 2 0.2 0 0 0 0 0 0 0 
trait 3 0.3 0 0 0 0 0 0 0 
node 1 2 1 1
node 2 2 1 1
node 3 1 1 1
node 4 2 1 1
node 5 1 1 1
node 6 3 1 1
node 7 3 1 3
node 8 3 0 2
gene 1 1 8 0.754108 0 1 0.754108 1
gene 1 2 8 -2.21023 0 2 -2.21023 1
gene 1 3 8 -3.20037 0 3 -3.20037 1
gene 2 4 8 -4.20974 0 4 -4.20974 1
gene 2 5 8 0.727295 0 5 0.727295 1
gene 1 6 8 0.664434 0 6 0.664434 1
gene 3 7 8 1.33424 0 7 1.33424 1
genomeend 10

/* Organism #11 Fitness: 98 Error: 0 */
genomestart 11
trait 1 0.0926821 0 0.107864 0 0 0.0677916 0 0 
trait 2 0.2 0 0 0 0 0 0 0 
trait 3 0.3 0 0 0 0 0 0 0 
node 1 2 1 1
node 2 2 1 1
node 3 1 1 1
node 4 2 1 1
node 5 1 1 1
node 6 3 1 1
node 7 3 1 3
node 8 3 0 2
gene 1 1 8 1.20812 0 1 1.20812 1
gene 1 2 8 -1.41644 0 2 -1.41644 0
gene 1 3 8 -2.67283 0 3 -2.67283 1
gene 2 4 8 -3.52811 0 4 -3.52811 1
gene 2 5 8 2.14355 0 5 2.14355 1
gene 1 6 8 0.45725 0 6 0.45725 1
gene 3 7 8 0.622948 0 7 0.622948 1
genomeend 11

/* Organism #12 Fitness: 54 Error: 0 */
genomestart 12
trait 1 0.1 0 0 0 0 0 0 0 
trait 2 0.2 0 0 0 0 0 0 0 
trait 3 0.3 0 0 0 0 0 0 0 
node 1 2 1 1
node 2 2 1 1
node 3 1 1 1
node 4 2 1 1
node 5 1 1 1
node 6 3 1 1
node 7 3 1 3
node 8 3 0 2
gene 1 1 8 3.40829 0 1 3.40829 1
gene 1 2 8 0.0864499 0 2 0.0864499 1
gene 1 3 8 -1.63642 0 3 -1.63642 1
gene 2 4 8 -4.31004 0 4 -4.31004 1
gene 2 5 8 2.56108 0 5 2.56108 1
gene 1 6 8 1.55191 0 6 1.55191 1
gene 3 7 8 -2.33103 0 7 -2.33103 1
genomeend 12

/* Organism #13 Fitness: 5 Error: 0 */
genomestart 13
trait 1 0.0926821 0 0.107864 0 0 0.0677916 0 0 
trait 2 0.2 0 0 0 0 0 0 0 
trait 3 0.3 0 0 0 0 0 0 0 
node 1 2 1 1
node 2 2 1 1
node 3 1 1 1
node 4 2 1 1
node 5 1 1 1
node 6 3 1 1
node 7 3 1 3
node 8 3 0 2
gene 1 1 8 -1.63584 0 1 -1.63584 1
gene 1 2 8 -1.75253 0 2 -1.75253 0
gene 1 3 8 -3.44963 0 3 -3.44963 1
gene 2 4 8 -1.69455 0 4 -1.69455 1
gene 2 5 8 2.16106 0 5 2.16106 1
gene 1 6 8 -0.235446 0 6 -0.235446 1
gene 3 7 8 2.61497 0 7 2.61497 1
genomeend 13

/* Organism #14 Fitness: 8 Error: 0 */
genomestart 14
trait 1 0.0926821 0 0.107864 0 0 0.0677916 0 0 
trait 2 0.2 0 0 0 0 0 0 0 
trait 3 0.3 0 0 0 0 0 0 0 
node 1 2 1 1
node 2 2 1 1
node 3 1 1 1
node 4 1 1 1
node 5 1 1 1
node 6 3 1 1
node 7 3 1 3
node 8 3 0 2
gene 1 1 8 2.33548 0 1 2.33548 1
gene 1 2 8 -2.26032 0 2 -2.26032 1
gene 2 3 8 -6.50939 0 3 -6.50939 1
gene 2 4 8 -1.35364 0 4 -1.35364 1
gene 2 5 8 -0.0903224 0 5 -0.0903224 1
gene 1 6 8 0.593417 0 6 0.593417 1
gene 3 7 8 0.0194607 0 7 0.0194607 1
genomeend 14

/* Organism #15 Fitness: 36 Error: 0 */
genomestart 15
trait 1 0.0926821 0 0.107864 0 0 0.0677916 0 0 
trait 2 0.2 0 0 0 0 0 0 0 
trait 3 0.29996 0 0.00035258 0 0 0 0.00105882 0.00331067 
node 1 2 1 1
node 2 2 1 1
node 3 1 1 1
node 4 2 1 1
node 5 1 1 1
node 6 3 1 1
node 7 3 1 3
node 8 3 0 2
gene 2 1 8 -0.294185 0 1 -0.294185 1
gene 1 2 8 0.380298 0 2 0.380298 0
gene 2 3 8 -3.94748 0 3 -3.94748 1
gene 2 4 8 1.39054 0 4 1.39054 1
gene 2 5 8 3.09993 0 5 3.09993 1
gene 1 6 8 2.77876 0 6 2.77876 1
gene 3 7 8 -1.79107 0 7 -1.79107 1
genomeend 15

/* Organism #16 Fitness: 168 Error: 0 */
genomestart 16
trait 1 0.0926821 0 0.107864 0 0 0.0677916 0 0 
trait 2 0.2 0 0 0 0 0 0 0 
trait 3 0.29996 0 0.00035258 0 0 0 0.00105882 0.00331067 
node 1 2 1 1
node 2 2 1 1
node 3 1 1 1
node 4 2 1 1
node 5 1 1 1
node 6 3 1 1
node 7 3 1 3
node 8 3 0 2
gene 2 1 8 2.11951 0 1 2.11951 1
gene 1 2 8 -2.10471 0 2 -2.10471 0
gene 2 3 8 -5.35338 0 3 -5.35338 1
gene 3 4 8 -2.70379 0 4 -2.70379 1
gene 1 5 8 4.21478 0 5 4.21478 1
gene 1 6 8 1.86727 0 6 1.86727 1
gene 3 7 8 0.204693 0 7 0.204693 1
genomeend 16

/* Organism #17 Fitness: 16 Error: 0 */
genomestart 17
trait 1 0.0926821 0 0.107864 0 0 0.0677916 0 0 
trait 2 0.2 0 0 0 0 0 0 0 
trait 3 0.3 0 0 0 0 0 0 0 
node 1 2 1 1
node 2 2 1 1
node 3 1 1 1
node 4 2 1 1
node 5 1 1 1
node 6 3 1 1
node 7 3 1 3
node 8 3 0 2
gene 1 1 8 0.661315 0 1 0.661315 1
gene 1 2 8 0.243162 0 2 0.243162 0
gene 1 3 8 -0.81028 0 3 -0.81028 1
gene 2 4 8 -6.00793 0 4 -6.00793 1
gene 2 5 8 -0.300689 0 5 -0.300689 1
gene 1 6 8 1.20603 0 6 1.20603 1
gene 3 7 8 2.13883 0 7 2.13883 1
genomeend 17

/* Organism #18 Fitness: 296 Error: 0 */
genomestart 18
trait 1 0.1 0 0 0 0 0 0 0 
trait 2 0.2 0 0 0 0 0 0 0 
trait 3 0.29996 0 0.00035258 0 0 0 0.00105882 0.00331067 
node 1 2 1 1
node 2 2 1 1
node 3 1 1 1
node 4 2 1 1
node 5 1 1 1
node 6 3 1 1
node 7 3 1 3
node 8 3 0 2
gene 1 1 8 0.456966 0 1 0.456966 1
gene 1 2 8 -1.07409 0 2 -1.07409 1
gene 1 3 8 -2.61394 0 3 -2.61394 1
gene 2 4 8 -3.52811 0 4 -3.52811 1
gene 2 5 8 2.70746 0 5 2.70746 1
gene 1 6 8 0.45725 0 6 0.45725 1
gene 3 7 8 -0.209562 0 7 -0.209562 1
genomeend 18

/* Organism #19 Fitness: 5 Error: 0 */
genomestart 19
trait 1 0.1 0 0 0 0 0 0 0 
trait 2 0.2 0 0 0 0 0 0 0 
trait 3 0.3 0 0 0 0 0 0 0 
node 1 2 1 1
node 2 2 1 1
node 3 1 1 1
node 4 2 1 1
node 5 1 1 1
node 6 3 1 1
node 7 3 1 3
node 8 2 0 2
gene 1 1 8 1.91256 0 1 1.91256 1
gene 1 2 8 -2.89999 0 2 -2.89999 1
gene 1 3 8 -2.43618 0 3 -2.43618 1
gene 2 4 8 -4.99679 0 4 -4.99679 1
gene 2 5 8 0.0139596 0 5 0.0139596 1
gene 1 6 8 -1.76236 0 6 -1.76236 1
gene 3 7 8 0.300797 0 7 0.300797 1
genomeend 19

/* Organism #20 Fitness: 29 Error: 0 */
genomestart 20
trait 1 0.0853642 0 0.215728 0 0 0.135583 0 0 
trait 2 0.2 0 0 0 0 0 0 0 
trait 3 0.3 0 0 0 0 0 0 0 
node 1 2 1 1
node 2 2 1 1
node 3 1 1 1
node 4 2 1 1
node 5 1 1 1
node 6 3 1 1
node 7 3 1 3
node 8 3 0 2
node 34 1 0 0
gene 1 1 8 0.831776 0 1 0.831776 1
gene 1 2 8 1.31859 0 2 1.31859 0
gene 2 3 8 -3.54626 0 3 -3.54626 1
gene 3 4 8 -4.76631 0 4 -4.76631 1
gene 1 5 8 2.53593 0 5 2.53593 1
gene 1 6 8 2.75897 0 6 2.75897 1
gene 3 7 8 2.17336 0 7 2.17336 1
gene 1 2 34 -1.14884 0 71 -1.14884 1
gene 1 34 8 0.995699 0 72 0.995699 1
genomeend 20

/* Organism #21 Fitness: 5 Error: 0 */
genomestart 21
trait 1 0.1 0 0 0 0 0 0 0 
trait 2 0.2 0 0 0 0 0 0 0 
trait 3 0.3 0 0 0 0 0 0 0 
node 1 2 1 1
node 2 2 1 1
node 3 1 1 1
node 4 2 1 1
node 5 1 1 1
node 6 3 1 1
node 7 3 1 3
node 8 3 0 2
gene 1 1 8 1.20812 0 1 1.20812 1
gene 1 2 8 1.07774 0 2 1.07774 1
gene 1 3 8 -0.458457 0 3 -0.458457 1
gene 2 4 8 -1.26478 0 4 -1.26478 1
gene 2 5 8 2.14355 0 5 2.14355 1
gene 1 6 8 -0.587196 0 6 -0.587196 1
gene 3 7 8 -0.78474 0 7 -0.78474 1
genomeend 21

/* Organism #22 Fitness: 257 Error: 0 */
genomestart 22
trait 1 0.1 0 0 0 0 0 0 0 
trait 2 0.2 0 0 0 0 0 0 0 
trait 3 0.29992 0 0.00070516 0 0 0 0.00211765 0.00662134 
node 1 2 1 1
node 2 2 1 1
node 3 1 1 1
node 4 2 1 1
node 5 1 1 1
node 6 3 1 1
node 7 3 1 3
node 8 3 0 2
gene 2 1 8 -0.6969 0 1 -0.6969 1
gene 1 2 8 -0.341895 0 2 -0.341895 1
gene 1 3 8 -2.55505 0 3 -2.55505 1
gene 2 4 8 -1.70916 0 4 -1.70916 1
gene 2 5 8 1.36796 0 5 1.36796 1
gene 1 6 8 0.683103 0 6 0.683103 1
gene 3 7 8 0.44971 0 7 0.44971 1
genomeend 22

/* Organism #23 Fitness: 30 Error: 0 */
genomestart 23
trait 1 0.1 0 0 0 0 0 0 0 
trait 2 0.2 0 0 0 0 0 0 0 
trait 3 0.29996 0 0.00035258 0 0 0 0.00105882 0.00331067 
node 1 2 1 1
node 2 2 1 1
node 3 1 1 1
node 4 2 1 1
node 5 1 1 1
node 6 3 1 1
node 7 3 1 3
node 8 3 0 2
gene 2 1 8 -1.43228 0 1 -1.43228 1
gene 1 2 8 1.35716 0 2 1.35716 1
gene 1 3 8 -3.7274 0 3 -3.7274 1
gene 2 4 8 -3.37338 0 4 -3.37338 1
gene 2 5 8 0.49008 0 5 0.49008 1
gene 1 6 8 2.09938 0 6 2.09938 1
gene 3 7 8 -0.658062 0 7 -0.658062 1
genomeend 23

/* Organism #24 Fitness: 16 Error: 0 */
genomestart 24
trait 1 0.1 0 0 0 0 0 0 0 
trait 2 0.2 0 0 0 0 0 0 0 
trait 3 0.3 0 0 0 0 0 0 0 
node 1 2 1 1
node 2 2 1 1
node 3 1 1 1
node 4 2 1 1
node 5 1 1 1
node 6 3 1 1
node 7 3 1 3
node 8 3 0 2
node 37 1 0 0
gene 1 1 8 1.20812 0 1 1.20812 1
gene 1 2 8 -1.41644 0 2 -1.41644 1
gene 1 3 8 -2.67283 0 3 -2.67283 1
gene 2 4 8 -3.24165 0 4 -3.24165 1
gene 2 5 8 2.14355 0 5 2.14355 0
gene 1 6 8 0.45725 0 6 0.45725 1
gene 3 7 8 -0.242685 0 7 -0.242685 1
gene 2 5 37 1 0 92 0 1
gene 2 37 8 2.14355 0 93 0 1
genomeend 24

/* Organism #25 Fitness: 59 Error: 0 */
genomestart 25
trait 1 0.0926821 0 0.107864 0 0 0.0677916 0 0 
trait 2 0.2 0 0 0 0 0 0 0 
trait 3 0.3 0 0 0 0 0 0 0 
node 1 2 1 1
node 2 2 1 1
node 3 1 1 1
node 4 2 1 1
node 5 1 1 1
node 6 3 1 1
node 7 3 1 3
node 8 3 0 2
gene 1 1 8 1.29506 0 1 1.29506 1
gene 1 2 8 0.75077 0 2 0.75077 0
gene 1 3 8 -1.83725 0 3 -1.83725 1
gene 2 4 8 -4.86081 0 4 -4.86081 1
gene 2 5 8 2.65192 0 5 2.65192 1
gene 1 6 8 3.59329 0 6 3.59329 1
gene 3 7 8 1.09343 0 7 1.09343 1
genomeend 25

/* Organism #26 Fitness: 338 Error: 0 */
genomestart 26
trait 1 0.1 0 0 0 0 0 0 0 
trait 2 0.2 0 0 0 0 0 0 0 
trait 3 0.3 0 0 0 0 0 0 0 
node 1 2 1 1
node 2 2 1 1
node 3 1 1 1
node 4 2 1 1
node 5 1 1 1
node 6 3 1 1
node 7 3 1 3
node 8 3 0 2
gene 1 1 8 1.20812 0 1 1.20812 1
gene 1 2 8 -1.32513 0 2 -1.32513 1
gene 1 3 8 -2.67283 0 3 -2.67283 1
gene 2 4 8 -3.52811 0 4 -3.52811 1
gene 2 5 8 2.14355 0 5 2.14355 1
gene 1 6 8 0.45725 0 6 0.45725 1
gene 3 7 8 -0.242685 0 7 -0.242685 1
genomeend 26

/* Organism #27 Fitness: 5 Error: 0 */
genomestart 27
trait 1 0.1 0 0 0 0 0 0 0 
trait 2 0.2 0 0 0 0 0 0 0 
trait 3 0.3 0 0 0 0 0 0 0 
node 1 2 1 1
node 2 2 1 1
node 3 1 1 1
node 4 2 1 1
node 5 1 1 1
node 6 3 1 1
node 7 3 1 3
node 8 3 0 2
gene 1 1 8 0.419571 0 1 0.419571 1
gene 1 2 8 -0.614437 0 2 -0.614437 1
gene 1 3 8 -0.633059 0 3 -0.633059 1
gene 2 4 8 -4.87236 0 4 -4.87236 1
gene 2 5 8 3.905 0 5 3.905 1
gene 1 6 8 -1.46042 0 6 -1.46042 1
gene 3 7 8 1.5544 0 7 1.5544 1
genomeend 27

/* Organism #28 Fitness: 5 Error: 0 */
genomestart 28
trait 1 0.0926821 0 0.107864 0 0 0.0677916 0 0 
trait 2 0.2 0 0 0 0 0 0 0 
trait 3 0.3 0 0 0 0 0 0 0 
node 1 2 1 1
node 2 2 1 1
node 3 1 1 1
node 4 2 1 1
node 5 1 1 1
node 6 3 1 1
node 7 3 1 3
node 8 3 0 2
gene 1 1 8 2.28481 0 1 2.28481 1
gene 1 2 8 1.26842 0 2 1.26842 1
gene 1 3 8 -4.7505 0 3 -4.7505 1
gene 2 4 8 -1.03259 0 4 -1.03259 1
gene 2 5 8 0.862748 0 5 0.862748 1
gene 1 6 8 -0.696077 0 6 -0.696077 1
gene 3 7 8 0.812351 0 7 0.812351 1
genomeend 28

/* Organism #29 Fitness: 31 Error: 0 */
genomestart 29
trait 1 0.1 0 0 0 0 0 0 0 
trait 2 0.2 0 0 0 0 0 0 0 
trait 3 0.29996 0 0.00035258 0 0 0 0.00105882 0.00331067 
node 1 2 1 1
node 2 2 1 1
node 3 1 1 1
node 4 2 1 1
node 5 1 1 1
node 6 3 1 1
node 7 3 1 3
node 8 3 0 2
gene 2 1 8 -2.24037 0 1 -2.24037 1
gene 1 2 8 -1.25095 0 2 -1.25095 1
gene 1 3 8 -2.63578 0 3 -2.63578 1
gene 2 4 8 -2.32221 0 4 -2.32221 1
gene 2 5 8 1.85782 0 5 1.85782 1
gene 1 6 8 0.714636 0 6 0.714636 1
gene 3 7 8 -1.71266 0 7 -1.71266 1
genomeend 29

/* Organism #30 Fitness: 105 Error: 0 */
genomestart 30
trait 1 0.1 0 0 0 0 0 0 0 
trait 2 0.2 0 0 0 0 0 0 0 
trait 3 0.29992 0 0.00070516 0 0 0 0.00211765 0.00662134 
node 1 2 1 1
node 2 2 1 1
node 3 1 1 1
node 4 2 1 1
node 5 1 1 1
node 6 3 1 1
node 7 3 1 3
node 8 3 0 2
gene 2 1 8 -0.865748 0 1 -0.865748 1
gene 1 2 8 0.951762 0 2 0.951762 1
gene 1 3 8 -2.87995 0 3 -2.87995 1
gene 2 4 8 -5.47144 0 4 -5.47144 1
gene 2 5 8 5.46324 0 5 5.46324 1
gene 1 6 8 2.31142 0 6 2.31142 1
gene 3 7 8 -0.116978 0 7 -0.116978 1
genomeend 30

/* Organism #31 Fitness: 51 Error: 0 */
genomestart 31
trait 1 0.1 0 0 0 0 0 0 0 
trait 2 0.2 0 0 0 0 0 0 0 
trait 3 0.3 0 0 0 0 0 0 0 
node 1 2 1 1
node 2 2 1 1
node 3 1 1 1
node 4 2 1 1
node 5 1 1 1
node 6 3 1 1
node 7 3 1 3
node 8 3 0 2
gene 1 1 8 0.186512 0 1 0.186512 1
gene 1 2 8 -2.23168 0 2 -2.23168 1
gene 1 3 8 -2.84827 0 3 -2.84827 1
gene 2 4 8 -1.91979 0 4 -1.91979 1
gene 2 5 8 4.1064 0 5 4.1064 1
gene 1 6 8 1.1679 0 6 1.1679 1
gene 3 7 8 0.884151 0 7 0.884151 1
genomeend 31

/* Species #2 : (Size 15) (AF 45.1333) (Age 8)  */


/* Organism #32 Fitness: 90 Error: 0 */
genomestart 32
trait 1 0.1 0 0 0 0 0 0 0 
trait 2 0.2 0 0 0 0 0 0 0 
trait 3 0.3 0 0 0 0 0 0 0 
node 1 2 1 1
node 2 3 1 1
node 3 3 1 1
node 4 1 1 1
node 5 2 1 1
node 6 1 1 1
node 7 2 1 3
node 8 2 0 2
node 12 1 0 0
gene 2 1 8 0.436914 0 1 0.436914 0
gene 2 2 8 -1.97553 0 2 -1.97553 1
gene 3 3 8 1.89615 0 3 1.89615 0
gene 2 4 8 -1.28919 0 4 -1.28919 1
gene 1 5 8 1.25641 0 5 1.25641 1
gene 1 6 8 1.09482 0 6 1.09482 1
gene 2 7 8 -1.5896 0 7 -1.5896 1
gene 2 1 12 2.42096 0 14 2.42096 1
gene 2 12 8 1.447 0 15 1.447 1
gene 3 2 12 2.51473 0 24 2.51473 1
genomeend 32

/* Organism #33 Fitness: 42 Error: 0 */
genomestart 33
trait 1 0.1 0 0 0 0 0 0 0 
trait 2 0.2 0 0 0 0 0 0 0 
trait 3 0.3 0 0 0 0 0 0 0 
node 1 2 1 1
node 2 3 1 1
node 3 3 1 1
node 4 1 1 1
node 5 2 1 1
node 6 1 1 1
node 7 2 1 3
node 8 2 0 2
node 12 1 0 0
gene 2 1 8 1.82328 0 1 1.82328 0
gene 2 2 8 0.447153 0 2 0.447153 1
gene 3 3 8 0.344486 0 3 0.344486 0
gene 2 4 8 -0.521306 0 4 -0.521306 1
gene 1 5 8 1.50033 0 5 1.50033 1
gene 1 6 8 2.95996 0 6 2.95996 1
gene 2 7 8 -1.5896 0 7 -1.5896 1
gene 2 1 12 3.79117 0 14 3.79117 1
gene 2 12 8 2.59698 0 15 2.59698 1
gene 3 2 12 4.09998 0 24 4.09998 1
genomeend 33

/* Organism #34 Fitness: 47 Error: 0 */
genomestart 34
trait 1 0.1 0 0 0 0 0 0 0 
trait 2 0.2 0 0 0 0 0 0 0 
trait 3 0.3 0 0 0 0 0 0 0 
node 1 2 1 1
node 2 3 1 1
node 3 3 1 1
node 4 1 1 1
node 5 2 1 1
node 6 1 1 1
node 7 2 1 3
node 8 2 0 2
node 12 1 0 0
gene 2 1 8 -0.933038 0 1 -0.933038 0
gene 2 2 8 4.90593 0 2 4.90593 1
gene 3 3 8 -3.1347 0 3 -3.1347 0
gene 2 4 8 -0.478925 0 4 -0.478925 1
gene 2 5 8 0.499165 0 5 0.499165 1
gene 1 6 8 2.00357 0 6 2.00357 1
gene 2 7 8 -0.384771 0 7 -0.384771 1
gene 2 1 12 4.91089 0 14 4.91089 1
gene 2 12 8 0.288777 0 15 0.288777 1
gene 3 2 12 2.51473 0 24 2.51473 1
genomeend 34

/* Organism #35 Fitness: 54 Error: 0 */
genomestart 35
trait 1 0.1 0 0 0 0 0 0 0 
trait 2 0.2 0 0 0 0 0 0 0 
trait 3 0.3 0 0 0 0 0 0 0 
node 1 2 1 1
node 2 3 1 1
node 3 3 1 1
node 4 1 1 1
node 5 2 1 1
node 6 1 1 1
node 7 2 1 3
node 8 2 0 2
node 12 1 0 0
gene 2 1 8 1.32681 0 1 1.32681 1
gene 2 2 8 -0.788027 0 2 -0.788027 1
gene 3 3 8 1.35855 0 3 1.35855 1
gene 2 4 8 -0.0735338 0 4 -0.0735338 1
gene 1 5 8 0.72528 0 5 0.72528 1
gene 1 6 8 1.53899 0 6 1.53899 1
gene 2 7 8 -1.58859 0 7 -1.58859 1
gene 1 1 12 2.94505 0 14 2.94505 1
gene 2 12 8 1.67384 0 15 1.67384 1
gene 3 2 12 1.09302 0 24 1.09302 1
gene 3 4 12 -0.502342 0 94 -0.502342 1
genomeend 35

/* Organism #36 Fitness: 36 Error: 0 */
genomestart 36
trait 1 0.1 0 0 0 0 0 0 0 
trait 2 0.2 0 0 0 0 0 0 0 
trait 3 0.3 0 0 0 0 0 0 0 
node 1 2 1 1
node 2 3 1 1
node 3 3 1 1
node 4 1 1 1
node 5 2 1 1
node 6 1 1 1
node 7 2 1 3
node 8 2 0 2
node 12 1 0 0
gene 2 1 8 2.39298 0 1 2.39298 0
gene 2 2 8 1.21534 0 2 1.21534 1
gene 3 3 8 -3.47645 0 3 -3.47645 1
gene 2 4 8 -2.86015 0 4 -2.86015 1
gene 1 5 8 2.58818 0 5 2.58818 1
gene 1 6 8 0.785976 0 6 0.785976 1
gene 2 7 8 -0.850897 0 7 -0.850897 1
gene 2 1 12 0.732568 0 14 0.732568 1
gene 2 12 8 -1.62183 0 15 -1.62183 1
gene 3 2 12 2.51473 0 24 2.51473 1
genomeend 36

/* Organism #37 Fitness: 13 Error: 0 */
genomestart 37
trait 1 0.1 0 0 0 0 0 0 0 
trait 2 0.2 0 0 0 0 0 0 0 
trait 3 0.3 0 0 0 0 0 0 0 
node 1 2 1 1
node 2 3 1 1
node 3 3 1 1
node 4 1 1 1
node 5 2 1 1
node 6 1 1 1
node 7 2 1 3
node 8 2 0 2
node 12 1 0 0
gene 2 1 8 4.0447 0 1 4.0447 0
gene 2 2 8 -0.10624 0 2 -0.10624 1
gene 3 3 8 0.28612 0 3 0.28612 0
gene 2 4 8 0.586482 0 4 0.586482 1
gene 1 5 8 -1.83639 0 5 -1.83639 1
gene 1 6 8 0.845676 0 6 0.845676 1
gene 2 7 8 -1.57204 0 7 -1.57204 1
gene 1 1 12 4.34431 0 14 4.34431 1
gene 2 12 8 1.29983 0 15 1.29983 1
gene 3 2 12 -0.328687 0 24 -0.328687 1
genomeend 37

/* Organism #38 Fitness: 118 Error: 0 */
genomestart 38
trait 1 0.1 0 0 0 0 0 0 0 
trait 2 0.2 0 0 0 0 0 0 0 
trait 3 0.3 0 0 0 0 0 0 0 
node 1 2 1 1
node 2 3 1 1
node 3 3 1 1
node 4 1 1 1
node 5 2 1 1
node 6 1 1 1
node 7 2 1 3
node 8 2 0 2
node 12 1 0 0
node 38 1 0 0
gene 2 1 8 0.436914 0 1 0.436914 0
gene 2 2 8 2.58125 0 2 2.58125 1
gene 3 3 8 -1.90813 0 3 -1.90813 0
gene 2 4 8 -1.28919 0 4 -1.28919 1
gene 1 5 8 1.74426 0 5 1.74426 1
gene 1 6 8 2.00357 0 6 2.00357 1
gene 2 7 8 -1.5896 0 7 -1.5896 1
gene 2 1 12 2.42096 0 14 2.42096 0
gene 2 12 8 0.434032 0 15 0.434032 1
gene 3 2 12 2.51473 0 24 2.51473 1
gene 2 1 38 1 0 95 0 1
gene 2 38 12 2.42096 0 96 0 1
genomeend 38

/* Organism #39 Fitness: 40 Error: 0 */
genomestart 39
trait 1 0.1 0 0 0 0 0 0 0 
trait 2 0.2 0 0 0 0 0 0 0 
trait 3 0.3 0.297154 0.429016 0 0 0 0 0.511581 
node 1 2 1 1
node 2 3 1 1
node 3 3 1 1
node 4 1 1 1
node 5 2 1 1
node 6 1 1 1
node 7 2 1 3
node 8 2 0 2
node 12 1 0 0
gene 2 1 8 -1.05389 0 1 -1.05389 0
gene 2 2 8 2.61638 0 2 2.61638 1
gene 3 3 8 -1.90813 0 3 -1.90813 0
gene 2 4 8 0.095848 0 4 0.095848 1
gene 1 5 8 1.75893 0 5 1.75893 1
gene 1 6 8 1.42164 0 6 1.42164 1
gene 2 7 8 1.57044 0 7 1.57044 1
gene 2 1 12 2.55211 0 14 2.55211 1
gene 2 12 8 -1.93661 0 15 -1.93661 1
gene 3 2 12 -0.328687 0 24 -0.328687 1
genomeend 39

/* Organism #40 Fitness: 86 Error: 0 */
genomestart 40
trait 1 0.1 0 0 0 0 0 0 0 
trait 2 0.2 0 0 0 0 0 0 0 
trait 3 0.3 0 0 0 0 0 0 0 
node 1 2 1 1
node 2 3 1 1
node 3 3 1 1
node 4 1 1 1
node 5 2 1 1
node 6 1 1 1
node 7 2 1 3
node 8 2 0 2
node 12 1 0 0
gene 2 1 8 0.436914 0 1 0.436914 0
gene 2 2 8 -1.97553 0 2 -1.97553 1
gene 3 3 8 -1.90813 0 3 -1.90813 0
gene 2 4 8 -1.28919 0 4 -1.28919 1
gene 1 5 8 1.25641 0 5 1.25641 1
gene 1 6 8 1.09482 0 6 1.09482 1
gene 2 7 8 -1.5896 0 7 -1.5896 1
gene 2 1 12 2.42096 0 14 2.42096 1
gene 2 12 8 1.447 0 15 1.447 1
gene 3 2 12 2.51473 0 24 2.51473 1
gene 3 4 12 -0.502342 0 94 0 1
genomeend 40

/* Organism #41 Fitness: 5 Error: 0 */
genomestart 41
trait 1 0.1 0 0 0 0 0 0 0 
trait 2 0.2 0 0 0 0 0 0 0 
trait 3 0.3 0 0 0 0 0 0 0 
node 1 2 1 1
node 2 3 1 1
node 3 3 1 1
node 4 1 1 1
node 5 2 1 1
node 6 1 1 1
node 7 2 1 3
node 8 2 0 2
node 12 1 0 0
gene 2 1 8 -0.5132 0 1 -0.5132 0
gene 2 2 8 4.86166 0 2 4.86166 1
gene 3 3 8 0.0224079 0 3 0.0224079 0
gene 2 4 8 -1.08271 0 4 -1.08271 1
gene 1 5 8 1.74426 0 5 1.74426 1
gene 1 6 8 -0.630761 0 6 -0.630761 1
gene 2 7 8 -1.24188 0 7 -1.24188 1
gene 2 1 12 4.06999 0 14 4.06999 1
gene 2 12 8 -0.795804 0 15 -0.795804 1
gene 3 2 12 -2.12941 0 24 -2.12941 1
genomeend 41

/* Organism #42 Fitness: 5 Error: 0 */
genomestart 42
trait 1 0.1 0 0 0 0 0 0 0 
trait 2 0.2 0 0 0 0 0 0 0 
trait 3 0.3 0 0 0 0 0 0 0 
node 1 2 1 1
node 2 3 1 1
node 3 3 1 1
node 4 1 1 1
node 5 2 1 1
node 6 1 1 1
node 7 2 1 3
node 8 2 0 2
node 12 1 0 0
gene 2 1 8 0.722197 0 1 0.722197 0
gene 2 2 8 2.20124 0 2 2.20124 1
gene 3 3 8 0.974024 0 3 0.974024 0
gene 2 4 8 -0.144938 0 4 -0.144938 1
gene 1 5 8 0.72528 0 5 0.72528 1
gene 1 6 8 -0.258695 0 6 -0.258695 1
gene 2 7 8 -1.59592 0 7 -1.59592 1
gene 1 1 12 2.94505 0 14 2.94505 1
gene 2 12 8 1.12717 0 15 1.12717 1
gene 3 2 12 3.03411 0 24 3.03411 1
genomeend 42

/* Organism #43 Fitness: 8 Error: 0 */
genomestart 43
trait 1 0.1 0 0 0 0 0 0 0 
trait 2 0.2 0 0 0 0 0 0 0 
trait 3 0.3 0 0 0 0 0 0 0 
node 1 2 1 1
node 2 3 1 1
node 3 3 1 1
node 4 1 1 1
node 5 2 1 1
node 6 1 1 1
node 7 2 1 3
node 8 2 0 2
node 12 1 0 0
node 39 1 0 0
gene 2 1 8 1.32681 0 1 1.32681 1
gene 2 2 8 1.49036 0 2 1.49036 1
gene 3 3 8 -0.543586 0 3 -0.543586 0
gene 2 4 8 -0.0735338 0 4 -0.0735338 1
gene 1 5 8 0.969201 0 5 0.969201 1
gene 1 6 8 1.99337 0 6 1.99337 0
gene 2 7 8 -1.58859 0 7 -1.58859 1
gene 2 1 12 2.94505 0 14 2.94505 1
gene 2 12 8 1.16735 0 15 1.16735 1
gene 3 2 12 1.09302 0 24 1.09302 1
gene 1 6 39 1 0 97 0 1
gene 1 39 8 1.99337 0 98 0 1
genomeend 43

/* Organism #44 Fitness: 22 Error: 0 */
genomestart 44
trait 1 0.1 0 0 0 0 0 0 0 
trait 2 0.2 0 0 0 0 0 0 0 
trait 3 0.3 0 0 0 0 0 0 0 
node 1 2 1 1
node 2 3 1 1
node 3 3 1 1
node 4 1 1 1
node 5 2 1 1
node 6 1 1 1
node 7 2 1 3
node 8 2 0 2
node 12 1 0 0
node 40 1 0 0
gene 2 1 8 2.2167 0 1 2.2167 1
gene 2 2 8 0.399477 0 2 0.399477 1
gene 3 3 8 0.82096 0 3 0.82096 0
gene 2 4 8 1.14212 0 4 1.14212 1
gene 1 5 8 0.194147 0 5 0.194147 1
gene 1 6 8 1.98316 0 6 1.98316 1
gene 2 7 8 -1.58758 0 7 -1.58758 1
gene 1 1 12 3.46913 0 14 3.46913 1
gene 2 12 8 1.90068 0 15 1.90068 0
gene 3 2 12 -0.328687 0 24 -0.328687 1
gene 2 12 40 1 0 99 0 1
gene 2 40 8 1.90068 0 100 0 1
genomeend 44

/* Organism #45 Fitness: 21 Error: 0 */
genomestart 45
trait 1 0.1 0 0 0 0 0 0 0 
trait 2 0.2 0 0 0 0 0 0 0 
trait 3 0.3 0 0 0 0 0 0 0 
node 1 2 1 1
node 2 3 1 1
node 3 3 1 1
node 4 1 1 1
node 5 2 1 1
node 6 1 1 1
node 7 2 1 3
node 8 2 0 2
node 12 1 0 0
gene 2 1 8 1.65046 0 1 1.65046 0
gene 2 2 8 0.140611 0 2 0.140611 1
gene 3 3 8 0.519556 0 3 0.519556 0
gene 2 4 8 0.741914 0 4 0.741914 1
gene 1 5 8 1.3247 0 5 1.3247 1
gene 1 6 8 0.592144 0 6 0.592144 1
gene 2 7 8 -1.28961 0 7 -1.28961 1
gene 1 1 12 4.67452 0 14 4.67452 1
gene 2 12 8 3.01603 0 15 3.01603 1
gene 3 2 12 -0.328687 0 24 -0.328687 1
genomeend 45

/* Organism #46 Fitness: 90 Error: 0 */
genomestart 46
trait 1 0.1 0 0 0 0 0 0 0 
trait 2 0.2 0 0 0 0 0 0 0 
trait 3 0.3 0 0 0 0 0 0 0 
node 1 2 1 1
node 2 3 1 1
node 3 3 1 1
node 4 1 1 1
node 5 2 1 1
node 6 1 1 1
node 7 2 1 3
node 8 2 0 2
node 12 1 0 0
gene 2 1 8 0.436914 0 1 0.436914 0
gene 2 2 8 -1.97553 0 2 -1.97553 1
gene 3 3 8 1.89615 0 3 1.89615 0
gene 2 4 8 -1.28919 0 4 -1.28919 1
gene 1 5 8 1.25641 0 5 1.25641 1
gene 1 6 8 1.09482 0 6 1.09482 1
gene 2 7 8 -1.5896 0 7 -1.5896 1
gene 2 1 12 2.42096 0 14 2.42096 1
gene 2 12 8 1.447 0 15 1.447 1
gene 3 2 12 2.51473 0 24 2.51473 1
genomeend 46

/* Species #3 : (Size 30) (AF 3412.57) (Age 5)  */


/* Organism #47 Fitness: 358 Error: 0 */
genomestart 47
trait 1 0.110364 0 0 0 0 0 0 0 
trait 2 0.2 0 0 0 0 0 0 0 
trait 3 0.299361 0 0.00564128 0 0 0 0.21814 0.0529707 
node 1 2 1 1
node 2 3 1 1
node 3 3 1 1
node 4 1 1 1
node 5 2 1 1
node 6 1 1 1
node 7 2 1 3
node 8 2 0 2
node 24 1 0 0
node 29 1 0 0
gene 2 1 8 -0.386171 0 1 -0.386171 1
gene 2 2 8 0.020867 0 2 0.020867 1
gene 1 3 8 -1.74994 0 3 -1.74994 0
gene 3 4 8 -4.8464 0 4 -4.8464 1
gene 3 5 8 1.2328 0 5 1.2328 1
gene 2 6 8 1.74623 0 6 1.74623 1
gene 2 7 8 -0.0734612 0 7 -0.0734612 1
gene 1 3 24 1.61727 0 40 1.11727 1
gene 1 24 8 -0.882059 0 41 -0.691704 1
gene 3 2 24 0.252611 0 48 0.252611 1
gene 3 5 29 1 0 59 0 1
gene 3 29 8 0.906202 0 60 0 1
genomeend 47

/* Organism #48 Fitness: 29 Error: 0 */
genomestart 48
trait 1 0.110364 0 0 0 0 0 0 0 
trait 2 0.2 0 0 0 0 0 0 0 
trait 3 0.299361 0 0.00564128 0 0 0 0.21814 0.0529707 
node 1 2 1 1
node 2 3 1 1
node 3 3 1 1
node 4 1 1 1
node 5 2 1 1
node 6 1 1 1
node 7 2 1 3
node 8 2 0 2
node 24 1 0 0
node 29 1 0 0
gene 2 1 8 -1.59124 0 1 -1.59124 1
gene 2 2 8 -0.241913 0 2 -0.241913 1
gene 1 3 8 0.333531 0 3 0.333531 0
gene 3 4 8 -4.85563 0 4 -4.85563 1
gene 3 5 8 -0.443505 0 5 -0.443505 0
gene 2 6 8 3.7836 0 6 3.7836 1
gene 2 7 8 0.0215411 0 7 0.0215411 1
gene 1 3 24 -0.681895 0 40 -0.681895 1
gene 1 24 8 0.328141 0 41 0.328141 1
gene 3 2 24 2.51729 0 48 2.51729 1
gene 3 5 29 1 0 59 1 1
gene 3 29 8 1.70788 0 60 1.70788 1
genomeend 48

/* Organism #49 Fitness: 100001 Error: 0 */
/* ##------$ WINNER 49 SPECIES #3 $------## */
genomestart 49
trait 1 0.110364 0 0 0 0 0 0 0 
trait 2 0.2 0 0 0 0 0 0 0 
trait 3 0.299361 0 0.00564128 0 0 0 0.21814 0.0529707 
node 1 2 1 1
node 2 3 1 1
node 3 3 1 1
node 4 1 1 1
node 5 1 1 1
node 6 1 1 1
node 7 2 1 3
node 8 2 0 2
node 24 1 0 0
node 29 1 0 0
gene 2 1 8 -0.231253 0 1 -0.231253 1
gene 2 2 8 0.020867 0 2 0.020867 1
gene 1 3 8 -2.81664 0 3 -2.81664 0
gene 3 4 8 -4.60928 0 4 -4.60928 1
gene 3 5 8 0.589929 0 5 0.589929 1
gene 2 6 8 1.47462 0 6 1.47462 1
gene 2 7 8 -0.400423 0 7 -0.400423 1
gene 1 3 24 2.13223 0 40 1.88223 1
gene 1 24 8 -1.22456 0 41 -1.12938 1
gene 3 2 24 0.252611 0 48 0.252611 1
gene 3 5 29 1 0 59 0.5 1
gene 3 29 8 1.72292 0 60 1.26981 1
genomeend 49

/* Organism #50 Fitness: 33 Error: 0 */
genomestart 50
trait 1 0.110364 0 0 0 0 0 0 0 
trait 2 0.2 0 0 0 0 0 0 0 
trait 3 0.299361 0 0.00564128 0 0 0 0.21814 0.0529707 
node 1 2 1 1
node 2 3 1 1
node 3 3 1 1
node 4 1 1 1
node 5 2 1 1
node 6 1 1 1
node 7 2 1 3
node 8 2 0 2
node 24 1 0 0
node 29 1 0 0
gene 2 1 8 0.335579 0 1 0.335579 0
gene 2 2 8 -1.37921 0 2 -1.37921 1
gene 1 3 8 -1.03436 0 3 -1.03436 0
gene 3 4 8 -2.03659 0 4 -2.03659 1
gene 3 5 8 0.0561829 0 5 0.0561829 0
gene 2 6 8 3.88221 0 6 3.88221 1
gene 2 7 8 -2.93992 0 7 -2.93992 1
gene 1 3 24 0.566218 0 40 0.566218 1
gene 1 24 8 1.52112 0 41 1.52112 1
gene 3 2 24 -1.64493 0 48 -1.64493 1
gene 3 5 29 0.891996 0 59 0.891996 1
gene 3 29 8 1.63609 0 60 1.63609 1
genomeend 50

/* Organism #51 Fitness: 123 Error: 0 */
genomestart 51
trait 1 0.110364 0 0 0 0 0 0 0 
trait 2 0.2 0 0 0 0 0 0 0 
trait 3 0.299361 0 0.00564128 0 0 0 0.21814 0.0529707 
node 1 2 1 1
node 2 3 1 1
node 3 3 1 1
node 4 1 1 1
node 5 2 1 1
node 6 1 1 1
node 7 2 1 3
node 8 2 0 2
node 24 1 0 0
node 29 1 0 0
gene 2 1 8 0.335579 0 1 0.335579 1
gene 3 2 8 0.174245 0 2 0.174245 1
gene 1 3 8 -0.506994 0 3 -0.506994 0
gene 3 4 8 -3.88369 0 4 -3.88369 1
gene 3 5 8 0.906202 0 5 0.906202 0
gene 2 6 8 1.58142 0 6 1.58142 1
gene 2 7 8 -0.513833 0 7 -0.513833 1
gene 1 3 24 1 0 40 0 1
gene 1 24 8 -0.38071 0 41 0 1
gene 3 2 24 0.252611 0 48 0.252611 1
gene 3 5 29 1 0 59 0 1
gene 3 29 8 0.906202 0 60 0 1
gene 1 3 29 0.440085 0 79 0.440085 1
genomeend 51

/* Organism #52 Fitness: 87 Error: 0 */
genomestart 52
trait 1 0.110364 0 0 0 0 0 0 0 
trait 2 0.2 0 0 0 0 0 0 0 
trait 3 0.299361 0 0.00564128 0 0 0 0.21814 0.0529707 
node 1 2 1 1
node 2 3 1 1
node 3 3 1 1
node 4 1 1 1
node 5 1 1 1
node 6 1 1 1
node 7 2 1 3
node 8 2 0 2
node 24 1 0 0
node 29 1 0 0
gene 2 1 8 -0.0763342 0 1 -0.0763342 1
gene 2 2 8 0.020867 0 2 0.020867 1
gene 1 3 8 -3.88335 0 3 -3.88335 0
gene 3 4 8 -4.37216 0 4 -4.37216 1
gene 3 5 8 -0.0529392 0 5 -0.0529392 1
gene 2 6 8 1.203 0 6 1.203 1
gene 2 7 8 -0.727385 0 7 -0.727385 1
gene 1 3 24 2.6472 0 40 2.6472 1
gene 1 24 8 -1.56707 0 41 -1.56707 1
gene 3 2 24 0.252611 0 48 0.252611 1
gene 3 5 29 1 0 59 1 1
gene 3 29 8 2.53963 0 60 2.53963 1
gene 2 7 24 -0.966496 0 101 -0.966496 1
genomeend 52

/* Organism #53 Fitness: 24 Error: 0 */
genomestart 53
trait 1 0.110364 0 0 0 0 0 0 0 
trait 2 0.2 0 0 0 0 0 0 0 
trait 3 0.299361 0 0.00564128 0 0 0 0.21814 0.0529707 
node 1 2 1 1
node 2 3 1 1
node 3 3 1 1
node 4 1 1 1
node 5 2 1 1
node 6 1 1 1
node 7 2 1 3
node 8 2 0 2
node 24 1 0 0
node 29 1 0 0
gene 2 1 8 -2.05756 0 1 -2.05756 1
gene 2 2 8 -1.8499 0 2 -1.8499 1
gene 1 3 8 -3.32918 0 3 -3.32918 1
gene 3 4 8 -2.41144 0 4 -2.41144 1
gene 3 5 8 0.129655 0 5 0.129655 1
gene 2 6 8 3.94367 0 6 3.94367 1
gene 2 7 8 -1.46648 0 7 -1.46648 1
gene 1 3 24 0.0677811 0 40 0.0677811 1
gene 1 24 8 0.626431 0 41 0.626431 1
gene 3 2 24 -0.793836 0 48 -0.793836 1
gene 1 5 29 -1.25834 0 59 -1.25834 1
gene 3 29 8 0.906202 0 60 0.906202 1
genomeend 53

/* Organism #54 Fitness: 72 Error: 0 */
genomestart 54
trait 1 0.110364 0 0 0 0 0 0 0 
trait 2 0.2 0 0 0 0 0 0 0 
trait 3 0.299361 0 0.00564128 0 0 0 0.21814 0.0529707 
node 1 2 1 1
node 2 3 1 1
node 3 3 1 1
node 4 1 1 1
node 5 2 1 1
node 6 1 1 1
node 7 2 1 3
node 8 2 0 2
node 24 1 0 0
node 29 1 0 0
gene 2 1 8 2.19409 0 1 2.19409 0
gene 2 2 8 0.464976 0 2 0.464976 1
gene 1 3 8 1.97608 0 3 1.97608 0
gene 3 4 8 -1.71675 0 4 -1.71675 1
gene 3 5 8 0.20489 0 5 0.20489 0
gene 2 6 8 3.76217 0 6 3.76217 1
gene 2 7 8 -0.442327 0 7 -0.442327 1
gene 1 3 24 1.49264 0 40 1.49264 1
gene 1 24 8 0.849443 0 41 0.849443 1
gene 3 2 24 -0.250241 0 48 -0.250241 1
gene 3 5 29 -0.728198 0 59 -0.728198 1
gene 3 29 8 0.285634 0 60 0.285634 1
genomeend 54

/* Organism #55 Fitness: 195 Error: 0 */
genomestart 55
trait 1 0.110364 0 0 0 0 0 0 0 
trait 2 0.2 0 0 0 0 0 0 0 
trait 3 0.299361 0 0.00564128 0 0 0 0.21814 0.0529707 
node 1 2 1 1
node 2 3 1 1
node 3 3 1 1
node 4 1 1 1
node 5 2 1 1
node 6 1 1 1
node 7 2 1 3
node 8 2 0 2
node 24 1 0 0
node 29 1 0 0
gene 2 1 8 -0.0252962 0 1 -0.0252962 0
gene 2 2 8 0.0975559 0 2 0.0975559 1
gene 1 3 8 -1.12847 0 3 -1.12847 0
gene 3 4 8 -4.36505 0 4 -4.36505 1
gene 3 5 8 1.0695 0 5 1.0695 0
gene 2 6 8 1.66383 0 6 1.66383 1
gene 2 7 8 -0.293647 0 7 -0.293647 1
gene 1 3 24 1.30863 0 40 0.558633 1
gene 1 24 8 -0.631384 0 41 -0.345852 1
gene 3 2 24 0.252611 0 48 0.252611 1
gene 3 5 29 1 0 59 0 1
gene 3 29 8 0.906202 0 60 0 1
gene 1 5 24 -0.548059 0 102 -0.548059 1
genomeend 55

/* Organism #56 Fitness: 40 Error: 0 */
genomestart 56
trait 1 0.110364 0 0 0 0 0 0 0 
trait 2 0.2 0 0 0 0 0 0 0 
trait 3 0.299361 0 0.00564128 0 0 0 0.21814 0.0529707 
node 1 2 1 1
node 2 3 1 1
node 3 3 1 1
node 4 1 1 1
node 5 2 1 1
node 6 1 1 1
node 7 2 1 3
node 8 2 0 2
node 24 1 0 0
node 29 1 0 0
gene 2 1 8 1.54481 0 1 1.54481 1
gene 2 2 8 0.900054 0 2 0.900054 1
gene 1 3 8 -1.97941 0 3 -1.97941 0
gene 3 4 8 -5.6429 0 4 -5.6429 1
gene 3 5 8 2.9646 0 5 2.9646 0
gene 2 6 8 3.77037 0 6 3.77037 1
gene 2 7 8 -0.664474 0 7 -0.664474 1
gene 1 3 24 2.39112 0 40 2.39112 1
gene 1 24 8 -0.553188 0 41 -0.553188 1
gene 3 2 24 -1.65386 0 48 -1.65386 1
gene 3 5 29 -0.0737507 0 59 -0.0737507 1
gene 3 29 8 0.906202 0 60 0.906202 1
genomeend 56

/* Organism #57 Fitness: 136 Error: 0 */
genomestart 57
trait 1 0.110364 0 0 0 0 0 0 0 
trait 2 0.2 0 0 0 0 0 0 0 
trait 3 0.299361 0 0.00564128 0 0 0 0.21814 0.0529707 
node 1 2 1 1
node 2 3 1 1
node 3 3 1 1
node 4 1 1 1
node 5 2 1 1
node 6 1 1 1
node 7 2 1 3
node 8 2 0 2
node 24 1 0 0
node 29 1 0 0
gene 2 1 8 -0.386171 0 1 -0.386171 1
gene 2 2 8 0.020867 0 2 0.020867 1
gene 1 3 8 -1.74994 0 3 -1.74994 0
gene 3 4 8 -4.8464 0 4 -4.8464 1
gene 3 5 8 1.2328 0 5 1.2328 1
gene 2 6 8 1.74623 0 6 1.74623 1
gene 2 7 8 -0.0734612 0 7 -0.0734612 1
gene 1 3 24 1.61727 0 40 1.11727 1
gene 1 24 8 -0.882059 0 41 -0.691704 1
gene 3 2 24 0.252611 0 48 0.252611 1
gene 3 5 29 1 0 59 0 1
gene 3 29 8 0.906202 0 60 0 1
gene 3 7 29 -0.68675 0 103 -0.68675 1
genomeend 57

/* Organism #58 Fitness: 26 Error: 0 */
genomestart 58
trait 1 0.110364 0 0 0 0 0 0 0 
trait 2 0.2 0 0 0 0 0 0 0 
trait 3 0.299361 0 0.00564128 0 0 0 0.21814 0.0529707 
node 1 2 1 1
node 2 3 1 1
node 3 3 1 1
node 4 1 1 1
node 5 2 1 1
node 6 1 1 1
node 7 2 1 3
node 8 2 0 2
node 24 1 0 0
node 29 1 0 0
gene 2 1 8 -1.61745 0 1 -1.61745 0
gene 2 2 8 0.412417 0 2 0.412417 1
gene 1 3 8 -4.42523 0 3 -4.42523 0
gene 3 4 8 -3.44249 0 4 -3.44249 1
gene 3 5 8 0.918461 0 5 0.918461 0
gene 2 6 8 3.44805 0 6 3.44805 1
gene 2 7 8 0.833001 0 7 0.833001 1
gene 1 3 24 1.18669 0 40 1.18669 1
gene 1 24 8 -0.711619 0 41 -0.711619 1
gene 3 2 24 -2.23155 0 48 -2.23155 1
gene 3 5 29 0.0629438 0 59 0.0629438 1
gene 3 29 8 3.54094 0 60 3.54094 1
genomeend 58

/* Organism #59 Fitness: 26 Error: 0 */
genomestart 59
trait 1 0.110364 0 0 0 0 0 0 0 
trait 2 0.2 0 0 0 0 0 0 0 
trait 3 0.299361 0 0.00564128 0 0 0 0.21814 0.0529707 
node 1 2 1 1
node 2 3 1 1
node 3 3 1 1
node 4 1 1 1
node 5 2 1 1
node 6 1 1 1
node 7 2 1 3
node 8 2 0 2
node 24 1 0 0
node 29 1 0 0
gene 2 1 8 0.379447 0 1 0.379447 0
gene 2 2 8 -1.18304 0 2 -1.18304 1
gene 1 3 8 -1.30264 0 3 -1.30264 0
gene 3 4 8 1.49585 0 4 1.49585 1
gene 3 5 8 -0.313989 0 5 -0.313989 1
gene 2 6 8 4.03423 0 6 4.03423 1
gene 2 7 8 -1.64459 0 7 -1.64459 1
gene 1 3 24 -0.572075 0 40 -0.572075 1
gene 1 24 8 1.43401 0 41 1.43401 1
gene 3 2 24 -0.0101172 0 48 -0.0101172 1
gene 3 5 29 -0.390481 0 59 -0.390481 1
gene 3 29 8 1.28853 0 60 1.28853 1
genomeend 59

/* Organism #60 Fitness: 5 Error: 0 */
genomestart 60
trait 1 0.110364 0 0 0 0 0 0 0 
trait 2 0.2 0 0 0 0 0 0 0 
trait 3 0.299361 0 0.00564128 0 0 0 0.21814 0.0529707 
node 1 2 1 1
node 2 3 1 1
node 3 3 1 1
node 4 1 1 1
node 5 2 1 1
node 6 1 1 1
node 7 2 1 3
node 8 2 0 2
node 24 1 0 0
node 29 1 0 0
gene 2 1 8 -1.47817 0 1 -1.47817 0
gene 2 2 8 0.436064 0 2 0.436064 1
gene 1 3 8 -1.0671 0 3 -1.0671 0
gene 3 4 8 -3.1821 0 4 -3.1821 1
gene 3 5 8 -0.96137 0 5 -0.96137 0
gene 2 6 8 -0.299896 0 6 -0.299896 1
gene 2 7 8 -2.47291 0 7 -2.47291 1
gene 2 3 24 2.18646 0 40 2.18646 1
gene 1 24 8 1.47781 0 41 1.47781 1
gene 3 2 24 -2.09571 0 48 -2.09571 1
gene 3 5 29 0.591579 0 59 0.591579 1
gene 3 29 8 0.906202 0 60 0.906202 1
genomeend 60

/* Organism #61 Fitness: 49 Error: 0 */
genomestart 61
trait 1 0.110364 0 0 0 0 0 0 0 
trait 2 0.2 0 0 0 0 0 0 0 
trait 3 0.299361 0 0.00564128 0 0 0 0.21814 0.0529707 
node 1 2 1 1
node 2 3 1 1
node 3 3 1 1
node 4 1 1 1
node 5 2 1 1
node 6 1 1 1
node 7 2 1 3
node 8 2 0 2
node 24 1 0 0
node 29 1 0 0
gene 2 1 8 1.32351 0 1 1.32351 0
gene 2 2 8 -1.25119 0 2 -1.25119 1
gene 1 3 8 0.482197 0 3 0.482197 0
gene 3 4 8 -3.46906 0 4 -3.46906 1
gene 3 5 8 -1.19844 0 5 -1.19844 0
gene 2 6 8 2.4729 0 6 2.4729 1
gene 2 7 8 -0.561015 0 7 -0.561015 1
gene 1 3 24 3.49832 0 40 3.49832 1
gene 1 24 8 -0.413432 0 41 -0.413432 1
gene 3 2 24 2.67693 0 48 2.67693 1
gene 3 5 29 1 0 59 1 1
gene 3 29 8 1.30416 0 60 1.30416 1
genomeend 61

/* Organism #62 Fitness: 80 Error: 0 */
genomestart 62
trait 1 0.110364 0 0 0 0 0 0 0 
trait 2 0.2 0 0 0 0 0 0 0 
trait 3 0.299361 0 0.00564128 0 0 0 0.21814 0.0529707 
node 1 2 1 1
node 2 3 1 1
node 3 3 1 1
node 4 1 1 1
node 5 2 1 1
node 6 1 1 1
node 7 2 1 3
node 8 2 0 2
node 24 1 0 0
node 29 1 0 0
node 41 1 0 0
gene 2 1 8 -0.230928 0 1 -0.230928 0
gene 2 2 8 -0.105055 0 2 -0.105055 1
gene 1 3 8 -0.883363 0 3 -0.883363 1
gene 3 4 8 -3.85323 0 4 -3.85323 1
gene 3 5 8 1.41001 0 5 1.41001 1
gene 2 6 8 1.58142 0 6 1.58142 1
gene 2 7 8 -0.513833 0 7 -0.513833 1
gene 1 3 24 1 0 40 0.25 1
gene 1 24 8 -0.38071 0 41 0 1
gene 3 2 24 -0.176165 0 48 -0.176165 1
gene 3 5 29 1 0 59 0 1
gene 3 29 8 0.906202 0 60 0 0
gene 3 29 41 1 0 104 0 1
gene 3 41 8 0.906202 0 105 0 1
genomeend 62

/* Organism #63 Fitness: 119 Error: 0 */
genomestart 63
trait 1 0.110364 0 0 0 0 0 0 0 
trait 2 0.2 0 0 0 0 0 0 0 
trait 3 0.299361 0 0.00564128 0 0 0 0.21814 0.0529707 
node 1 2 1 1
node 2 3 1 1
node 3 3 1 1
node 4 1 1 1
node 5 1 1 1
node 6 1 1 1
node 7 2 1 3
node 8 2 0 2
node 24 1 0 0
node 29 1 0 0
gene 2 1 8 1.1016 0 1 1.1016 1
gene 2 2 8 -1.70217 0 2 -1.70217 1
gene 1 3 8 -4.28232 0 3 -4.28232 0
gene 3 4 8 -4.54652 0 4 -4.54652 1
gene 3 5 8 0.390324 0 5 0.390324 1
gene 2 6 8 0.843387 0 6 0.843387 1
gene 2 7 8 -2.35815 0 7 -2.35815 1
gene 1 3 24 4.58227 0 40 4.58227 1
gene 1 24 8 -1.38214 0 41 -1.38214 1
gene 3 2 24 2.18368 0 48 2.18368 1
gene 3 5 29 0.327268 0 59 0.327268 1
gene 3 29 8 4.77095 0 60 4.77095 1
genomeend 63

/* Organism #64 Fitness: 43 Error: 0 */
genomestart 64
trait 1 0.110364 0 0 0 0 0 0 0 
trait 2 0.2 0 0 0 0 0 0 0 
trait 3 0.299361 0 0.00564128 0 0 0 0.21814 0.0529707 
node 1 2 1 1
node 2 3 1 1
node 3 3 1 1
node 4 1 1 1
node 5 1 1 1
node 6 1 1 1
node 7 2 1 3
node 8 2 0 2
node 24 1 0 0
node 29 1 0 0
gene 2 1 8 1.56979 0 1 1.56979 1
gene 2 2 8 -2.08611 0 2 -2.08611 1
gene 1 3 8 -1.25973 0 3 -1.25973 1
gene 3 4 8 -5.08157 0 4 -5.08157 1
gene 3 5 8 1.60518 0 5 1.60518 1
gene 2 6 8 0.777562 0 6 0.777562 1
gene 2 7 8 -2.39843 0 7 -2.39843 1
gene 1 3 24 1.39871 0 40 1.39871 1
gene 1 24 8 0.99232 0 41 0.99232 1
gene 3 2 24 -1.81344 0 48 -1.81344 1
gene 3 5 29 -0.625739 0 59 -0.625739 1
gene 3 29 8 2.05626 0 60 2.05626 1
genomeend 64

/* Organism #65 Fitness: 26 Error: 0 */
genomestart 65
trait 1 0.110364 0 0 0 0 0 0 0 
trait 2 0.2 0 0 0 0 0 0 0 
trait 3 0.299361 0 0.00564128 0 0 0 0.21814 0.0529707 
node 1 2 1 1
node 2 3 1 1
node 3 3 1 1
node 4 1 1 1
node 5 2 1 1
node 6 1 1 1
node 7 2 1 3
node 8 2 0 2
node 24 1 0 0
node 29 1 0 0
gene 2 1 8 -0.623564 0 1 -0.623564 1
gene 2 2 8 -2.38984 0 2 -2.38984 1
gene 1 3 8 0.329587 0 3 0.329587 1
gene 3 4 8 -3.66936 0 4 -3.66936 1
gene 3 5 8 2.68283 0 5 2.68283 1
gene 2 6 8 1.86489 0 6 1.86489 1
gene 2 7 8 -0.032822 0 7 -0.032822 1
gene 1 3 24 1.35241 0 40 1.35241 1
gene 1 24 8 -2.66183 0 41 -2.66183 1
gene 3 2 24 -0.854333 0 48 -0.854333 1
gene 3 5 29 1.83871 0 59 1.83871 1
gene 3 29 8 -2.17432 0 60 -2.17432 1
genomeend 65

/* Organism #66 Fitness: 98 Error: 0 */
genomestart 66
trait 1 0.110364 0 0 0 0 0 0 0 
trait 2 0.2 0 0 0 0 0 0 0 
trait 3 0.299361 0 0.00564128 0 0 0 0.21814 0.0529707 
node 1 2 1 1
node 2 3 1 1
node 3 3 1 1
node 4 1 1 1
node 5 2 1 1
node 6 1 1 1
node 7 2 1 3
node 8 2 0 2
node 24 1 0 0
node 29 1 0 0
gene 2 1 8 -0.591803 0 1 -0.591803 1
gene 2 2 8 -0.181744 0 2 -0.181744 1
gene 1 3 8 -1.50483 0 3 -1.50483 0
gene 3 4 8 -4.33458 0 4 -4.33458 1
gene 3 5 8 1.57331 0 5 1.57331 1
gene 2 6 8 1.66383 0 6 1.66383 1
gene 2 7 8 -0.293647 0 7 -0.293647 1
gene 1 3 24 1.30863 0 40 0.808633 1
gene 1 24 8 -0.631384 0 41 -0.345852 1
gene 3 2 24 -0.176165 0 48 -0.176165 1
gene 3 5 29 1 0 59 0 1
gene 3 29 8 0.906202 0 60 0 1
genomeend 66

/* Organism #67 Fitness: 39 Error: 0 */
genomestart 67
trait 1 0.110364 0 0 0 0 0 0 0 
trait 2 0.2 0 0 0 0 0 0 0 
trait 3 0.299361 0 0.00564128 0 0 0 0.21814 0.0529707 
node 1 2 1 1
node 2 3 1 1
node 3 3 1 1
node 4 1 1 1
node 5 2 1 1
node 6 1 1 1
node 7 2 1 3
node 8 2 0 2
node 24 1 0 0
node 29 1 0 0
gene 2 1 8 1.29492 0 1 1.29492 0
gene 2 2 8 0.39924 0 2 0.39924 1
gene 1 3 8 1.7435 0 3 1.7435 0
gene 3 4 8 -5.89966 0 4 -5.89966 1
gene 3 5 8 2.77171 0 5 2.77171 1
gene 2 6 8 1.28986 0 6 1.28986 1
gene 2 7 8 -1.73485 0 7 -1.73485 1
gene 1 3 24 -2.22332 0 40 -2.22332 1
gene 1 24 8 2.45818 0 41 2.45818 1
gene 2 2 24 -0.0837411 0 48 -0.0837411 1
gene 3 5 29 2.10735 0 59 2.10735 1
gene 3 29 8 3.10117 0 60 3.10117 1
genomeend 67

/* Organism #68 Fitness: 12 Error: 0 */
genomestart 68
trait 1 0 0 0.576331 0.46566 0.448931 0.583472 0.0264106 0 
trait 2 0.2 0 0 0 0 0 0 0 
trait 3 0.299361 0 0.00564128 0 0 0 0.21814 0.0529707 
node 1 2 1 1
node 2 3 1 1
node 3 3 1 1
node 4 1 1 1
node 5 2 1 1
node 6 1 1 1
node 7 2 1 3
node 8 2 0 2
node 24 1 0 0
node 29 1 0 0
gene 2 1 8 2.49061 0 1 2.49061 1
gene 2 2 8 2.22032 0 2 2.22032 1
gene 1 3 8 0.469043 0 3 0.469043 0
gene 3 4 8 -5.07955 0 4 -5.07955 1
gene 3 5 8 0.136678 0 5 0.136678 0
gene 2 6 8 2.88225 0 6 2.88225 1
gene 2 7 8 -2.93699 0 7 -2.93699 1
gene 1 3 24 2.38183 0 40 2.38183 1
gene 1 24 8 -1.82857 0 41 -1.82857 1
gene 3 2 24 1.46147 0 48 1.46147 1
gene 3 5 29 0.383654 0 59 0.383654 1
gene 3 29 8 0.580158 0 60 0.580158 1
gene 1 3 29 -1.67467 0 79 -1.67467 1
genomeend 68

/* Organism #69 Fitness: 44 Error: 0 */
genomestart 69
trait 1 0.110364 0 0 0 0 0 0 0 
trait 2 0.2 0 0 0 0 0 0 0 
trait 3 0.299361 0 0.00564128 0 0 0 0.21814 0.0529707 
node 1 2 1 1
node 2 3 1 1
node 3 3 1 1
node 4 1 1 1
node 5 1 1 1
node 6 1 1 1
node 7 2 1 3
node 8 2 0 2
node 24 1 0 0
node 29 1 0 0
gene 2 1 8 -0.0763342 0 1 -0.0763342 1
gene 2 2 8 -1.40709 0 2 -1.40709 1
gene 1 3 8 -5.23258 0 3 -5.23258 0
gene 3 4 8 -4.94349 0 4 -4.94349 1
gene 3 5 8 -2.00139 0 5 -2.00139 1
gene 2 6 8 1.57466 0 6 1.57466 1
gene 2 7 8 1.54351 0 7 1.54351 1
gene 1 3 24 3.01319 0 40 3.01319 1
gene 1 24 8 -2.66483 0 41 -2.66483 1
gene 3 2 24 0.882974 0 48 0.882974 1
gene 3 5 29 1.08612 0 59 1.08612 1
gene 3 29 8 3.46334 0 60 3.46334 1
genomeend 69

/* Organism #70 Fitness: 33 Error: 0 */
genomestart 70
trait 1 0.110364 0 0 0 0 0 0 0 
trait 2 0.2 0 0 0 0 0 0 0 
trait 3 0.299361 0 0.00564128 0 0 0 0.21814 0.0529707 
node 1 2 1 1
node 2 3 1 1
node 3 3 1 1
node 4 1 1 1
node 5 2 1 1
node 6 1 1 1
node 7 2 1 3
node 8 2 0 2
node 24 1 0 0
node 29 1 0 0
gene 2 1 8 1.27656 0 1 1.27656 1
gene 2 2 8 0.025265 0 2 0.025265 1
gene 1 3 8 0.195006 0 3 0.195006 0
gene 3 4 8 -5.32568 0 4 -5.32568 1
gene 3 5 8 -0.418627 0 5 -0.418627 0
gene 2 6 8 1.58142 0 6 1.58142 1
gene 2 7 8 1.2009 0 7 1.2009 1
gene 1 3 24 0.0665508 0 40 0.0665508 1
gene 1 24 8 -2.86341 0 41 -2.86341 1
gene 3 2 24 1.55782 0 48 1.55782 1
gene 3 5 29 -1.36227 0 59 -1.36227 1
gene 3 29 8 0.19601 0 60 0.19601 1
genomeend 70

/* Organism #71 Fitness: 31 Error: 0 */
genomestart 71
trait 1 0.110364 0 0 0 0 0 0 0 
trait 2 0.2 0 0 0 0 0 0 0 
trait 3 0.299361 0 0.00564128 0 0 0 0.21814 0.0529707 
node 1 2 1 1
node 2 3 1 1
node 3 3 1 1
node 4 1 1 1
node 5 2 1 1
node 6 1 1 1
node 7 2 1 3
node 8 2 0 2
node 24 1 0 0
node 29 1 0 0
gene 2 1 8 -1.1236 0 1 -1.1236 1
gene 2 2 8 -2.19755 0 2 -2.19755 1
gene 1 3 8 -0.0614371 0 3 -0.0614371 0
gene 3 4 8 -4.78668 0 4 -4.78668 1
gene 3 5 8 -0.778292 0 5 -0.778292 0
gene 2 6 8 2.46802 0 6 2.46802 1
gene 2 7 8 -0.349176 0 7 -0.349176 1
gene 1 3 24 -0.070437 0 40 -0.070437 1
gene 1 24 8 0.553708 0 41 0.553708 1
gene 3 2 24 -2.16984 0 48 -2.16984 1
gene 3 5 29 0.368009 0 59 0.368009 1
gene 3 29 8 -0.529554 0 60 -0.529554 1
genomeend 71

/* Organism #72 Fitness: 84 Error: 0 */
genomestart 72
trait 1 0.110364 0 0 0 0 0 0 0 
trait 2 0.2 0 0 0 0 0 0 0 
trait 3 0.299361 0 0.00564128 0 0 0 0.21814 0.0529707 
node 1 2 1 1
node 2 3 1 1
node 3 3 1 1
node 4 1 1 1
node 5 2 1 1
node 6 1 1 1
node 7 2 1 3
node 8 2 0 2
node 24 1 0 0
node 29 1 0 0
gene 2 1 8 0.335579 0 1 0.335579 1
gene 2 2 8 0.174245 0 2 0.174245 1
gene 1 3 8 -0.506994 0 3 -0.506994 0
gene 3 4 8 -3.88369 0 4 -3.88369 1
gene 3 5 8 1.2328 0 5 1.2328 0
gene 2 6 8 1.74623 0 6 1.74623 1
gene 2 7 8 -0.0734612 0 7 -0.0734612 1
gene 1 3 24 1.61727 0 40 1.11727 1
gene 1 24 8 -0.38071 0 41 0 1
gene 3 2 24 0.252611 0 48 0.252611 1
gene 3 5 29 1 0 59 0 1
gene 3 29 8 0.906202 0 60 0 1
genomeend 72

/* Organism #73 Fitness: 374 Error: 0 */
genomestart 73
trait 1 0.110364 0 0 0 0 0 0 0 
trait 2 0.2 0 0 0 0 0 0 0 
trait 3 0.299361 0 0.00564128 0 0 0 0.21814 0.0529707 
node 1 2 1 1
node 2 3 1 1
node 3 3 1 1
node 4 1 1 1
node 5 2 1 1
node 6 1 1 1
node 7 2 1 3
node 8 2 0 2
node 24 1 0 0
node 29 1 0 0
gene 2 1 8 -0.230928 0 1 -0.230928 1
gene 2 2 8 -0.105055 0 2 -0.105055 1
gene 1 3 8 -0.883363 0 3 -0.883363 1
gene 3 4 8 -3.85323 0 4 -3.85323 1
gene 3 5 8 1.41001 0 5 1.41001 1
gene 2 6 8 1.58142 0 6 1.58142 1
gene 2 7 8 -0.513833 0 7 -0.513833 1
gene 1 3 24 1 0 40 0.25 1
gene 1 24 8 -0.38071 0 41 0 1
gene 3 2 24 -0.176165 0 48 -0.176165 1
gene 3 5 29 1 0 59 0 1
gene 3 29 8 0.906202 0 60 0 1
genomeend 73

/* Organism #74 Fitness: 21 Error: 0 */
genomestart 74
trait 1 0.110364 0 0 0 0 0 0 0 
trait 2 0.2 0 0 0 0 0 0 0 
trait 3 0.299361 0 0.00564128 0 0 0 0.21814 0.0529707 
node 1 2 1 1
node 2 3 1 1
node 3 3 1 1
node 4 1 1 1
node 5 2 1 1
node 6 1 1 1
node 7 2 1 3
node 8 2 0 2
node 24 1 0 0
node 29 1 0 0
gene 2 1 8 -0.386171 0 1 -0.386171 0
gene 2 2 8 0.174245 0 2 0.174245 1
gene 1 3 8 -4.02615 0 3 -4.02615 0
gene 3 4 8 -5.70734 0 4 -5.70734 1
gene 3 5 8 -0.335932 0 5 -0.335932 1
gene 2 6 8 1.58142 0 6 1.58142 1
gene 2 7 8 0.953868 0 7 0.953868 1
gene 1 3 24 2.63578 0 40 2.63578 1
gene 1 24 8 1.33668 0 41 1.33668 1
gene 3 2 24 0.326262 0 48 0.326262 1
gene 3 5 29 2.60772 0 59 2.60772 1
gene 3 29 8 0.906202 0 60 0.906202 1
genomeend 74

/* Organism #75 Fitness: 116 Error: 0 */
genomestart 75
trait 1 0.110364 0 0 0 0 0 0 0 
trait 2 0.2 0 0 0 0 0 0 0 
trait 3 0.299361 0 0.00564128 0 0 0 0.21814 0.0529707 
node 1 2 1 1
node 2 3 1 1
node 3 3 1 1
node 4 1 1 1
node 5 2 1 1
node 6 1 1 1
node 7 2 1 3
node 8 2 0 2
node 24 1 0 0
node 29 1 0 0
gene 2 1 8 0.335579 0 1 0.335579 0
gene 2 2 8 0.174245 0 2 0.174245 1
gene 1 3 8 -0.506994 0 3 -0.506994 0
gene 3 4 8 -3.88369 0 4 -3.88369 1
gene 3 5 8 0.906202 0 5 0.906202 1
gene 2 6 8 1.58142 0 6 1.58142 1
gene 2 7 8 -0.513833 0 7 -0.513833 1
gene 1 3 24 1 0 40 0 1
gene 1 24 8 -0.38071 0 41 0 1
gene 3 2 24 0.252611 0 48 0.252611 1
gene 3 5 29 1 0 59 0 1
gene 3 29 8 0.906202 0 60 0 1
gene 2 4 24 0.625978 0 106 0.625978 1
genomeend 75

/* Organism #76 Fitness: 53 Error: 0 */
genomestart 76
trait 1 0.110364 0 0 0 0 0 0 0 
trait 2 0.2 0 0 0 0 0 0 0 
trait 3 0.299361 0 0.00564128 0 0 0 0.21814 0.0529707 
node 1 2 1 1
node 2 3 1 1
node 3 3 1 1
node 4 1 1 1
node 5 2 1 1
node 6 1 1 1
node 7 2 1 3
node 8 2 0 2
node 24 1 0 0
node 29 1 0 0
gene 2 1 8 -1.15149 0 1 -1.15149 1
gene 2 2 8 -0.65434 0 2 -0.65434 1
gene 1 3 8 -4.01379 0 3 -4.01379 0
gene 3 4 8 -6.13654 0 4 -6.13654 1
gene 3 5 8 3.39615 0 5 3.39615 1
gene 2 6 8 1.09624 0 6 1.09624 1
gene 2 7 8 1.7259 0 7 1.7259 1
gene 1 3 24 0.848152 0 40 0.848152 1
gene 1 24 8 -2.21032 0 41 -2.21032 1
gene 3 2 24 -0.615244 0 48 -0.615244 1
gene 3 5 29 0.00169993 0 59 0.00169993 1
gene 3 29 8 2.17827 0 60 2.17827 1
genomeend 76

/* Species #4 : (Size 15) (AF 33.6) (Age 5)  */


/* Organism #77 Fitness: 107 Error: 0 */
genomestart 77
trait 1 0.1 0 0 0 0 0 0 0 
trait 2 0.2 0 0 0 0 0 0 0 
trait 3 0.3 0 0 0 0 0 0 0 
node 1 2 1 1
node 2 2 1 1
node 3 1 1 1
node 4 2 1 1
node 5 1 1 1
node 6 3 1 1
node 7 3 1 3
node 8 3 0 2
node 20 1 0 0
gene 1 1 8 -0.123627 0 1 -0.123627 1
gene 1 2 8 1.41724 0 2 1.41724 0
gene 1 3 8 -2.43727 0 3 -2.43727 1
gene 2 4 8 -0.659765 0 4 -0.659765 1
gene 1 5 8 1.74112 0 5 1.74112 1
gene 1 6 8 0.765713 0 6 0.765713 1
gene 3 7 8 0.362858 0 7 0.362858 1
gene 1 2 20 0.369579 0 31 0.369579 1
gene 1 20 8 0.0990802 0 32 0.0990802 1
gene 3 6 20 -0.744241 0 49 -0.744241 1
gene 1 5 20 0.0148996 0 68 0.0148996 1
genomeend 77

/* Organism #78 Fitness: 29 Error: 0 */
genomestart 78
trait 1 0.1 0 0 0 0 0 0 0 
trait 2 0.2 0 0 0 0 0 0 0 
trait 3 0.3 0 0 0 0 0 0 0 
node 1 2 1 1
node 2 2 1 1
node 3 1 1 1
node 4 2 1 1
node 5 1 1 1
node 6 3 1 1
node 7 3 1 3
node 8 3 0 2
node 20 1 0 0
gene 1 1 8 0.952868 0 1 0.952868 1
gene 1 2 8 -2.8777 0 2 -2.8777 1
gene 1 3 8 -3.11622 0 3 -3.11622 1
gene 2 4 8 0.499077 0 4 0.499077 1
gene 1 5 8 5.61899 0 5 5.61899 1
gene 1 6 8 3.04954 0 6 3.04954 1
gene 3 7 8 1.74483 0 7 1.74483 1
gene 1 2 20 -0.56979 0 31 -0.56979 1
gene 1 20 8 1.03394 0 32 1.03394 1
gene 3 6 20 0.869084 0 49 0.869084 1
gene 2 4 20 0.213273 0 65 0.213273 1
genomeend 78

/* Organism #79 Fitness: 30 Error: 0 */
genomestart 79
trait 1 0.1 0 0 0 0 0 0 0 
trait 2 0 0 0 0 0 0 0 0 
trait 3 0.3 0 0 0 0 0 0 0 
node 1 2 1 1
node 2 2 1 1
node 3 1 1 1
node 4 2 1 1
node 5 1 1 1
node 6 3 1 1
node 7 3 1 3
node 8 3 0 2
node 20 1 0 0
gene 1 1 8 1.54564 0 1 1.54564 1
gene 2 2 8 -1.67033 0 2 -1.67033 0
gene 1 3 8 -0.562193 0 3 -0.562193 1
gene 2 4 8 -1.68526 0 4 -1.68526 1
gene 1 5 8 2.59583 0 5 2.59583 1
gene 1 6 8 1.98086 0 6 1.98086 1
gene 2 7 8 -1.66565 0 7 -1.66565 1
gene 1 2 20 2.33568 0 31 2.33568 1
gene 1 20 8 -2.12694 0 32 -2.12694 1
gene 3 6 20 0.133395 0 49 0.133395 1
gene 3 1 20 3.21012 0 80 3.21012 1
genomeend 79

/* Organism #80 Fitness: 50 Error: 0 */
genomestart 80
trait 1 0.1 0 0 0 0 0 0 0 
trait 2 0.2 0 0 0 0 0 0 0 
trait 3 0.3 0 0 0 0 0 0 0 
node 1 2 1 1
node 2 2 1 1
node 3 1 1 1
node 4 2 1 1
node 5 1 1 1
node 6 3 1 1
node 7 3 1 3
node 8 3 0 2
node 20 1 0 0
gene 1 1 8 1.71342 0 1 1.71342 1
gene 1 2 8 -0.244454 0 2 -0.244454 0
gene 1 3 8 -1.39105 0 3 -1.39105 1
gene 2 4 8 -1.39238 0 4 -1.39238 1
gene 1 5 8 4.56191 0 5 4.56191 1
gene 1 6 8 0.857173 0 6 0.857173 1
gene 3 7 8 -0.193114 0 7 -0.193114 1
gene 1 2 20 1.81048 0 31 1.81048 1
gene 1 20 8 -1.12494 0 32 -1.12494 1
gene 3 6 20 0.795365 0 49 0.795365 1
gene 2 4 20 -1.30844 0 65 -1.30844 1
genomeend 80

/* Organism #81 Fitness: 80 Error: 0 */
genomestart 81
trait 1 0.1 0 0 0 0 0 0 0 
trait 2 0.2 0 0 0 0 0 0 0 
trait 3 0.3 0 0 0 0 0 0 0 
node 1 2 1 1
node 2 2 1 1
node 3 1 1 1
node 4 2 1 1
node 5 1 1 1
node 6 3 1 1
node 7 3 1 3
node 8 3 0 2
node 20 1 0 0
gene 1 1 8 -0.810741 0 1 -0.810741 1
gene 1 2 8 0.194547 0 2 0.194547 0
gene 1 3 8 -1.30017 0 3 -1.30017 1
gene 2 4 8 -1.94771 0 4 -1.94771 1
gene 1 5 8 4.77815 0 5 4.77815 1
gene 1 6 8 0.960191 0 6 0.960191 1
gene 3 7 8 -0.242421 0 7 -0.242421 1
gene 1 2 20 0.563415 0 31 0.563415 1
gene 1 20 8 -0.334335 0 32 -0.334335 1
gene 3 6 20 3.00745 0 49 3.00745 1
gene 1 5 20 0.0148996 0 68 0.0148996 1
genomeend 81

/* Organism #82 Fitness: 13 Error: 0 */
genomestart 82
trait 1 0.1 0 0 0 0 0 0 0 
trait 2 0 0 0 0 0 0 0 0 
trait 3 0.3 0.569578 0.051733 0.963908 0 0 0 0.414694 
node 1 2 1 1
node 2 2 1 1
node 3 1 1 1
node 4 2 1 1
node 5 1 1 1
node 6 3 1 1
node 7 3 1 3
node 8 3 0 2
node 20 1 0 0
gene 1 1 8 -2.10482 0 1 -2.10482 1
gene 1 2 8 -2.29718 0 2 -2.29718 0
gene 1 3 8 -3.84087 0 3 -3.84087 1
gene 2 4 8 1.34381 0 4 1.34381 1
gene 1 5 8 0.505194 0 5 0.505194 1
gene 1 6 8 2.21589 0 6 2.21589 1
gene 2 7 8 -1.59683 0 7 -1.59683 1
gene 1 2 20 0.181927 0 31 0.181927 1
gene 1 20 8 -0.634286 0 32 -0.634286 1
gene 3 6 20 1.89594 0 49 1.89594 1
gene 3 1 20 0.138794 0 80 0.138794 1
genomeend 82

/* Organism #83 Fitness: 5 Error: 0 */
genomestart 83
trait 1 0.1 0 0 0 0 0 0 0 
trait 2 0.1 0 0 0 0 0 0 0 
trait 3 0.3 0 0 0 0 0 0 0 
node 1 2 1 1
node 2 2 1 1
node 3 1 1 1
node 4 2 1 1
node 5 1 1 1
node 6 3 1 1
node 7 3 1 3
node 8 3 0 2
node 20 1 0 0
gene 1 1 8 -0.563447 0 1 -0.563447 1
gene 1 2 8 3.78002 0 2 3.78002 0
gene 1 3 8 -2.0842 0 3 -2.0842 1
gene 2 4 8 -1.86957 0 4 -1.86957 1
gene 1 5 8 -1.34656 0 5 -1.34656 1
gene 1 6 8 -0.672453 0 6 -0.672453 1
gene 3 7 8 1.17468 0 7 1.17468 1
gene 1 2 20 -0.540177 0 31 -0.540177 1
gene 1 20 8 0.73312 0 32 0.73312 1
gene 3 6 20 2.03125 0 49 2.03125 1
gene 1 5 20 0.0148996 0 68 0.0148996 1
genomeend 83

/* Organism #84 Fitness: 29 Error: 0 */
genomestart 84
trait 1 0.1 0 0 0 0 0 0 0 
trait 2 0 0 0 0 0 0 0 0 
trait 3 0.3 0 0 0 0 0 0 0 
node 1 2 1 1
node 2 2 1 1
node 3 1 1 1
node 4 2 1 1
node 5 1 1 1
node 6 3 1 1
node 7 3 1 3
node 8 3 0 2
node 20 1 0 0
gene 1 1 8 -1.77763 0 1 -1.77763 1
gene 1 2 8 0.606309 0 2 0.606309 0
gene 1 3 8 -4.0396 0 3 -4.0396 1
gene 2 4 8 -0.208204 0 4 -0.208204 1
gene 1 5 8 2.42098 0 5 2.42098 1
gene 1 6 8 3.59203 0 6 3.59203 1
gene 2 7 8 1.74551 0 7 1.74551 1
gene 1 2 20 2.39785 0 31 2.39785 1
gene 1 20 8 -0.59767 0 32 -0.59767 1
gene 3 6 20 1.72526 0 49 1.72526 1
gene 3 1 20 0.832212 0 80 0.832212 1
genomeend 84

/* Organism #85 Fitness: 5 Error: 0 */
genomestart 85
trait 1 0.1 0 0 0 0 0 0 0 
trait 2 0.2 0 0 0 0 0 0 0 
trait 3 0.3 0 0 0 0 0 0 0 
node 1 2 1 1
node 2 2 1 1
node 3 1 1 1
node 4 2 1 1
node 5 1 1 1
node 6 3 1 1
node 7 3 1 3
node 8 3 0 2
node 20 1 0 0
gene 1 1 8 -1.32154 0 1 -1.32154 1
gene 1 2 8 -2.75046 0 2 -2.75046 0
gene 1 3 8 -4.44732 0 3 -4.44732 1
gene 2 4 8 -2.98355 0 4 -2.98355 1
gene 1 5 8 5.50939 0 5 5.50939 1
gene 1 6 8 -1.32391 0 6 -1.32391 1
gene 3 7 8 -0.990301 0 7 -0.990301 1
gene 1 2 20 0.223416 0 31 0.223416 1
gene 1 20 8 -0.427641 0 32 -0.427641 1
gene 3 6 20 -1.49881 0 49 -1.49881 1
gene 2 4 20 -0.751209 0 65 -0.751209 1
genomeend 85

/* Organism #86 Fitness: 40 Error: 0 */
genomestart 86
trait 1 0.1 0 0 0 0 0 0 0 
trait 2 0 0.964827 0.776883 0.0875168 0 0 0 0 
trait 3 0.3 0 0 0 0 0 0 0 
node 1 2 1 1
node 2 2 1 1
node 3 1 1 1
node 4 2 1 1
node 5 1 1 1
node 6 3 1 1
node 7 3 1 3
node 8 3 0 2
node 20 1 0 0
gene 1 1 8 0.459257 0 1 0.459257 1
gene 1 2 8 2.8368 0 2 2.8368 0
gene 1 3 8 -1.30879 0 3 -1.30879 1
gene 2 4 8 -1.19637 0 4 -1.19637 1
gene 1 5 8 3.51307 0 5 3.51307 1
gene 1 6 8 1.39444 0 6 1.39444 1
gene 3 7 8 -1.44467 0 7 -1.44467 1
gene 1 2 20 -2.1162 0 31 -2.1162 1
gene 1 20 8 -0.790899 0 32 -0.790899 1
gene 3 6 20 1.5653 0 49 1.5653 1
gene 1 5 20 0.0148996 0 68 0.0148996 1
genomeend 86

/* Organism #87 Fitness: 26 Error: 0 */
genomestart 87
trait 1 0.1 0 0 0 0 0 0 0 
trait 2 0 0 0 0 0 0 0 0 
trait 3 0.3 0 0 0 0 0 0 0 
node 1 2 1 1
node 2 2 1 1
node 3 1 1 1
node 4 2 1 1
node 5 1 1 1
node 6 3 1 1
node 7 3 1 3
node 8 3 0 2
node 20 1 0 0
gene 1 1 8 -0.315857 0 1 -0.315857 1
gene 1 2 8 0.116072 0 2 0.116072 1
gene 1 3 8 -0.0105821 0 3 -0.0105821 1
gene 2 4 8 0.393365 0 4 0.393365 1
gene 1 5 8 2.44821 0 5 2.44821 1
gene 1 6 8 0.308679 0 6 0.308679 1
gene 2 7 8 -2.32362 0 7 -2.32362 1
gene 1 2 20 -0.617538 0 31 -0.617538 1
gene 1 20 8 3.36919 0 32 3.36919 1
gene 3 6 20 1.26301 0 49 1.26301 1
gene 3 1 20 0.455699 0 80 0.455699 1
genomeend 87

/* Organism #88 Fitness: 33 Error: 0 */
genomestart 88
trait 1 0.1 0 0 0 0 0 0 0 
trait 2 0.1 0 0 0 0 0 0 0 
trait 3 0.3 0 0 0 0 0 0 0 
node 1 2 1 1
node 2 2 1 1
node 3 1 1 1
node 4 2 1 1
node 5 1 1 1
node 6 3 1 1
node 7 3 1 3
node 8 3 0 2
node 20 1 0 0
gene 1 1 8 -0.123627 0 1 -0.123627 1
gene 1 2 8 -0.119683 0 2 -0.119683 0
gene 1 3 8 -2.43727 0 3 -2.43727 1
gene 2 4 8 -0.659765 0 4 -0.659765 1
gene 1 5 8 1.74112 0 5 1.74112 1
gene 1 6 8 3.29061 0 6 3.29061 1
gene 3 7 8 0.362858 0 7 0.362858 1
gene 1 2 20 0.299762 0 31 0.299762 1
gene 1 20 8 0.0990802 0 32 0.0990802 1
gene 3 6 20 -0.744241 0 49 -0.744241 1
gene 1 5 20 0.0148996 0 68 0.0148996 1
gene 1 4 20 -0.0151233 0 107 -0.0151233 1
genomeend 88

/* Organism #89 Fitness: 5 Error: 0 */
genomestart 89
trait 1 0.1 0 0 0 0 0 0 0 
trait 2 0.1 0 0 0 0 0 0 0 
trait 3 0.3 0 0 0 0 0 0 0 
node 1 2 1 1
node 2 2 1 1
node 3 1 1 1
node 4 2 1 1
node 5 1 1 1
node 6 3 1 1
node 7 3 1 3
node 8 3 0 2
node 20 1 0 0
gene 1 1 8 -1.45533 0 1 -1.45533 1
gene 1 2 8 -3.68369 0 2 -3.68369 0
gene 1 3 8 -1.40741 0 3 -1.40741 1
gene 2 4 8 -3.16466 0 4 -3.16466 1
gene 1 5 8 -0.523354 0 5 -0.523354 1
gene 1 6 8 0.599687 0 6 0.599687 1
gene 2 7 8 -2.52251 0 7 -2.52251 1
gene 1 2 20 -0.100863 0 31 -0.100863 1
gene 1 20 8 -2.38957 0 32 -2.38957 1
gene 3 6 20 2.38587 0 49 2.38587 1
gene 3 1 20 1.97005 0 80 1.97005 1
genomeend 89

/* Organism #90 Fitness: 46 Error: 0 */
genomestart 90
trait 1 0.1 0 0 0 0 0 0 0 
trait 2 0 0 0 0 0 0 0 0 
trait 3 0.3 0 0 0 0 0 0 0 
node 1 2 1 1
node 2 2 1 1
node 3 1 1 1
node 4 2 1 1
node 5 1 1 1
node 6 3 1 1
node 7 3 1 3
node 8 3 0 2
node 20 1 0 0
gene 1 1 8 -2.24406 0 1 -2.24406 1
gene 1 2 8 -1.12429 0 2 -1.12429 0
gene 1 3 8 -1.20339 0 3 -1.20339 1
gene 2 4 8 -3.00024 0 4 -3.00024 1
gene 1 5 8 -1.3905 0 5 -1.3905 1
gene 1 6 8 4.09679 0 6 4.09679 1
gene 2 7 8 -1.55144 0 7 -1.55144 1
gene 1 2 20 -1.82812 0 31 -1.82812 1
gene 1 20 8 3.46549 0 32 3.46549 1
gene 3 6 20 0.931491 0 49 0.931491 1
gene 3 1 20 3.27346 0 80 3.27346 1
genomeend 90

/* Organism #91 Fitness: 6 Error: 0 */
genomestart 91
trait 1 0.1 0 0 0 0 0 0 0 
trait 2 0.2 0 0 0 0 0 0 0 
trait 3 0.3 0 0 0 0 0 0 0 
node 1 2 1 1
node 2 2 1 1
node 3 1 1 1
node 4 2 1 1
node 5 1 1 1
node 6 3 1 1
node 7 3 1 3
node 8 3 0 2
node 20 1 0 0
gene 1 1 8 0.9807 0 1 0.9807 1
gene 1 2 8 1.01997 0 2 1.01997 0
gene 1 3 8 -2.43727 0 3 -2.43727 1
gene 2 4 8 -2.42545 0 4 -2.42545 1
gene 1 5 8 2.19896 0 5 2.19896 1
gene 1 6 8 0.765713 0 6 0.765713 1
gene 3 7 8 2.47096 0 7 2.47096 1
gene 1 2 20 -1.5472 0 31 -1.5472 1
gene 1 20 8 1.55277 0 32 1.55277 1
gene 3 6 20 -0.744241 0 49 -0.744241 1
gene 1 5 20 2.16317 0 68 2.16317 1
genomeend 91

/* Species #5 : (Size 12) (AF 48) (Age 5)  */


/* Organism #92 Fitness: 74 Error: 0 */
genomestart 92
trait 1 0.1 0 0 0 0 0 0 0 
trait 2 0.2 0 0 0 0 0 0 0 
trait 3 0.298723 0 0.0112826 0 0 0 0.0338824 0.105941 
node 1 2 1 1
node 2 2 1 1
node 3 1 1 1
node 4 2 1 1
node 5 1 1 1
node 6 3 1 1
node 7 2 1 3
node 8 2 0 2
node 21 1 0 0
gene 1 1 8 0.481291 0 1 0.481291 0
gene 2 2 8 0.164979 0 2 0.164979 1
gene 1 3 8 -0.38071 0 3 -0.38071 1
gene 3 4 8 -1.0454 0 4 -1.0454 1
gene 1 5 8 1.4847 0 5 1.4847 1
gene 1 6 8 1.98892 0 6 1.98892 1
gene 3 7 8 -0.317775 0 7 -0.317775 1
gene 1 1 21 1 0 34 0 1
gene 1 21 8 0.481291 0 35 0 1
gene 1 6 21 0.251543 0 52 0.251543 1
genomeend 92

/* Organism #93 Fitness: 74 Error: 0 */
genomestart 93
trait 1 0.1 0 0 0 0 0 0 0 
trait 2 0.2 0 0 0 0 0 0 0 
trait 3 0.298723 0 0.0112826 0 0 0 0.0338824 0.105941 
node 1 2 1 1
node 2 2 1 1
node 3 1 1 1
node 4 2 1 1
node 5 1 1 1
node 6 3 1 1
node 7 2 1 3
node 8 2 0 2
node 21 1 0 0
gene 1 1 8 0.481291 0 1 0.481291 0
gene 2 2 8 0.164979 0 2 0.164979 1
gene 1 3 8 -0.38071 0 3 -0.38071 1
gene 3 4 8 -1.0454 0 4 -1.0454 1
gene 1 5 8 1.4847 0 5 1.4847 1
gene 1 6 8 1.98892 0 6 1.98892 1
gene 3 7 8 -0.317775 0 7 -0.317775 1
gene 1 1 21 1 0 34 0 1
gene 1 21 8 0.481291 0 35 0 1
gene 1 6 21 0.251543 0 52 0.251543 1
genomeend 93

/* Organism #94 Fitness: 37 Error: 0 */
genomestart 94
trait 1 0.1 0 0 0 0 0 0 0 
trait 2 0.2 0 0 0 0 0 0 0 
trait 3 0.298723 0 0.0112826 0 0 0 0.0338824 0.105941 
node 1 2 1 1
node 2 2 1 1
node 3 1 1 1
node 4 2 1 1
node 5 1 1 1
node 6 3 1 1
node 7 2 1 3
node 8 2 0 2
node 21 1 0 0
gene 1 1 8 0.481291 0 1 0.481291 0
gene 2 2 8 0.164979 0 2 0.164979 1
gene 1 3 8 0.481335 0 3 0.481335 1
gene 3 4 8 -3.3748 0 4 -3.3748 1
gene 1 5 8 1.4847 0 5 1.4847 1
gene 1 6 8 1.98892 0 6 1.98892 1
gene 3 7 8 -0.317775 0 7 -0.317775 1
gene 1 1 21 1 0 34 0 1
gene 1 21 8 0.481291 0 35 0 1
gene 1 6 21 0.251543 0 52 0.251543 1
genomeend 94

/* Organism #95 Fitness: 40 Error: 0 */
genomestart 95
trait 1 0.1 0 0 0 0 0 0 0 
trait 2 0.2 0 0 0 0 0 0 0 
trait 3 0.740245 0.239689 0.0112826 0.647119 0 0 0.0338824 0.105941 
node 1 2 1 1
node 2 2 1 1
node 3 1 1 1
node 4 2 1 1
node 5 1 1 1
node 6 3 1 1
node 7 2 1 3
node 8 2 0 2
node 21 1 0 0
gene 1 1 8 0.481291 0 1 0.481291 0
gene 2 2 8 1.87294 0 2 1.87294 1
gene 1 3 8 0.263544 0 3 0.263544 1
gene 3 4 8 -2.29112 0 4 -2.29112 1
gene 1 5 8 2.21627 0 5 2.21627 1
gene 1 6 8 2.65383 0 6 2.65383 1
gene 3 7 8 1.36545 0 7 1.36545 1
gene 1 1 21 1.80103 0 34 1.80103 1
gene 1 21 8 -1.4898 0 35 -1.4898 1
gene 1 6 21 -0.653566 0 52 -0.653566 1
genomeend 95

/* Organism #96 Fitness: 5 Error: 0 */
genomestart 96
trait 1 0.1 0 0 0 0 0 0 0 
trait 2 0.2 0 0 0 0 0 0 0 
trait 3 0.298723 0 0.0112826 0 0 0 0.0338824 0.105941 
node 1 2 1 1
node 2 2 1 1
node 3 1 1 1
node 4 2 1 1
node 5 1 1 1
node 6 3 1 1
node 7 2 1 3
node 8 2 0 2
node 21 1 0 0
gene 1 1 8 0.137561 0 1 0.137561 0
gene 2 2 8 -0.441052 0 2 -0.441052 1
gene 1 3 8 -0.3784 0 3 -0.3784 1
gene 3 4 8 -2.50557 0 4 -2.50557 1
gene 1 5 8 1.85555 0 5 1.85555 1
gene 1 6 8 -0.113835 0 6 -0.113835 1
gene 3 7 8 -3.18289 0 7 -3.18289 1
gene 1 1 21 0.853617 0 34 0.853617 1
gene 1 21 8 -0.516794 0 35 -0.516794 1
gene 1 6 21 -1.37797 0 52 -1.37797 1
genomeend 96

/* Organism #97 Fitness: 85 Error: 0 */
genomestart 97
trait 1 0.1 0 0 0 0 0 0 0 
trait 2 0.2 0 0 0 0 0 0 0 
trait 3 0.298723 0 0.0112826 0 0 0 0.0338824 0.105941 
node 1 2 1 1
node 2 2 1 1
node 3 1 1 1
node 4 2 1 1
node 5 1 1 1
node 6 3 1 1
node 7 2 1 3
node 8 2 0 2
node 21 1 0 0
gene 1 1 8 -0.390675 0 1 -0.390675 0
gene 2 2 8 3.64295 0 2 3.64295 1
gene 1 3 8 -1.0431 0 3 -1.0431 1
gene 3 4 8 -1.15562 0 4 -1.15562 1
gene 1 5 8 4.29681 0 5 4.29681 1
gene 1 6 8 4.19824 0 6 4.19824 1
gene 3 7 8 0.248384 0 7 0.248384 1
gene 1 1 21 0.27111 0 34 0.27111 1
gene 1 21 8 -2.40357 0 35 -2.40357 1
gene 2 6 21 -0.407193 0 52 -0.407193 1
genomeend 97

/* Organism #98 Fitness: 44 Error: 0 */
genomestart 98
trait 1 0.1 0 0 0 0 0 0 0 
trait 2 0.2 0 0 0 0 0 0 0 
trait 3 0.298723 0 0.0112826 0 0 0 0.0338824 0.105941 
node 1 2 1 1
node 2 3 1 1
node 3 1 1 1
node 4 2 1 1
node 5 1 1 1
node 6 3 1 1
node 7 2 1 3
node 8 2 0 2
node 21 1 0 0
gene 1 1 8 -1.49902 0 1 -1.49902 0
gene 2 2 8 1.87294 0 2 1.87294 1
gene 1 3 8 1.50074 0 3 1.50074 1
gene 3 4 8 -3.3748 0 4 -3.3748 1
gene 1 5 8 2.21627 0 5 2.21627 1
gene 1 6 8 2.10203 0 6 2.10203 1
gene 3 7 8 -0.85601 0 7 -0.85601 1
gene 1 1 21 1 0 34 1 1
gene 1 21 8 -1.28539 0 35 -1.28539 1
gene 1 6 21 1.33673 0 52 1.33673 1
genomeend 98

/* Organism #99 Fitness: 74 Error: 0 */
genomestart 99
trait 1 0.1 0 0 0 0 0 0 0 
trait 2 0.2 0 0 0 0 0 0 0 
trait 3 0.298723 0 0.0112826 0 0 0 0.0338824 0.105941 
node 1 2 1 1
node 2 2 1 1
node 3 1 1 1
node 4 2 1 1
node 5 1 1 1
node 6 3 1 1
node 7 2 1 3
node 8 2 0 2
node 21 1 0 0
gene 1 1 8 0.481291 0 1 0.481291 0
gene 2 2 8 0.164979 0 2 0.164979 1
gene 1 3 8 0.481335 0 3 0.481335 1
gene 3 4 8 -3.3748 0 4 -3.3748 1
gene 1 5 8 1.4847 0 5 1.4847 1
gene 1 6 8 2.10203 0 6 2.10203 1
gene 3 7 8 -0.85601 0 7 -0.85601 1
gene 1 1 21 1 0 34 0 1
gene 1 21 8 0.481291 0 35 0 1
gene 1 6 21 0.251543 0 52 0.251543 1
genomeend 99

/* Organism #100 Fitness: 31 Error: 0 */
genomestart 100
trait 1 0.1 0 0 0 0 0 0 0 
trait 2 0.2 0 0 0 0 0 0 0 
trait 3 0.298723 0 0.0112826 0 0 0 0.0338824 0.105941 
node 1 2 1 1
node 2 2 1 1
node 3 1 1 1
node 4 2 1 1
node 5 1 1 1
node 6 3 1 1
node 7 2 1 3
node 8 2 0 2
node 21 1 0 0
gene 1 1 8 -0.209466 0 1 -0.209466 0
gene 2 2 8 3.63402 0 2 3.63402 1
gene 1 3 8 2.29291 0 3 2.29291 1
gene 3 4 8 -2.69647 0 4 -2.69647 1
gene 1 5 8 2.09397 0 5 2.09397 1
gene 1 6 8 2.59994 0 6 2.59994 1
gene 3 7 8 -1.91461 0 7 -1.91461 1
gene 1 1 21 1.9149 0 34 1.9149 1
gene 1 21 8 -3.52165 0 35 -3.52165 1
gene 1 6 21 0.701957 0 52 0.701957 1
genomeend 100

/* Organism #101 Fitness: 29 Error: 0 */
genomestart 101
trait 1 0.1 0 0 0 0 0 0 0 
trait 2 0.2 0 0 0 0 0 0 0 
trait 3 0.298723 0 0.0112826 0 0 0 0.0338824 0.105941 
node 1 2 1 1
node 2 3 1 1
node 3 1 1 1
node 4 2 1 1
node 5 1 1 1
node 6 3 1 1
node 7 2 1 3
node 8 2 0 2
node 21 1 0 0
gene 1 1 8 0.131482 0 1 0.131482 0
gene 2 2 8 1.15612 0 2 1.15612 1
gene 1 3 8 0.481335 0 3 0.481335 1
gene 3 4 8 -1.6969 0 4 -1.6969 1
gene 1 5 8 3.60503 0 5 3.60503 1
gene 1 6 8 0.698561 0 6 0.698561 1
gene 3 7 8 1.91609 0 7 1.91609 1
gene 1 1 21 -0.734754 0 34 -0.734754 1
gene 1 21 8 0.281408 0 35 0.281408 1
gene 1 6 21 -0.85125 0 52 -0.85125 1
genomeend 101

/* Organism #102 Fitness: 5 Error: 0 */
genomestart 102
trait 1 0.1 0 0 0 0 0 0 0 
trait 2 0.2 0 0 0 0 0 0 0 
trait 3 0.298723 0 0.0112826 0 0 0 0.0338824 0.105941 
node 1 2 1 1
node 2 2 1 1
node 3 1 1 1
node 4 2 1 1
node 5 1 1 1
node 6 3 1 1
node 7 2 1 3
node 8 2 0 2
node 21 1 0 0
gene 1 1 8 2.74386 0 1 2.74386 0
gene 2 2 8 0.52522 0 2 0.52522 1
gene 1 3 8 -0.301345 0 3 -0.301345 1
gene 3 4 8 -5.57555 0 4 -5.57555 1
gene 1 5 8 -1.54684 0 5 -1.54684 1
gene 1 6 8 -0.0708142 0 6 -0.0708142 1
gene 3 7 8 -3.33956 0 7 -3.33956 1
gene 1 1 21 2.29976 0 34 2.29976 1
gene 1 21 8 -2.03205 0 35 -2.03205 1
gene 2 6 21 -2.79448 0 52 -2.79448 1
genomeend 102

/* Organism #103 Fitness: 78 Error: 0 */
genomestart 103
trait 1 0.1 0 0 0 0 0 0 0 
trait 2 0.2 0 0 0 0 0 0 0 
trait 3 0.298723 0 0.0112826 0 0 0 0.0338824 0.105941 
node 1 2 1 1
node 2 2 1 1
node 3 1 1 1
node 4 2 1 1
node 5 1 1 1
node 6 3 1 1
node 7 2 1 3
node 8 2 0 2
node 21 1 0 0
gene 1 1 8 -1.50378 0 1 -1.50378 0
gene 2 2 8 2.39984 0 2 2.39984 1
gene 1 3 8 -1.41052 0 3 -1.41052 1
gene 3 4 8 -3.30122 0 4 -3.30122 1
gene 1 5 8 3.77112 0 5 3.77112 1
gene 1 6 8 2.84657 0 6 2.84657 1
gene 3 7 8 0.100192 0 7 0.100192 1
gene 1 1 21 0.00656528 0 34 0.00656528 1
gene 1 21 8 -1.28617 0 35 -1.28617 1
gene 2 6 21 -0.267699 0 52 -0.267699 1
genomeend 103

/* Species #6 : (Size 7) (AF 22) (Age 5)  */


/* Organism #104 Fitness: 46 Error: 0 */
genomestart 104
trait 1 0.1 0 0 0 0 0 0 0 
trait 2 0.2 0 0 0 0 0 0 0 
trait 3 0.3 0.473156 0 0 0 0.749031 0 0.31274 
node 1 2 1 1
node 2 3 1 1
node 3 3 1 1
node 4 1 1 1
node 5 1 1 1
node 6 1 1 1
node 7 2 1 3
node 8 2 0 2
node 12 1 0 0
node 26 1 0 0
gene 2 1 8 3.73025 0 1 3.73025 0
gene 2 2 8 -2.55686 0 2 -2.55686 1
gene 3 3 8 -0.343996 0 3 -0.343996 0
gene 2 4 8 -3.11973 0 4 -3.11973 1
gene 1 5 8 1.60412 0 5 1.60412 0
gene 1 6 8 0.698983 0 6 0.698983 1
gene 2 7 8 -3.45787 0 7 -3.45787 1
gene 2 1 12 -0.541545 0 14 -0.541545 1
gene 2 12 8 -0.658643 0 15 -0.658643 1
gene 3 2 12 -1.9062 0 24 -1.9062 1
gene 2 3 12 1.43664 0 44 1.43664 1
gene 1 5 26 1.50139 0 46 1.50139 1
gene 1 26 8 2.46043 0 47 2.46043 1
genomeend 104

/* Organism #105 Fitness: 39 Error: 0 */
genomestart 105
trait 1 0.1 0 0 0 0 0 0 0 
trait 2 0.2 0 0 0 0 0 0 0 
trait 3 0.3 0.236578 0 0 0 0.374515 0 0.15637 
node 1 2 1 1
node 2 3 1 1
node 3 3 1 1
node 4 1 1 1
node 5 1 1 1
node 6 1 1 1
node 7 2 1 3
node 8 1 0 2
node 12 1 0 0
node 26 1 0 0
gene 2 1 8 2.32224 0 1 2.32224 0
gene 2 2 8 -6.85316 0 2 -6.85316 1
gene 3 3 8 1.1965 0 3 1.1965 0
gene 2 4 8 -3.72346 0 4 -3.72346 1
gene 1 5 8 0.746688 0 5 0.746688 0
gene 1 6 8 6.29226 0 6 6.29226 1
gene 2 7 8 -5.0137 0 7 -5.0137 1
gene 2 1 12 -1.09844 0 14 -1.09844 1
gene 2 12 8 1.22752 0 15 1.22752 1
gene 3 2 12 -0.613188 0 24 -0.613188 1
gene 2 3 12 1.10563 0 44 1.10563 1
gene 1 5 26 1.99761 0 46 1.99761 1
gene 1 26 8 5.55048 0 47 5.55048 1
genomeend 105

/* Organism #106 Fitness: 44 Error: 0 */
genomestart 106
trait 1 0.1 0 0 0 0 0 0 0 
trait 2 0.2 0 0 0 0 0 0 0 
trait 3 0.3 0.354867 0 0 0 0.561773 0 0.234555 
node 1 2 1 1
node 2 3 1 1
node 3 3 1 1
node 4 1 1 1
node 5 1 1 1
node 6 1 1 1
node 7 2 1 3
node 8 2 0 2
node 12 1 0 0
node 26 1 0 0
gene 2 1 8 3.46942 0 1 3.46942 0
gene 2 2 8 -4.52795 0 2 -4.52795 1
gene 3 3 8 -0.343996 0 3 -0.343996 0
gene 2 4 8 -3.11973 0 4 -3.11973 1
gene 1 5 8 1.60412 0 5 1.60412 0
gene 1 6 8 0.698983 0 6 0.698983 1
gene 2 7 8 -2.78609 0 7 -2.78609 1
gene 2 1 12 -0.541545 0 14 -0.541545 1
gene 2 12 8 -0.658643 0 15 -0.658643 1
gene 3 2 12 -1.25629 0 24 -1.25629 1
gene 2 3 12 1.43664 0 44 1.43664 1
gene 1 5 26 1.50139 0 46 1.50139 1
gene 1 26 8 2.46043 0 47 2.46043 1
genomeend 106

/* Organism #107 Fitness: 5 Error: 0 */
genomestart 107
trait 1 0.1 0 0 0 0 0 0 0 
trait 2 0.2 0 0 0 0 0 0 0 
trait 3 0.3 0.354867 0 0 0 0.561773 0 0.234555 
node 1 2 1 1
node 2 3 1 1
node 3 3 1 1
node 4 1 1 1
node 5 1 1 1
node 6 1 1 1
node 7 2 1 3
node 8 2 0 2
node 12 1 0 0
node 26 1 0 0
gene 2 1 8 5.45731 0 1 5.45731 1
gene 2 2 8 0.840923 0 2 0.840923 1
gene 3 3 8 2.19964 0 3 2.19964 0
gene 2 4 8 -1.95802 0 4 -1.95802 1
gene 1 5 8 3.31435 0 5 3.31435 1
gene 1 6 8 -1.05779 0 6 -1.05779 1
gene 2 7 8 -3.62835 0 7 -3.62835 1
gene 2 1 12 1.34162 0 14 1.34162 1
gene 2 12 8 -0.717986 0 15 -0.717986 1
gene 3 2 12 0.797036 0 24 0.797036 1
gene 2 3 12 -0.672639 0 44 -0.672639 1
gene 1 5 26 1.56111 0 46 1.56111 1
gene 1 26 8 5.7876 0 47 5.7876 1
genomeend 107

/* Organism #108 Fitness: 5 Error: 0 */
genomestart 108
trait 1 0.1 0 0 0 0 0 0 0 
trait 2 0.2 0 0 0 0 0 0 0 
trait 3 0.3 0.354867 0 0 0 0.561773 0 0.234555 
node 1 2 1 1
node 2 3 1 1
node 3 3 1 1
node 4 1 1 1
node 5 1 1 1
node 6 1 1 1
node 7 2 1 3
node 8 1 0 2
node 12 1 0 0
node 26 1 0 0
gene 2 1 8 5.01858 0 1 5.01858 0
gene 2 2 8 -1.01178 0 2 -1.01178 1
gene 3 3 8 1.27984 0 3 1.27984 0
gene 2 4 8 -2.12457 0 4 -2.12457 1
gene 1 5 8 0.482963 0 5 0.482963 0
gene 1 6 8 -0.175146 0 6 -0.175146 1
gene 2 7 8 -4.70032 0 7 -4.70032 1
gene 2 1 12 -2.81564 0 14 -2.81564 1
gene 2 12 8 -0.419776 0 15 -0.419776 1
gene 3 2 12 -2.58756 0 24 -2.58756 1
gene 2 3 12 1.43664 0 44 1.43664 1
gene 1 5 26 3.02601 0 46 3.02601 1
gene 1 26 8 -1.0237 0 47 -1.0237 1
genomeend 108

/* Organism #109 Fitness: 5 Error: 0 */
genomestart 109
trait 1 0.1 0 0 0 0 0 0 0 
trait 2 0.2 0 0 0 0 0 0 0 
trait 3 0.3 0.473156 0 0 0 0.749031 0 0.31274 
node 1 2 1 1
node 2 3 1 1
node 3 3 1 1
node 4 1 1 1
node 5 1 1 1
node 6 1 1 1
node 7 2 1 3
node 8 2 0 2
node 12 1 0 0
node 26 1 0 0
gene 2 1 8 1.39431 0 1 1.39431 0
gene 2 2 8 -2.55686 0 2 -2.55686 1
gene 3 3 8 -0.842016 0 3 -0.842016 0
gene 2 4 8 -4.87579 0 4 -4.87579 1
gene 1 5 8 1.72197 0 5 1.72197 0
gene 1 6 8 0.357142 0 6 0.357142 1
gene 2 7 8 -3.77212 0 7 -3.77212 1
gene 2 1 12 -0.558894 0 14 -0.558894 1
gene 2 12 8 -0.86237 0 15 -0.86237 1
gene 3 2 12 -1.9062 0 24 -1.9062 1
gene 2 3 12 0.576438 0 44 0.576438 1
gene 1 5 26 0.220482 0 46 0.220482 1
gene 1 26 8 2.54184 0 47 2.54184 1
genomeend 109

/* Organism #110 Fitness: 10 Error: 0 */
genomestart 110
trait 1 0.1 0 0 0 0 0 0 0 
trait 2 0.2 0 0 0 0 0 0 0 
trait 3 0.3 0.473156 0 0 0 0.749031 0 0.31274 
node 1 2 1 1
node 2 3 1 1
node 3 3 1 1
node 4 1 1 1
node 5 1 1 1
node 6 1 1 1
node 7 2 1 3
node 8 2 0 2
node 12 1 0 0
node 26 1 0 0
gene 2 1 8 2.11807 0 1 2.11807 0
gene 2 2 8 -1.10737 0 2 -1.10737 1
gene 3 3 8 -1.99057 0 3 -1.99057 0
gene 2 4 8 -0.780487 0 4 -0.780487 1
gene 1 5 8 4.0741 0 5 4.0741 0
gene 1 6 8 0.721153 0 6 0.721153 1
gene 2 7 8 -4.76975 0 7 -4.76975 1
gene 2 1 12 -0.0858604 0 14 -0.0858604 1
gene 2 12 8 0.836577 0 15 0.836577 1
gene 3 2 12 2.07323 0 24 2.07323 1
gene 2 3 12 -0.371033 0 44 -0.371033 1
gene 1 5 26 -0.204581 0 46 -0.204581 1
gene 1 26 8 2.68808 0 47 2.68808 1
genomeend 110

/* Species #7 : (Size 10) (AF 33.2) (Age 4)  */


/* Organism #111 Fitness: 68 Error: 0 */
genomestart 111
trait 1 0.1 0 0 0 0 0 0 0 
trait 2 0.2 0 0 0 0 0 0 0 
trait 3 0.3 0 0 0 0 0 0 0 
node 1 2 1 1
node 2 2 1 1
node 3 1 1 1
node 4 2 1 1
node 5 1 1 1
node 6 3 1 1
node 7 3 1 3
node 8 3 0 2
node 26 1 0 0
gene 3 1 8 -0.929543 0 1 -0.929543 1
gene 1 2 8 -0.679189 0 2 -0.679189 1
gene 3 3 8 1.71666 0 3 1.71666 1
gene 3 4 8 -4.10401 0 4 -4.10401 1
gene 2 5 8 1.45628 0 5 1.45628 0
gene 1 6 8 2.74154 0 6 2.74154 1
gene 3 7 8 -0.076008 0 7 -0.076008 1
gene 1 5 26 1.574 0 46 1.574 1
gene 1 26 8 0.0398892 0 47 0.0398892 1
gene 3 2 26 -2.30037 0 57 -2.30037 1
genomeend 111

/* Organism #112 Fitness: 73 Error: 0 */
genomestart 112
trait 1 0.1 0 0 0 0 0 0 0 
trait 2 0.2 0 0 0 0 0 0 0 
trait 3 0.3 0 0 0 0 0 0 0 
node 1 2 1 1
node 2 2 1 1
node 3 1 1 1
node 4 2 1 1
node 5 1 1 1
node 6 3 1 1
node 7 3 1 3
node 8 3 0 2
node 26 1 0 0
gene 3 1 8 -0.314668 0 1 -0.314668 1
gene 1 2 8 -0.679189 0 2 -0.679189 1
gene 3 3 8 1.71666 0 3 1.71666 1
gene 3 4 8 -3.76755 0 4 -3.76755 1
gene 2 5 8 2.97482 0 5 2.97482 0
gene 1 6 8 2.21252 0 6 2.21252 1
gene 3 7 8 -0.076008 0 7 -0.076008 1
gene 1 5 26 0.254663 0 46 0.254663 1
gene 1 26 8 0.0398892 0 47 0.0398892 1
gene 3 2 26 -1.21295 0 57 -1.21295 1
genomeend 112

/* Organism #113 Fitness: 29 Error: 0 */
genomestart 113
trait 1 0.1 0 0 0 0 0 0 0 
trait 2 0.2 0 0 0 0 0 0 0 
trait 3 0.3 0 0 0 0 0 0 0 
node 1 2 1 1
node 2 2 1 1
node 3 1 1 1
node 4 2 1 1
node 5 1 1 1
node 6 3 1 1
node 7 3 1 3
node 8 3 0 2
node 26 1 0 0
gene 3 1 8 -1.63843 0 1 -1.63843 1
gene 1 2 8 -1.02201 0 2 -1.02201 1
gene 3 3 8 0.365815 0 3 0.365815 1
gene 3 4 8 -1.10664 0 4 -1.10664 1
gene 1 5 8 3.38443 0 5 3.38443 0
gene 1 6 8 2.16741 0 6 2.16741 1
gene 3 7 8 -0.349222 0 7 -0.349222 1
gene 1 5 26 -1.96621 0 46 -1.96621 1
gene 1 26 8 -2.4187 0 47 -2.4187 1
gene 3 2 26 -0.370092 0 57 -0.370092 1
genomeend 113

/* Organism #114 Fitness: 25 Error: 0 */
genomestart 114
trait 1 0.1 0 0 0 0 0 0 0 
trait 2 0.2 0 0 0 0 0 0 0 
trait 3 0.3 0 0 0 0 0 0 0 
node 1 2 1 1
node 2 2 1 1
node 3 1 1 1
node 4 2 1 1
node 5 1 1 1
node 6 3 1 1
node 7 3 1 3
node 8 3 0 2
node 26 1 0 0
gene 3 1 8 1.50709 0 1 1.50709 1
gene 1 2 8 0.432664 0 2 0.432664 1
gene 3 3 8 3.40841 0 3 3.40841 1
gene 3 4 8 -5.85931 0 4 -5.85931 1
gene 2 5 8 4.34199 0 5 4.34199 0
gene 1 6 8 1.47066 0 6 1.47066 1
gene 3 7 8 2.17 0 7 2.17 1
gene 1 5 26 1.91944 0 46 1.91944 1
gene 1 26 8 0.434479 0 47 0.434479 1
gene 3 2 26 -1.21295 0 57 -1.21295 1
genomeend 114

/* Organism #115 Fitness: 32 Error: 0 */
genomestart 115
trait 1 0.1 0 0 0 0 0 0 0 
trait 2 0.2 0 0 0 0 0 0 0 
trait 3 0.3 0 0 0 0 0 0 0 
node 1 2 1 1
node 2 2 1 1
node 3 1 1 1
node 4 2 1 1
node 5 1 1 1
node 6 3 1 1
node 7 3 1 3
node 8 3 0 2
node 26 1 0 0
gene 3 1 8 -0.541769 0 1 -0.541769 1
gene 1 2 8 -0.470063 0 2 -0.470063 1
gene 3 3 8 1.92275 0 3 1.92275 1
gene 3 4 8 -4.21545 0 4 -4.21545 1
gene 2 5 8 3.76473 0 5 3.76473 1
gene 1 6 8 2.21252 0 6 2.21252 1
gene 3 7 8 0.723234 0 7 0.723234 1
gene 1 5 26 0.834378 0 46 0.834378 1
gene 1 26 8 0.0398892 0 47 0.0398892 1
gene 3 2 26 -1.5709 0 57 -1.5709 1
genomeend 115

/* Organism #116 Fitness: 24 Error: 0 */
genomestart 116
trait 1 0.1 0 0 0 0 0 0 0 
trait 2 0.2 0 0 0 0 0 0 0 
trait 3 0.3 0 0 0 0 0 0 0 
node 1 2 1 1
node 2 2 1 1
node 3 1 1 1
node 4 2 1 1
node 5 1 1 1
node 6 3 1 1
node 7 3 1 3
node 8 3 0 2
node 26 1 0 0
gene 3 1 8 -1.86074 0 1 -1.86074 1
gene 1 2 8 -2.5941 0 2 -2.5941 1
gene 3 3 8 0.587533 0 3 0.587533 1
gene 3 4 8 -1.62957 0 4 -1.62957 1
gene 2 5 8 3.92491 0 5 3.92491 1
gene 1 6 8 1.29395 0 6 1.29395 1
gene 3 7 8 1.73867 0 7 1.73867 1
gene 1 5 26 -0.398026 0 46 -0.398026 1
gene 1 26 8 2.33295 0 47 2.33295 1
gene 3 2 26 -2.30037 0 57 -2.30037 1
genomeend 116

/* Organism #117 Fitness: 29 Error: 0 */
genomestart 117
trait 1 0.1 0 0 0 0 0 0 0 
trait 2 0.2 0 0 0 0 0 0 0 
trait 3 0.3 0 0 0 0 0 0 0 
node 1 2 1 1
node 2 2 1 1
node 3 1 1 1
node 4 2 1 1
node 5 1 1 1
node 6 3 1 1
node 7 3 1 3
node 8 3 0 2
node 26 1 0 0
gene 3 1 8 -3.33353 0 1 -3.33353 1
gene 1 2 8 0.21749 0 2 0.21749 1
gene 3 3 8 4.01746 0 3 4.01746 1
gene 3 4 8 -2.7507 0 4 -2.7507 1
gene 2 5 8 4.86781 0 5 4.86781 0
gene 1 6 8 0.55054 0 6 0.55054 1
gene 3 7 8 -0.076008 0 7 -0.076008 1
gene 1 5 26 3.2792 0 46 3.2792 1
gene 3 26 8 -1.81842 0 47 -1.81842 1
gene 3 2 26 -2.41466 0 57 -2.41466 1
genomeend 117

/* Organism #118 Fitness: 7 Error: 0 */
genomestart 118
trait 1 0.1 0 0 0 0 0 0 0 
trait 2 0.2 0 0 0 0 0 0 0 
trait 3 0.3 0 0 0 0 0 0 0 
node 1 2 1 1
node 2 2 1 1
node 3 1 1 1
node 4 2 1 1
node 5 1 1 1
node 6 3 1 1
node 7 3 1 3
node 8 3 0 2
node 26 1 0 0
gene 3 1 8 1.31763 0 1 1.31763 1
gene 1 2 8 -2.23517 0 2 -2.23517 1
gene 3 3 8 3.36723 0 3 3.36723 1
gene 3 4 8 -2.83928 0 4 -2.83928 1
gene 2 5 8 2.51452 0 5 2.51452 0
gene 1 6 8 1.10684 0 6 1.10684 1
gene 3 7 8 -2.13352 0 7 -2.13352 1
gene 1 5 26 1.38742 0 46 1.38742 1
gene 1 26 8 -2.15605 0 47 -2.15605 1
gene 3 2 26 -1.04846 0 57 -1.04846 1
genomeend 118

/* Organism #119 Fitness: 26 Error: 0 */
genomestart 119
trait 1 0.1 0 0 0 0 0 0 0 
trait 2 0 0 0 0.557376 0.804277 0.508611 0.636239 0 
trait 3 0.3 0 0 0 0 0 0 0 
node 1 2 1 1
node 2 2 1 1
node 3 1 1 1
node 4 2 1 1
node 5 1 1 1
node 6 3 1 1
node 7 3 1 3
node 8 3 0 2
node 26 1 0 0
gene 3 1 8 -1.03466 0 1 -1.03466 1
gene 1 2 8 -0.0638393 0 2 -0.0638393 1
gene 3 3 8 1.71666 0 3 1.71666 1
gene 3 4 8 -3.51009 0 4 -3.51009 1
gene 2 5 8 0.982151 0 5 0.982151 0
gene 1 6 8 3.8102 0 6 3.8102 1
gene 3 7 8 1.01879 0 7 1.01879 1
gene 1 5 26 -0.0493027 0 46 -0.0493027 1
gene 1 26 8 1.06301 0 47 1.06301 1
gene 1 2 26 -0.653189 0 57 -0.653189 1
genomeend 119

/* Organism #120 Fitness: 19 Error: 0 */
genomestart 120
trait 1 0.1 0 0 0 0 0 0 0 
trait 2 0.2 0 0 0 0 0 0 0 
trait 3 0.3 0 0 0 0 0 0 0 
node 1 2 1 1
node 2 2 1 1
node 3 1 1 1
node 4 2 1 1
node 5 1 1 1
node 6 3 1 1
node 7 3 1 3
node 8 3 0 2
node 26 1 0 0
gene 3 1 8 2.8172 0 1 2.8172 1
gene 1 2 8 1.65994 0 2 1.65994 1
gene 3 3 8 1.24013 0 3 1.24013 1
gene 3 4 8 2.26027 0 4 2.26027 1
gene 2 5 8 1.1714 0 5 1.1714 0
gene 1 6 8 5.74358 0 6 5.74358 1
gene 3 7 8 0.243171 0 7 0.243171 1
gene 1 5 26 -2.15365 0 46 -2.15365 1
gene 1 26 8 3.75692 0 47 3.75692 1
gene 3 2 26 0.894334 0 57 0.894334 1
genomeend 120

/* Species #8 : (Size 11) (AF 27.4545) (Age 3)  */


/* Organism #121 Fitness: 63 Error: 0 */
genomestart 121
trait 1 0.1 0 0 0 0 0 0 0 
trait 2 0.2 0 0 0 0 0 0 0 
trait 3 0.3 0 0 0 0 0 0 0 
node 1 2 1 1
node 2 3 1 1
node 3 3 1 1
node 4 1 1 1
node 5 2 1 1
node 6 1 1 1
node 7 2 1 3
node 8 2 0 2
node 12 1 0 0
gene 2 1 8 -2.01314 0 1 -2.01314 0
gene 2 2 8 0.562642 0 2 0.562642 1
gene 3 3 8 0.315011 0 3 0.315011 0
gene 2 4 8 0.238527 0 4 0.238527 1
gene 1 5 8 1.98863 0 5 1.98863 1
gene 1 6 8 0.93669 0 6 0.93669 1
gene 2 7 8 -0.668355 0 7 -0.668355 1
gene 2 1 12 -0.744911 0 14 -0.744911 1
gene 2 12 8 0.189866 0 15 0.189866 1
gene 3 2 12 -1.74049 0 24 -1.74049 1
gene 3 4 12 0.440267 0 45 0.440267 1
gene 3 7 12 0.0657211 0 58 0.0657211 1
gene 2 3 12 -0.789355 0 73 -0.789355 1
genomeend 121

/* Organism #122 Fitness: 63 Error: 0 */
genomestart 122
trait 1 0.1 0 0 0 0 0 0 0 
trait 2 0.2 0 0 0 0 0 0 0 
trait 3 0.3 0 0 0 0 0 0 0 
node 1 2 1 1
node 2 3 1 1
node 3 3 1 1
node 4 1 1 1
node 5 2 1 1
node 6 1 1 1
node 7 2 1 3
node 8 2 0 2
node 12 1 0 0
gene 2 1 8 -2.01314 0 1 -2.01314 0
gene 2 2 8 0.562642 0 2 0.562642 1
gene 3 3 8 0.315011 0 3 0.315011 0
gene 2 4 8 0.238527 0 4 0.238527 1
gene 1 5 8 1.98863 0 5 1.98863 1
gene 1 6 8 0.93669 0 6 0.93669 1
gene 2 7 8 -0.668355 0 7 -0.668355 1
gene 2 1 12 -0.744911 0 14 -0.744911 1
gene 2 12 8 0.189866 0 15 0.189866 1
gene 3 2 12 -1.74049 0 24 -1.74049 1
gene 3 4 12 0.440267 0 45 0.440267 1
gene 3 7 12 0.0657211 0 58 0.0657211 1
gene 2 3 12 -0.789355 0 73 -0.789355 1
genomeend 122

/* Organism #123 Fitness: 5 Error: 0 */
genomestart 123
trait 1 0.1 0 0 0 0 0 0 0 
trait 2 0.2 0 0 0 0 0 0 0 
trait 3 0.3 0 0 0 0 0 0 0 
node 1 2 1 1
node 2 3 1 1
node 3 3 1 1
node 4 1 1 1
node 5 2 1 1
node 6 1 1 1
node 7 2 1 3
node 8 2 0 2
node 12 1 0 0
gene 2 1 8 -0.716648 0 1 -0.716648 0
gene 2 2 8 2.48257 0 2 2.48257 1
gene 3 3 8 0.52584 0 3 0.52584 0
gene 2 4 8 0.238527 0 4 0.238527 1
gene 1 5 8 2.08262 0 5 2.08262 1
gene 1 6 8 -0.52814 0 6 -0.52814 1
gene 2 7 8 -3.05437 0 7 -3.05437 1
gene 2 1 12 1.37837 0 14 1.37837 1
gene 2 12 8 -0.859773 0 15 -0.859773 1
gene 3 2 12 -1.63703 0 24 -1.63703 1
gene 3 4 12 1.97325 0 45 1.97325 1
gene 3 7 12 -1.98348 0 58 -1.98348 1
gene 2 3 12 1.6494 0 73 1.6494 1
genomeend 123

/* Organism #124 Fitness: 13 Error: 0 */
genomestart 124
trait 1 0.1 0 0 0 0 0 0 0 
trait 2 0.2 0 0 0 0 0 0 0 
trait 3 0.3 0 0.246415 0.41767 0 0 0 0 
node 1 2 1 1
node 2 3 1 1
node 3 3 1 1
node 4 1 1 1
node 5 2 1 1
node 6 1 1 1
node 7 2 1 3
node 8 2 0 2
node 12 1 0 0
gene 2 1 8 -4.21635 0 1 -4.21635 0
gene 2 2 8 -0.577339 0 2 -0.577339 1
gene 3 3 8 2.67091 0 3 2.67091 0
gene 2 4 8 1.30462 0 4 1.30462 1
gene 1 5 8 -0.20126 0 5 -0.20126 1
gene 1 6 8 0.859253 0 6 0.859253 1
gene 2 7 8 -2.91865 0 7 -2.91865 1
gene 2 1 12 1.20553 0 14 1.20553 1
gene 2 12 8 1.30499 0 15 1.30499 1
gene 3 2 12 -1.07219 0 24 -1.07219 1
gene 3 4 12 -1.75673 0 45 -1.75673 1
gene 3 7 12 0.828809 0 58 0.828809 1
gene 2 3 12 -1.47411 0 73 -1.47411 1
genomeend 124

/* Organism #125 Fitness: 5 Error: 0 */
genomestart 125
trait 1 0.1 0 0 0 0 0 0 0 
trait 2 0.2 0 0 0 0 0 0 0 
trait 3 0.3 0 0 0 0 0 0 0 
node 1 2 1 1
node 2 3 1 1
node 3 3 1 1
node 4 1 1 1
node 5 2 1 1
node 6 1 1 1
node 7 2 1 3
node 8 2 0 2
node 12 1 0 0
gene 2 1 8 0.149796 0 1 0.149796 0
gene 2 2 8 1.91018 0 2 1.91018 1
gene 3 3 8 1.23402 0 3 1.23402 0
gene 2 4 8 -1.70537 0 4 -1.70537 1
gene 1 5 8 0.51424 0 5 0.51424 1
gene 1 6 8 -1.50362 0 6 -1.50362 1
gene 2 7 8 -1.21598 0 7 -1.21598 1
gene 2 1 12 -2.05931 0 14 -2.05931 1
gene 2 12 8 0.768723 0 15 0.768723 1
gene 3 2 12 0.243237 0 24 0.243237 1
gene 3 4 12 -1.89387 0 45 -1.89387 1
gene 3 7 12 -1.71231 0 58 -1.71231 1
gene 2 3 12 -0.789355 0 73 -0.789355 1
genomeend 125

/* Organism #126 Fitness: 28 Error: 0 */
genomestart 126
trait 1 0.1 0 0 0 0 0 0 0 
trait 2 0.2 0 0 0 0 0 0 0 
trait 3 0.3 0 0 0 0 0 0 0 
node 1 2 1 1
node 2 3 1 1
node 3 3 1 1
node 4 1 1 1
node 5 2 1 1
node 6 1 1 1
node 7 2 1 3
node 8 2 0 2
node 12 1 0 0
gene 2 1 8 -2.46659 0 1 -2.46659 0
gene 2 2 8 1.09311 0 2 1.09311 1
gene 3 3 8 0.710531 0 3 0.710531 0
gene 2 4 8 0.084363 0 4 0.084363 1
gene 1 5 8 4.41554 0 5 4.41554 1
gene 1 6 8 2.46335 0 6 2.46335 1
gene 2 7 8 1.3607 0 7 1.3607 1
gene 2 1 12 -0.115626 0 14 -0.115626 1
gene 2 12 8 0.590632 0 15 0.590632 1
gene 3 2 12 -0.655843 0 24 -0.655843 1
gene 3 4 12 2.80753 0 45 2.80753 1
gene 3 7 12 0.0871497 0 58 0.0871497 1
gene 2 3 12 0.667276 0 73 0.667276 1
genomeend 126

/* Organism #127 Fitness: 35 Error: 0 */
genomestart 127
trait 1 0.1 0 0 0 0 0 0 0 
trait 2 0.2 0 0 0 0 0 0 0 
trait 3 0.3 0 0 0 0 0 0 0 
node 1 2 1 1
node 2 3 1 1
node 3 3 1 1
node 4 1 1 1
node 5 2 1 1
node 6 1 1 1
node 7 2 1 3
node 8 2 0 2
node 12 1 0 0
gene 2 1 8 1.90872 0 1 1.90872 0
gene 2 2 8 -1.74685 0 2 -1.74685 1
gene 3 3 8 0.315011 0 3 0.315011 0
gene 2 4 8 1.48263 0 4 1.48263 1
gene 1 5 8 1.67571 0 5 1.67571 1
gene 1 6 8 1.80564 0 6 1.80564 1
gene 2 7 8 -0.668355 0 7 -0.668355 1
gene 2 1 12 -0.415235 0 14 -0.415235 1
gene 2 12 8 0.189866 0 15 0.189866 1
gene 3 2 12 -2.70122 0 24 -2.70122 1
gene 3 4 12 2.47267 0 45 2.47267 1
gene 3 7 12 1.75255 0 58 1.75255 1
gene 2 3 12 -0.285466 0 73 -0.285466 1
genomeend 127

/* Organism #128 Fitness: 5 Error: 0 */
genomestart 128
trait 1 0.1 0 0 0 0 0 0 0 
trait 2 0.2 0 0 0 0 0 0 0 
trait 3 0.3 0 0 0 0 0 0 0 
node 1 2 1 1
node 2 3 1 1
node 3 3 1 1
node 4 1 1 1
node 5 2 1 1
node 6 1 1 1
node 7 2 1 3
node 8 2 0 2
node 12 1 0 0
gene 2 1 8 -2.28854 0 1 -2.28854 0
gene 2 2 8 2.00525 0 2 2.00525 1
gene 3 3 8 -1.70551 0 3 -1.70551 0
gene 2 4 8 -0.976625 0 4 -0.976625 1
gene 1 5 8 3.61508 0 5 3.61508 1
gene 1 6 8 -0.803986 0 6 -0.803986 1
gene 2 7 8 -1.08487 0 7 -1.08487 1
gene 2 1 12 0.958196 0 14 0.958196 1
gene 2 12 8 1.2915 0 15 1.2915 1
gene 3 2 12 -2.50735 0 24 -2.50735 1
gene 3 4 12 -1.19852 0 45 -1.19852 1
gene 3 7 12 0.0657211 0 58 0.0657211 1
gene 2 3 12 -1.25951 0 73 -1.25951 1
genomeend 128

/* Organism #129 Fitness: 7 Error: 0 */
genomestart 129
trait 1 0.1 0 0 0 0 0 0 0 
trait 2 0.2 0 0 0 0 0 0 0 
trait 3 0.541146 0 0.539756 0.890286 0 0 0 0.352989 
node 1 2 1 1
node 2 3 1 1
node 3 3 1 1
node 4 1 1 1
node 5 2 1 1
node 6 1 1 1
node 7 2 1 3
node 8 2 0 2
node 12 1 0 0
gene 2 1 8 0.433004 0 1 0.433004 1
gene 2 2 8 -1.46776 0 2 -1.46776 1
gene 3 3 8 2.30826 0 3 2.30826 0
gene 2 4 8 -1.6496 0 4 -1.6496 1
gene 1 5 8 2.86022 0 5 2.86022 1
gene 1 6 8 0.0704375 0 6 0.0704375 1
gene 2 7 8 -2.50475 0 7 -2.50475 1
gene 2 1 12 -0.537587 0 14 -0.537587 1
gene 2 12 8 1.6862 0 15 1.6862 1
gene 3 2 12 -4.16716 0 24 -4.16716 1
gene 3 4 12 -1.74356 0 45 -1.74356 1
gene 3 7 12 0.0657211 0 58 0.0657211 1
gene 2 3 12 -3.01161 0 73 -3.01161 1
genomeend 129

/* Organism #130 Fitness: 53 Error: 0 */
genomestart 130
trait 1 0.1 0 0 0 0.0109012 0.278835 0 0 
trait 2 0.2 0 0 0 0 0 0 0 
trait 3 0.3 0 0 0 0 0 0 0 
node 1 2 1 1
node 2 3 1 1
node 3 3 1 1
node 4 1 1 1
node 5 2 1 1
node 6 1 1 1
node 7 2 1 3
node 8 2 0 2
node 12 1 0 0
gene 2 1 8 -2.01314 0 1 -2.01314 1
gene 2 2 8 0.562642 0 2 0.562642 1
gene 3 3 8 0.315011 0 3 0.315011 1
gene 2 4 8 0.238527 0 4 0.238527 1
gene 1 5 8 1.98863 0 5 1.98863 1
gene 1 6 8 0.93669 0 6 0.93669 1
gene 2 7 8 -0.668355 0 7 -0.668355 1
gene 2 1 12 -0.744911 0 14 -0.744911 1
gene 2 12 8 0.189866 0 15 0.189866 1
gene 3 2 12 -1.74049 0 24 -1.74049 1
gene 3 4 12 0.440267 0 45 0.440267 1
gene 3 7 12 0.0657211 0 58 0.0657211 1
gene 2 3 12 -0.789355 0 73 -0.789355 1
genomeend 130

/* Organism #131 Fitness: 25 Error: 0 */
genomestart 131
trait 1 0.1 0 0 0 0 0 0 0 
trait 2 0.2 0 0 0 0 0 0 0 
trait 3 0.3 0 0 0 0 0 0 0 
node 1 2 1 1
node 2 3 1 1
node 3 3 1 1
node 4 1 1 1
node 5 2 1 1
node 6 1 1 1
node 7 2 1 3
node 8 2 0 2
node 12 1 0 0
gene 2 1 8 -1.57698 0 1 -1.57698 0
gene 2 2 8 -1.04041 0 2 -1.04041 1
gene 3 3 8 -1.83378 0 3 -1.83378 0
gene 2 4 8 2.61954 0 4 2.61954 1
gene 1 5 8 2.95546 0 5 2.95546 1
gene 1 6 8 3.35431 0 6 3.35431 1
gene 2 7 8 -2.66816 0 7 -2.66816 1
gene 2 1 12 -0.149324 0 14 -0.149324 1
gene 2 12 8 -1.30125 0 15 -1.30125 1
gene 3 2 12 -1.19667 0 24 -1.19667 1
gene 3 4 12 2.74583 0 45 2.74583 1
gene 3 7 12 -2.12085 0 58 -2.12085 1
gene 2 3 12 -0.2272 0 73 -0.2272 1
genomeend 131

/* Species #9 : (Size 16) (AF 51.5625) (Age 3)  */


/* Organism #132 Fitness: 119 Error: 0 */
genomestart 132
trait 1 0.110364 0 0 0 0 0 0 0 
trait 2 0.2 0 0 0 0 0 0 0 
trait 3 0.299361 0 0.00564128 0 0 0 0.21814 0.0529707 
node 1 2 1 1
node 2 3 1 1
node 3 3 1 1
node 4 1 1 1
node 5 2 1 1
node 6 1 1 1
node 7 2 1 3
node 8 2 0 2
node 24 1 0 0
gene 2 1 8 -1.68832 0 1 -1.68832 0
gene 2 2 8 -0.858581 0 2 -0.858581 1
gene 1 3 8 -1.30531 0 3 -1.30531 0
gene 3 4 8 -3.91803 0 4 -3.91803 1
gene 3 5 8 3.11149 0 5 3.11149 1
gene 2 6 8 1.70845 0 6 1.70845 1
gene 2 7 8 -0.742811 0 7 -0.742811 1
gene 1 3 24 -0.806679 0 40 -0.806679 1
gene 1 24 8 1.91707 0 41 1.91707 1
gene 3 2 24 -0.233792 0 48 -0.233792 1
gene 1 6 24 -0.867759 0 78 -0.867759 1
genomeend 132

/* Organism #133 Fitness: 28 Error: 0 */
genomestart 133
trait 1 0.110364 0 0 0 0 0 0 0 
trait 2 0.2 0 0 0 0 0 0 0 
trait 3 0.299361 0 0.00564128 0 0 0 0.21814 0.0529707 
node 1 2 1 1
node 2 3 1 1
node 3 3 1 1
node 4 1 1 1
node 5 2 1 1
node 6 1 1 1
node 7 2 1 3
node 8 2 0 2
node 24 1 0 0
gene 2 1 8 -1.61411 0 1 -1.61411 0
gene 2 2 8 2.4109 0 2 2.4109 1
gene 1 3 8 0.926076 0 3 0.926076 0
gene 3 4 8 -6.06721 0 4 -6.06721 1
gene 3 5 8 -0.535618 0 5 -0.535618 1
gene 2 6 8 2.58453 0 6 2.58453 1
gene 2 7 8 -0.476063 0 7 -0.476063 1
gene 1 3 24 1.73508 0 40 1.73508 1
gene 1 24 8 -1.21641 0 41 -1.21641 1
gene 3 2 24 2.42618 0 48 2.42618 1
gene 1 6 24 0.488519 0 78 0.488519 1
gene 2 5 24 -0.511382 0 90 -0.511382 1
genomeend 133

/* Organism #134 Fitness: 34 Error: 0 */
genomestart 134
trait 1 0.110364 0 0 0 0 0 0 0 
trait 2 0.2 0 0 0 0 0 0 0 
trait 3 0.299361 0 0.00564128 0 0 0 0.21814 0.0529707 
node 1 2 1 1
node 2 3 1 1
node 3 3 1 1
node 4 1 1 1
node 5 3 1 1
node 6 1 1 1
node 7 2 1 3
node 8 2 0 2
node 24 1 0 0
gene 2 1 8 1.78208 0 1 1.78208 0
gene 2 2 8 -1.08982 0 2 -1.08982 1
gene 1 3 8 -1.30531 0 3 -1.30531 0
gene 3 4 8 -6.324 0 4 -6.324 1
gene 3 5 8 1.30109 0 5 1.30109 1
gene 2 6 8 3.16598 0 6 3.16598 1
gene 2 7 8 -0.0548253 0 7 -0.0548253 1
gene 1 3 24 -1.19393 0 40 -1.19393 1
gene 1 24 8 0.795949 0 41 0.795949 1
gene 3 2 24 -1.37863 0 48 -1.37863 1
gene 1 6 24 0.781972 0 78 0.781972 1
genomeend 134

/* Organism #135 Fitness: 24 Error: 0 */
genomestart 135
trait 1 0.110364 0 0 0 0 0 0 0 
trait 2 0.2 0 0 0 0 0 0 0 
trait 3 0.299361 0 0.00564128 0 0 0 0.21814 0.0529707 
node 1 2 1 1
node 2 3 1 1
node 3 3 1 1
node 4 1 1 1
node 5 2 1 1
node 6 1 1 1
node 7 2 1 3
node 8 2 0 2
node 24 1 0 0
gene 2 1 8 2.69936 0 1 2.69936 0
gene 2 2 8 -1.93874 0 2 -1.93874 1
gene 1 3 8 0.756273 0 3 0.756273 0
gene 3 4 8 -3.88369 0 4 -3.88369 1
gene 3 5 8 -1.30584 0 5 -1.30584 1
gene 2 6 8 1.19758 0 6 1.19758 1
gene 2 7 8 1.02942 0 7 1.02942 1
gene 1 3 24 3.06558 0 40 3.06558 1
gene 1 24 8 0.118972 0 41 0.118972 1
gene 3 2 24 1.50107 0 48 1.50107 1
gene 1 6 24 -2.37958 0 78 -2.37958 1
gene 2 5 24 -0.665727 0 90 -0.665727 1
genomeend 135

/* Organism #136 Fitness: 144 Error: 0 */
genomestart 136
trait 1 0.110364 0 0 0 0 0 0 0 
trait 2 0.2 0 0 0 0 0 0 0 
trait 3 0.299361 0 0.00564128 0 0 0 0.21814 0.0529707 
node 1 2 1 1
node 2 3 1 1
node 3 3 1 1
node 4 1 1 1
node 5 2 1 1
node 6 1 1 1
node 7 2 1 3
node 8 2 0 2
node 24 1 0 0
gene 2 1 8 -0.676371 0 1 -0.676371 0
gene 2 2 8 -0.342168 0 2 -0.342168 1
gene 1 3 8 -0.906153 0 3 -0.906153 0
gene 3 4 8 -3.90086 0 4 -3.90086 1
gene 3 5 8 2.00885 0 5 2.00885 1
gene 2 6 8 1.64494 0 6 1.64494 1
gene 2 7 8 -0.628322 0 7 -0.628322 1
gene 1 3 24 0.0966607 0 40 -0.403339 1
gene 1 24 8 0.768182 0 41 0.958537 1
gene 3 2 24 0.00940964 0 48 0.00940964 1
gene 1 6 24 -0.742937 0 78 -0.742937 1
genomeend 136

/* Organism #137 Fitness: 83 Error: 0 */
genomestart 137
trait 1 0.110364 0 0 0 0 0 0 0 
trait 2 0.2 0 0 0 0 0 0 0 
trait 3 0.299361 0 0.00564128 0 0 0 0.21814 0.0529707 
node 1 2 1 1
node 2 3 1 1
node 3 3 1 1
node 4 1 1 1
node 5 2 1 1
node 6 1 1 1
node 7 2 1 3
node 8 2 0 2
node 24 1 0 0
gene 2 1 8 0.335579 0 1 0.335579 0
gene 2 2 8 0.174245 0 2 0.174245 1
gene 1 3 8 -0.506994 0 3 -0.506994 0
gene 3 4 8 -3.88369 0 4 -3.88369 1
gene 3 5 8 0.906202 0 5 0.906202 1
gene 2 6 8 1.58142 0 6 1.58142 1
gene 2 7 8 -0.513833 0 7 -0.513833 1
gene 1 3 24 1 0 40 0 1
gene 1 24 8 -0.38071 0 41 0 1
gene 3 2 24 0.252611 0 48 0.252611 1
gene 1 6 24 -0.618116 0 78 -0.618116 1
gene 1 4 24 0.744619 0 89 0.744619 1
genomeend 137

/* Organism #138 Fitness: 90 Error: 0 */
genomestart 138
trait 1 0.110364 0 0 0 0 0 0 0 
trait 2 0.2 0 0 0 0 0 0 0 
trait 3 0.299361 0 0.00564128 0 0 0 0.21814 0.0529707 
node 1 2 1 1
node 2 3 1 1
node 3 3 1 1
node 4 1 1 1
node 5 2 1 1
node 6 1 1 1
node 7 2 1 3
node 8 2 0 2
node 24 1 0 0
gene 2 1 8 0.335579 0 1 0.335579 1
gene 2 2 8 0.174245 0 2 0.174245 1
gene 1 3 8 -0.506994 0 3 -0.506994 0
gene 3 4 8 -3.88369 0 4 -3.88369 1
gene 3 5 8 0.906202 0 5 0.906202 1
gene 2 6 8 1.58142 0 6 1.58142 1
gene 2 7 8 -0.513833 0 7 -0.513833 1
gene 1 3 24 1 0 40 0 1
gene 1 24 8 -0.38071 0 41 0 1
gene 3 2 24 0.252611 0 48 0.252611 1
gene 1 6 24 -0.618116 0 78 -0.618116 1
gene 2 5 24 -0.665727 0 90 -0.665727 1
genomeend 138

/* Organism #139 Fitness: 5 Error: 0 */
genomestart 139
trait 1 0.110364 0 0 0 0 0 0 0 
trait 2 0.2 0 0 0 0 0 0 0 
trait 3 0.299361 0 0.00564128 0 0 0 0.21814 0.0529707 
node 1 2 1 1
node 2 3 1 1
node 3 3 1 1
node 4 1 1 1
node 5 2 1 1
node 6 1 1 1
node 7 2 1 3
node 8 2 0 2
node 24 1 0 0
gene 2 1 8 1.55939 0 1 1.55939 0
gene 2 2 8 0.174245 0 2 0.174245 1
gene 1 3 8 -2.37243 0 3 -2.37243 0
gene 3 4 8 -3.88369 0 4 -3.88369 1
gene 3 5 8 0.504974 0 5 0.504974 1
gene 2 6 8 -1.82645 0 6 -1.82645 1
gene 2 7 8 2.07 0 7 2.07 1
gene 1 3 24 2.16566 0 40 2.16566 1
gene 1 24 8 -0.38071 0 41 -0.38071 1
gene 3 2 24 1.05746 0 48 1.05746 1
gene 1 6 24 1.83679 0 78 1.83679 1
genomeend 139

/* Organism #140 Fitness: 5 Error: 0 */
genomestart 140
trait 1 0.110364 0 0 0 0 0 0 0 
trait 2 0.2 0 0 0 0 0 0 0 
trait 3 0.299361 0 0.00564128 0 0 0 0.21814 0.0529707 
node 1 2 1 1
node 2 3 1 1
node 3 3 1 1
node 4 1 1 1
node 5 2 1 1
node 6 1 1 1
node 7 2 1 3
node 8 2 0 2
node 24 1 0 0
gene 2 1 8 1.55395 0 1 1.55395 0
gene 2 2 8 2.10145 0 2 2.10145 1
gene 1 3 8 -2.42132 0 3 -2.42132 0
gene 3 4 8 -5.30747 0 4 -5.30747 1
gene 3 5 8 1.81712 0 5 1.81712 1
gene 2 6 8 0.70915 0 6 0.70915 1
gene 2 7 8 -2.45337 0 7 -2.45337 1
gene 1 3 24 -0.532863 0 40 -0.532863 1
gene 1 24 8 -1.64013 0 41 -1.64013 1
gene 3 2 24 -1.90156 0 48 -1.90156 1
gene 1 6 24 -2.18661 0 78 -2.18661 1
gene 2 7 24 0.27234 0 88 0.27234 1
genomeend 140

/* Organism #141 Fitness: 50 Error: 0 */
genomestart 141
trait 1 0.110364 0 0 0 0 0 0 0 
trait 2 0.2 0 0 0 0 0 0 0 
trait 3 0.299361 0 0.00564128 0 0 0 0.21814 0.0529707 
node 1 2 1 1
node 2 3 1 1
node 3 3 1 1
node 4 1 1 1
node 5 2 1 1
node 6 1 1 1
node 7 2 1 3
node 8 2 0 2
node 24 1 0 0
gene 2 1 8 2.15587 0 1 2.15587 0
gene 2 2 8 -0.853151 0 2 -0.853151 1
gene 1 3 8 0.597394 0 3 0.597394 0
gene 3 4 8 -3.88369 0 4 -3.88369 1
gene 3 5 8 2.44295 0 5 2.44295 1
gene 2 6 8 3.39464 0 6 3.39464 1
gene 2 7 8 -0.513833 0 7 -0.513833 1
gene 1 3 24 0.629914 0 40 0.629914 1
gene 1 24 8 -0.163934 0 41 -0.163934 1
gene 3 2 24 1.18062 0 48 1.18062 1
gene 1 6 24 0.460665 0 78 0.460665 1
genomeend 141

/* Organism #142 Fitness: 5 Error: 0 */
genomestart 142
trait 1 0.110364 0 0 0 0 0 0 0 
trait 2 0.2 0 0 0 0 0 0 0 
trait 3 0.299361 0 0.00564128 0 0 0 0.21814 0.0529707 
node 1 2 1 1
node 2 3 1 1
node 3 3 1 1
node 4 1 1 1
node 5 2 1 1
node 6 1 1 1
node 7 2 1 3
node 8 2 0 2
node 24 1 0 0
gene 2 1 8 -1.43012 0 1 -1.43012 0
gene 2 2 8 -0.499464 0 2 -0.499464 1
gene 1 3 8 -1.09231 0 3 -1.09231 0
gene 3 4 8 -2.85731 0 4 -2.85731 1
gene 3 5 8 1.84811 0 5 1.84811 1
gene 2 6 8 -0.336895 0 6 -0.336895 1
gene 2 7 8 0.793784 0 7 0.793784 1
gene 1 3 24 0.304215 0 40 0.304215 1
gene 1 24 8 -0.678027 0 41 -0.678027 1
gene 3 2 24 2.55871 0 48 2.55871 1
gene 1 6 24 -1.00954 0 78 -1.00954 1
gene 2 5 24 -1.53087 0 90 -1.53087 1
genomeend 142

/* Organism #143 Fitness: 44 Error: 0 */
genomestart 143
trait 1 0.110364 0 0 0 0 0 0 0 
trait 2 0.2 0 0 0 0 0 0 0 
trait 3 0.299361 0 0.00564128 0 0 0 0.21814 0.0529707 
node 1 2 1 1
node 2 3 1 1
node 3 3 1 1
node 4 1 1 1
node 5 2 1 1
node 6 1 1 1
node 7 2 1 3
node 8 2 0 2
node 24 1 0 0
gene 2 1 8 -0.780059 0 1 -0.780059 0
gene 2 2 8 -2.19319 0 2 -2.19319 1
gene 1 3 8 -3.51592 0 3 -3.51592 0
gene 3 4 8 -6.06929 0 4 -6.06929 1
gene 3 5 8 3.0828 0 5 3.0828 1
gene 2 6 8 3.55882 0 6 3.55882 1
gene 2 7 8 -1.60864 0 7 -1.60864 1
gene 1 3 24 -0.242396 0 40 -0.242396 1
gene 1 24 8 -0.477905 0 41 -0.477905 1
gene 3 2 24 -1.46338 0 48 -1.46338 1
gene 1 6 24 -1.15953 0 78 -1.15953 1
genomeend 143

/* Organism #144 Fitness: 83 Error: 0 */
genomestart 144
trait 1 0.110364 0 0 0 0 0 0 0 
trait 2 0.2 0 0 0 0 0 0 0 
trait 3 0.299361 0 0.00564128 0 0 0 0.21814 0.0529707 
node 1 2 1 1
node 2 3 1 1
node 3 3 1 1
node 4 1 1 1
node 5 2 1 1
node 6 1 1 1
node 7 2 1 3
node 8 2 0 2
node 24 1 0 0
gene 2 1 8 0.335579 0 1 0.335579 0
gene 2 2 8 0.174245 0 2 0.174245 1
gene 1 3 8 -0.506994 0 3 -0.506994 0
gene 3 4 8 -3.88369 0 4 -3.88369 1
gene 3 5 8 0.906202 0 5 0.906202 1
gene 2 6 8 1.58142 0 6 1.58142 1
gene 2 7 8 -0.513833 0 7 -0.513833 1
gene 1 3 24 1 0 40 0 1
gene 1 24 8 -0.38071 0 41 0 1
gene 3 2 24 0.252611 0 48 0.252611 1
gene 1 6 24 -0.618116 0 78 -0.618116 1
gene 2 7 24 -0.272163 0 88 -0.272163 1
genomeend 144

/* Organism #145 Fitness: 6 Error: 0 */
genomestart 145
trait 1 0 0 0 0.0794 0 0 0 0.836865 
trait 2 0.2 0 0 0 0 0 0 0 
trait 3 0.299361 0 0.00564128 0 0 0 0.21814 0.0529707 
node 1 2 1 1
node 2 3 1 1
node 3 3 1 1
node 4 3 1 1
node 5 2 1 1
node 6 1 1 1
node 7 2 1 3
node 8 2 0 2
node 24 1 0 0
gene 2 1 8 2.64396 0 1 2.64396 0
gene 2 2 8 -0.277322 0 2 -0.277322 1
gene 1 3 8 -2.23425 0 3 -2.23425 0
gene 3 4 8 -3.30481 0 4 -3.30481 1
gene 3 5 8 0.241291 0 5 0.241291 1
gene 2 6 8 0.369453 0 6 0.369453 1
gene 2 7 8 -0.649483 0 7 -0.649483 1
gene 1 3 24 1.34849 0 40 1.34849 1
gene 1 24 8 -1.14758 0 41 -1.14758 1
gene 3 2 24 -1.21843 0 48 -1.21843 1
gene 1 6 24 -0.618116 0 78 -0.618116 1
genomeend 145

/* Organism #146 Fitness: 57 Error: 0 */
genomestart 146
trait 1 0.110364 0 0 0 0 0 0 0 
trait 2 0.2 0 0 0 0 0 0 0 
trait 3 0.299361 0 0.00564128 0 0 0 0.21814 0.0529707 
node 1 2 1 1
node 2 3 1 1
node 3 3 1 1
node 4 1 1 1
node 5 2 1 1
node 6 1 1 1
node 7 2 1 3
node 8 2 0 2
node 24 1 0 0
gene 2 1 8 1.15451 0 1 1.15451 0
gene 2 2 8 1.12882 0 2 1.12882 1
gene 1 3 8 -2.06866 0 3 -2.06866 0
gene 3 4 8 -3.60734 0 4 -3.60734 1
gene 3 5 8 0.906202 0 5 0.906202 1
gene 2 6 8 1.59403 0 6 1.59403 1
gene 2 7 8 -0.411134 0 7 -0.411134 1
gene 1 3 24 0.686346 0 40 0.686346 1
gene 1 24 8 -1.21189 0 41 -1.21189 1
gene 3 2 24 0.823051 0 48 0.823051 1
gene 1 6 24 1.52167 0 78 1.52167 1
genomeend 146

/* Organism #147 Fitness: 48 Error: 0 */
genomestart 147
trait 1 0.110364 0 0 0 0 0 0 0 
trait 2 0.2 0 0 0 0 0 0 0 
trait 3 0.299361 0 0.00564128 0 0 0 0.21814 0.0529707 
node 1 2 1 1
node 2 3 1 1
node 3 3 1 1
node 4 1 1 1
node 5 2 1 1
node 6 1 1 1
node 7 2 1 3
node 8 2 0 2
node 24 1 0 0
gene 2 1 8 -1.68832 0 1 -1.68832 0
gene 2 2 8 -0.858581 0 2 -0.858581 1
gene 1 3 8 -0.506994 0 3 -0.506994 0
gene 3 4 8 -3.91803 0 4 -3.91803 1
gene 3 5 8 0.906202 0 5 0.906202 1
gene 2 6 8 1.58142 0 6 1.58142 1
gene 2 7 8 -0.513833 0 7 -0.513833 1
gene 1 3 24 1 0 40 0 1
gene 1 24 8 1.91707 0 41 1.91707 1
gene 3 2 24 -0.233792 0 48 -0.233792 1
gene 1 6 24 -0.867759 0 78 -0.867759 1
genomeend 147

/* Species #10 : (Size 1) (AF 145) (Age 1)  */


/* Organism #148 Fitness: 145 Error: 0 */
genomestart 148
trait 1 0.0853642 0 0.215728 0 0 0.135583 0 0 
trait 2 0.2 0 0 0 0 0 0 0 
trait 3 0.3 0 0 0 0 0 0 0 
node 1 2 1 1
node 2 2 1 1
node 3 1 1 1
node 4 2 1 1
node 5 1 1 1
node 6 3 1 1
node 7 3 1 3
node 8 3 0 2
node 34 1 0 0
gene 1 1 8 -0.257366 0 1 -0.257366 1
gene 1 2 8 -0.0628127 0 2 -0.0628127 0
gene 2 3 8 -4.07459 0 3 -4.07459 1
gene 3 4 8 -2.70379 0 4 -2.70379 1
gene 1 5 8 3.56318 0 5 3.56318 1
gene 1 6 8 1.80347 0 6 1.80347 1
gene 3 7 8 0.622948 0 7 0.622948 1
gene 1 2 34 1 0 71 0 1
gene 1 34 8 -0.0628127 0 72 0 1
gene 1 7 34 0.923048 0 91 0.923048 1
genomeend 148

/* Species #11 : (Size 1) (AF 130) (Age 1)  */


/* Organism #149 Fitness: 130 Error: 0 */
genomestart 149
trait 1 0.110364 0 0 0 0 0 0 0 
trait 2 0.2 0 0 0 0 0 0 0 
trait 3 0.299361 0 0.00564128 0 0 0 0.21814 0.0529707 
node 1 2 1 1
node 2 3 1 1
node 3 3 1 1
node 4 1 1 1
node 5 2 1 1
node 6 1 1 1
node 7 2 1 3
node 8 2 0 2
node 24 1 0 0
node 42 1 0 0
gene 2 1 8 0.335579 0 1 0.335579 0
gene 2 2 8 0.174245 0 2 0.174245 1
gene 1 3 8 -0.506994 0 3 -0.506994 0
gene 3 4 8 -3.88369 0 4 -3.88369 1
gene 3 5 8 0.906202 0 5 0.906202 1
gene 2 6 8 1.58142 0 6 1.58142 1
gene 2 7 8 -0.513833 0 7 -0.513833 1
gene 1 3 24 1 0 40 0 1
gene 1 24 8 -0.38071 0 41 0 1
gene 3 2 24 0.252611 0 48 0.252611 1
gene 1 6 24 -0.618116 0 78 -0.618116 1
gene 1 4 24 0.744619 0 89 0.744619 1
gene 2 1 42 1 0 108 0 1
gene 2 42 8 0.335579 0 109 0 1
genomeend 149
