
/* Species #1 : (Size 7) (AF 0.00391429) (Age 11)  */


/* Organism #0 Fitness: 0.0076 Error: 0 */
genomestart 0
trait 1 0.110686 0.000953215 0.00200158 0 0.0529836 0.0664549 0.0377528 0.308569 
node 1 1 1 1
node 2 1 1 1
node 3 1 1 1
node 4 1 1 3
node 5 1 0 2
gene 1 1 5 -3.00259 0 1 -3.00259 1
gene 1 2 5 0.762658 0 2 0.762658 1
gene 1 3 5 2.6225 0 3 2.6225 1
gene 1 4 5 0.187539 0 4 0.187539 1
gene 1 5 5 -1.04853 1 125 -1.04853 1
genomeend 0

/* Organism #1 Fitness: 0.0052 Error: 0 */
genomestart 1
trait 1 0.0980469 0.000595759 0.00294692 0 0.0524973 0.0695317 0.0380389 0.00124236 
node 1 1 1 1
node 2 1 1 1
node 3 1 1 1
node 4 1 1 3
node 5 1 0 2
gene 1 1 5 -0.795242 0 1 -0.795242 1
gene 1 2 5 -0.123584 0 2 -0.123584 1
gene 1 3 5 4.32562 0 3 4.32562 1
gene 1 4 5 0.0597204 0 4 0.0597204 1
gene 1 5 5 -1.44976 1 125 -1.44976 1
genomeend 1

/* Organism #2 Fitness: 0.0005 Error: 0 */
genomestart 2
trait 1 0.124043 0.00214473 0.00450356 0 0.00361252 0.0135763 0.00257406 0.540989 
node 1 1 1 1
node 2 1 1 1
node 3 1 1 1
node 4 1 1 3
node 5 1 0 2
gene 1 1 5 -4.38477 0 1 -4.38477 1
gene 1 2 5 0.461482 0 2 0.461482 1
gene 1 3 5 2.94074 0 3 2.94074 1
gene 1 4 5 -1.24463 0 4 -1.24463 1
gene 1 5 5 -2.45233 1 125 -2.45233 1
genomeend 2

/* Organism #3 Fitness: 0.0059 Error: 0 */
genomestart 3
trait 1 0.110686 0.000953215 0.00200158 0 0.00160557 0.0060339 0.00114403 0.308569 
node 1 1 1 1
node 2 1 1 1
node 3 1 1 1
node 4 1 1 3
node 5 1 0 2
gene 1 1 5 -1.78621 0 1 -1.78621 1
gene 1 2 5 0.926841 0 2 0.926841 1
gene 1 3 5 2.6412 0 3 2.6412 1
gene 1 4 5 0.0311632 0 4 0.0311632 1
gene 1 5 5 -0.920616 1 125 -0.920616 1
genomeend 3

/* Organism #4 Fitness: 0.0009 Error: 0 */
genomestart 4
trait 1 0.110686 0.000953215 0.00200158 0 0.0529836 0.0664549 0.0377528 0.308569 
node 1 1 1 1
node 2 1 1 1
node 3 1 1 1
node 4 1 1 3
node 5 1 0 2
node 50 1 0 0
gene 1 1 5 -2.09081 0 1 -2.09081 1
gene 1 2 5 1.1459 0 2 1.1459 1
gene 1 3 5 2.02991 0 3 2.02991 0
gene 1 4 5 -0.0454425 0 4 -0.0454425 1
gene 1 5 5 -1.41341 1 125 -1.41341 1
gene 1 3 50 1 0 536 0 1
gene 1 50 5 2.02991 0 537 0 1
genomeend 4

/* Organism #5 Fitness: 0.0036 Error: 0 */
genomestart 5
trait 1 0.132657 0.719495 0.00600475 0 0.00100348 0.0241356 0.00572013 0.00795109 
node 1 1 1 1
node 2 1 1 1
node 3 1 1 1
node 4 1 1 3
node 5 1 0 2
gene 1 1 5 -4.14468 0 1 -4.14468 1
gene 1 2 5 0.042234 0 2 0.042234 1
gene 1 3 5 2.7079 0 3 2.7079 1
gene 1 4 5 1.35741 0 4 1.35741 1
gene 1 5 5 -1.63863 1 98 -1.63863 1
genomeend 5

/* Organism #6 Fitness: 0.0037 Error: 0 */
genomestart 6
trait 1 0.132657 0.821735 0.00600475 0 0 0.0241356 0.00572013 0.00795109 
node 1 1 1 1
node 2 1 1 1
node 3 1 1 1
node 4 1 1 3
node 5 1 0 2
gene 1 1 5 -3.57397 0 1 -3.57397 1
gene 1 2 5 0.042234 0 2 0.042234 1
gene 1 3 5 2.85322 0 3 2.85322 1
gene 1 4 5 1.35741 0 4 1.35741 1
gene 1 5 5 -1.63863 1 98 -1.63863 1
genomeend 6

/* Species #2 : (Size 7) (AF 0.00365714) (Age 11)  */


/* Organism #7 Fitness: 0.0071 Error: 0 */
genomestart 7
trait 1 0.1 0 0 0 0 0 0 0 
node 1 1 1 1
node 2 1 1 1
node 3 1 1 1
node 4 1 1 3
node 5 1 0 2
gene 1 1 5 -2.23675 0 1 -2.23675 1
gene 1 2 5 -1.0277 0 2 -1.0277 1
gene 1 3 5 2.16812 0 3 2.16812 1
gene 1 4 5 0.241276 0 4 0.241276 1
gene 1 5 5 -0.473157 1 62 -0.473157 1
genomeend 7

/* Organism #8 Fitness: 0.0049 Error: 0 */
genomestart 8
trait 1 0.0960938 0.00119152 0.00589383 0 0.00223842 0.0182215 0.00286006 0.00248472 
node 1 1 1 1
node 2 1 1 1
node 3 1 1 1
node 4 1 1 3
node 5 1 0 2
gene 1 1 5 -2.23675 0 1 -2.23675 1
gene 1 2 5 -1.0277 0 2 -1.0277 1
gene 1 3 5 2.16812 0 3 2.16812 1
gene 1 4 5 0.241276 0 4 0.241276 1
gene 1 5 5 -0.765826 1 76 -0.765826 1
genomeend 8

/* Organism #9 Fitness: 0.0004 Error: 0 */
genomestart 9
trait 1 0.1 0 0 0 0 0 0 0 
node 1 1 1 1
node 2 1 1 1
node 3 1 1 1
node 4 1 1 3
node 5 1 0 2
gene 1 1 5 -2.53315 0 1 -2.53315 1
gene 1 2 5 -1.67683 0 2 -1.67683 1
gene 1 3 5 0.99235 0 3 0.99235 1
gene 1 4 5 -1.51771 0 4 -1.51771 1
gene 1 5 5 -1.24264 1 62 -1.24264 1
genomeend 9

/* Organism #10 Fitness: 0.0004 Error: 0 */
genomestart 10
trait 1 0.1 0 0 0 0 0 0 0 
node 1 1 1 1
node 2 1 1 1
node 3 1 1 1
node 4 1 1 3
node 5 1 0 2
gene 1 1 5 -1.8184 0 1 -1.8184 1
gene 1 2 5 -0.885735 0 2 -0.885735 1
gene 1 3 5 2.34669 0 3 2.34669 1
gene 1 4 5 1.28767 0 4 1.28767 1
gene 1 5 5 1.07871 1 62 1.07871 1
genomeend 10

/* Organism #11 Fitness: 0.0071 Error: 0 */
genomestart 11
trait 1 0.1 0 0 0 0 0 0 0 
node 1 1 1 1
node 2 1 1 1
node 3 1 1 1
node 4 1 1 3
node 5 1 0 2
gene 1 1 5 -2.23675 0 1 -2.23675 1
gene 1 2 5 -1.0277 0 2 -1.0277 1
gene 1 3 5 2.16812 0 3 2.16812 1
gene 1 4 5 0.241276 0 4 0.241276 1
gene 1 5 5 -0.473157 1 62 -0.473157 1
genomeend 11

/* Organism #12 Fitness: 0.005 Error: 0 */
genomestart 12
trait 1 0.0960938 0.00119152 0.00589383 0 0.00223842 0.0182215 0.00286006 0.00248472 
node 1 1 1 1
node 2 1 1 1
node 3 1 1 1
node 4 1 1 3
node 5 1 0 2
gene 1 1 5 -1.09163 0 1 -1.09163 1
gene 1 2 5 -1.05397 0 2 -1.05397 1
gene 1 3 5 3.86433 0 3 3.86433 1
gene 1 4 5 0.224738 0 4 0.224738 1
gene 1 5 5 -0.492508 1 62 -0.492508 1
genomeend 12

/* Organism #13 Fitness: 0.0007 Error: 0 */
genomestart 13
trait 1 0.1 0 0 0 0 0 0 0 
node 1 1 1 1
node 2 1 1 1
node 3 1 1 1
node 4 1 1 3
node 5 1 0 2
gene 1 1 5 -0.559843 0 1 -0.559843 1
gene 1 2 5 -2.76594 0 2 -2.76594 1
gene 1 3 5 1.35132 0 3 1.35132 1
gene 1 4 5 0.165622 0 4 0.165622 1
gene 1 5 5 -0.159425 1 62 -0.159425 1
genomeend 13

/* Species #3 : (Size 9) (AF 0.00756128) (Age 10)  */


/* Organism #14 Fitness: 0.0144515 Error: 0 */
genomestart 14
trait 1 0.09375 0.00190643 0.00943013 0 0.00358147 0.0291545 0.0045761 0.24397 
node 1 1 1 1
node 2 1 1 1
node 3 1 1 1
node 4 1 1 3
node 5 1 0 2
gene 1 1 5 0.955068 0 1 0.955068 1
gene 1 2 5 -2.23998 0 2 -2.23998 1
gene 1 3 5 4.96866 0 3 4.96866 1
gene 1 4 5 0.282953 0 4 0.282953 1
gene 1 5 5 -0.97463 1 131 -0.97463 1
genomeend 14

/* Organism #15 Fitness: 0.0053 Error: 0 */
genomestart 15
trait 1 0.104944 0.087289 0 0.00427581 0 0.144763 0 0.120349 
node 1 1 1 1
node 2 1 1 1
node 3 1 1 1
node 4 1 1 3
node 5 1 0 2
gene 1 1 5 1.1503 0 1 1.1503 1
gene 1 2 5 -0.0921257 0 2 -0.0921257 1
gene 1 3 5 7.31786 0 3 7.31786 1
gene 1 4 5 0.0573265 0 4 0.0573265 1
gene 1 5 5 -1.44334 1 131 -1.44334 1
genomeend 15

/* Organism #16 Fitness: 0.006 Error: 0 */
genomestart 16
trait 1 0.107495 0.0017277 0.0378425 0.00419593 0.000559604 0.0097966 0.00195464 0.338654 
node 1 1 1 1
node 2 1 1 1
node 3 1 1 1
node 4 1 1 3
node 5 1 0 2
gene 1 1 5 0.90457 0 1 0.90457 1
gene 1 2 5 -1.68862 0 2 -1.68862 1
gene 1 3 5 4.54451 0 3 4.54451 1
gene 1 4 5 0.651717 0 4 0.651717 1
gene 1 5 5 -1.56744 1 131 -1.56744 1
genomeend 16

/* Organism #17 Fitness: 0.0037 Error: 0 */
genomestart 17
trait 1 0.281473 0.133526 0 0.0025971 0 0.861041 0.47454 0.203388 
node 1 1 1 1
node 2 1 1 1
node 3 1 1 1
node 4 1 1 3
node 5 1 0 2
gene 1 1 5 1.21459 0 1 1.21459 1
gene 1 2 5 -1.11457 0 2 -1.11457 1
gene 1 3 5 6.42375 0 3 6.42375 1
gene 1 4 5 -0.113423 0 4 -0.113423 1
gene 1 5 5 -2.85366 1 131 -2.85366 1
genomeend 17

/* Organism #18 Fitness: 0.0063 Error: 0 */
genomestart 18
trait 1 0.194484 0.0676266 0.0189213 0.00339651 0.000279802 0.0048983 0.00159713 0.322875 
node 1 1 1 1
node 2 1 1 1
node 3 1 1 1
node 4 1 1 3
node 5 1 0 2
gene 1 1 5 0.90457 0 1 0.90457 1
gene 1 2 5 -1.68862 0 2 -1.68862 1
gene 1 3 5 6.48289 0 3 6.48289 1
gene 1 4 5 0.651717 0 4 0.651717 1
gene 1 5 5 -1.56744 1 131 -1.56744 1
genomeend 18

/* Organism #19 Fitness: 0.0088 Error: 0 */
genomestart 19
trait 1 0.107786 0.00262134 0.00471506 0.00297727 0.00179073 0.0213103 0.00228805 0.14064 
node 1 1 1 1
node 2 1 1 1
node 3 1 1 1
node 4 1 1 3
node 5 1 0 2
gene 1 1 5 0.90457 0 1 0.90457 1
gene 1 2 5 -3.34307 0 2 -3.34307 1
gene 1 3 5 2.90229 0 3 2.90229 1
gene 1 4 5 1.3266 0 4 1.3266 1
gene 1 5 5 -0.746802 1 131 -0.746802 1
genomeend 19

/* Organism #20 Fitness: 0.0098 Error: 0 */
genomestart 20
trait 1 0.115709 0.00214473 0.00117877 0.00422458 0.000447683 0.0123329 0.00119183 0.212204 
node 1 1 1 1
node 2 1 1 1
node 3 1 1 1
node 4 1 1 3
node 5 1 0 2
gene 1 1 5 2.35695 0 1 2.35695 1
gene 1 2 5 -3.09734 0 2 -3.09734 1
gene 1 3 5 4.01454 0 3 4.01454 1
gene 1 4 5 1.78577 0 4 1.78577 1
gene 1 5 5 -1.76074 1 131 -1.76074 1
genomeend 20

/* Organism #21 Fitness: 0.0046 Error: 0 */
genomestart 21
trait 1 0.119188 0.0305029 0.193968 0 0 0.0722431 0 0.0636088 
node 1 1 1 1
node 2 1 1 1
node 3 1 1 1
node 4 1 1 3
node 5 1 0 2
gene 1 1 5 0.0403354 0 1 0.0403354 1
gene 1 2 5 -1.28447 0 2 -1.28447 1
gene 1 3 5 5.4115 0 3 5.4115 1
gene 1 4 5 0.61731 0 4 0.61731 1
gene 1 5 5 -0.95163 1 70 -0.95163 1
genomeend 21

/* Organism #22 Fitness: 0.0091 Error: 0 */
genomestart 22
trait 1 0.448821 0.054488 0.0035363 0.276236 0.113724 0.20775 0.0595455 0.151689 
node 1 1 1 1
node 2 1 1 1
node 3 1 1 1
node 4 1 1 3
node 5 1 0 2
gene 1 1 5 0.0562233 0 1 0.0562233 0
gene 1 2 5 -1.48094 0 2 -1.48094 1
gene 1 3 5 5.32377 0 3 5.32377 1
gene 1 4 5 0.0174768 0 4 0.0174768 1
gene 1 5 5 -0.896593 1 127 -0.896593 1
genomeend 22

/* Species #4 : (Size 29) (AF 0.0241998) (Age 10)  */


/* Organism #23 Fitness: 0.108123 Error: 0 */
genomestart 23
trait 1 0.36051 0.0523433 0.00235753 0.185707 0.246681 0.412383 0.0543974 0.0872178 
node 1 1 1 1
node 2 1 1 1
node 3 1 1 1
node 4 1 1 3
node 5 1 0 2
gene 1 1 5 -1.96017 0 1 -1.96017 1
gene 1 2 5 -4.82558 0 2 -4.82558 1
gene 1 3 5 3.93309 0 3 3.93309 1
gene 1 4 5 1.3646 0 4 1.3646 1
gene 1 5 5 -1.21226 1 127 -1.21226 1
genomeend 23

/* Organism #24 Fitness: 13 Error: 0 */
genomestart 24
trait 1 0.169863 0.0152514 0.0969842 0.0671137 0.139827 0.252823 0 0.0318044 
node 1 1 1 1
node 2 1 1 1
node 3 1 1 1
node 4 1 1 3
node 5 1 0 2
gene 1 1 5 -1.45673 0 1 -1.45673 1
gene 1 2 5 -5.2013 0 2 -5.2013 1
gene 1 3 5 4.17819 0 3 4.17819 1
gene 1 4 5 1.02107 0 4 1.02107 1
gene 1 5 5 -1.08713 1 127 -1.08713 1
genomeend 24

/* Organism #25 Fitness: 0.0006 Error: 0 */
genomestart 25
trait 1 0.290524 0.0261717 0.00117877 0.159967 0.263167 0.422893 0.0271987 0.0436089 
node 1 1 1 1
node 2 1 1 1
node 3 1 1 1
node 4 1 1 3
node 5 1 0 2
gene 1 1 5 -1.54865 0 1 -1.54865 1
gene 1 2 5 -5.55723 0 2 -5.55723 1
gene 1 3 5 2.43998 0 3 2.43998 1
gene 1 4 5 0.987684 0 4 0.987684 1
gene 1 5 5 -1.42296 1 127 -1.42296 1
genomeend 25

/* Organism #26 Fitness: 0.0023 Error: 0 */
genomestart 26
trait 1 0.169863 0.0152514 0.0969842 0.0671137 0.139827 0.252823 0 0.0318044 
node 1 1 1 1
node 2 1 1 1
node 3 1 1 1
node 4 1 1 3
node 5 1 0 2
gene 1 1 5 -1.21525 0 1 -1.21525 1
gene 1 2 5 -4.10032 0 2 -4.10032 1
gene 1 3 5 3.97123 0 3 3.97123 1
gene 1 4 5 2.91568 0 4 2.91568 1
gene 1 5 5 -0.469662 1 127 -0.469662 1
genomeend 26

/* Organism #27 Fitness: 0.0013 Error: 0 */
genomestart 27
trait 1 0.325517 0.0392575 0.00176815 0.172837 0.254924 0.417638 0.040798 0.0654134 
node 1 1 1 1
node 2 1 1 1
node 3 1 1 1
node 4 1 1 3
node 5 1 0 2
gene 1 1 5 -1.61825 0 1 -1.61825 0
gene 1 2 5 -5.67406 0 2 -5.67406 1
gene 1 3 5 1.53919 0 3 1.53919 1
gene 1 4 5 2.31303 0 4 2.31303 1
gene 1 5 5 -1.42877 1 127 -1.42877 1
genomeend 27

/* Organism #28 Fitness: 0.109089 Error: 0 */
genomestart 28
trait 1 0.239849 0.0414231 0.098163 0.0928533 0.12334 0.242313 0.0271987 0.0754133 
node 1 1 1 1
node 2 1 1 1
node 3 1 1 1
node 4 1 1 3
node 5 1 0 2
gene 1 1 5 -1.45673 0 1 -1.45673 1
gene 1 2 5 -5.2013 0 2 -5.2013 1
gene 1 3 5 4.17819 0 3 4.17819 1
gene 1 4 5 1.38521 0 4 1.38521 1
gene 1 5 5 -1.21226 1 127 -1.21226 1
genomeend 28

/* Organism #29 Fitness: 0.0133821 Error: 0 */
genomestart 29
trait 1 0.169863 0.0152514 0.0969842 0.0671137 0.139827 0.252823 0 0.0318044 
node 1 1 1 1
node 2 1 1 1
node 3 1 1 1
node 4 1 1 3
node 5 1 0 2
gene 1 1 5 -1.96017 0 1 -1.96017 1
gene 1 2 5 -5.10942 0 2 -5.10942 1
gene 1 3 5 4.68602 0 3 4.68602 1
gene 1 4 5 0.636328 0 4 0.636328 1
gene 1 5 5 -1.08713 1 127 -1.08713 1
genomeend 29

/* Organism #30 Fitness: 0.003 Error: 0 */
genomestart 30
trait 1 0.239849 0.0414231 0.098163 0.0928533 0.12334 0.242313 0.0271987 0.0754133 
node 1 1 1 1
node 2 1 1 1
node 3 1 1 1
node 4 1 1 3
node 5 1 0 2
gene 1 1 5 -2.34181 0 1 -2.34181 0
gene 1 2 5 -5.57702 0 2 -5.57702 1
gene 1 3 5 4.42329 0 3 4.42329 1
gene 1 4 5 1.02948 0 4 1.02948 1
gene 1 5 5 -1.62627 1 70 -1.62627 1
genomeend 30

/* Organism #31 Fitness: 0.0027 Error: 0 */
genomestart 31
trait 1 0.169863 0.0152514 0.0969842 0.0671137 0.139827 0.252823 0 0.0318044 
node 1 1 1 1
node 2 1 1 1
node 3 1 1 1
node 4 1 1 3
node 5 1 0 2
gene 1 1 5 -0.442449 0 1 -0.442449 1
gene 1 2 5 -4.84588 0 2 -4.84588 1
gene 1 3 5 4.83655 0 3 4.83655 1
gene 1 4 5 0.839089 0 4 0.839089 1
gene 1 5 5 -0.414539 1 127 -0.414539 1
genomeend 31

/* Organism #32 Fitness: 0.0146419 Error: 0 */
genomestart 32
trait 1 0.202458 0.0245244 0.0733276 0.0799835 0.157273 0.268748 0.0319038 0.0456577 
node 1 1 1 1
node 2 1 1 1
node 3 1 1 1
node 4 1 1 3
node 5 1 0 2
gene 1 1 5 -0.729046 0 1 -0.729046 0
gene 1 2 5 -4.77413 0 2 -4.77413 1
gene 1 3 5 4.15845 0 3 4.15845 1
gene 1 4 5 1.63952 0 4 1.63952 1
gene 1 5 5 -1.1747 1 70 -1.1747 1
genomeend 32

/* Organism #33 Fitness: 0.0008 Error: 0 */
genomestart 33
trait 1 0.167465 0.0114386 0.0727382 0.0671137 0.165516 0.274003 0.0183044 0.0238533 
node 1 1 1 1
node 2 1 1 1
node 3 1 1 1
node 4 1 1 3
node 5 1 0 2
gene 1 1 5 -0.223578 0 1 -0.223578 1
gene 1 2 5 -4.82558 0 2 -4.82558 1
gene 1 3 5 4.42983 0 3 4.42983 1
gene 1 4 5 0.839098 0 4 0.839098 1
gene 1 5 5 1.30891 1 127 1.30891 1
genomeend 33

/* Organism #34 Fitness: 0.0005 Error: 0 */
genomestart 34
trait 1 0.169863 0.0152514 0.0969842 0.0671137 0.139827 0.252823 0 0.0318044 
node 1 1 1 1
node 2 1 1 1
node 3 1 1 1
node 4 1 1 3
node 5 1 0 2
gene 1 1 5 0.323626 0 1 0.323626 1
gene 1 2 5 -6.52336 0 2 -6.52336 1
gene 1 3 5 3.80116 0 3 3.80116 1
gene 1 4 5 0.484719 0 4 0.484719 1
gene 1 5 5 -2.62828 1 127 -2.62828 1
genomeend 34

/* Organism #35 Fitness: 0.0094 Error: 0 */
genomestart 35
trait 1 0.325517 0.0392575 0.00176815 0.172837 0.254924 0.417638 0.040798 0.0654134 
node 1 1 1 1
node 2 1 1 1
node 3 1 1 1
node 4 1 1 3
node 5 1 0 2
gene 1 1 5 -0.991989 0 1 -0.991989 0
gene 1 2 5 -3.32104 0 2 -3.32104 1
gene 1 3 5 4.63626 0 3 4.63626 1
gene 1 4 5 0.903193 0 4 0.903193 1
gene 1 5 5 -1.25444 1 127 -1.25444 1
genomeend 35

/* Organism #36 Fitness: 0.0465887 Error: 0 */
genomestart 36
trait 1 0.119188 0.747271 0.0293518 0.96424 0 0.0722431 0 0.0636088 
node 1 1 1 1
node 2 1 1 1
node 3 1 1 1
node 4 1 1 3
node 5 1 0 2
gene 1 1 5 -0.953288 0 1 -0.953288 1
gene 1 2 5 -5.10942 0 2 -5.10942 1
gene 1 3 5 4.68602 0 3 4.68602 1
gene 1 4 5 1.73181 0 4 1.73181 1
gene 1 5 5 -1.7442 1 70 -1.7442 1
genomeend 36

/* Organism #37 Fitness: 0.0300048 Error: 0 */
genomestart 37
trait 1 0.204856 0.0283373 0.0975736 0.0799835 0.131584 0.247568 0.0135993 0.0536088 
node 1 1 1 1
node 2 1 1 1
node 3 1 1 1
node 4 1 1 3
node 5 1 0 2
gene 1 1 5 -0.953288 0 1 -0.953288 0
gene 1 2 5 -5.57702 0 2 -5.57702 1
gene 1 3 5 4.42329 0 3 4.42329 1
gene 1 4 5 1.02948 0 4 1.02948 1
gene 1 5 5 -1.14969 1 127 -1.14969 1
genomeend 37

/* Organism #38 Fitness: 0.0047 Error: 0 */
genomestart 38
trait 1 0.169863 0.0152514 0.0969842 0.0671137 0.139827 0.252823 0 0.0318044 
node 1 1 1 1
node 2 1 1 1
node 3 1 1 1
node 4 1 1 3
node 5 1 0 2
gene 1 1 5 -1.88134 0 1 -1.88134 1
gene 1 2 5 -4.32285 0 2 -4.32285 1
gene 1 3 5 5.91963 0 3 5.91963 1
gene 1 4 5 0.532508 0 4 0.532508 1
gene 1 5 5 -2.13754 1 127 -2.13754 1
genomeend 38

/* Organism #39 Fitness: 0.0516089 Error: 0 */
genomestart 39
trait 1 0.220538 0 0 0.134227 0.279653 0.433403 0 0 
node 1 1 1 1
node 2 1 1 1
node 3 1 1 1
node 4 1 1 3
node 5 1 0 2
gene 1 1 5 -1.96017 0 1 -1.96017 1
gene 1 2 5 -4.82558 0 2 -4.82558 1
gene 1 3 5 3.93309 0 3 3.93309 1
gene 1 4 5 0.636328 0 4 0.636328 1
gene 1 5 5 -1.08713 1 127 -1.08713 1
genomeend 39

/* Organism #40 Fitness: 0.0299476 Error: 0 */
genomestart 40
trait 1 0.119188 0.0305029 0.193968 0 0 0.0722431 0 0.0636088 
node 1 1 1 1
node 2 1 1 1
node 3 1 1 1
node 4 1 1 3
node 5 1 0 2
gene 1 1 5 -0.953288 0 1 -0.953288 1
gene 1 2 5 -5.10942 0 2 -5.10942 1
gene 1 3 5 4.42329 0 3 4.42329 1
gene 1 4 5 1.40581 0 4 1.40581 1
gene 1 5 5 -1.62627 1 70 -1.62627 1
genomeend 40

/* Organism #41 Fitness: 0.0210039 Error: 0 */
genomestart 41
trait 1 0.169863 0.0152514 0.0969842 0.0671137 0.139827 0.252823 0 0.0318044 
node 1 1 1 1
node 2 1 1 1
node 3 1 1 1
node 4 1 1 3
node 5 1 0 2
gene 1 1 5 -1.96017 0 1 -1.96017 1
gene 1 2 5 -4.82558 0 2 -4.82558 1
gene 1 3 5 4.42329 0 3 4.42329 1
gene 1 4 5 1.40581 0 4 1.40581 1
gene 1 5 5 -1.08713 1 127 -1.08713 1
genomeend 41

/* Organism #42 Fitness: 0.0516089 Error: 0 */
genomestart 42
trait 1 0.220538 0 0 0.134227 0.279653 0.433403 0 0 
node 1 1 1 1
node 2 1 1 1
node 3 1 1 1
node 4 1 1 3
node 5 1 0 2
gene 1 1 5 -1.96017 0 1 -1.96017 1
gene 1 2 5 -4.82558 0 2 -4.82558 1
gene 1 3 5 3.93309 0 3 3.93309 1
gene 1 4 5 0.636328 0 4 0.636328 1
gene 1 5 5 -1.08713 1 127 -1.08713 1
genomeend 42

/* Organism #43 Fitness: 0.0045 Error: 0 */
genomestart 43
trait 1 0.239849 0.0414231 0.098163 0.0928533 0.12334 0.242313 0.0271987 0.0754133 
node 1 1 1 1
node 2 1 1 1
node 3 1 1 1
node 4 1 1 3
node 5 1 0 2
gene 1 1 5 -1.25134 0 1 -1.25134 1
gene 1 2 5 -5.74502 0 2 -5.74502 1
gene 1 3 5 6.03244 0 3 6.03244 1
gene 1 4 5 2.81327 0 4 2.81327 1
gene 1 5 5 -0.888724 1 127 -0.888724 1
genomeend 43

/* Organism #44 Fitness: 0.0035 Error: 0 */
genomestart 44
trait 1 0.239849 0.0152514 0.098163 0.0928533 0 0.536122 0.0271987 0.0754133 
node 1 1 1 1
node 2 1 1 1
node 3 1 1 1
node 4 1 1 3
node 5 1 0 2
gene 1 1 5 -1.64755 0 1 -1.64755 0
gene 1 2 5 -4.57712 0 2 -4.57712 1
gene 1 3 5 3.73893 0 3 3.73893 1
gene 1 4 5 1.21764 0 4 1.21764 1
gene 1 5 5 -1.62627 1 70 -1.62627 1
genomeend 44

/* Organism #45 Fitness: 0.007 Error: 0 */
genomestart 45
trait 1 0.290524 0.0261717 0.00117877 0.159967 0.263167 0.422893 0.0271987 0.0436089 
node 1 1 1 1
node 2 1 1 1
node 3 1 1 1
node 4 1 1 3
node 5 1 0 2
gene 1 1 5 -2.34181 0 1 -2.34181 0
gene 1 2 5 -3.57722 0 2 -3.57722 1
gene 1 3 5 3.93309 0 3 3.93309 1
gene 1 4 5 0.636328 0 4 0.636328 1
gene 1 5 5 -1.08713 1 127 -1.08713 1
genomeend 45

/* Organism #46 Fitness: 0.0320459 Error: 0 */
genomestart 46
trait 1 0.119188 0.0305029 0.193968 0 0 0.0722431 0 0.0636088 
node 1 1 1 1
node 2 1 1 1
node 3 1 1 1
node 4 1 1 3
node 5 1 0 2
gene 1 1 5 -0.953288 0 1 -0.953288 1
gene 1 2 5 -5.57702 0 2 -5.57702 1
gene 1 3 5 4.42329 0 3 4.42329 1
gene 1 4 5 1.40581 0 4 1.40581 1
gene 1 5 5 -1.62627 1 70 -1.62627 1
genomeend 46

/* Organism #47 Fitness: 0.0174594 Error: 0 */
genomestart 47
trait 1 0.255531 0.0130858 0.000589383 0.147097 0.27141 0.428148 0.0135993 0.0218045 
node 1 1 1 1
node 2 1 1 1
node 3 1 1 1
node 4 1 1 3
node 5 1 0 2
gene 1 1 5 -1.96017 0 1 -1.96017 0
gene 1 2 5 -4.82558 0 2 -4.82558 1
gene 1 3 5 3.93309 0 3 3.93309 1
gene 1 4 5 0.636328 0 4 0.636328 1
gene 1 5 5 -1.08713 1 127 -1.08713 1
genomeend 47

/* Organism #48 Fitness: 0.0094 Error: 0 */
genomestart 48
trait 1 0.559594 0.119595 0.596984 0 0.0128445 0.0828331 0.00915221 0.0596332 
node 1 1 1 1
node 2 1 1 1
node 3 1 1 1
node 4 1 1 3
node 5 1 0 2
gene 1 1 5 -1.65316 0 1 -1.65316 1
gene 1 2 5 -4.57143 0 2 -4.57143 1
gene 1 3 5 4.36534 0 3 4.36534 1
gene 1 4 5 2.40395 0 4 2.40395 1
gene 1 5 5 -1.61538 1 70 -1.61538 1
genomeend 48

/* Organism #49 Fitness: 0.0069 Error: 0 */
genomestart 49
trait 1 0.179519 0.0228772 0.146066 0.0464266 0 0.304182 0.0135993 0.069511 
node 1 1 1 1
node 2 1 1 1
node 3 1 1 1
node 4 1 1 3
node 5 1 0 2
gene 1 1 5 -1.05358 0 1 -1.05358 0
gene 1 2 5 -4.62004 0 2 -4.62004 1
gene 1 3 5 4.31396 0 3 4.31396 1
gene 1 4 5 1.94226 0 4 1.94226 1
gene 1 5 5 -2.33148 1 70 -2.33148 1
genomeend 49

/* Organism #50 Fitness: 0.0037 Error: 0 */
genomestart 50
trait 1 0.114391 0.0228772 0.145476 0 0.0513781 0.114603 0.0366088 0.0477066 
node 1 1 1 1
node 2 1 1 1
node 3 1 1 1
node 4 1 1 3
node 5 1 0 2
gene 1 1 5 -1.49395 0 1 -1.49395 1
gene 1 2 5 -4.50272 0 2 -4.50272 1
gene 1 3 5 4.38067 0 3 4.38067 1
gene 1 4 5 2.46304 0 4 2.46304 1
gene 1 5 5 -0.728176 1 70 -0.728176 1
genomeend 50

/* Organism #51 Fitness: 0.0059 Error: 0 */
genomestart 51
trait 1 0.119188 0.0305029 0.193968 0 0 0.0722431 0 0.0636088 
node 1 1 1 1
node 2 1 1 1
node 3 1 1 1
node 4 1 1 3
node 5 1 0 2
gene 1 1 5 -2.53359 0 1 -2.53359 1
gene 1 2 5 -6.09522 0 2 -6.09522 1
gene 1 3 5 3.3674 0 3 3.3674 1
gene 1 4 5 1.59265 0 4 1.59265 1
gene 1 5 5 -0.536796 1 70 -0.536796 1
genomeend 51

/* Species #5 : (Size 9) (AF 0.00633193) (Age 10)  */


/* Organism #52 Fitness: 0.0089 Error: 0 */
genomestart 52
trait 1 0.1 0 0 0 0 0 0 0 
node 1 1 1 1
node 2 1 1 1
node 3 1 1 1
node 4 1 1 3
node 5 1 0 2
gene 1 1 5 -1.28402 0 1 -1.28402 1
gene 1 2 5 0.65258 0 2 0.65258 1
gene 1 3 5 4.95172 0 3 4.95172 1
gene 1 4 5 -0.474143 0 4 -0.474143 1
gene 1 5 5 -1.0203 1 105 -1.0203 1
genomeend 52

/* Organism #53 Fitness: 0.0026 Error: 0 */
genomestart 53
trait 1 0.102399 0.00381286 0 0 0.0128445 0.0241356 0.00915221 0.00795109 
node 1 1 1 1
node 2 1 1 1
node 3 1 1 1
node 4 1 1 3
node 5 1 0 2
gene 1 1 5 -1.39568 0 1 -1.39568 1
gene 1 2 5 -0.263558 0 2 -0.263558 1
gene 1 3 5 5.71967 0 3 5.71967 1
gene 1 4 5 -1.1083 0 4 -1.1083 1
gene 1 5 5 -2.27597 1 211 -2.27597 1
genomeend 53

/* Organism #54 Fitness: 0.0078 Error: 0 */
genomestart 54
trait 1 0.291825 0 0 0 0 0.388012 0.00228805 0.0646017 
node 1 1 1 1
node 2 1 1 1
node 3 1 1 1
node 4 1 1 3
node 5 1 0 2
gene 1 1 5 -1.56502 0 1 -1.56502 1
gene 1 2 5 1.2741 0 2 1.2741 1
gene 1 3 5 4.52354 0 3 4.52354 1
gene 1 4 5 -0.474143 0 4 -0.474143 1
gene 1 5 5 -1.09748 1 105 -1.09748 1
genomeend 54

/* Organism #55 Fitness: 0.0074 Error: 0 */
genomestart 55
trait 1 0.101199 0.00190643 0 0 0.00642226 0.0120678 0.0045761 0.00397555 
node 1 1 1 1
node 2 1 1 1
node 3 1 1 1
node 4 1 1 3
node 5 1 0 2
gene 1 1 5 -1.15493 0 1 -1.15493 1
gene 1 2 5 0.872627 0 2 0.872627 1
gene 1 3 5 5.16669 0 3 5.16669 1
gene 1 4 5 -0.534036 0 4 -0.534036 1
gene 1 5 5 -1.0203 1 105 -1.0203 1
genomeend 55

/* Organism #56 Fitness: 0.0057 Error: 0 */
genomestart 56
trait 1 0.101199 0.00190643 0 0 0.00642226 0.0120678 0.0045761 0.00397555 
node 1 1 1 1
node 2 1 1 1
node 3 1 1 1
node 4 1 1 3
node 5 1 0 2
gene 1 1 5 -1.02583 0 1 -1.02583 1
gene 1 2 5 1.09267 0 2 1.09267 1
gene 1 3 5 4.52354 0 3 4.52354 1
gene 1 4 5 -0.59393 0 4 -0.59393 1
gene 1 5 5 -1.09748 1 105 -1.09748 1
genomeend 56

/* Organism #57 Fitness: 0.004 Error: 0 */
genomestart 57
trait 1 0.101199 0.00190643 0 0 0.00642226 0.0120678 0.0045761 0.00397555 
node 1 1 1 1
node 2 1 1 1
node 3 1 1 1
node 4 1 1 3
node 5 1 0 2
gene 1 1 5 -1.34301 0 1 -1.34301 1
gene 1 2 5 2.11275 0 2 2.11275 1
gene 1 3 5 5.80669 0 3 5.80669 1
gene 1 4 5 0.133074 0 4 0.133074 1
gene 1 5 5 -2.72863 1 105 -2.72863 1
genomeend 57

/* Organism #58 Fitness: 0.0146873 Error: 0 */
genomestart 58
trait 1 0.101199 0.00190643 0 0 0.00642226 0.0120678 0.0045761 0.00397555 
node 1 1 1 1
node 2 1 1 1
node 3 1 1 1
node 4 1 1 3
node 5 1 0 2
gene 1 1 5 -1.29543 0 1 -1.29543 1
gene 1 2 5 1.18339 0 2 1.18339 1
gene 1 3 5 4.9526 0 3 4.9526 1
gene 1 4 5 -0.534036 0 4 -0.534036 1
gene 1 5 5 -1.09748 1 105 -1.09748 1
genomeend 58

/* Organism #59 Fitness: 0.0006 Error: 0 */
genomestart 59
trait 1 0.119188 0.320085 0 0 0.266013 0.277811 0.247977 0.531804 
node 1 1 1 1
node 2 1 1 1
node 3 1 1 1
node 4 1 1 3
node 5 1 0 2
gene 1 1 5 0.644029 0 1 0.644029 1
gene 1 2 5 0.187621 0 2 0.187621 1
gene 1 3 5 4.90894 0 3 4.90894 1
gene 1 4 5 -0.637861 0 4 -0.637861 1
gene 1 5 5 -3.71675 1 284 -3.71675 1
genomeend 59

/* Organism #60 Fitness: 0.0053 Error: 0 */
genomestart 60
trait 1 0.05 0 0 0.215055 0.102756 0.13568 0.0732176 0 
node 1 1 1 1
node 2 1 1 1
node 3 1 1 1
node 4 1 1 3
node 5 1 0 2
gene 1 1 5 -0.337833 0 1 -0.337833 1
gene 1 2 5 0.75511 0 2 0.75511 1
gene 1 3 5 4.60771 0 3 4.60771 1
gene 1 4 5 -0.582887 0 4 -0.582887 1
gene 1 5 5 -1.1528 1 70 -1.1528 1
genomeend 60

/* Species #6 : (Size 4) (AF 0.0022) (Age 10)  */


/* Organism #61 Fitness: 0.0005 Error: 0 */
genomestart 61
trait 1 0.1 0 0 0 0 0 0 0 
node 1 1 1 1
node 2 1 1 1
node 3 1 1 1
node 4 1 1 3
node 5 1 0 2
node 6 1 0 0
gene 1 1 5 0.0998209 0 1 0.0998209 1
gene 1 2 5 -0.511574 0 2 -0.511574 1
gene 1 3 5 -0.543117 0 3 -0.543117 1
gene 1 4 5 0.323523 0 4 0.323523 1
gene 1 3 6 0.812439 0 12 0.812439 1
gene 1 6 5 -1.59987 0 13 -1.59987 1
gene 1 1 6 -0.71632 0 83 -0.71632 1
genomeend 61

/* Organism #62 Fitness: 0.0008 Error: 0 */
genomestart 62
trait 1 0.1 0 0 0 0 0 0 0 
node 1 1 1 1
node 2 1 1 1
node 3 1 1 1
node 4 1 1 3
node 5 1 0 2
node 6 1 0 0
gene 1 1 5 -2.31741 0 1 -2.31741 1
gene 1 2 5 2.31097 0 2 2.31097 1
gene 1 3 5 1.84483 0 3 1.84483 1
gene 1 4 5 1.01536 0 4 1.01536 1
gene 1 3 6 -0.162495 0 12 -0.162495 1
gene 1 6 5 -2.87533 0 13 -2.87533 1
gene 1 1 6 -1.04328 0 83 -1.04328 1
genomeend 62

/* Organism #63 Fitness: 0.0041 Error: 0 */
genomestart 63
trait 1 0.1 0 0 0 0 0 0 0 
node 1 1 1 1
node 2 1 1 1
node 3 1 1 1
node 4 1 1 3
node 5 1 0 2
node 6 1 0 0
gene 1 1 5 0.766184 0 1 0.766184 1
gene 1 2 5 2.14403 0 2 2.14403 1
gene 1 3 5 4.40282 0 3 4.40282 1
gene 1 4 5 2.06171 0 4 2.06171 1
gene 1 3 6 0.556391 0 12 0.556391 1
gene 1 6 5 -3.18333 0 13 -3.18333 1
gene 1 1 6 -0.479698 0 83 -0.479698 1
genomeend 63

/* Organism #64 Fitness: 0.0034 Error: 0 */
genomestart 64
trait 1 0.1 0 0 0 0 0 0 0 
node 1 1 1 1
node 2 1 1 1
node 3 1 1 1
node 4 1 1 3
node 5 1 0 2
node 6 1 0 0
gene 1 1 5 -0.91378 0 1 -0.91378 1
gene 1 2 5 1.01265 0 2 1.01265 1
gene 1 3 5 2.5496 0 3 2.5496 1
gene 1 4 5 0.531045 0 4 0.531045 1
gene 1 3 6 0.546245 0 12 0.546245 1
gene 1 6 5 -1.02892 0 13 -1.02892 1
gene 1 1 6 -1.60239 0 83 -1.60239 1
gene 1 2 6 -0.259005 0 538 0 1
genomeend 64

/* Species #7 : (Size 7) (AF 0.00507143) (Age 10)  */


/* Organism #65 Fitness: 0.0093 Error: 0 */
genomestart 65
trait 1 0.1 0 0 0 0 0 0 0.539987 
node 1 1 1 1
node 2 1 1 1
node 3 1 1 1
node 4 1 1 3
node 5 1 0 2
gene 1 1 5 -0.406366 0 1 -0.406366 1
gene 1 2 5 -3.73608 0 2 -3.73608 1
gene 1 3 5 7.27776 0 3 7.27776 1
gene 1 4 5 1.45322 0 4 1.45322 1
gene 1 5 5 -2.05656 1 131 -2.05656 1
genomeend 65

/* Organism #66 Fitness: 0.0048 Error: 0 */
genomestart 66
trait 1 0.203263 0.0709331 0.0260142 0.00129855 0.000671525 0.0172791 0.00147783 0.222243 
node 1 1 1 1
node 2 1 1 1
node 3 1 1 1
node 4 1 1 3
node 5 1 0 2
gene 1 1 5 -1.29715 0 1 -1.29715 1
gene 1 2 5 -3.43421 0 2 -3.43421 1
gene 1 3 5 6.26389 0 3 6.26389 1
gene 1 4 5 1.41261 0 4 1.41261 1
gene 1 5 5 -1.05149 1 76 -1.05149 1
genomeend 66

/* Organism #67 Fitness: 0.0049 Error: 0 */
genomestart 67
trait 1 0.281473 0.133526 0 0.0025971 0 0 0.00123963 0.337096 
node 1 1 1 1
node 2 1 1 1
node 3 1 1 1
node 4 1 1 3
node 5 1 0 2
gene 1 1 5 -1.69931 0 1 -1.69931 1
gene 1 2 5 -2.30151 0 2 -2.30151 1
gene 1 3 5 7.69891 0 3 7.69891 1
gene 1 4 5 1.0564 0 4 1.0564 1
gene 1 5 5 -3.12907 1 131 -3.12907 1
genomeend 67

/* Organism #68 Fitness: 0.0043 Error: 0 */
genomestart 68
trait 1 0.104285 0 0 0.00164398 0 0.000927412 0.00123963 0.584986 
node 1 1 1 1
node 2 1 1 1
node 3 1 1 1
node 4 1 1 3
node 5 1 0 2
gene 1 1 5 -0.745468 0 1 -0.745468 1
gene 1 2 5 -2.303 0 2 -2.303 1
gene 1 3 5 6.55363 0 3 6.55363 1
gene 1 4 5 1.90365 0 4 1.90365 1
gene 1 5 5 -3.82113 1 131 -3.82113 1
genomeend 68

/* Organism #69 Fitness: 0.0066 Error: 0 */
genomestart 69
trait 1 0.0988281 0.386365 0.328738 0 0.000671525 0.294101 0.000858019 0.525732 
node 1 1 1 1
node 2 1 1 1
node 3 1 1 1
node 4 1 1 3
node 5 1 0 2
gene 1 1 5 -5.34981 0 1 -5.34981 1
gene 1 2 5 -2.61805 0 2 -2.61805 1
gene 1 3 5 7.25214 0 3 7.25214 1
gene 1 4 5 1.7852 0 4 1.7852 1
gene 1 5 5 -2.18379 1 131 -2.18379 1
genomeend 69

/* Organism #70 Fitness: 0.0018 Error: 0 */
genomestart 70
trait 1 0.396107 0.000119152 0.000589383 0.086876 0.0395866 0.00182215 0.0940191 0.225243 
node 1 1 1 1
node 2 1 1 1
node 3 1 1 1
node 4 1 1 3
node 5 1 0 2
gene 1 1 5 -1.40049 0 1 -1.40049 1
gene 1 2 5 -5.60766 0 2 -5.60766 1
gene 1 3 5 7.40337 0 3 7.40337 1
gene 1 4 5 -0.193736 0 4 -0.193736 1
gene 1 5 5 -0.414633 1 131 -0.414633 1
genomeend 70

/* Organism #71 Fitness: 0.0038 Error: 0 */
genomestart 71
trait 1 0.0996094 0 0.000589383 0 0.000223842 0.42661 0.5 0.269993 
node 1 1 1 1
node 2 1 1 1
node 3 1 1 1
node 4 1 1 3
node 5 1 0 2
gene 1 1 5 0.019981 0 1 0.019981 1
gene 1 2 5 -6.097 0 2 -6.097 1
gene 1 3 5 7.58267 0 3 7.58267 1
gene 1 4 5 -0.525194 0 4 -0.525194 1
gene 1 5 5 -1.8538 1 131 -1.8538 1
genomeend 71

/* Species #8 : (Size 4) (AF 0.00415) (Age 10)  */


/* Organism #72 Fitness: 0.0039 Error: 0 */
genomestart 72
trait 1 0.0742702 0.00693232 0.00345188 0 0.220999 0.0277149 0.00252175 0.0265143 
node 1 1 1 1
node 2 1 1 1
node 3 1 1 1
node 4 1 1 3
node 5 1 0 2
gene 1 1 5 -1.48027 0 1 -1.48027 1
gene 1 2 5 3.08299 0 2 3.08299 1
gene 1 3 5 5.41116 0 3 5.41116 1
gene 1 4 5 -0.164605 0 4 -0.164605 1
gene 1 5 5 -1.31805 1 179 -1.31805 1
genomeend 72

/* Organism #73 Fitness: 0.004 Error: 0 */
genomestart 73
trait 1 0.0742702 0.00693232 0.00345188 0 0.220999 0.0277149 0.00252175 0.0265143 
node 1 1 1 1
node 2 1 1 1
node 3 1 1 1
node 4 1 1 3
node 5 1 0 2
gene 1 1 5 -1.27375 0 1 -1.27375 1
gene 1 2 5 2.64086 0 2 2.64086 1
gene 1 3 5 3.33205 0 3 3.33205 1
gene 1 4 5 -0.609577 0 4 -0.609577 1
gene 1 5 5 -0.597837 1 179 -0.597837 1
genomeend 73

/* Organism #74 Fitness: 0.004 Error: 0 */
genomestart 74
trait 1 0.1 0 0 0 0.383066 0 0 0 
node 1 1 1 1
node 2 1 1 1
node 3 1 1 1
node 4 1 1 3
node 5 1 0 2
gene 1 1 5 1.35114 0 1 1.35114 1
gene 1 2 5 3.57684 0 2 3.57684 1
gene 1 3 5 5.36485 0 3 5.36485 1
gene 1 4 5 -0.469609 0 4 -0.469609 1
gene 1 5 5 -1.30314 1 179 -1.30314 1
genomeend 74

/* Organism #75 Fitness: 0.0047 Error: 0 */
genomestart 75
trait 1 0.124484 0 0 0 0.191533 0.00602818 0 0 
node 1 1 1 1
node 2 1 1 1
node 3 1 1 1
node 4 1 1 3
node 5 1 0 2
gene 1 1 5 -0.422691 0 1 -0.422691 1
gene 1 2 5 2.74926 0 2 2.74926 1
gene 1 3 5 3.16302 0 3 3.16302 1
gene 1 4 5 -1.14157 0 4 -1.14157 1
gene 1 5 5 -0.381065 1 179 -0.381065 1
genomeend 75

/* Species #9 : (Size 5) (AF 0.00246) (Age 10)  */


/* Organism #76 Fitness: 0.0008 Error: 0 */
genomestart 76
trait 1 0.119188 0.0305029 0 0 0.102756 0.193085 0.0732176 0.0636088 
node 1 1 1 1
node 2 1 1 1
node 3 1 1 1
node 4 1 1 3
node 5 1 0 2
gene 1 1 5 -4.8311 0 1 -4.8311 1
gene 1 2 5 2.39316 0 2 2.39316 1
gene 1 3 5 4.05874 0 3 4.05874 1
gene 1 4 5 -0.630763 0 4 -0.630763 1
gene 1 5 5 -3.73274 1 171 -3.73274 1
genomeend 76

/* Organism #77 Fitness: 0.0037 Error: 0 */
genomestart 77
trait 1 0.274842 0.0545089 0.00176815 0.105723 0.166475 0.297479 0.0774069 0.0972177 
node 1 1 1 1
node 2 1 1 1
node 3 1 1 1
node 4 1 1 3
node 5 1 0 2
gene 1 1 5 -4.25536 0 1 -4.25536 0
gene 1 2 5 1.04098 0 2 1.04098 1
gene 1 3 5 3.55097 0 3 3.55097 1
gene 1 4 5 -1.05031 0 4 -1.05031 1
gene 1 5 5 -0.816273 1 171 -0.816273 1
genomeend 77

/* Organism #78 Fitness: 0.0025 Error: 0 */
genomestart 78
trait 1 0.119188 0.0305029 0 0 0.102756 0.193085 0.0732176 0.0636088 
node 1 1 1 1
node 2 1 1 1
node 3 1 1 1
node 4 1 1 3
node 5 1 0 2
gene 1 1 5 -4.14839 0 1 -4.14839 1
gene 1 2 5 -0.167408 0 2 -0.167408 1
gene 1 3 5 3.55097 0 3 3.55097 1
gene 1 4 5 -1.65278 0 4 -1.65278 1
gene 1 5 5 -0.497144 1 171 -0.497144 1
genomeend 78

/* Organism #79 Fitness: 0.0048 Error: 0 */
genomestart 79
trait 1 0.197015 0.0425059 0.000884075 0.0528615 0.134616 0.245282 0.0753123 0.0804133 
node 1 1 1 1
node 2 1 1 1
node 3 1 1 1
node 4 1 1 3
node 5 1 0 2
gene 1 1 5 -5.20639 0 1 -5.20639 0
gene 1 2 5 1.13466 0 2 1.13466 1
gene 1 3 5 3.55097 0 3 3.55097 1
gene 1 4 5 -0.0684165 0 4 -0.0684165 1
gene 1 5 5 -1.44705 1 171 -1.44705 1
genomeend 79

/* Organism #80 Fitness: 0.0005 Error: 0 */
genomestart 80
trait 1 0 0.0305029 0.933509 0 0.6286 0.193085 0.0732176 0.0636088 
node 1 1 1 1
node 2 1 1 1
node 3 1 1 1
node 4 1 1 3
node 5 1 0 2
gene 1 1 5 -6.21968 0 1 -6.21968 1
gene 1 2 5 2.25847 0 2 2.25847 1
gene 1 3 5 3.26084 0 3 3.26084 1
gene 1 4 5 1.64307 0 4 1.64307 1
gene 1 5 5 0.338341 1 171 0.338341 1
genomeend 80

/* Species #10 : (Size 4) (AF 0.00405) (Age 10)  */


/* Organism #81 Fitness: 0.0043 Error: 0 */
genomestart 81
trait 1 0.107534 0.0256706 0 0 0.254757 0.0146851 0 0 
node 1 1 1 1
node 2 1 1 1
node 3 1 1 1
node 4 1 1 3
node 5 1 0 2
gene 1 1 5 1.64013 0 1 1.64013 1
gene 1 2 5 3.9394 0 2 3.9394 1
gene 1 3 5 4.24223 0 3 4.24223 1
gene 1 4 5 -1.23706 0 4 -1.23706 1
gene 1 5 5 -0.683166 1 411 -0.683166 1
genomeend 81

/* Organism #82 Fitness: 0.0043 Error: 0 */
genomestart 82
trait 1 0.107534 0.0256706 0 0 0.254757 0.0146851 0 0 
node 1 1 1 1
node 2 1 1 1
node 3 1 1 1
node 4 1 1 3
node 5 1 0 2
gene 1 1 5 1.64013 0 1 1.64013 1
gene 1 2 5 3.9394 0 2 3.9394 1
gene 1 3 5 4.24223 0 3 4.24223 1
gene 1 4 5 -1.23706 0 4 -1.23706 1
gene 1 5 5 -0.683166 1 411 -0.683166 1
genomeend 82

/* Organism #83 Fitness: 0.0051 Error: 0 */
genomestart 83
trait 1 0.107534 0.0256706 0 0 0.254757 0.0146851 0 0 
node 1 1 1 1
node 2 1 1 1
node 3 1 1 1
node 4 1 1 3
node 5 1 0 2
gene 1 1 5 3.30692 0 1 3.30692 1
gene 1 2 5 4.18247 0 2 4.18247 1
gene 1 3 5 5.08622 0 3 5.08622 1
gene 1 4 5 -1.83829 0 4 -1.83829 1
gene 1 5 5 -0.713146 1 411 -0.713146 1
genomeend 83

/* Organism #84 Fitness: 0.0025 Error: 0 */
genomestart 84
trait 1 0.1 0 0 0 0.191533 0 0 0 
node 1 1 1 1
node 2 1 1 1
node 3 1 1 1
node 4 1 1 3
node 5 1 0 2
gene 1 1 5 3.01563 0 1 3.01563 1
gene 1 2 5 4.39838 0 2 4.39838 1
gene 1 3 5 7.44347 0 3 7.44347 1
gene 1 4 5 -1.76755 0 4 -1.76755 1
genomeend 84

/* Species #11 : (Size 3) (AF 0.00116667) (Age 10)  */


/* Organism #85 Fitness: 0.0027 Error: 0 */
genomestart 85
trait 1 0.111139 0 0 0 0.821496 0.19643 0.0697856 0.0813382 
node 1 1 1 1
node 2 1 1 1
node 3 1 1 1
node 4 1 1 3
node 5 1 0 2
node 10 1 0 0
gene 1 1 5 -0.308972 0 1 -0.308972 1
gene 1 2 5 0.199112 0 2 0.199112 0
gene 1 3 5 3.19699 0 3 3.19699 1
gene 1 4 5 -0.628037 0 4 -0.628037 1
gene 1 2 10 1.57895 0 56 1.57895 1
gene 1 10 5 0.189919 0 57 0.189919 1
gene 1 1 10 -0.723831 0 478 -0.723831 1
genomeend 85

/* Organism #86 Fitness: 0.0004 Error: 0 */
genomestart 86
trait 1 0.119188 0.0305029 0 0 0.102756 0.557983 0 0 
node 1 1 1 1
node 2 1 1 1
node 3 1 1 1
node 4 1 1 3
node 5 1 0 2
node 10 1 0 0
gene 1 1 5 -3.09853 0 1 -3.09853 1
gene 1 2 5 -0.174433 0 2 -0.174433 0
gene 1 3 5 1.98305 0 3 1.98305 1
gene 1 4 5 -1.2309 0 4 -1.2309 1
gene 1 2 10 0.574192 0 56 0.574192 1
gene 1 10 5 -0.929699 0 57 -0.929699 1
gene 1 1 10 -0.710742 0 478 -0.710742 1
genomeend 86

/* Organism #87 Fitness: 0.0004 Error: 0 */
genomestart 87
trait 1 0.119188 0 0 0 0.102756 1 0.0732176 0.0636088 
node 1 1 1 1
node 2 1 1 1
node 3 1 1 1
node 4 1 1 3
node 5 1 0 2
node 10 1 0 0
gene 1 1 5 -0.82808 0 1 -0.82808 1
gene 1 2 5 -0.99723 0 2 -0.99723 0
gene 1 3 5 0.547045 0 3 0.547045 1
gene 1 4 5 -1.34596 0 4 -1.34596 1
gene 1 2 10 0.0668168 0 56 0.0668168 1
gene 1 10 5 -1.54385 0 57 -1.54385 1
gene 1 1 10 -2.39755 0 478 -2.39755 1
genomeend 87

/* Species #12 : (Size 18) (AF 0.00525184) (Age 10)  */


/* Organism #88 Fitness: 0.0026 Error: 0 */
genomestart 88
trait 1 0.203263 0.0709331 0.0260142 0.00129855 0.000671525 0.0172791 0.00147783 0.222243 
node 1 1 1 1
node 2 1 1 1
node 3 1 1 1
node 4 1 1 3
node 5 1 0 2
gene 1 1 5 -1.52215 0 1 -1.52215 1
gene 1 2 5 -2.00993 0 2 -2.00993 1
gene 1 3 5 6.1708 0 3 6.1708 1
gene 1 4 5 1.46156 0 4 1.46156 1
gene 1 5 5 -0.0325542 1 76 -0.0325542 1
genomeend 88

/* Organism #89 Fitness: 0.0046 Error: 0 */
genomestart 89
trait 1 0.125054 0.00834063 0.0520284 0 0.00134305 0.0345582 0.00171604 0.107391 
node 1 1 1 1
node 2 1 1 1
node 3 1 1 1
node 4 1 1 3
node 5 1 0 2
gene 1 1 5 -2.37418 0 1 -2.37418 1
gene 1 2 5 -4.05602 0 2 -4.05602 1
gene 1 3 5 8 0 3 8 1
gene 1 4 5 0.166671 0 4 0.166671 1
gene 1 5 5 -0.841459 1 76 -0.841459 1
genomeend 89

/* Organism #90 Fitness: 0.0078 Error: 0 */
genomestart 90
trait 1 0.124077 0.0120343 0.0756851 0 0.00111921 0.040839 0.00143003 0.100094 
node 1 1 1 1
node 2 1 1 1
node 3 1 1 1
node 4 1 1 3
node 5 1 0 2
gene 1 1 5 -0.481123 0 1 -0.481123 1
gene 1 2 5 -2.26219 0 2 -2.26219 1
gene 1 3 5 7.96854 0 3 7.96854 1
gene 1 4 5 -0.0537526 0 4 -0.0537526 1
gene 1 5 5 -1.53517 1 76 -1.53517 1
genomeend 90

/* Organism #91 Fitness: 0.0026 Error: 0 */
genomestart 91
trait 1 0.203263 0.0709331 0.0260142 0.00129855 0.000671525 0.0172791 0.00147783 0.222243 
node 1 1 1 1
node 2 1 1 1
node 3 1 1 1
node 4 1 1 3
node 5 1 0 2
gene 1 1 5 -1.52215 0 1 -1.52215 1
gene 1 2 5 -2.00993 0 2 -2.00993 1
gene 1 3 5 6.1708 0 3 6.1708 1
gene 1 4 5 1.46156 0 4 1.46156 1
gene 1 5 5 -0.0325542 1 76 -0.0325542 1
genomeend 91

/* Organism #92 Fitness: 0.0023 Error: 0 */
genomestart 92
trait 1 0.125543 0.00649378 0.0402001 0 0.00145497 0.0314177 0.00185904 0.111039 
node 1 1 1 1
node 2 1 1 1
node 3 1 1 1
node 4 1 1 3
node 5 1 0 2
gene 1 1 5 -1.13837 0 1 -1.13837 1
gene 1 2 5 -4.57883 0 2 -4.57883 1
gene 1 3 5 7.12751 0 3 7.12751 1
gene 1 4 5 -1.48445 0 4 -1.48445 1
gene 1 5 5 -0.169783 1 76 -0.169783 1
genomeend 92

/* Organism #93 Fitness: 0.0046 Error: 0 */
genomestart 93
trait 1 0.128181 0.000595759 0.00294692 0 0.00111921 0.0363286 0.00143003 0.155975 
node 1 1 1 1
node 2 1 1 1
node 3 1 1 1
node 4 1 1 3
node 5 1 0 2
gene 1 1 5 -2.45371 0 1 -2.45371 1
gene 1 2 5 0.281329 0 2 0.281329 1
gene 1 3 5 8 0 3 8 1
gene 1 4 5 0.0659104 0 4 0.0659104 1
gene 1 5 5 -1.34508 1 76 -1.34508 1
genomeend 93

/* Organism #94 Fitness: 0.013933 Error: 0 */
genomestart 94
trait 1 0.125543 0.00649378 0.0402001 0 0.00145497 0.0314177 0.00185904 0.111039 
node 1 1 1 1
node 2 1 1 1
node 3 1 1 1
node 4 1 1 3
node 5 1 0 2
gene 1 1 5 -0.434563 0 1 -0.434563 1
gene 1 2 5 -0.820816 0 2 -0.820816 1
gene 1 3 5 8 0 3 8 1
gene 1 4 5 -0.640327 0 4 -0.640327 1
gene 1 5 5 -1.16732 1 76 -1.16732 1
genomeend 94

/* Organism #95 Fitness: 0.0051 Error: 0 */
genomestart 95
trait 1 1 0 0.136595 0 0 0.128101 0.040798 0.668496 
node 1 1 1 1
node 2 1 1 1
node 3 1 1 1
node 4 1 1 3
node 5 1 0 2
gene 1 1 5 -2.59494 0 1 -2.59494 0
gene 1 2 5 -2.19775 0 2 -2.19775 1
gene 1 3 5 5.0985 0 3 5.0985 1
gene 1 4 5 0.737318 0 4 0.737318 1
gene 1 5 5 -0.831842 1 76 -0.831842 1
genomeend 95

/* Organism #96 Fitness: 0.0069 Error: 0 */
genomestart 96
trait 1 0.130135 0 0 0 0 0.0602154 0 0.212626 
node 1 1 1 1
node 2 1 1 1
node 3 1 1 1
node 4 1 1 3
node 5 1 0 2
gene 1 1 5 -0.746384 0 1 -0.746384 1
gene 1 2 5 -0.775837 0 2 -0.775837 1
gene 1 3 5 8 0 3 8 1
gene 1 4 5 1.34918 0 4 1.34918 1
gene 1 5 5 -3.13144 1 76 -3.13144 1
genomeend 96

/* Organism #97 Fitness: 0.0069 Error: 0 */
genomestart 97
trait 1 0.129744 0.000119152 0.000589383 0 0.000223842 0.055438 0.000286006 0.201296 
node 1 1 1 1
node 2 1 1 1
node 3 1 1 1
node 4 1 1 3
node 5 1 0 2
gene 1 1 5 -0.746384 0 1 -0.746384 1
gene 1 2 5 -0.775837 0 2 -0.775837 1
gene 1 3 5 8 0 3 8 1
gene 1 4 5 1.34918 0 4 1.34918 1
gene 1 5 5 -3.13144 1 76 -3.13144 1
genomeend 97

/* Organism #98 Fitness: 0.0069 Error: 0 */
genomestart 98
trait 1 0.130135 0 0 0 0 0.0602154 0 0.212626 
node 1 1 1 1
node 2 1 1 1
node 3 1 1 1
node 4 1 1 3
node 5 1 0 2
gene 1 1 5 -0.746384 0 1 -0.746384 1
gene 1 2 5 -0.775837 0 2 -0.775837 1
gene 1 3 5 8 0 3 8 1
gene 1 4 5 1.34918 0 4 1.34918 1
gene 1 5 5 -3.13144 1 76 -3.13144 1
genomeend 98

/* Organism #99 Fitness: 0.0031 Error: 0 */
genomestart 99
trait 1 0.129744 0.000119152 0.000589383 0 0.000223842 0.055438 0.000286006 0.201296 
node 1 1 1 1
node 2 1 1 1
node 3 1 1 1
node 4 1 1 3
node 5 1 0 2
gene 1 1 5 -0.941452 0 1 -0.941452 1
gene 1 2 5 -0.775837 0 2 -0.775837 1
gene 1 3 5 8 0 3 8 1
gene 1 4 5 1.31227 0 4 1.31227 1
gene 1 5 5 -4.29273 1 76 -4.29273 1
genomeend 99

/* Organism #100 Fitness: 0.0036 Error: 0 */
genomestart 100
trait 1 0.130135 0 0 0 0 0.0602154 0 0.212626 
node 1 1 1 1
node 2 1 1 1
node 3 1 1 1
node 4 1 1 3
node 5 1 0 2
gene 1 1 5 -2.06101 0 1 -2.06101 1
gene 1 2 5 -0.954151 0 2 -0.954151 1
gene 1 3 5 8 0 3 8 1
gene 1 4 5 -0.020075 0 4 -0.020075 1
gene 1 5 5 -2.96456 1 76 -2.96456 1
genomeend 100

/* Organism #101 Fitness: 0.0023 Error: 0 */
genomestart 101
trait 1 0.129744 0.000119152 0.000589383 0 0.000223842 0.055438 0.000286006 0.201296 
node 1 1 1 1
node 2 1 1 1
node 3 1 1 1
node 4 1 1 3
node 5 1 0 2
gene 1 1 5 -0.669087 0 1 -0.669087 1
gene 1 2 5 -0.36912 0 2 -0.36912 1
gene 1 3 5 8 0 3 8 1
gene 1 4 5 -0.467908 0 4 -0.467908 1
gene 1 5 5 -4.31138 1 76 -4.31138 1
genomeend 101

/* Organism #102 Fitness: 0.0057 Error: 0 */
genomestart 102
trait 1 0.1 0 0 0 0 0 0 0 
node 1 1 1 1
node 2 1 1 1
node 3 1 1 1
node 4 1 1 3
node 5 1 0 2
gene 1 1 5 -1.49269 0 1 -1.49269 1
gene 1 2 5 -1.42001 0 2 -1.42001 1
gene 1 3 5 8 0 3 8 1
gene 1 4 5 0.487918 0 4 0.487918 1
gene 1 5 5 -2.41852 1 75 -2.41852 1
genomeend 102

/* Organism #103 Fitness: 0.0069 Error: 0 */
genomestart 103
trait 1 0.689525 0.000953215 0.00471506 0.630571 0.00179073 0 0.00228805 0.241982 
node 1 1 1 1
node 2 1 1 1
node 3 1 1 1
node 4 1 1 3
node 5 1 0 2
gene 1 1 5 0.222588 0 1 0.222588 1
gene 1 2 5 -1.42262 0 2 -1.42262 1
gene 1 3 5 7.28162 0 3 7.28162 1
gene 1 4 5 -0.452741 0 4 -0.452741 1
gene 1 5 5 -1.27474 1 127 -1.27474 1
genomeend 103

/* Organism #104 Fitness: 0.0069 Error: 0 */
genomestart 104
trait 1 0.689525 0.000953215 0.00471506 0.630571 0.00179073 0 0.00228805 0.241982 
node 1 1 1 1
node 2 1 1 1
node 3 1 1 1
node 4 1 1 3
node 5 1 0 2
gene 1 1 5 0.222588 0 1 0.222588 1
gene 1 2 5 -1.42262 0 2 -1.42262 1
gene 1 3 5 7.28162 0 3 7.28162 1
gene 1 4 5 -0.452741 0 4 -0.452741 1
gene 1 5 5 -1.27474 1 127 -1.27474 1
genomeend 104

/* Organism #105 Fitness: 0.0018 Error: 0 */
genomestart 105
trait 1 0.1 0 0 0 0.191533 0 0 0 
node 1 1 1 1
node 2 1 1 1
node 3 1 1 1
node 4 1 1 3
node 5 1 0 2
gene 1 1 5 -1.2602 0 1 -1.2602 1
gene 1 2 5 -0.989709 0 2 -0.989709 1
gene 1 3 5 8 0 3 8 1
gene 1 4 5 -1.74169 0 4 -1.74169 1
genomeend 105

/* Species #14 : (Size 11) (AF 0.000845455) (Age 10)  */


/* Organism #106 Fitness: 0.0005 Error: 0 */
genomestart 106
trait 1 0.100733 8.93639e-05 0.000442037 0 0.000167881 0.0326336 0.109473 0.274704 
node 1 1 1 1
node 2 1 1 1
node 3 1 1 1
node 4 1 1 3
node 5 1 0 2
gene 1 1 5 -0.106113 0 1 -0.106113 1
gene 1 2 5 1.29263 0 2 1.29263 1
gene 1 3 5 -1.85622 0 3 -1.85622 1
gene 1 4 5 1.20672 0 4 1.20672 1
gene 1 5 5 -0.895312 1 76 -0.895312 1
genomeend 106

/* Organism #107 Fitness: 0.0004 Error: 0 */
genomestart 107
trait 1 0.1 0 0 0 0 0 0 0 
node 1 1 1 1
node 2 1 1 1
node 3 1 1 1
node 4 1 1 3
node 5 1 0 2
gene 1 1 5 0.94382 0 1 0.94382 1
gene 1 2 5 -0.0412541 0 2 -0.0412541 1
gene 1 3 5 0.857225 0 3 0.857225 1
gene 1 4 5 0.55108 0 4 0.55108 1
gene 1 5 5 1.28469 1 75 1.28469 1
genomeend 107

/* Organism #108 Fitness: 0.0006 Error: 0 */
genomestart 108
trait 1 0.130135 0 0 0 0 0.343607 0 0 
node 1 1 1 1
node 2 1 1 1
node 3 1 1 1
node 4 1 1 3
node 5 1 0 2
gene 1 1 5 -0.701316 0 1 -0.701316 1
gene 1 2 5 1.14315 0 2 1.14315 1
gene 1 3 5 0.0513676 0 3 0.0513676 1
gene 1 4 5 -0.303206 0 4 -0.303206 1
gene 1 5 5 -1.36624 1 76 -1.36624 1
genomeend 108

/* Organism #109 Fitness: 0.0004 Error: 0 */
genomestart 109
trait 1 0.397161 0.00428947 0.00235753 0.315286 0.0137399 0.0241356 0.0102962 0.128942 
node 1 1 1 1
node 2 1 1 1
node 3 1 1 1
node 4 1 1 3
node 5 1 0 2
gene 1 1 5 -0.107233 0 1 -0.107233 1
gene 1 2 5 0.342556 0 2 0.342556 1
gene 1 3 5 -1.40177 0 3 -1.40177 1
gene 1 4 5 -0.707944 0 4 -0.707944 1
gene 1 5 5 -0.432505 1 127 -0.432505 1
genomeend 109

/* Organism #110 Fitness: 0.0009 Error: 0 */
genomestart 110
trait 1 0.166308 0.0355857 0.0135965 0.000649275 0.000559604 0.0339699 0.00102492 0.206105 
node 1 1 1 1
node 2 1 1 1
node 3 1 1 1
node 4 1 1 3
node 5 1 0 2
gene 1 1 5 -2.45371 0 1 -2.45371 1
gene 1 2 5 1.09438 0 2 1.09438 1
gene 1 3 5 -1.78692 0 3 -1.78692 1
gene 1 4 5 1.49355 0 4 1.49355 1
gene 1 5 5 -2.4339 1 76 -2.4339 1
genomeend 110

/* Organism #111 Fitness: 0.0004 Error: 0 */
genomestart 111
trait 1 0.189564 0.0671202 0.00176815 0.00129855 0.000671525 0.00546646 0.00147783 0.454286 
node 1 1 1 1
node 2 1 1 1
node 3 1 1 1
node 4 1 1 3
node 5 1 0 2
gene 1 1 5 0.0312449 0 1 0.0312449 1
gene 1 2 5 -0.940453 0 2 -0.940453 1
gene 1 3 5 -1.0391 0 3 -1.0391 1
gene 1 4 5 -0.284397 0 4 -0.284397 1
gene 1 5 5 -1.24709 1 131 -1.24709 1
genomeend 111

/* Organism #112 Fitness: 0.0016 Error: 0 */
genomestart 112
trait 1 0.220538 0 0 0.134227 0.279653 0.433403 0 0 
node 1 1 1 1
node 2 1 1 1
node 3 1 1 1
node 4 1 1 3
node 5 1 0 2
gene 1 1 5 -0.657242 0 1 -0.657242 1
gene 1 2 5 0.50786 0 2 0.50786 1
gene 1 3 5 -1.55632 0 3 -1.55632 1
gene 1 4 5 0.636328 0 4 0.636328 1
gene 1 5 5 -2.80046 1 127 -2.80046 1
genomeend 112

/* Organism #113 Fitness: 0.0016 Error: 0 */
genomestart 113
trait 1 0.981333 0 0 0 1 0.433403 0 0 
node 1 1 1 1
node 2 1 1 1
node 3 1 1 1
node 4 1 1 3
node 5 1 0 2
gene 1 1 5 -0.657242 0 1 -0.657242 1
gene 1 2 5 0.50786 0 2 0.50786 1
gene 1 3 5 -1.55632 0 3 -1.55632 1
gene 1 4 5 0.636328 0 4 0.636328 1
gene 1 5 5 -2.80046 1 127 -2.80046 1
genomeend 113

/* Organism #114 Fitness: 0.0015 Error: 0 */
genomestart 114
trait 1 0.500482 0.104687 0.00471506 0.237186 0.213709 0.391364 0.108795 0.174436 
node 1 1 1 1
node 2 1 1 1
node 3 1 1 1
node 4 1 1 3
node 5 1 0 2
gene 1 1 5 0.43142 0 1 0.43142 0
gene 1 2 5 -0.103117 0 2 -0.103117 1
gene 1 3 5 0.264606 0 3 0.264606 1
gene 1 4 5 0.787022 0 4 0.787022 1
gene 1 5 5 -1.48828 1 127 -1.48828 1
genomeend 114

/* Organism #115 Fitness: 0.0004 Error: 0 */
genomestart 115
trait 1 0 0.0120343 0 0 0.00111921 0.040839 0.00143003 0.100094 
node 1 1 1 1
node 2 1 1 1
node 3 1 1 1
node 4 1 1 3
node 5 1 0 2
gene 1 1 5 -0.0136251 0 1 -0.0136251 1
gene 1 2 5 -1.54456 0 2 -1.54456 1
gene 1 3 5 -1.32073 0 3 -1.32073 1
gene 1 4 5 -0.451159 0 4 -0.451159 1
gene 1 5 5 -1.05345 1 76 -1.05345 1
genomeend 115

/* Organism #116 Fitness: 0.001 Error: 0 */
genomestart 116
trait 1 0.178718 0.0546668 0.0407895 0.0764514 0.107638 0.0494529 0.200361 0.316335 
node 1 1 1 1
node 2 1 1 1
node 3 1 1 1
node 4 1 1 3
node 5 1 0 2
gene 1 1 5 0.409442 0 1 0.409442 1
gene 1 2 5 -0.205647 0 2 -0.205647 1
gene 1 3 5 -1.77148 0 3 -1.77148 1
gene 1 4 5 0.625557 0 4 0.625557 1
gene 1 5 5 -6.2928 1 76 -6.2928 1
genomeend 116

/* Species #15 : (Size 6) (AF 0.00283333) (Age 9)  */


/* Organism #117 Fitness: 0.0061 Error: 0 */
genomestart 117
trait 1 0.1 0 0 0 0 0 0 0 
node 1 1 1 1
node 2 1 1 1
node 3 1 1 1
node 4 1 1 3
node 5 1 0 2
node 9 1 0 0
gene 1 1 5 -0.179902 0 1 -0.179902 1
gene 1 2 5 0.260954 0 2 0.260954 1
gene 1 3 5 2.18304 0 3 2.18304 1
gene 1 4 5 0.0321554 0 4 0.0321554 1
gene 1 1 9 1.00676 0 54 0.0380116 1
gene 1 9 5 -0.260214 0 55 -0.00332735 1
gene 1 5 5 -0.260214 1 148 -0.260214 1
gene 1 2 9 0.666231 0 302 0.666231 1
genomeend 117

/* Organism #118 Fitness: 0.0004 Error: 0 */
genomestart 118
trait 1 0.1 0 0 0 0 0 0 0 
node 1 1 1 1
node 2 1 1 1
node 3 1 1 1
node 4 1 1 3
node 5 1 0 2
node 9 1 0 0
gene 1 1 5 1.09619 0 1 1.09619 0
gene 1 2 5 1.99006 0 2 1.99006 1
gene 1 3 5 3.6055 0 3 3.6055 1
gene 1 4 5 -1.76195 0 4 -1.76195 1
gene 1 1 9 0.0957819 0 54 0.0957819 1
gene 1 9 5 -1.7179 0 55 -1.7179 1
gene 1 5 5 0.107871 1 148 0.107871 1
gene 1 2 9 2.31398 0 302 2.31398 1
genomeend 118

/* Organism #119 Fitness: 0.0057 Error: 0 */
genomestart 119
trait 1 0.1 0 0 0 0 0 0 0 
node 1 1 1 1
node 2 1 1 1
node 3 1 1 1
node 4 1 1 3
node 5 1 0 2
node 9 1 0 0
gene 1 1 5 -0.164735 0 1 -0.164735 0
gene 1 2 5 0.260954 0 2 0.260954 1
gene 1 3 5 2.18304 0 3 2.18304 1
gene 1 4 5 -0.0518234 0 4 -0.0518234 1
gene 1 1 9 1 0 54 0 1
gene 1 9 5 -0.164735 0 55 0 1
gene 1 5 5 -0.260214 1 148 -0.260214 1
gene 1 2 9 0.666231 0 302 0.666231 1
gene 1 3 9 0.831476 0 417 0.831476 1
gene 1 9 9 0.0118025 1 479 0.0118025 1
gene 1 4 9 -0.310732 0 539 -0.310732 1
genomeend 119

/* Organism #120 Fitness: 0.0005 Error: 0 */
genomestart 120
trait 1 0.1 0 0 0 0 0 0 0 
node 1 1 1 1
node 2 1 1 1
node 3 1 1 1
node 4 1 1 3
node 5 1 0 2
node 9 1 0 0
gene 1 1 5 -0.52602 0 1 -0.52602 0
gene 1 2 5 0.404587 0 2 0.404587 1
gene 1 3 5 2.48604 0 3 2.48604 1
gene 1 4 5 -0.586363 0 4 -0.586363 1
gene 1 1 9 0.0532703 0 54 0.0532703 1
gene 1 9 5 -1.66964 0 55 -1.66964 1
gene 1 5 5 -0.365216 1 148 -0.365216 1
gene 1 2 9 0.115213 0 302 0.115213 1
genomeend 120

/* Organism #121 Fitness: 0.0036 Error: 0 */
genomestart 121
trait 1 0.1 0 0 0 0 0 0 0 
node 1 1 1 1
node 2 1 1 1
node 3 1 1 1
node 4 1 1 3
node 5 1 0 2
node 9 1 0 0
gene 1 1 5 -0.331089 0 1 -0.331089 0
gene 1 2 5 0.514906 0 2 0.514906 1
gene 1 3 5 3.48111 0 3 3.48111 1
gene 1 4 5 -0.137172 0 4 -0.137172 1
gene 1 1 9 1.18991 0 54 1.18991 1
gene 1 9 5 0.33194 0 55 0.33194 1
gene 1 5 5 -1.95943 1 148 -1.95943 1
gene 1 2 9 1.1457 0 302 1.1457 1
genomeend 121

/* Organism #122 Fitness: 0.0007 Error: 0 */
genomestart 122
trait 1 0.1 0 0 0 0 0 0 0 
node 1 1 1 1
node 2 1 1 1
node 3 1 1 1
node 4 1 1 3
node 5 1 0 2
node 9 1 0 0
gene 1 1 5 -0.536188 0 1 -0.536188 0
gene 1 2 5 0.317316 0 2 0.317316 1
gene 1 3 5 2.82506 0 3 2.82506 1
gene 1 4 5 1.48162 0 4 1.48162 1
gene 1 1 9 -0.302146 0 54 -0.302146 1
gene 1 9 5 1.25584 0 55 1.25584 1
gene 1 5 5 -1.05179 1 148 -1.05179 1
gene 1 2 9 0.320503 0 302 0.320503 1
gene 1 3 9 -0.884018 0 417 -0.884018 1
gene 1 9 9 0.0118025 1 479 0.0118025 1
genomeend 122

/* Species #17 : (Size 15) (AF 0.00570398) (Age 9)  */


/* Organism #123 Fitness: 0.0133158 Error: 0 */
genomestart 123
trait 1 0.1 0 0 0 0 0 0 0 
node 1 1 1 1
node 2 1 1 1
node 3 1 1 1
node 4 1 1 3
node 5 1 0 2
gene 1 1 5 1.60472 0 1 1.60472 1
gene 1 2 5 0.12017 0 2 0.12017 1
gene 1 3 5 5.45949 0 3 5.45949 1
gene 1 4 5 0.55108 0 4 0.55108 1
gene 1 5 5 -1.93361 1 75 -1.93361 1
genomeend 123

/* Organism #124 Fitness: 0.0064 Error: 0 */
genomestart 124
trait 1 0.1 0 0 0 0.0887736 0 0.40369 0 
node 1 1 1 1
node 2 1 1 1
node 3 1 1 1
node 4 1 1 3
node 5 1 0 2
gene 1 1 5 4.34348 0 1 4.34348 1
gene 1 2 5 -0.784405 0 2 -0.784405 1
gene 1 3 5 5.20311 0 3 5.20311 1
gene 1 4 5 1.15137 0 4 1.15137 1
gene 1 5 5 -2.13018 1 75 -2.13018 1
genomeend 124

/* Organism #125 Fitness: 0.0068 Error: 0 */
genomestart 125
trait 1 0.1 0 0 0 0 0 0 0 
node 1 1 1 1
node 2 1 1 1
node 3 1 1 1
node 4 1 1 3
node 5 1 0 2
gene 1 1 5 2.03103 0 1 2.03103 1
gene 1 2 5 -0.188375 0 2 -0.188375 1
gene 1 3 5 5.90746 0 3 5.90746 1
gene 1 4 5 0.607227 0 4 0.607227 1
gene 1 5 5 -1.94885 1 75 -1.94885 1
genomeend 125

/* Organism #126 Fitness: 0.0008 Error: 0 */
genomestart 126
trait 1 0.1 0 0 0 0 0 0 0 
node 1 1 1 1
node 2 1 1 1
node 3 1 1 1
node 4 1 1 3
node 5 1 0 2
gene 1 1 5 1.00379 0 1 1.00379 1
gene 1 2 5 0.0576846 0 2 0.0576846 1
gene 1 3 5 4.69944 0 3 4.69944 1
gene 1 4 5 -0.26053 0 4 -0.26053 1
gene 1 5 5 -3.52597 1 75 -3.52597 1
genomeend 126

/* Organism #127 Fitness: 0.0078 Error: 0 */
genomestart 127
trait 1 0.1 0 0 0 0 0 0 0 
node 1 1 1 1
node 2 1 1 1
node 3 1 1 1
node 4 1 1 3
node 5 1 0 2
gene 1 1 5 1.60472 0 1 1.60472 1
gene 1 2 5 0.12017 0 2 0.12017 1
gene 1 3 5 5.19862 0 3 5.19862 1
gene 1 4 5 0.55108 0 4 0.55108 1
gene 1 5 5 -1.93361 1 75 -1.93361 1
genomeend 127

/* Organism #128 Fitness: 0.0045 Error: 0 */
genomestart 128
trait 1 0.1 0 0 0 0 0 0 0 
node 1 1 1 1
node 2 1 1 1
node 3 1 1 1
node 4 1 1 3
node 5 1 0 2
gene 1 1 5 3.19808 0 1 3.19808 1
gene 1 2 5 0.653974 0 2 0.653974 1
gene 1 3 5 6.53237 0 3 6.53237 1
gene 1 4 5 1.57822 0 4 1.57822 1
gene 1 5 5 -3.07371 1 75 -3.07371 1
genomeend 128

/* Organism #129 Fitness: 0.0044 Error: 0 */
genomestart 129
trait 1 0.1 0 0 0 0 0 0 0 
node 1 1 1 1
node 2 1 1 1
node 3 1 1 1
node 4 1 1 3
node 5 1 0 2
gene 1 1 5 2.32623 0 1 2.32623 1
gene 1 2 5 -0.102352 0 2 -0.102352 1
gene 1 3 5 5.47084 0 3 5.47084 1
gene 1 4 5 2.26936 0 4 2.26936 1
gene 1 5 5 -3.18499 1 75 -3.18499 1
genomeend 129

/* Organism #130 Fitness: 0.0143438 Error: 0 */
genomestart 130
trait 1 0.1 0 0 0 0 0 0 0 
node 1 1 1 1
node 2 1 1 1
node 3 1 1 1
node 4 1 1 3
node 5 1 0 2
gene 1 1 5 0.822157 0 1 0.822157 1
gene 1 2 5 -0.496268 0 2 -0.496268 1
gene 1 3 5 6.48586 0 3 6.48586 1
gene 1 4 5 0.663373 0 4 0.663373 1
gene 1 5 5 -1.9641 1 75 -1.9641 1
genomeend 130

/* Organism #131 Fitness: 0.0034 Error: 0 */
genomestart 131
trait 1 0.1 0 0 0 0 0 0 0 
node 1 1 1 1
node 2 1 1 1
node 3 1 1 1
node 4 1 1 3
node 5 1 0 2
gene 1 1 5 0.822157 0 1 0.822157 1
gene 1 2 5 1.7541 0 2 1.7541 1
gene 1 3 5 6.69828 0 3 6.69828 1
gene 1 4 5 1.03493 0 4 1.03493 1
gene 1 5 5 -1.11072 1 75 -1.11072 1
genomeend 131

/* Organism #132 Fitness: 0.005 Error: 0 */
genomestart 132
trait 1 0.05 0 0 0 0.354322 0.493896 0.197206 0.179402 
node 1 1 1 1
node 2 1 1 1
node 3 1 1 1
node 4 1 1 3
node 5 1 0 2
gene 1 1 5 2.2203 0 1 2.2203 1
gene 1 2 5 -0.201137 0 2 -0.201137 1
gene 1 3 5 7.09652 0 3 7.09652 1
gene 1 4 5 0.603082 0 4 0.603082 1
gene 1 5 5 -2.73244 1 284 -2.73244 1
genomeend 132

/* Organism #133 Fitness: 0.004 Error: 0 */
genomestart 133
trait 1 0.1 0 0 0 0 0 0 0 
node 1 1 1 1
node 2 1 1 1
node 3 1 1 1
node 4 1 1 3
node 5 1 0 2
gene 1 1 5 3.4775 0 1 3.4775 1
gene 1 2 5 1.499 0 2 1.499 1
gene 1 3 5 8 0 3 8 1
gene 1 4 5 0.567724 0 4 0.567724 1
gene 1 5 5 -1.7715 1 75 -1.7715 1
genomeend 133

/* Organism #134 Fitness: 0.0007 Error: 0 */
genomestart 134
trait 1 0.1 0 0 0 0 0 0 0 
node 1 1 1 1
node 2 1 1 1
node 3 1 1 1
node 4 1 1 3
node 5 1 0 2
gene 1 1 5 0.682297 0 1 0.682297 1
gene 1 2 5 0.869737 0 2 0.869737 1
gene 1 3 5 2.39403 0 3 2.39403 1
gene 1 4 5 -0.595378 0 4 -0.595378 1
gene 1 5 5 -1.68477 1 75 -1.68477 1
genomeend 134

/* Organism #135 Fitness: 0.0048 Error: 0 */
genomestart 135
trait 1 0.119188 0.320085 0 0 0.266013 0.277811 0.247977 0.531804 
node 1 1 1 1
node 2 1 1 1
node 3 1 1 1
node 4 1 1 3
node 5 1 0 2
gene 1 1 5 2.7636 0 1 2.7636 1
gene 1 2 5 -0.487934 0 2 -0.487934 1
gene 1 3 5 6.04192 0 3 6.04192 1
gene 1 4 5 0.368743 0 4 0.368743 1
gene 1 5 5 -2.22979 1 284 -2.22979 1
genomeend 135

/* Organism #136 Fitness: 0.0044 Error: 0 */
genomestart 136
trait 1 0.119188 0.320085 0 0 0.266013 0.277811 0.247977 0.531804 
node 1 1 1 1
node 2 1 1 1
node 3 1 1 1
node 4 1 1 3
node 5 1 0 2
gene 1 1 5 2.17578 0 1 2.17578 1
gene 1 2 5 0.781096 0 2 0.781096 1
gene 1 3 5 6.42078 0 3 6.42078 1
gene 1 4 5 0.932388 0 4 0.932388 1
gene 1 5 5 -2.19858 1 284 -2.19858 1
genomeend 136

/* Organism #137 Fitness: 0.0049 Error: 0 */
genomestart 137
trait 1 0.0761993 0.00190643 0 0.107528 0.0578003 0.0799081 0.0411849 0.00397555 
node 1 1 1 1
node 2 1 1 1
node 3 1 1 1
node 4 1 1 3
node 5 1 0 2
gene 1 1 5 1.58334 0 1 1.58334 1
gene 1 2 5 0.843624 0 2 0.843624 1
gene 1 3 5 6.07089 0 3 6.07089 1
gene 1 4 5 0.599257 0 4 0.599257 1
gene 1 5 5 -2.08977 1 211 -2.08977 1
genomeend 137

/* Species #18 : (Size 34) (AF 0.0178123) (Age 9)  */


/* Organism #138 Fitness: 0.0054 Error: 0 */
genomestart 138
trait 1 0.239849 0.0152514 0.098163 0.0928533 0 0.536122 0.0271987 0.0754133 
node 1 1 1 1
node 2 1 1 1
node 3 1 1 1
node 4 1 1 3
node 5 1 0 2
gene 1 1 5 -2.34181 0 1 -2.34181 0
gene 1 2 5 -3.57722 0 2 -3.57722 1
gene 1 3 5 4.68602 0 3 4.68602 1
gene 1 4 5 1.02948 0 4 1.02948 1
gene 1 5 5 -1.7442 1 70 -1.7442 1
genomeend 138

/* Organism #139 Fitness: 0.0014 Error: 0 */
genomestart 139
trait 1 1 0.208687 1 0 0.025689 0.0934232 0.0183044 0.0556577 
node 1 1 1 1
node 2 1 1 1
node 3 1 1 1
node 4 1 1 3
node 5 1 0 2
gene 1 1 5 -2.68553 0 1 -2.68553 1
gene 1 2 5 -6.02108 0 2 -6.02108 1
gene 1 3 5 3.44935 0 3 3.44935 1
gene 1 4 5 3.24662 0 4 3.24662 1
gene 1 5 5 -2.70744 1 70 -2.70744 1
genomeend 139

/* Organism #140 Fitness: 0.0014 Error: 0 */
genomestart 140
trait 1 0.119188 0.0305029 0.193968 0 0 0.0722431 0 0.0636088 
node 1 1 1 1
node 2 1 1 1
node 3 1 1 1
node 4 1 1 3
node 5 1 0 2
gene 1 1 5 0.234655 0 1 0.234655 1
gene 1 2 5 -5.66287 0 2 -5.66287 1
gene 1 3 5 3.9419 0 3 3.9419 1
gene 1 4 5 2.85505 0 4 2.85505 1
gene 1 5 5 -2.91876 1 70 -2.91876 1
genomeend 140

/* Organism #141 Fitness: 0.0245262 Error: 0 */
genomestart 141
trait 1 0.119188 0.0305029 0.193968 0 0 0.0722431 0 0.0636088 
node 1 1 1 1
node 2 1 1 1
node 3 1 1 1
node 4 1 1 3
node 5 1 0 2
gene 1 1 5 -1.14693 0 1 -1.14693 1
gene 1 2 5 -4.57227 0 2 -4.57227 1
gene 1 3 5 4.95913 0 3 4.95913 1
gene 1 4 5 2.10874 0 4 2.10874 1
gene 1 5 5 -1.79074 1 70 -1.79074 1
genomeend 141

/* Organism #142 Fitness: 0.0016 Error: 0 */
genomestart 142
trait 1 0.11043 0.0714076 0.17208 0 0.106854 0.0524405 0.0543974 0.126973 
node 1 1 1 1
node 2 1 1 1
node 3 1 1 1
node 4 1 1 3
node 5 1 0 2
gene 1 1 5 0.234655 0 1 0.234655 0
gene 1 2 5 -2.98741 0 2 -2.98741 1
gene 1 3 5 3.9419 0 3 3.9419 1
gene 1 4 5 2.85505 0 4 2.85505 1
gene 1 5 5 -2.91876 1 70 -2.91876 1
genomeend 142

/* Organism #143 Fitness: 0.0069 Error: 0 */
genomestart 143
trait 1 0.559594 0.119595 0.596984 0 0.0128445 0.0828331 0.00915221 0.0596332 
node 1 1 1 1
node 2 1 1 1
node 3 1 1 1
node 4 1 1 3
node 5 1 0 2
gene 1 1 5 -0.953288 0 1 -0.953288 1
gene 1 2 5 -6.02108 0 2 -6.02108 1
gene 1 3 5 3.44935 0 3 3.44935 1
gene 1 4 5 3.24662 0 4 3.24662 1
gene 1 5 5 -1.62627 1 70 -1.62627 1
genomeend 143

/* Organism #144 Fitness: 0.0160558 Error: 0 */
genomestart 144
trait 1 0.179519 0.0228772 0.146066 0.0464266 0 0.304182 0.0135993 0.069511 
node 1 1 1 1
node 2 1 1 1
node 3 1 1 1
node 4 1 1 3
node 5 1 0 2
gene 1 1 5 -0.325739 0 1 -0.325739 0
gene 1 2 5 -5.57416 0 2 -5.57416 1
gene 1 3 5 5.14065 0 3 5.14065 1
gene 1 4 5 2.42539 0 4 2.42539 1
gene 1 5 5 -1.9391 1 70 -1.9391 1
genomeend 144

/* Organism #145 Fitness: 0.0033 Error: 0 */
genomestart 145
trait 1 0.210926 0.0576664 0.154779 0.0764514 0.0807004 0.0832603 0.040798 0.103802 
node 1 1 1 1
node 2 1 1 1
node 3 1 1 1
node 4 1 1 3
node 5 1 0 2
gene 1 1 5 0.234655 0 1 0.234655 1
gene 1 2 5 -3.01546 0 2 -3.01546 1
gene 1 3 5 3.9419 0 3 3.9419 1
gene 1 4 5 2.85505 0 4 2.85505 1
gene 1 5 5 -1.1647 1 70 -1.1647 1
genomeend 145

/* Organism #146 Fitness: 0.0025 Error: 0 */
genomestart 146
trait 1 0.40316 0.0710889 0.09829 0.229354 0.135247 0.125097 0.0679967 0.120825 
node 1 1 1 1
node 2 1 1 1
node 3 1 1 1
node 4 1 1 3
node 5 1 0 2
gene 1 1 5 -2.08538 0 1 -2.08538 0
gene 1 2 5 -2.70875 0 2 -2.70875 1
gene 1 3 5 2.42158 0 3 2.42158 1
gene 1 4 5 2.29273 0 4 2.29273 1
gene 1 5 5 -0.668071 1 70 -0.668071 1
genomeend 146

/* Organism #147 Fitness: 0.0627183 Error: 0 */
genomestart 147
trait 1 0.119188 0.0305029 0.193968 0 0 0.0722431 0 0.0636088 
node 1 1 1 1
node 2 1 1 1
node 3 1 1 1
node 4 1 1 3
node 5 1 0 2
gene 1 1 5 -0.953288 0 1 -0.953288 1
gene 1 2 5 -4.57227 0 2 -4.57227 1
gene 1 3 5 4.94875 0 3 4.94875 1
gene 1 4 5 2.05781 0 4 2.05781 1
gene 1 5 5 -1.86213 1 70 -1.86213 1
genomeend 147

/* Organism #148 Fitness: 0.0043 Error: 0 */
genomestart 148
trait 1 0.119188 0.0305029 0.193968 0 0 0.0722431 0 0.0636088 
node 1 1 1 1
node 2 1 1 1
node 3 1 1 1
node 4 1 1 3
node 5 1 0 2
gene 1 1 5 -0.000241069 0 1 -0.000241069 1
gene 1 2 5 -4.94707 0 2 -4.94707 1
gene 1 3 5 6.68743 0 3 6.68743 1
gene 1 4 5 0.820836 0 4 0.820836 1
gene 1 5 5 -2.03497 1 70 -2.03497 1
genomeend 148

/* Organism #149 Fitness: 0.002 Error: 0 */
genomestart 149
trait 1 0.114391 0.0228772 0.145476 0 0.0513781 0.114603 0.0366088 0.0477066 
node 1 1 1 1
node 2 1 1 1
node 3 1 1 1
node 4 1 1 3
node 5 1 0 2
gene 1 1 5 0.287626 0 1 0.287626 1
gene 1 2 5 -4.74288 0 2 -4.74288 1
gene 1 3 5 5.22177 0 3 5.22177 1
gene 1 4 5 0.726317 0 4 0.726317 1
gene 1 5 5 -2.52466 1 70 -2.52466 1
genomeend 149

/* Organism #150 Fitness: 0.0009 Error: 0 */
genomestart 150
trait 1 0.114391 0.0228772 0.145476 0 0.0513781 0.114603 0.0366088 0.0477066 
node 1 1 1 1
node 2 1 1 1
node 3 1 1 1
node 4 1 1 3
node 5 1 0 2
gene 1 1 5 -0.103684 0 1 -0.103684 1
gene 1 2 5 -5.05055 0 2 -5.05055 1
gene 1 3 5 4.32312 0 3 4.32312 1
gene 1 4 5 -0.289863 0 4 -0.289863 1
gene 1 5 5 -1.23127 1 70 -1.23127 1
genomeend 150

/* Organism #151 Fitness: 0.049974 Error: 0 */
genomestart 151
trait 1 0.119188 0.0305029 0.193968 0 0 0.0722431 0 0.0636088 
node 1 1 1 1
node 2 1 1 1
node 3 1 1 1
node 4 1 1 3
node 5 1 0 2
gene 1 1 5 -0.953288 0 1 -0.953288 1
gene 1 2 5 -4.50272 0 2 -4.50272 1
gene 1 3 5 4.94875 0 3 4.94875 1
gene 1 4 5 2.05781 0 4 2.05781 1
gene 1 5 5 -1.86213 1 70 -1.86213 1
genomeend 151

/* Organism #152 Fitness: 0.0085 Error: 0 */
genomestart 152
trait 1 0.114391 0 0.211815 0.268736 0.0513781 0.114603 0 0.0477066 
node 1 1 1 1
node 2 1 1 1
node 3 1 1 1
node 4 1 1 3
node 5 1 0 2
gene 1 1 5 0.622479 0 1 0.622479 1
gene 1 2 5 -5.06007 0 2 -5.06007 1
gene 1 3 5 4.68602 0 3 4.68602 1
gene 1 4 5 1.73181 0 4 1.73181 1
gene 1 5 5 -1.7442 1 70 -1.7442 1
genomeend 152

/* Organism #153 Fitness: 0.0568174 Error: 0 */
genomestart 153
trait 1 0.114391 0.0228772 0.145476 0 0.0513781 0.114603 0.0366088 0.0477066 
node 1 1 1 1
node 2 1 1 1
node 3 1 1 1
node 4 1 1 3
node 5 1 0 2
gene 1 1 5 -0.165405 0 1 -0.165405 1
gene 1 2 5 -5.06007 0 2 -5.06007 1
gene 1 3 5 4.66471 0 3 4.66471 1
gene 1 4 5 1.73181 0 4 1.73181 1
gene 1 5 5 -1.7442 1 70 -1.7442 1
genomeend 153

/* Organism #154 Fitness: 0.0128928 Error: 0 */
genomestart 154
trait 1 0.119188 0.0305029 0.193968 0 0 0.0722431 0 0.0636088 
node 1 1 1 1
node 2 1 1 1
node 3 1 1 1
node 4 1 1 3
node 5 1 0 2
gene 1 1 5 -0.488688 0 1 -0.488688 1
gene 1 2 5 -4.89415 0 2 -4.89415 1
gene 1 3 5 3.29204 0 3 3.29204 1
gene 1 4 5 2.44074 0 4 2.44074 1
gene 1 5 5 -1.23991 1 70 -1.23991 1
genomeend 154

/* Organism #155 Fitness: 0.049974 Error: 0 */
genomestart 155
trait 1 0.119188 0.0305029 0.193968 0 0 0.0722431 0 0.0636088 
node 1 1 1 1
node 2 1 1 1
node 3 1 1 1
node 4 1 1 3
node 5 1 0 2
gene 1 1 5 -0.953288 0 1 -0.953288 1
gene 1 2 5 -4.50272 0 2 -4.50272 1
gene 1 3 5 4.94875 0 3 4.94875 1
gene 1 4 5 2.05781 0 4 2.05781 1
gene 1 5 5 -1.86213 1 70 -1.86213 1
genomeend 155

/* Organism #156 Fitness: 0.0035 Error: 0 */
genomestart 156
trait 1 0.114391 0.0228772 0.145476 0 0.0513781 0.114603 0.0366088 0.0477066 
node 1 1 1 1
node 2 1 1 1
node 3 1 1 1
node 4 1 1 3
node 5 1 0 2
gene 1 1 5 0.378643 0 1 0.378643 1
gene 1 2 5 -4.91638 0 2 -4.91638 1
gene 1 3 5 4.67536 0 3 4.67536 1
gene 1 4 5 3.32328 0 4 3.32328 1
gene 1 5 5 -1.5157 1 70 -1.5157 1
genomeend 156

/* Organism #157 Fitness: 0.0627183 Error: 0 */
genomestart 157
trait 1 0.119188 0.0305029 0.193968 0 0 0.0722431 0 0.0636088 
node 1 1 1 1
node 2 1 1 1
node 3 1 1 1
node 4 1 1 3
node 5 1 0 2
gene 1 1 5 -0.953288 0 1 -0.953288 1
gene 1 2 5 -4.57227 0 2 -4.57227 1
gene 1 3 5 4.94875 0 3 4.94875 1
gene 1 4 5 2.05781 0 4 2.05781 1
gene 1 5 5 -1.86213 1 70 -1.86213 1
genomeend 157

/* Organism #158 Fitness: 0.0082 Error: 0 */
genomestart 158
trait 1 0.119188 0.0305029 0.193968 0 0 0.0722431 0 0.0636088 
node 1 1 1 1
node 2 1 1 1
node 3 1 1 1
node 4 1 1 3
node 5 1 0 2
gene 1 1 5 -2.02855 0 1 -2.02855 1
gene 1 2 5 -5.20884 0 2 -5.20884 1
gene 1 3 5 5.8656 0 3 5.8656 1
gene 1 4 5 2.9233 0 4 2.9233 1
gene 1 5 5 -2.12601 1 70 -2.12601 1
genomeend 158

/* Organism #159 Fitness: 0.0519566 Error: 0 */
genomestart 159
trait 1 0.114391 0.0228772 0.145476 0 0.0513781 0.114603 0.0366088 0.0477066 
node 1 1 1 1
node 2 1 1 1
node 3 1 1 1
node 4 1 1 3
node 5 1 0 2
gene 1 1 5 -0.165405 0 1 -0.165405 1
gene 1 2 5 -5.08475 0 2 -5.08475 1
gene 1 3 5 4.66471 0 3 4.66471 1
gene 1 4 5 1.79332 0 4 1.79332 1
gene 1 5 5 -1.7442 1 70 -1.7442 1
genomeend 159

/* Organism #160 Fitness: 0.003 Error: 0 */
genomestart 160
trait 1 0.119188 0.0305029 0.193968 0 0 0.0722431 0 0.0636088 
node 1 1 1 1
node 2 1 1 1
node 3 1 1 1
node 4 1 1 3
node 5 1 0 2
gene 1 1 5 -1.30479 0 1 -1.30479 1
gene 1 2 5 -4.17353 0 2 -4.17353 1
gene 1 3 5 4.94875 0 3 4.94875 1
gene 1 4 5 3.70115 0 4 3.70115 1
gene 1 5 5 -2.544 1 70 -2.544 1
genomeend 160

/* Organism #161 Fitness: 0.0218907 Error: 0 */
genomestart 161
trait 1 0.119188 0.0305029 0.193968 0 0 0.0722431 0 0.0636088 
node 1 1 1 1
node 2 1 1 1
node 3 1 1 1
node 4 1 1 3
node 5 1 0 2
gene 1 1 5 -0.953288 0 1 -0.953288 1
gene 1 2 5 -4.64182 0 2 -4.64182 1
gene 1 3 5 4.94875 0 3 4.94875 1
gene 1 4 5 2.05781 0 4 2.05781 1
gene 1 5 5 -1.86213 1 70 -1.86213 1
genomeend 161

/* Organism #162 Fitness: 0.0350365 Error: 0 */
genomestart 162
trait 1 0.119188 0.0305029 0.193968 0 0 0.0722431 0 0.0636088 
node 1 1 1 1
node 2 1 1 1
node 3 1 1 1
node 4 1 1 3
node 5 1 0 2
gene 1 1 5 -0.953288 0 1 -0.953288 1
gene 1 2 5 -4.60705 0 2 -4.60705 1
gene 1 3 5 4.94875 0 3 4.94875 1
gene 1 4 5 2.05781 0 4 2.05781 1
gene 1 5 5 -1.86213 1 70 -1.86213 1
genomeend 162

/* Organism #163 Fitness: 0.049974 Error: 0 */
genomestart 163
trait 1 0.119188 0.0305029 0.193968 0 0 0.0722431 0 0.0636088 
node 1 1 1 1
node 2 1 1 1
node 3 1 1 1
node 4 1 1 3
node 5 1 0 2
gene 1 1 5 -0.953288 0 1 -0.953288 1
gene 1 2 5 -4.50272 0 2 -4.50272 1
gene 1 3 5 4.94875 0 3 4.94875 1
gene 1 4 5 2.05781 0 4 2.05781 1
gene 1 5 5 -1.86213 1 70 -1.86213 1
genomeend 163

/* Organism #164 Fitness: 0.0051 Error: 0 */
genomestart 164
trait 1 0.119188 0.0305029 0.193968 0 0 0.0722431 0 0.0636088 
node 1 1 1 1
node 2 1 1 1
node 3 1 1 1
node 4 1 1 3
node 5 1 0 2
gene 1 1 5 -0.601524 0 1 -0.601524 1
gene 1 2 5 -3.76071 0 2 -3.76071 1
gene 1 3 5 5.32446 0 3 5.32446 1
gene 1 4 5 3.42843 0 4 3.42843 1
gene 1 5 5 -3.52451 1 70 -3.52451 1
genomeend 164

/* Organism #165 Fitness: 0.0225914 Error: 0 */
genomestart 165
trait 1 0.109594 0.0152514 0.0969842 0 0.102756 0.156963 0.0732176 0.0318044 
node 1 1 1 1
node 2 1 1 1
node 3 1 1 1
node 4 1 1 3
node 5 1 0 2
gene 1 1 5 2.19825 0 1 2.19825 1
gene 1 2 5 -5.47831 0 2 -5.47831 1
gene 1 3 5 4.42329 0 3 4.42329 1
gene 1 4 5 1.40581 0 4 1.40581 1
gene 1 5 5 -1.62627 1 70 -1.62627 1
genomeend 165

/* Organism #166 Fitness: 0.0011 Error: 0 */
genomestart 166
trait 1 0.119188 0.0305029 0.193968 0 0 0.0722431 0 0.0636088 
node 1 1 1 1
node 2 1 1 1
node 3 1 1 1
node 4 1 1 3
node 5 1 0 2
gene 1 1 5 -0.584179 0 1 -0.584179 1
gene 1 2 5 -6.04296 0 2 -6.04296 1
gene 1 3 5 4.76344 0 3 4.76344 1
gene 1 4 5 1.94965 0 4 1.94965 1
gene 1 5 5 -2.73795 1 70 -2.73795 1
genomeend 166

/* Organism #167 Fitness: 0.0006 Error: 0 */
genomestart 167
trait 1 0.119188 0.0305029 0.193968 0 0 0.0722431 0 0.0636088 
node 1 1 1 1
node 2 1 1 1
node 3 1 1 1
node 4 1 1 3
node 5 1 0 2
gene 1 1 5 -0.644573 0 1 -0.644573 1
gene 1 2 5 -5.17124 0 2 -5.17124 1
gene 1 3 5 4.72592 0 3 4.72592 1
gene 1 4 5 0.55014 0 4 0.55014 1
gene 1 5 5 -3.03506 1 70 -3.03506 1
genomeend 167

/* Organism #168 Fitness: 0.0218907 Error: 0 */
genomestart 168
trait 1 0.119188 0.0305029 0.193968 0 0 0.0722431 0 0.0636088 
node 1 1 1 1
node 2 1 1 1
node 3 1 1 1
node 4 1 1 3
node 5 1 0 2
gene 1 1 5 -0.953288 0 1 -0.953288 1
gene 1 2 5 -4.64182 0 2 -4.64182 1
gene 1 3 5 4.94875 0 3 4.94875 1
gene 1 4 5 2.05781 0 4 2.05781 1
gene 1 5 5 -1.86213 1 70 -1.86213 1
genomeend 168

/* Organism #169 Fitness: 0.0037 Error: 0 */
genomestart 169
trait 1 0.114391 0.0228772 0.145476 0 0.0513781 0.114603 0.0366088 0.0477066 
node 1 1 1 1
node 2 1 1 1
node 3 1 1 1
node 4 1 1 3
node 5 1 0 2
gene 1 1 5 -3.4982 0 1 -3.4982 1
gene 1 2 5 -4.61425 0 2 -4.61425 1
gene 1 3 5 7.32871 0 3 7.32871 1
gene 1 4 5 2.94776 0 4 2.94776 1
gene 1 5 5 -0.900975 1 70 -0.900975 1
genomeend 169

/* Organism #170 Fitness: 0.0026 Error: 0 */
genomestart 170
trait 1 0.109594 0.0152514 0.0969842 0 0.102756 0.156963 0.0732176 0.0318044 
node 1 1 1 1
node 2 1 1 1
node 3 1 1 1
node 4 1 1 3
node 5 1 0 2
gene 1 1 5 -2.25727 0 1 -2.25727 1
gene 1 2 5 -6.49036 0 2 -6.49036 1
gene 1 3 5 4.06504 0 3 4.06504 1
gene 1 4 5 3.25239 0 4 3.25239 1
gene 1 5 5 -0.300561 1 70 -0.300561 1
genomeend 170

/* Organism #171 Fitness: 0.0006 Error: 0 */
genomestart 171
trait 1 0.109594 0.0152514 0.0969842 0 0.102756 0.156963 0.0732176 0.0318044 
node 1 1 1 1
node 2 1 1 1
node 3 1 1 1
node 4 1 1 3
node 5 1 0 2
gene 1 1 5 -0.645754 0 1 -0.645754 1
gene 1 2 5 -3.70346 0 2 -3.70346 1
gene 1 3 5 3.44548 0 3 3.44548 1
gene 1 4 5 0.0950286 0 4 0.0950286 1
gene 1 5 5 -2.1138 1 70 -2.1138 1
genomeend 171

/* Species #19 : (Size 5) (AF 0.00526) (Age 9)  */


/* Organism #172 Fitness: 0.0082 Error: 0 */
genomestart 172
trait 1 0.1 0 0 0 0 0 0 0 
node 1 1 1 1
node 2 1 1 1
node 3 1 1 1
node 4 1 1 3
node 5 1 0 2
node 8 1 0 0
gene 1 1 5 0.200579 0 1 0.200579 1
gene 1 2 5 0.588819 0 2 0.588819 0
gene 1 3 5 2.45773 0 3 2.45773 1
gene 1 4 5 -0.588065 0 4 -0.588065 1
gene 1 2 8 -0.26061 0 31 -0.26061 1
gene 1 8 5 1.10855 0 32 1.10855 1
gene 1 5 5 -0.942597 1 69 -0.942597 1
genomeend 172

/* Organism #173 Fitness: 0.0033 Error: 0 */
genomestart 173
trait 1 0.1 0 0 0 0 0 0 0 
node 1 1 1 1
node 2 1 1 1
node 3 1 1 1
node 4 1 1 3
node 5 1 0 2
node 8 1 0 0
gene 1 1 5 0.200579 0 1 0.200579 1
gene 1 2 5 0.674391 0 2 0.674391 0
gene 1 3 5 2.45773 0 3 2.45773 1
gene 1 4 5 0.278242 0 4 0.278242 1
gene 1 2 8 -0.253264 0 31 -0.753264 1
gene 1 8 5 1.10855 0 32 1.10855 1
gene 1 5 5 -0.942597 1 69 -0.942597 1
gene 1 3 8 0.652141 0 540 0.652141 1
genomeend 173

/* Organism #174 Fitness: 0.0034 Error: 0 */
genomestart 174
trait 1 0.1 0 0 0 0 0 0 0 
node 1 1 1 1
node 2 1 1 1
node 3 1 1 1
node 4 1 1 3
node 5 1 0 2
node 8 1 0 0
gene 1 1 5 -1.18693 0 1 -1.18693 1
gene 1 2 5 0.674391 0 2 0.674391 0
gene 1 3 5 1.42323 0 3 1.42323 1
gene 1 4 5 -0.588065 0 4 -0.588065 1
gene 1 2 8 -0.26061 0 31 -0.26061 1
gene 1 8 5 0.765327 0 32 0.537397 1
gene 1 5 5 -0.79968 1 69 -0.79968 1
genomeend 174

/* Organism #175 Fitness: 0.007 Error: 0 */
genomestart 175
trait 1 0.342106 0 0.212267 0 0 0 0 0 
node 1 1 1 1
node 2 1 1 1
node 3 1 1 1
node 4 1 1 3
node 5 1 0 2
node 8 1 0 0
gene 1 1 5 -2.07651 0 1 -2.07651 1
gene 1 2 5 -0.347205 0 2 -0.347205 0
gene 1 3 5 2.95323 0 3 2.95323 1
gene 1 4 5 0.941632 0 4 0.941632 1
gene 1 2 8 -0.822075 0 31 -0.822075 1
gene 1 8 5 -0.58107 0 32 -0.58107 1
gene 1 5 5 -1.2651 1 69 -1.2651 1
genomeend 175

/* Organism #176 Fitness: 0.0044 Error: 0 */
genomestart 176
trait 1 0.160527 0 0.0530666 0 0 0 0 0 
node 1 1 1 1
node 2 1 1 1
node 3 1 1 1
node 4 1 1 3
node 5 1 0 2
node 8 1 0 0
gene 1 1 5 -0.97131 0 1 -0.97131 1
gene 1 2 5 0.977616 0 2 0.977616 0
gene 1 3 5 1.62421 0 3 1.62421 1
gene 1 4 5 0.189158 0 4 0.189158 1
gene 1 2 8 -0.236799 0 31 -0.611799 1
gene 1 8 5 0.733322 0 32 0.562375 1
gene 1 5 5 -0.899569 1 69 -0.899569 1
gene 1 4 8 -0.956398 0 159 -0.956398 1
gene 1 8 8 -0.216757 1 200 -0.216757 1
genomeend 176

/* Species #20 : (Size 1) (AF 0.0004) (Age 9)  */


/* Organism #177 Fitness: 0.0004 Error: 0 */
genomestart 177
trait 1 0.1 0 0 0 0 0 0 0 
node 1 1 1 1
node 2 1 1 1
node 3 1 1 1
node 4 1 1 3
node 5 1 0 2
gene 1 1 5 -2.66176 0 1 -2.66176 1
gene 1 2 5 5.28364 0 2 5.28364 1
gene 1 3 5 0.0373796 0 3 0.0373796 1
gene 1 4 5 0.0803027 0 4 0.0803027 1
gene 1 5 5 0.390151 1 108 0.390151 1
genomeend 177

/* Species #21 : (Size 23) (AF 0.0147179) (Age 9)  */


/* Organism #178 Fitness: 0.0293293 Error: 0 */
genomestart 178
trait 1 0.40316 0.0710889 0.09829 0.229354 0.135247 0.125097 0.0679967 0.120825 
node 1 1 1 1
node 2 1 1 1
node 3 1 1 1
node 4 1 1 3
node 5 1 0 2
gene 1 1 5 -2.85359 0 1 -2.85359 0
gene 1 2 5 -3.01546 0 2 -3.01546 1
gene 1 3 5 2.96737 0 3 2.96737 1
gene 1 4 5 1.1007 0 4 1.1007 1
gene 1 5 5 -1.1647 1 70 -1.1647 1
genomeend 178

/* Organism #179 Fitness: 0.0156755 Error: 0 */
genomestart 179
trait 1 0.402366 0.0829236 0.0792214 0.212199 0.161401 0.183959 0.0815961 0.14002 
node 1 1 1 1
node 2 1 1 1
node 3 1 1 1
node 4 1 1 3
node 5 1 0 2
gene 1 1 5 -4.23658 0 1 -4.23658 0
gene 1 2 5 -2.67862 0 2 -2.67862 1
gene 1 3 5 2.12747 0 3 2.12747 1
gene 1 4 5 1.12211 0 4 1.12211 1
gene 1 5 5 -0.831842 1 76 -0.831842 1
genomeend 179

/* Organism #180 Fitness: 0.0253773 Error: 0 */
genomestart 180
trait 1 0.453011 0.0701356 0.0801055 0.259002 0.135247 0.169938 0.0679967 0.118837 
node 1 1 1 1
node 2 1 1 1
node 3 1 1 1
node 4 1 1 3
node 5 1 0 2
gene 1 1 5 -3.54508 0 1 -3.54508 0
gene 1 2 5 -2.73943 0 2 -2.73943 1
gene 1 3 5 2.4049 0 3 2.4049 1
gene 1 4 5 1.06733 0 4 1.06733 1
gene 1 5 5 -1.1647 1 70 -1.1647 1
genomeend 180

/* Organism #181 Fitness: 0.031119 Error: 0 */
genomestart 181
trait 1 0.301077 0.108499 0.0774532 0.118593 0.213709 0.212001 0.108795 0.182387 
node 1 1 1 1
node 2 1 1 1
node 3 1 1 1
node 4 1 1 3
node 5 1 0 2
gene 1 1 5 -4.26713 0 1 -4.26713 1
gene 1 2 5 -3.33447 0 2 -3.33447 1
gene 1 3 5 2.12747 0 3 2.12747 1
gene 1 4 5 1.12211 0 4 1.12211 1
gene 1 5 5 -0.831842 1 76 -0.831842 1
genomeend 181

/* Organism #182 Fitness: 0.0167341 Error: 0 */
genomestart 182
trait 1 0.426698 0.0886622 0.0620683 0.235601 0.175037 0.176513 0.0883958 0.149245 
node 1 1 1 1
node 2 1 1 1
node 3 1 1 1
node 4 1 1 3
node 5 1 0 2
gene 1 1 5 -3.90611 0 1 -3.90611 1
gene 1 2 5 -3.03695 0 2 -3.03695 1
gene 1 3 5 2.26619 0 3 2.26619 1
gene 1 4 5 1.09472 0 4 1.09472 1
gene 1 5 5 -0.831842 1 76 -0.831842 1
genomeend 182

/* Organism #183 Fitness: 0.0005 Error: 0 */
genomestart 183
trait 1 0.301077 0.108499 0.0774532 0.118593 0.213709 0.212001 0.108795 0.182387 
node 1 1 1 1
node 2 1 1 1
node 3 1 1 1
node 4 1 1 3
node 5 1 0 2
gene 1 1 5 -2.57838 0 1 -2.57838 1
gene 1 2 5 -4.80195 0 2 -4.80195 1
gene 1 3 5 1.96662 0 3 1.96662 1
gene 1 4 5 1.71595 0 4 1.71595 1
gene 1 5 5 0.734346 1 76 0.734346 1
genomeend 183

/* Organism #184 Fitness: 0.0037 Error: 0 */
genomestart 184
trait 1 0.40316 0.0710889 0.09829 0.229354 0.135247 0.125097 0.0679967 0.120825 
node 1 1 1 1
node 2 1 1 1
node 3 1 1 1
node 4 1 1 3
node 5 1 0 2
gene 1 1 5 -2.97 0 1 -2.97 0
gene 1 2 5 -2.60659 0 2 -2.60659 1
gene 1 3 5 2.19307 0 3 2.19307 1
gene 1 4 5 1.39472 0 4 1.39472 1
gene 1 5 5 -0.509532 1 70 -0.509532 1
genomeend 184

/* Organism #185 Fitness: 0.0156755 Error: 0 */
genomestart 185
trait 1 0.402366 0.0829236 0.0792214 0.212199 0.161401 0.183959 0.0815961 0.14002 
node 1 1 1 1
node 2 1 1 1
node 3 1 1 1
node 4 1 1 3
node 5 1 0 2
gene 1 1 5 -4.23658 0 1 -4.23658 0
gene 1 2 5 -2.67862 0 2 -2.67862 1
gene 1 3 5 2.12747 0 3 2.12747 1
gene 1 4 5 1.12211 0 4 1.12211 1
gene 1 5 5 -0.831842 1 76 -0.831842 1
genomeend 185

/* Organism #186 Fitness: 0.0099 Error: 0 */
genomestart 186
trait 1 0.401773 0.0891388 0.0711605 0.220777 0.175037 0.154093 0.0883958 0.150239 
node 1 1 1 1
node 2 1 1 1
node 3 1 1 1
node 4 1 1 3
node 5 1 0 2
gene 1 1 5 -2.85359 0 1 -2.85359 0
gene 1 2 5 -3.01546 0 2 -3.01546 1
gene 1 3 5 2.96737 0 3 2.96737 1
gene 1 4 5 1.12211 0 4 1.12211 1
gene 1 5 5 -0.831842 1 76 -0.831842 1
genomeend 186

/* Organism #187 Fitness: 0.031119 Error: 0 */
genomestart 187
trait 1 0.400386 0.107189 0.0440311 0.212199 0.214828 0.183088 0.108795 0.179654 
node 1 1 1 1
node 2 1 1 1
node 3 1 1 1
node 4 1 1 3
node 5 1 0 2
gene 1 1 5 -4.26713 0 1 -4.26713 1
gene 1 2 5 -3.33447 0 2 -3.33447 1
gene 1 3 5 2.12747 0 3 2.12747 1
gene 1 4 5 1.12211 0 4 1.12211 1
gene 1 5 5 -0.831842 1 76 -0.831842 1
genomeend 187

/* Organism #188 Fitness: 0.0281104 Error: 0 */
genomestart 188
trait 1 0.428085 0.0706122 0.0891977 0.244178 0.135247 0.147518 0.0679967 0.119831 
node 1 1 1 1
node 2 1 1 1
node 3 1 1 1
node 4 1 1 3
node 5 1 0 2
gene 1 1 5 -3.19934 0 1 -3.19934 0
gene 1 2 5 -2.87745 0 2 -2.87745 1
gene 1 3 5 2.68613 0 3 2.68613 1
gene 1 4 5 1.08401 0 4 1.08401 1
gene 1 5 5 -1.1647 1 70 -1.1647 1
genomeend 188

/* Organism #189 Fitness: 0.0007 Error: 0 */
genomestart 189
trait 1 0.350731 0 0.0607421 0.165396 0.214268 0 0.242493 0 
node 1 1 1 1
node 2 1 1 1
node 3 1 1 1
node 4 1 1 3
node 5 1 0 2
gene 1 1 5 -5.66344 0 1 -5.66344 1
gene 1 2 5 -4.6558 0 2 -4.6558 1
gene 1 3 5 3.5309 0 3 3.5309 1
gene 1 4 5 0.634849 0 4 0.634849 1
gene 1 5 5 -1.77413 1 76 -1.77413 1
genomeend 189

/* Organism #190 Fitness: 0.0209403 Error: 0 */
genomestart 190
trait 1 0.351721 0.0957115 0.0783373 0.165396 0.187555 0.19798 0.0951954 0.161203 
node 1 1 1 1
node 2 1 1 1
node 3 1 1 1
node 4 1 1 3
node 5 1 0 2
gene 1 1 5 -4.25186 0 1 -4.25186 1
gene 1 2 5 -3.00654 0 2 -3.00654 1
gene 1 3 5 2.12747 0 3 2.12747 1
gene 1 4 5 1.12211 0 4 1.12211 1
gene 1 5 5 -0.831842 1 76 -0.831842 1
genomeend 190

/* Organism #191 Fitness: 0.0192075 Error: 0 */
genomestart 191
trait 1 0.377044 0.0893176 0.0787793 0.188798 0.174478 0.190969 0.0883958 0.150612 
node 1 1 1 1
node 2 1 1 1
node 3 1 1 1
node 4 1 1 3
node 5 1 0 2
gene 1 1 5 -4.26713 0 1 -4.26713 0
gene 1 2 5 -3.33447 0 2 -3.33447 1
gene 1 3 5 2.12747 0 3 2.12747 1
gene 1 4 5 1.12211 0 4 1.12211 1
gene 1 5 5 -0.831842 1 76 -0.831842 1
genomeend 191

/* Organism #192 Fitness: 0.001 Error: 0 */
genomestart 192
trait 1 0.400386 0.107189 0.0440311 0.212199 0.214828 0.183088 0.108795 0.179654 
node 1 1 1 1
node 2 1 1 1
node 3 1 1 1
node 4 1 1 3
node 5 1 0 2
gene 1 1 5 -4.7042 0 1 -4.7042 1
gene 1 2 5 -2.31786 0 2 -2.31786 1
gene 1 3 5 0.593933 0 3 0.593933 1
gene 1 4 5 0.913855 0 4 0.913855 1
gene 1 5 5 -0.0391624 1 76 -0.0391624 1
genomeend 192

/* Organism #193 Fitness: 0.0178412 Error: 0 */
genomestart 193
trait 1 0.377044 0.0893176 0.0787793 0.188798 0.174478 0.190969 0.0883958 0.150612 
node 1 1 1 1
node 2 1 1 1
node 3 1 1 1
node 4 1 1 3
node 5 1 0 2
gene 1 1 5 -3.90611 0 1 -3.90611 0
gene 1 2 5 -3.03695 0 2 -3.03695 1
gene 1 3 5 2.26619 0 3 2.26619 1
gene 1 4 5 1.09472 0 4 1.09472 1
gene 1 5 5 -0.831842 1 76 -0.831842 1
genomeend 193

/* Organism #194 Fitness: 0.0178412 Error: 0 */
genomestart 194
trait 1 0.377044 0.0893176 0.0787793 0.188798 0.174478 0.190969 0.0883958 0.150612 
node 1 1 1 1
node 2 1 1 1
node 3 1 1 1
node 4 1 1 3
node 5 1 0 2
gene 1 1 5 -3.90611 0 1 -3.90611 0
gene 1 2 5 -3.03695 0 2 -3.03695 1
gene 1 3 5 2.26619 0 3 2.26619 1
gene 1 4 5 1.09472 0 4 1.09472 1
gene 1 5 5 -0.831842 1 76 -0.831842 1
genomeend 194

/* Organism #195 Fitness: 0.0011 Error: 0 */
genomestart 195
trait 1 1 0.0886622 0.0620683 0.235601 0.175037 0.176513 0.0883958 0.149245 
node 1 1 1 1
node 2 1 1 1
node 3 1 1 1
node 4 1 1 3
node 5 1 0 2
gene 1 1 5 -4.90771 0 1 -4.90771 0
gene 1 2 5 -2.05895 0 2 -2.05895 1
gene 1 3 5 1.61967 0 3 1.61967 1
gene 1 4 5 1.12211 0 4 1.12211 1
gene 1 5 5 -1.59965 1 76 -1.59965 1
genomeend 195

/* Organism #196 Fitness: 0.0005 Error: 0 */
genomestart 196
trait 1 0.350731 0.107844 0.0607421 0.165396 0.214268 0.197544 0.108795 0.18102 
node 1 1 1 1
node 2 1 1 1
node 3 1 1 1
node 4 1 1 3
node 5 1 0 2
gene 1 1 5 -4.35875 0 1 -4.35875 1
gene 1 2 5 -2.78341 0 2 -2.78341 1
gene 1 3 5 1.85173 0 3 1.85173 1
gene 1 4 5 0.300051 0 4 0.300051 1
gene 1 5 5 -2.35108 1 76 -2.35108 1
genomeend 196

/* Organism #197 Fitness: 0.0196227 Error: 0 */
genomestart 197
trait 1 0.377044 0.0893176 0.0787793 0.188798 0.174478 0.190969 0.0883958 0.150612 
node 1 1 1 1
node 2 1 1 1
node 3 1 1 1
node 4 1 1 3
node 5 1 0 2
gene 1 1 5 -3.54508 0 1 -3.54508 0
gene 1 2 5 -3.33447 0 2 -3.33447 1
gene 1 3 5 2.4049 0 3 2.4049 1
gene 1 4 5 1.06733 0 4 1.06733 1
gene 1 5 5 -0.831842 1 76 -0.831842 1
genomeend 197

/* Organism #198 Fitness: 0.031119 Error: 0 */
genomestart 198
trait 1 0.350731 0.107844 0.0607421 0.165396 0.214268 0.197544 0.108795 0.18102 
node 1 1 1 1
node 2 1 1 1
node 3 1 1 1
node 4 1 1 3
node 5 1 0 2
gene 1 1 5 -4.26713 0 1 -4.26713 1
gene 1 2 5 -3.33447 0 2 -3.33447 1
gene 1 3 5 2.12747 0 3 2.12747 1
gene 1 4 5 1.12211 0 4 1.12211 1
gene 1 5 5 -0.831842 1 76 -0.831842 1
genomeend 198

/* Organism #199 Fitness: 0.0007 Error: 0 */
genomestart 199
trait 1 0.0960938 0.00119152 0.00589383 0 0.00223842 0.0182215 0.00286006 0.00248472 
node 1 1 1 1
node 2 1 1 1
node 3 1 1 1
node 4 1 1 3
node 5 1 0 2
gene 1 1 5 -4.00713 0 1 -4.00713 1
gene 1 2 5 -1.68644 0 2 -1.68644 1
gene 1 3 5 1.51976 0 3 1.51976 1
gene 1 4 5 0.482972 0 4 0.482972 1
gene 1 5 5 -3.34672 1 76 -3.34672 1
genomeend 199

/* Organism #200 Fitness: 0.0007 Error: 0 */
genomestart 200
trait 1 0.119028 0.00262134 0.00753947 0 0.00455418 0.0230007 0.00400409 0.119182 
node 1 1 1 1
node 2 1 1 1
node 3 1 1 1
node 4 1 1 3
node 5 1 0 2
gene 1 1 5 -3.35982 0 1 -3.35982 1
gene 1 2 5 -3.44378 0 2 -3.44378 1
gene 1 3 5 2.41854 0 3 2.41854 1
gene 1 4 5 -0.190065 0 4 -0.190065 1
gene 1 5 5 -0.193461 1 63 -0.193461 1
genomeend 200

/* Species #24 : (Size 8) (AF 0.00455) (Age 9)  */


/* Organism #201 Fitness: 0.0068 Error: 0 */
genomestart 201
trait 1 0.1 0 0 0 0 0 0 0 
node 1 1 1 1
node 2 1 1 1
node 3 1 1 1
node 4 1 1 3
node 5 1 0 2
gene 1 1 5 4.28041 0 1 4.28041 1
gene 1 2 5 -1.86963 0 2 -1.86963 1
gene 1 3 5 5.32497 0 3 5.32497 1
gene 1 4 5 1.96684 0 4 1.96684 1
gene 1 5 5 -2.66696 1 75 -2.66696 1
genomeend 201

/* Organism #202 Fitness: 0.0009 Error: 0 */
genomestart 202
trait 1 1 0 0 0 0 0 0 0.134988 
node 1 1 1 1
node 2 1 1 1
node 3 1 1 1
node 4 1 1 3
node 5 1 0 2
gene 1 1 5 4.48443 0 1 4.48443 1
gene 1 2 5 -1.6916 0 2 -1.6916 1
gene 1 3 5 3.9601 0 3 3.9601 1
gene 1 4 5 0.580903 0 4 0.580903 1
gene 1 5 5 -4.24242 1 75 -4.24242 1
genomeend 202

/* Organism #203 Fitness: 0.004 Error: 0 */
genomestart 203
trait 1 0.1 0 0 0 0 0 0 0 
node 1 1 1 1
node 2 1 1 1
node 3 1 1 1
node 4 1 1 3
node 5 1 0 2
gene 1 1 5 4.44787 0 1 4.44787 1
gene 1 2 5 -2.65129 0 2 -2.65129 1
gene 1 3 5 5.32497 0 3 5.32497 1
gene 1 4 5 1.96684 0 4 1.96684 1
gene 1 5 5 -2.56573 1 75 -2.56573 1
genomeend 203

/* Organism #204 Fitness: 0.0068 Error: 0 */
genomestart 204
trait 1 0.1 0 0 0 0 0 0 0 
node 1 1 1 1
node 2 1 1 1
node 3 1 1 1
node 4 1 1 3
node 5 1 0 2
gene 1 1 5 4.28041 0 1 4.28041 1
gene 1 2 5 -1.86963 0 2 -1.86963 1
gene 1 3 5 5.32497 0 3 5.32497 1
gene 1 4 5 1.96684 0 4 1.96684 1
gene 1 5 5 -2.66696 1 75 -2.66696 1
genomeend 204

/* Organism #205 Fitness: 0.0067 Error: 0 */
genomestart 205
trait 1 0.1 0 0 0 0 0 0 0 
node 1 1 1 1
node 2 1 1 1
node 3 1 1 1
node 4 1 1 3
node 5 1 0 2
gene 1 1 5 4.44787 0 1 4.44787 1
gene 1 2 5 -1.86963 0 2 -1.86963 1
gene 1 3 5 5.32497 0 3 5.32497 1
gene 1 4 5 1.96684 0 4 1.96684 1
gene 1 5 5 -2.56573 1 75 -2.56573 1
genomeend 205

/* Organism #206 Fitness: 0.0056 Error: 0 */
genomestart 206
trait 1 0.1 0 0 0 0 0 0 0 
node 1 1 1 1
node 2 1 1 1
node 3 1 1 1
node 4 1 1 3
node 5 1 0 2
gene 1 1 5 4.44787 0 1 4.44787 1
gene 1 2 5 -2.65129 0 2 -2.65129 1
gene 1 3 5 4.87798 0 3 4.87798 1
gene 1 4 5 1.65665 0 4 1.65665 1
gene 1 5 5 -2.56573 1 75 -2.56573 1
genomeend 206

/* Organism #207 Fitness: 0.0023 Error: 0 */
genomestart 207
trait 1 0.1 0 0 0 0 0 0 0 
node 1 1 1 1
node 2 1 1 1
node 3 1 1 1
node 4 1 1 3
node 5 1 0 2
gene 1 1 5 4.61328 0 1 4.61328 1
gene 1 2 5 -1.5085 0 2 -1.5085 1
gene 1 3 5 8 0 3 8 1
gene 1 4 5 -0.020278 0 4 -0.020278 1
gene 1 5 5 -3.06274 1 75 -3.06274 1
genomeend 207

/* Organism #208 Fitness: 0.0033 Error: 0 */
genomestart 208
trait 1 0.1 0 0 0 0.205512 0.241684 0.146435 0 
node 1 1 1 1
node 2 1 1 1
node 3 1 1 1
node 4 1 1 3
node 5 1 0 2
gene 1 1 5 4.24142 0 1 4.24142 1
gene 1 2 5 -0.32303 0 2 -0.32303 1
gene 1 3 5 4.93786 0 3 4.93786 1
gene 1 4 5 1.79349 0 4 1.79349 1
gene 1 5 5 -1.05949 1 132 -1.05949 1
genomeend 208

/* Species #25 : (Size 5) (AF 0.00432) (Age 9)  */


/* Organism #209 Fitness: 0.0067 Error: 0 */
genomestart 209
trait 1 0.0832909 0 0 0.0263038 0 0 0.019834 0.479988 
node 1 1 1 1
node 2 1 1 1
node 3 1 1 1
node 4 1 1 3
node 5 1 0 2
gene 1 1 5 2.91009 0 1 2.91009 1
gene 1 2 5 -0.308951 0 2 -0.308951 1
gene 1 3 5 7.65814 0 3 7.65814 1
gene 1 4 5 0.907333 0 4 0.907333 1
gene 1 5 5 -2.80044 1 131 -2.80044 1
genomeend 209

/* Organism #210 Fitness: 0.0044 Error: 0 */
genomestart 210
trait 1 0.388206 0.0667628 0.000294692 0.00129855 0.026503 0 0.214459 0.0935498 
node 1 1 1 1
node 2 1 1 1
node 3 1 1 1
node 4 1 1 3
node 5 1 0 2
gene 1 1 5 2.76354 0 1 2.76354 1
gene 1 2 5 -0.765456 0 2 -0.765456 1
gene 1 3 5 7.70155 0 3 7.70155 1
gene 1 4 5 0.496675 0 4 0.496675 1
gene 1 5 5 -2.93018 1 131 -2.93018 1
genomeend 210

/* Organism #211 Fitness: 0.0051 Error: 0 */
genomestart 211
trait 1 0.247665 0 0 0 0.277957 0.373054 0.123988 0.239401 
node 1 1 1 1
node 2 1 1 1
node 3 1 1 1
node 4 1 1 3
node 5 1 0 2
gene 1 1 5 3.01995 0 1 3.01995 1
gene 1 2 5 -1.76047 0 2 -1.76047 1
gene 1 3 5 7.32758 0 3 7.32758 1
gene 1 4 5 1.25597 0 4 1.25597 1
gene 1 5 5 -2.73244 1 284 -2.73244 1
genomeend 211

/* Organism #212 Fitness: 0.004 Error: 0 */
genomestart 212
trait 1 0.1 0 0 0 0 0 0 0.119997 
node 1 1 1 1
node 2 1 1 1
node 3 1 1 1
node 4 1 1 3
node 5 1 0 2
gene 1 1 5 3.83151 0 1 3.83151 1
gene 1 2 5 -2.99796 0 2 -2.99796 1
gene 1 3 5 8 0 3 8 1
gene 1 4 5 1.79101 0 4 1.79101 1
gene 1 5 5 -4.22291 1 131 -4.22291 1
genomeend 212

/* Organism #213 Fitness: 0.0014 Error: 0 */
genomestart 213
trait 1 0.1 0 0 0 0 0 0 0.239994 
node 1 1 1 1
node 2 1 1 1
node 3 1 1 1
node 4 1 1 3
node 5 1 0 2
gene 1 1 5 2.40142 0 1 2.40142 1
gene 1 2 5 -1.19888 0 2 -1.19888 1
gene 1 3 5 7.18855 0 3 7.18855 1
gene 1 4 5 1.66054 0 4 1.66054 1
gene 1 5 5 -5.26842 1 131 -5.26842 1
genomeend 213

/* Species #26 : (Size 6) (AF 0.00291667) (Age 9)  */


/* Organism #214 Fitness: 0.003 Error: 0 */
genomestart 214
trait 1 0.130135 0 0 0 0 0.0602154 0 0.212626 
node 1 1 1 1
node 2 1 1 1
node 3 1 1 1
node 4 1 1 3
node 5 1 0 2
gene 1 1 5 -0.82199 0 1 -0.82199 1
gene 1 2 5 0.092066 0 2 0.092066 1
gene 1 3 5 7.48691 0 3 7.48691 1
gene 1 4 5 0.83377 0 4 0.83377 1
gene 1 5 5 -4.22865 1 76 -4.22865 1
genomeend 214

/* Organism #215 Fitness: 0.0035 Error: 0 */
genomestart 215
trait 1 0.112438 0.411384 0.00294692 0 0.253608 0.217469 0.338028 0.707305 
node 1 1 1 1
node 2 1 1 1
node 3 1 1 1
node 4 1 1 3
node 5 1 0 2
gene 1 1 5 -1.73597 0 1 -1.73597 1
gene 1 2 5 -1.04681 0 2 -1.04681 1
gene 1 3 5 6.54696 0 3 6.54696 1
gene 1 4 5 0.790224 0 4 0.790224 1
gene 1 5 5 -3.62005 1 76 -3.62005 1
genomeend 215

/* Organism #216 Fitness: 0.0036 Error: 0 */
genomestart 216
trait 1 0 0.0120343 0 0 0.00111921 0.040839 0.00143003 0.100094 
node 1 1 1 1
node 2 1 1 1
node 3 1 1 1
node 4 1 1 3
node 5 1 0 2
gene 1 1 5 0.404849 0 1 0.404849 1
gene 1 2 5 1.91144 0 2 1.91144 1
gene 1 3 5 7.21377 0 3 7.21377 1
gene 1 4 5 1.61921 0 4 1.61921 1
gene 1 5 5 -3.4198 1 76 -3.4198 1
genomeend 216

/* Organism #217 Fitness: 0.0031 Error: 0 */
genomestart 217
trait 1 0.119188 0.609667 0 0 0.266013 0.277811 0.495954 1 
node 1 1 1 1
node 2 1 1 1
node 3 1 1 1
node 4 1 1 3
node 5 1 0 2
gene 1 1 5 -0.655794 0 1 -0.655794 1
gene 1 2 5 -0.95822 0 2 -0.95822 1
gene 1 3 5 6.55932 0 3 6.55932 1
gene 1 4 5 2.11925 0 4 2.11925 1
gene 1 5 5 -3.84744 1 284 -3.84744 1
genomeend 217

/* Organism #218 Fitness: 0.0032 Error: 0 */
genomestart 218
trait 1 0.025 0 0.0594363 0.107528 0.0519377 0.0678402 0.0366088 0.179237 
node 1 1 1 1
node 2 1 1 1
node 3 1 1 1
node 4 1 1 3
node 5 1 0 2
gene 1 1 5 -1.52384 0 1 -1.52384 1
gene 1 2 5 0.0795852 0 2 0.0795852 1
gene 1 3 5 6.13407 0 3 6.13407 1
gene 1 4 5 2.01153 0 4 2.01153 1
gene 1 5 5 -0.990027 1 76 -0.990027 1
genomeend 218

/* Organism #219 Fitness: 0.0011 Error: 0 */
genomestart 219
trait 1 0.112438 0.121802 0.0999311 0 0.120602 0.114685 0.0900509 0.239109 
node 1 1 1 1
node 2 1 1 1
node 3 1 1 1
node 4 1 1 3
node 5 1 0 2
gene 1 1 5 -0.476896 0 1 -0.476896 0
gene 1 2 5 -0.669965 0 2 -0.669965 1
gene 1 3 5 5.26627 0 3 5.26627 1
gene 1 4 5 0.872902 0 4 0.872902 1
gene 1 5 5 -4.24495 1 76 -4.24495 1
genomeend 219

/* Species #27 : (Size 7) (AF 0.00368571) (Age 9)  */


/* Organism #220 Fitness: 0.0056 Error: 0 */
genomestart 220
trait 1 0.1 0 0 0.499647 0 0 0 0 
node 1 1 1 1
node 2 1 1 1
node 3 1 1 1
node 4 1 1 3
node 5 1 0 2
gene 1 1 5 3.77334 0 1 3.77334 1
gene 1 2 5 -0.205557 0 2 -0.205557 1
gene 1 3 5 2.57458 0 3 2.57458 1
gene 1 4 5 1.32796 0 4 1.32796 1
gene 1 5 5 -1.98952 1 94 -1.98952 1
genomeend 220

/* Organism #221 Fitness: 0.0044 Error: 0 */
genomestart 221
trait 1 0.075 0.0256706 0 0.437191 0.0233212 0.0128303 0.232592 0 
node 1 1 1 1
node 2 1 1 1
node 3 1 1 1
node 4 1 1 3
node 5 1 0 2
gene 1 1 5 4.94995 0 1 4.94995 1
gene 1 2 5 -1.48282 0 2 -1.48282 1
gene 1 3 5 2.42295 0 3 2.42295 1
gene 1 4 5 0.74773 0 4 0.74773 1
gene 1 5 5 -1.47931 1 94 -1.47931 1
genomeend 221

/* Organism #222 Fitness: 0.0032 Error: 0 */
genomestart 222
trait 1 0.075 0.0256706 0 0.437191 0.0233212 0.0128303 0.232592 0 
node 1 1 1 1
node 2 1 1 1
node 3 1 1 1
node 4 1 1 3
node 5 1 0 2
gene 1 1 5 4.19613 0 1 4.19613 1
gene 1 2 5 0.93221 0 2 0.93221 1
gene 1 3 5 3.40662 0 3 3.40662 1
gene 1 4 5 1.51254 0 4 1.51254 1
gene 1 5 5 -1.77061 1 94 -1.77061 1
genomeend 222

/* Organism #223 Fitness: 0.0056 Error: 0 */
genomestart 223
trait 1 0.1 0 0 0.499647 0 0 0 0 
node 1 1 1 1
node 2 1 1 1
node 3 1 1 1
node 4 1 1 3
node 5 1 0 2
gene 1 1 5 3.77334 0 1 3.77334 1
gene 1 2 5 -0.205557 0 2 -0.205557 1
gene 1 3 5 2.57458 0 3 2.57458 1
gene 1 4 5 1.32796 0 4 1.32796 1
gene 1 5 5 -1.98952 1 94 -1.98952 1
genomeend 223

/* Organism #224 Fitness: 0.0007 Error: 0 */
genomestart 224
trait 1 0.075 0.0256706 0 0.437191 0.0233212 0.0128303 0.232592 0 
node 1 1 1 1
node 2 1 1 1
node 3 1 1 1
node 4 1 1 3
node 5 1 0 2
gene 1 1 5 1.98919 0 1 1.98919 1
gene 1 2 5 -0.5411 0 2 -0.5411 1
gene 1 3 5 2.76905 0 3 2.76905 1
gene 1 4 5 -0.0979682 0 4 -0.0979682 1
gene 1 5 5 -2.99906 1 94 -2.99906 1
genomeend 224

/* Organism #225 Fitness: 0.0031 Error: 0 */
genomestart 225
trait 1 0.1 0 0 0.499647 0 0 0 0 
node 1 1 1 1
node 2 1 1 1
node 3 1 1 1
node 4 1 1 3
node 5 1 0 2
gene 1 1 5 2.34308 0 1 2.34308 1
gene 1 2 5 1.30364 0 2 1.30364 1
gene 1 3 5 3.36466 0 3 3.36466 1
gene 1 4 5 0.399272 0 4 0.399272 1
gene 1 5 5 -2.61047 1 94 -2.61047 1
genomeend 225

/* Organism #226 Fitness: 0.0032 Error: 0 */
genomestart 226
trait 1 0.500482 0.104687 0.00471506 0.237186 0.213709 0.391364 0.108795 0.174436 
node 1 1 1 1
node 2 1 1 1
node 3 1 1 1
node 4 1 1 3
node 5 1 0 2
gene 1 1 5 1.86685 0 1 1.86685 0
gene 1 2 5 0.141472 0 2 0.141472 1
gene 1 3 5 2.68154 0 3 2.68154 1
gene 1 4 5 1.42262 0 4 1.42262 1
gene 1 5 5 -1.21226 1 127 -1.21226 1
genomeend 226

/* Species #30 : (Size 7) (AF 0.0047) (Age 9)  */


/* Organism #227 Fitness: 0.0064 Error: 0 */
genomestart 227
trait 1 0.1 0.205365 0 0 0.18657 0.102642 0 0 
node 1 1 1 1
node 2 1 1 1
node 3 1 1 1
node 4 1 1 3
node 5 1 0 2
gene 1 1 5 6.68092 0 1 6.68092 1
gene 1 2 5 1.35604 0 2 1.35604 1
gene 1 3 5 2.92926 0 3 2.92926 1
gene 1 4 5 -0.580354 0 4 -0.580354 1
gene 1 5 5 -0.609715 1 272 -0.609715 1
genomeend 227

/* Organism #228 Fitness: 0.0064 Error: 0 */
genomestart 228
trait 1 0.1 0.205365 0 0 0.18657 0.102642 0 0 
node 1 1 1 1
node 2 1 1 1
node 3 1 1 1
node 4 1 1 3
node 5 1 0 2
gene 1 1 5 6.68092 0 1 6.68092 1
gene 1 2 5 1.35604 0 2 1.35604 1
gene 1 3 5 2.92926 0 3 2.92926 1
gene 1 4 5 -0.580354 0 4 -0.580354 1
gene 1 5 5 -0.609715 1 272 -0.609715 1
genomeend 228

/* Organism #229 Fitness: 0.0051 Error: 0 */
genomestart 229
trait 1 0.1 0.205365 0 0 0.18657 0.102642 0 0 
node 1 1 1 1
node 2 1 1 1
node 3 1 1 1
node 4 1 1 3
node 5 1 0 2
gene 1 1 5 5.81865 0 1 5.81865 1
gene 1 2 5 2.45904 0 2 2.45904 1
gene 1 3 5 2.92926 0 3 2.92926 1
gene 1 4 5 -0.796376 0 4 -0.796376 1
gene 1 5 5 -0.609715 1 272 -0.609715 1
genomeend 229

/* Organism #230 Fitness: 0.0064 Error: 0 */
genomestart 230
trait 1 0.1 0.205365 0 0 0.18657 0.102642 0 0 
node 1 1 1 1
node 2 1 1 1
node 3 1 1 1
node 4 1 1 3
node 5 1 0 2
gene 1 1 5 6.68092 0 1 6.68092 1
gene 1 2 5 1.35604 0 2 1.35604 1
gene 1 3 5 2.92926 0 3 2.92926 1
gene 1 4 5 -0.580354 0 4 -0.580354 1
gene 1 5 5 -0.609715 1 272 -0.609715 1
genomeend 230

/* Organism #231 Fitness: 0.0064 Error: 0 */
genomestart 231
trait 1 0.1 0.205365 0 0 0.18657 0.102642 0 0 
node 1 1 1 1
node 2 1 1 1
node 3 1 1 1
node 4 1 1 3
node 5 1 0 2
gene 1 1 5 6.68092 0 1 6.68092 1
gene 1 2 5 1.35604 0 2 1.35604 1
gene 1 3 5 2.92926 0 3 2.92926 1
gene 1 4 5 -0.580354 0 4 -0.580354 1
gene 1 5 5 -0.609715 1 272 -0.609715 1
genomeend 231

/* Organism #232 Fitness: 0.0017 Error: 0 */
genomestart 232
trait 1 0.1 0.102682 0 0 0.270285 0.102642 0.388643 0 
node 1 1 1 1
node 2 1 1 1
node 3 1 1 1
node 4 1 1 3
node 5 1 0 2
gene 1 1 5 7.97284 0 1 7.97284 1
gene 1 2 5 1.60171 0 2 1.60171 1
gene 1 3 5 2.32944 0 3 2.32944 1
gene 1 4 5 0.310506 0 4 0.310506 1
genomeend 232

/* Organism #233 Fitness: 0.0005 Error: 0 */
genomestart 233
trait 1 0.1 0.205365 0 0 0.18657 0.102642 0 0 
node 1 1 1 1
node 2 1 1 1
node 3 1 1 1
node 4 1 1 3
node 5 1 0 2
gene 1 1 5 8 0 1 8 1
gene 1 2 5 1.36304 0 2 1.36304 1
gene 1 3 5 1.21998 0 3 1.21998 1
gene 1 4 5 -1.48049 0 4 -1.48049 1
genomeend 233

/* Species #33 : (Size 9) (AF 0.0049) (Age 9)  */


/* Organism #234 Fitness: 0.0087 Error: 0 */
genomestart 234
trait 1 0.1 0 0 0 0 0 0 0 
node 1 1 1 1
node 2 1 1 1
node 3 1 1 1
node 4 1 1 3
node 5 1 0 2
gene 1 1 5 -6.19205 0 1 -6.19205 1
gene 1 2 5 -1.99377 0 2 -1.99377 1
gene 1 3 5 5.87999 0 3 5.87999 1
gene 1 4 5 0.630378 0 4 0.630378 1
gene 1 5 5 -1.45377 1 241 -1.45377 1
genomeend 234

/* Organism #235 Fitness: 0.0055 Error: 0 */
genomestart 235
trait 1 0.1 0 0 0 0 0 0 0 
node 1 1 1 1
node 2 1 1 1
node 3 1 1 1
node 4 1 1 3
node 5 1 0 2
gene 1 1 5 -5.23445 0 1 -5.23445 1
gene 1 2 5 -1.41472 0 2 -1.41472 1
gene 1 3 5 6.3999 0 3 6.3999 1
gene 1 4 5 -0.0399437 0 4 -0.0399437 1
gene 1 5 5 -1.56046 1 241 -1.56046 1
genomeend 235

/* Organism #236 Fitness: 0.0066 Error: 0 */
genomestart 236
trait 1 0.1 0 0 0 0 0 0 0 
node 1 1 1 1
node 2 1 1 1
node 3 1 1 1
node 4 1 1 3
node 5 1 0 2
gene 1 1 5 -7.14965 0 1 -7.14965 1
gene 1 2 5 -2.57282 0 2 -2.57282 1
gene 1 3 5 5.75182 0 3 5.75182 1
gene 1 4 5 1.3007 0 4 1.3007 1
gene 1 5 5 -1.98837 1 241 -1.98837 1
genomeend 236

/* Organism #237 Fitness: 0.0064 Error: 0 */
genomestart 237
trait 1 0.1 0 0 0 0 0 0 0 
node 1 1 1 1
node 2 1 1 1
node 3 1 1 1
node 4 1 1 3
node 5 1 0 2
gene 1 1 5 -6.01526 0 1 -6.01526 1
gene 1 2 5 -1.7333 0 2 -1.7333 1
gene 1 3 5 5.97792 0 3 5.97792 1
gene 1 4 5 0.481648 0 4 0.481648 1
gene 1 5 5 -1.61409 1 241 -1.61409 1
genomeend 237

/* Organism #238 Fitness: 0.0048 Error: 0 */
genomestart 238
trait 1 0.1 0 0 0 0 0 0 0 
node 1 1 1 1
node 2 1 1 1
node 3 1 1 1
node 4 1 1 3
node 5 1 0 2
gene 1 1 5 -7.14965 0 1 -7.14965 1
gene 1 2 5 -2.57282 0 2 -2.57282 1
gene 1 3 5 5.36008 0 3 5.36008 1
gene 1 4 5 -0.0399437 0 4 -0.0399437 1
gene 1 5 5 -1.34707 1 241 -1.34707 1
genomeend 238

/* Organism #239 Fitness: 0.0033 Error: 0 */
genomestart 239
trait 1 0.1 0 0 0 0 0 0 0 
node 1 1 1 1
node 2 1 1 1
node 3 1 1 1
node 4 1 1 3
node 5 1 0 2
gene 1 1 5 -7.00089 0 1 -7.00089 1
gene 1 2 5 -1.21959 0 2 -1.21959 1
gene 1 3 5 5.61045 0 3 5.61045 1
gene 1 4 5 2.00201 0 4 2.00201 1
gene 1 5 5 -0.940526 1 241 -0.940526 1
genomeend 239

/* Organism #240 Fitness: 0.003 Error: 0 */
genomestart 240
trait 1 0.101199 0.00190643 0 0 0.00642226 0.0120678 0.0045761 0.00397555 
node 1 1 1 1
node 2 1 1 1
node 3 1 1 1
node 4 1 1 3
node 5 1 0 2
gene 1 1 5 -7.02887 0 1 -7.02887 1
gene 1 2 5 1.27191 0 2 1.27191 1
gene 1 3 5 5.11891 0 3 5.11891 1
gene 1 4 5 1.80249 0 4 1.80249 1
gene 1 5 5 -1.34111 1 241 -1.34111 1
genomeend 240

/* Organism #241 Fitness: 0.0031 Error: 0 */
genomestart 241
trait 1 0.101199 0.00190643 0 0 0.00642226 0.0120678 0.0045761 0.00397555 
node 1 1 1 1
node 2 1 1 1
node 3 1 1 1
node 4 1 1 3
node 5 1 0 2
gene 1 1 5 -6.25727 0 1 -6.25727 1
gene 1 2 5 1.27191 0 2 1.27191 1
gene 1 3 5 5.13205 0 3 5.13205 1
gene 1 4 5 0.254303 0 4 0.254303 1
gene 1 5 5 -0.414853 1 241 -0.414853 1
genomeend 241

/* Organism #242 Fitness: 0.0027 Error: 0 */
genomestart 242
trait 1 0.1 0 0 0 0 0 0 0 
node 1 1 1 1
node 2 1 1 1
node 3 1 1 1
node 4 1 1 3
node 5 1 0 2
gene 1 1 5 -6.8204 0 1 -6.8204 1
gene 1 2 5 -2.65454 0 2 -2.65454 1
gene 1 3 5 4.74431 0 3 4.74431 1
gene 1 4 5 -0.00655268 0 4 -0.00655268 1
genomeend 242

/* Species #34 : (Size 6) (AF 0.00611667) (Age 9)  */


/* Organism #243 Fitness: 0.0088 Error: 0 */
genomestart 243
trait 1 0.130135 0 0 0 0 0.343607 0 0 
node 1 1 1 1
node 2 1 1 1
node 3 1 1 1
node 4 1 1 3
node 5 1 0 2
gene 1 1 5 4.13272 0 1 4.13272 1
gene 1 2 5 0.705949 0 2 0.705949 1
gene 1 3 5 5.56932 0 3 5.56932 1
gene 1 4 5 -0.303206 0 4 -0.303206 1
gene 1 5 5 -1.35615 1 76 -1.35615 1
genomeend 243

/* Organism #244 Fitness: 0.005 Error: 0 */
genomestart 244
trait 1 0.162189 0 0 0.0394556 0.0154593 0.0342999 0.029751 0 
node 1 1 1 1
node 2 1 1 1
node 3 1 1 1
node 4 1 1 3
node 5 1 0 2
gene 1 1 5 3.23165 0 1 3.23165 1
gene 1 2 5 0.994163 0 2 0.994163 1
gene 1 3 5 5.65971 0 3 5.65971 1
gene 1 4 5 -0.390044 0 4 -0.390044 1
gene 1 5 5 -1.81398 1 76 -1.81398 1
genomeend 244

/* Organism #245 Fitness: 0.005 Error: 0 */
genomestart 245
trait 1 0.162189 0 0 0.0394556 0.0154593 0.0342999 0.029751 0 
node 1 1 1 1
node 2 1 1 1
node 3 1 1 1
node 4 1 1 3
node 5 1 0 2
gene 1 1 5 3.23165 0 1 3.23165 1
gene 1 2 5 0.994163 0 2 0.994163 1
gene 1 3 5 5.65971 0 3 5.65971 1
gene 1 4 5 -0.390044 0 4 -0.390044 1
gene 1 5 5 -1.81398 1 76 -1.81398 1
genomeend 245

/* Organism #246 Fitness: 0.0047 Error: 0 */
genomestart 246
trait 1 0.923204 0.0878725 0.858789 0 0 0.689831 0 0.546641 
node 1 1 1 1
node 2 1 1 1
node 3 1 1 1
node 4 1 1 3
node 5 1 0 2
gene 1 1 5 2.71406 0 1 2.71406 1
gene 1 2 5 1.50974 0 2 1.50974 1
gene 1 3 5 5.8064 0 3 5.8064 1
gene 1 4 5 0.914769 0 4 0.914769 1
gene 1 5 5 -3.0262 1 76 -3.0262 1
genomeend 246

/* Organism #247 Fitness: 0.0088 Error: 0 */
genomestart 247
trait 1 0.130135 0 0 0 0 0.343607 0 0 
node 1 1 1 1
node 2 1 1 1
node 3 1 1 1
node 4 1 1 3
node 5 1 0 2
gene 1 1 5 4.13272 0 1 4.13272 1
gene 1 2 5 0.705949 0 2 0.705949 1
gene 1 3 5 5.56932 0 3 5.56932 1
gene 1 4 5 -0.303206 0 4 -0.303206 1
gene 1 5 5 -1.35615 1 76 -1.35615 1
genomeend 247

/* Organism #248 Fitness: 0.0044 Error: 0 */
genomestart 248
trait 1 0.103767 0.0128353 0 0 0.031612 0.00734256 0 0 
node 1 1 1 1
node 2 1 1 1
node 3 1 1 1
node 4 1 1 3
node 5 1 0 2
gene 1 1 5 3.30336 0 1 3.30336 1
gene 1 2 5 2.19881 0 2 2.19881 1
gene 1 3 5 8 0 3 8 1
gene 1 4 5 -1.03969 0 4 -1.03969 1
gene 1 5 5 -2.34222 1 76 -2.34222 1
genomeend 248

/* Species #35 : (Size 8) (AF 0.003025) (Age 9)  */


/* Organism #249 Fitness: 0.0042 Error: 0 */
genomestart 249
trait 1 0.103448 0.00548098 0 0 0.018464 0.034695 0.173836 0.0173959 
node 1 1 1 1
node 2 1 1 1
node 3 1 1 1
node 4 1 1 3
node 5 1 0 2
gene 1 1 5 -7.07398 0 1 -7.07398 1
gene 1 2 5 -1.05976 0 2 -1.05976 1
gene 1 3 5 4.30035 0 3 4.30035 1
gene 1 4 5 -0.323864 0 4 -0.323864 1
gene 1 5 5 -1.24358 1 169 -1.24358 1
genomeend 249

/* Organism #250 Fitness: 0.0038 Error: 0 */
genomestart 250
trait 1 0.104797 0.00762572 0 0 0.025689 0.0482712 0.339665 0.0278345 
node 1 1 1 1
node 2 1 1 1
node 3 1 1 1
node 4 1 1 3
node 5 1 0 2
gene 1 1 5 -6.71364 0 1 -6.71364 1
gene 1 2 5 2.46179 0 2 2.46179 1
gene 1 3 5 5.58305 0 3 5.58305 1
gene 1 4 5 0.758252 0 4 0.758252 1
gene 1 5 5 -2.17445 1 169 -2.17445 1
genomeend 250

/* Organism #251 Fitness: 0.0028 Error: 0 */
genomestart 251
trait 1 0.104797 0.00762572 0 0 0.025689 0.0482712 0.339665 0.0278345 
node 1 1 1 1
node 2 1 1 1
node 3 1 1 1
node 4 1 1 3
node 5 1 0 2
gene 1 1 5 -7.63457 0 1 -7.63457 1
gene 1 2 5 3.02582 0 2 3.02582 1
gene 1 3 5 5.8206 0 3 5.8206 1
gene 1 4 5 1.99227 0 4 1.99227 1
gene 1 5 5 -1.12126 1 169 -1.12126 1
genomeend 251

/* Organism #252 Fitness: 0.0026 Error: 0 */
genomestart 252
trait 1 0.104797 0.00762572 0 0 0.025689 0.0482712 0.339665 0.0278345 
node 1 1 1 1
node 2 1 1 1
node 3 1 1 1
node 4 1 1 3
node 5 1 0 2
gene 1 1 5 -5.82797 0 1 -5.82797 1
gene 1 2 5 0.701117 0 2 0.701117 1
gene 1 3 5 5.99333 0 3 5.99333 1
gene 1 4 5 1.07498 0 4 1.07498 1
gene 1 5 5 -0.378804 1 169 -0.378804 1
genomeend 252

/* Organism #253 Fitness: 0.0036 Error: 0 */
genomestart 253
trait 1 0.104797 0.00762572 0 0 0.025689 0.0482712 0.339665 0.0278345 
node 1 1 1 1
node 2 1 1 1
node 3 1 1 1
node 4 1 1 3
node 5 1 0 2
gene 1 1 5 -7.83506 0 1 -7.83506 1
gene 1 2 5 1.23138 0 2 1.23138 1
gene 1 3 5 7.02024 0 3 7.02024 1
gene 1 4 5 -0.273182 0 4 -0.273182 1
gene 1 5 5 -3.91494 1 169 -3.91494 1
genomeend 253

/* Organism #254 Fitness: 0.0022 Error: 0 */
genomestart 254
trait 1 0.104797 0.00762572 0 0 0.025689 0.0482712 0.339665 0.0278345 
node 1 1 1 1
node 2 1 1 1
node 3 1 1 1
node 4 1 1 3
node 5 1 0 2
gene 1 1 5 -8 0 1 -8 1
gene 1 2 5 1.4953 0 2 1.4953 1
gene 1 3 5 4.89964 0 3 4.89964 1
gene 1 4 5 -0.937987 0 4 -0.937987 1
gene 1 5 5 -2.75004 1 169 -2.75004 1
genomeend 254

/* Organism #255 Fitness: 0.0026 Error: 0 */
genomestart 255
trait 1 0.1 0 0 0 0 0 0 0 
node 1 1 1 1
node 2 1 1 1
node 3 1 1 1
node 4 1 1 3
node 5 1 0 2
gene 1 1 5 -8 0 1 -8 1
gene 1 2 5 -0.722425 0 2 -0.722425 1
gene 1 3 5 4.91783 0 3 4.91783 1
gene 1 4 5 -0.10245 0 4 -0.10245 1
genomeend 255

/* Organism #256 Fitness: 0.0024 Error: 0 */
genomestart 256
trait 1 0.104797 0.00762572 0 0 0.025689 0.0482712 0.339665 0.0278345 
node 1 1 1 1
node 2 1 1 1
node 3 1 1 1
node 4 1 1 3
node 5 1 0 2
gene 1 1 5 -7.73941 0 1 -7.73941 1
gene 1 2 5 0.321701 0 2 0.321701 1
gene 1 3 5 4.23788 0 3 4.23788 1
gene 1 4 5 -1.00186 0 4 -1.00186 1
gene 1 5 5 -1.93367 1 169 -1.93367 1
genomeend 256

/* Species #36 : (Size 5) (AF 0.00408) (Age 9)  */


