
/* Species #1 : (Size 22) (AF 93.7727) (Age 10)  */


/* Organism #0 Fitness: 353 Error: 0 */
genomestart 0
trait 1 0.1 0 0 0 0 0 0 0 
trait 2 0.2 0 0 0 0 0 0 0 
trait 3 0.3 0 0 0 0 0 0 0 
node 1 2 1 1
node 2 2 1 1
node 3 1 1 1
node 4 2 1 1
node 5 1 1 1
node 6 3 1 1
node 7 3 1 3
node 8 3 0 2
gene 1 1 8 1.20812 0 1 1.20812 1
gene 1 2 8 -1.41644 0 2 -1.41644 1
gene 1 3 8 -2.67283 0 3 -2.67283 1
gene 2 4 8 -3.24165 0 4 -3.24165 1
gene 2 5 8 2.14355 0 5 2.14355 1
gene 1 6 8 0.45725 0 6 0.45725 1
gene 3 7 8 -0.242685 0 7 -0.242685 1
genomeend 0

/* Organism #1 Fitness: 60 Error: 0 */
genomestart 1
trait 1 0.1 0 0 0 0 0 0 0 
trait 2 0.2 0 0 0 0 0 0 0 
trait 3 0.3 0 0 0 0 0 0 0 
node 1 2 1 1
node 2 2 1 1
node 3 1 1 1
node 4 2 1 1
node 5 1 1 1
node 6 3 1 1
node 7 3 1 3
node 8 3 0 2
gene 1 1 8 0.806808 0 1 0.806808 1
gene 1 2 8 0.067807 0 2 0.067807 1
gene 1 3 8 -2.91474 0 3 -2.91474 1
gene 2 4 8 -2.37244 0 4 -2.37244 1
gene 2 5 8 2.41507 0 5 2.41507 1
gene 1 6 8 2.90904 0 6 2.90904 1
gene 3 7 8 0.256578 0 7 0.256578 1
genomeend 1

/* Organism #2 Fitness: 141 Error: 0 */
genomestart 2
trait 1 0.0853642 0 0.215728 0 0 0.135583 0 0 
trait 2 0.2 0 0 0 0 0 0 0 
trait 3 0.3 0 0 0 0 0 0 0 
node 1 2 1 1
node 2 2 1 1
node 3 1 1 1
node 4 2 1 1
node 5 1 1 1
node 6 3 1 1
node 7 3 1 3
node 8 3 0 2
node 34 1 0 0
gene 1 1 8 -0.257366 0 1 -0.257366 1
gene 1 2 8 -0.0628127 0 2 -0.0628127 0
gene 2 3 8 -4.07459 0 3 -4.07459 1
gene 3 4 8 -2.70379 0 4 -2.70379 1
gene 1 5 8 3.56318 0 5 3.56318 1
gene 1 6 8 1.80347 0 6 1.80347 1
gene 3 7 8 0.622948 0 7 0.622948 1
gene 1 2 34 1 0 71 0 1
gene 1 34 8 -0.0628127 0 72 0 1
genomeend 2

/* Organism #3 Fitness: 5 Error: 0 */
genomestart 3
trait 1 0.1 0 0 0 0 0 0 0 
trait 2 0.2 0 0 0 0 0 0 0 
trait 3 0.3 0 0 0 0 0 0 0 
node 1 2 1 1
node 2 2 1 1
node 3 1 1 1
node 4 2 1 1
node 5 1 1 1
node 6 3 1 1
node 7 3 1 3
node 8 3 0 2
gene 1 1 8 -1.11433 0 1 -1.11433 1
gene 1 2 8 0.288468 0 2 0.288468 1
gene 1 3 8 -4.8136 0 3 -4.8136 1
gene 2 4 8 -2.16105 0 4 -2.16105 1
gene 2 5 8 2.00359 0 5 2.00359 1
gene 1 6 8 -2.15609 0 6 -2.15609 1
gene 3 7 8 -0.242685 0 7 -0.242685 1
genomeend 3

/* Organism #4 Fitness: 31 Error: 0 */
genomestart 4
trait 1 0.0853642 0 0.215728 0 0 0.135583 0 0 
trait 2 0.2 0 0 0 0 0 0 0 
trait 3 0.3 0 0 0 0 0 0 0 
node 1 2 1 1
node 2 2 1 1
node 3 1 1 1
node 4 2 1 1
node 5 1 1 1
node 6 3 1 1
node 7 3 1 3
node 8 3 0 2
gene 1 1 8 0.0710675 0 1 0.0710675 1
gene 1 2 8 -2.10353 0 2 -2.10353 1
gene 2 3 8 -5.90561 0 3 -5.90561 1
gene 3 4 8 -4.71766 0 4 -4.71766 1
gene 1 5 8 4.48971 0 5 4.48971 1
gene 1 6 8 3.68744 0 6 3.68744 1
gene 3 7 8 3.10807 0 7 3.10807 1
genomeend 4

/* Organism #5 Fitness: 5 Error: 0 */
genomestart 5
trait 1 0.0926821 0 0.107864 0 0 0.0677916 0 0 
trait 2 0.2 0 0 0 0 0 0 0 
trait 3 0.3 0 0 0 0 0 0 0 
node 1 2 1 1
node 2 2 1 1
node 3 1 1 1
node 4 2 1 1
node 5 1 1 1
node 6 3 1 1
node 7 3 1 3
node 8 3 0 2
gene 1 1 8 0.771974 0 1 0.771974 1
gene 1 2 8 1.01824 0 2 1.01824 1
gene 2 3 8 -2.90232 0 3 -2.90232 1
gene 2 4 8 -5.24804 0 4 -5.24804 1
gene 2 5 8 5.66258 0 5 5.66258 1
gene 1 6 8 0.0108539 0 6 0.0108539 1
gene 3 7 8 2.64916 0 7 2.64916 1
genomeend 5

/* Organism #6 Fitness: 107 Error: 0 */
genomestart 6
trait 1 0.0853642 0 0.215728 0 0 0.135583 0 0 
trait 2 0.2 0 0 0 0 0 0 0 
trait 3 0.3 0 0 0 0 0 0 0 
node 1 2 1 1
node 2 2 1 1
node 3 1 1 1
node 4 2 1 1
node 5 1 1 1
node 6 3 1 1
node 7 3 1 3
node 8 3 0 2
node 34 1 0 0
gene 1 1 8 -1.64611 0 1 -1.64611 1
gene 1 2 8 -2.01228 0 2 -2.01228 0
gene 2 3 8 -3.77335 0 3 -3.77335 1
gene 3 4 8 -1.1006 0 4 -1.1006 1
gene 1 5 8 2.39849 0 5 2.39849 1
gene 1 6 8 1.59326 0 6 1.59326 1
gene 3 7 8 -1.45083 0 7 -1.45083 1
gene 1 2 34 2.94031 0 71 2.94031 1
gene 1 34 8 1.60979 0 72 1.60979 1
genomeend 6

/* Organism #7 Fitness: 351 Error: 0 */
genomestart 7
trait 1 0.1 0 0 0 0 0 0 0 
trait 2 0.2 0 0 0 0 0 0 0 
trait 3 0.3 0 0 0 0 0 0 0 
node 1 2 1 1
node 2 2 1 1
node 3 1 1 1
node 4 2 1 1
node 5 1 1 1
node 6 3 1 1
node 7 3 1 3
node 8 3 0 2
gene 1 1 8 1.20812 0 1 1.20812 1
gene 1 2 8 -1.41644 0 2 -1.41644 1
gene 1 3 8 -2.67283 0 3 -2.67283 1
gene 2 4 8 -3.52811 0 4 -3.52811 1
gene 2 5 8 2.14355 0 5 2.14355 1
gene 1 6 8 0.45725 0 6 0.45725 1
gene 3 7 8 -0.242685 0 7 -0.242685 1
genomeend 7

/* Organism #8 Fitness: 49 Error: 0 */
genomestart 8
trait 1 0.0926821 0 0.107864 0 0 0.0677916 0 0 
trait 2 0.2 0 0 0 0 0 0 0 
trait 3 0.3 0 0 0 0 0 0 0 
node 1 2 1 1
node 2 2 1 1
node 3 1 1 1
node 4 2 1 1
node 5 1 1 1
node 6 3 1 1
node 7 3 1 3
node 8 3 0 2
node 34 1 0 0
gene 1 1 8 0.146432 0 1 0.146432 1
gene 1 2 8 -0.693971 0 2 -0.693971 0
gene 1 3 8 -4.23676 0 3 -4.23676 1
gene 3 4 8 -2.85977 0 4 -2.85977 1
gene 1 5 8 4.57677 0 5 4.57677 1
gene 1 6 8 3.49815 0 6 3.49815 1
gene 3 7 8 -1.8984 0 7 -1.8984 1
gene 1 2 34 2.96322 0 71 2.96322 1
gene 1 34 8 0.616544 0 72 0.616544 1
genomeend 8

/* Organism #9 Fitness: 40 Error: 0 */
genomestart 9
trait 1 0.1 0 0 0 0 0 0 0 
trait 2 0.2 0 0 0 0 0 0 0 
trait 3 0.3 0 0 0 0 0 0 0 
node 1 2 1 1
node 2 2 1 1
node 3 1 1 1
node 4 2 1 1
node 5 1 1 1
node 6 3 1 1
node 7 3 1 3
node 8 3 0 2
gene 1 1 8 1.42387 0 1 1.42387 0
gene 1 2 8 -2.31688 0 2 -2.31688 1
gene 1 3 8 -1.63584 0 3 -1.63584 1
gene 2 4 8 -3.8406 0 4 -3.8406 1
gene 2 5 8 2.6334 0 5 2.6334 1
gene 1 6 8 0.650652 0 6 0.650652 1
gene 3 7 8 -1.91718 0 7 -1.91718 1
genomeend 9

/* Organism #10 Fitness: 5 Error: 0 */
genomestart 10
trait 1 0.1 0 0 0 0 0 0 0 
trait 2 0.2 0 0 0 0 0 0 0 
trait 3 0.29992 0 0.00070516 0 0 0 0.00211765 0.00662134 
node 1 2 1 1
node 2 2 1 1
node 3 1 1 1
node 4 2 1 1
node 5 1 1 1
node 6 3 1 1
node 7 3 1 3
node 8 3 0 2
gene 2 1 8 1.61625 0 1 1.61625 1
gene 1 2 8 0.802827 0 2 0.802827 1
gene 1 3 8 -2.22641 0 3 -2.22641 1
gene 2 4 8 -2.14033 0 4 -2.14033 1
gene 2 5 8 1.33432 0 5 1.33432 1
gene 1 6 8 -0.727267 0 6 -0.727267 1
gene 3 7 8 1.77619 0 7 1.77619 1
genomeend 10

/* Organism #11 Fitness: 30 Error: 0 */
genomestart 11
trait 1 0.1 0 0 0 0 0 0 0 
trait 2 0.2 0 0 0 0 0 0 0 
trait 3 0.29992 0 0.00070516 0 0 0 0.00211765 0.00662134 
node 1 2 1 1
node 2 2 1 1
node 3 1 1 1
node 4 2 1 1
node 5 1 1 1
node 6 3 1 1
node 7 3 1 3
node 8 3 0 2
gene 1 1 8 2.54204 0 1 2.54204 1
gene 1 2 8 -1.74159 0 2 -1.74159 1
gene 1 3 8 -1.84178 0 3 -1.84178 1
gene 2 4 8 -4.92258 0 4 -4.92258 1
gene 2 5 8 -0.00922465 0 5 -0.00922465 1
gene 1 6 8 2.03619 0 6 2.03619 1
gene 3 7 8 -1.67938 0 7 -1.67938 1
genomeend 11

/* Organism #12 Fitness: 5 Error: 0 */
genomestart 12
trait 1 0.0853642 0 0.215728 0 0 0.135583 0 0 
trait 2 0.2 0 0 0 0 0 0 0 
trait 3 0.3 0 0 0 0 0 0 0 
node 1 2 1 1
node 2 2 1 1
node 3 1 1 1
node 4 2 1 1
node 5 1 1 1
node 6 3 1 1
node 7 3 1 3
node 8 3 0 2
gene 1 1 8 -0.254956 0 1 -0.254956 1
gene 1 2 8 1.64397 0 2 1.64397 1
gene 2 3 8 -1.81242 0 3 -1.81242 1
gene 3 4 8 -2.54789 0 4 -2.54789 1
gene 1 5 8 6.03622 0 5 6.03622 1
gene 1 6 8 -0.532108 0 6 -0.532108 1
gene 3 7 8 2.2116 0 7 2.2116 1
genomeend 12

/* Organism #13 Fitness: 47 Error: 0 */
genomestart 13
trait 1 0.0926821 0 0.107864 0 0 0.0677916 0 0 
trait 2 0.2 0 0 0 0 0 0 0 
trait 3 0.3 0 0 0 0 0 0 0 
node 1 2 1 1
node 2 2 1 1
node 3 1 1 1
node 4 2 1 1
node 5 1 1 1
node 6 3 1 1
node 7 3 1 3
node 8 3 0 2
gene 1 1 8 -1.90403 0 1 -1.90403 1
gene 1 2 8 -1.74781 0 2 -1.74781 1
gene 2 3 8 -2.91403 0 3 -2.91403 1
gene 2 4 8 -3.58597 0 4 -3.58597 1
gene 1 5 8 4.83106 0 5 4.83106 1
gene 1 6 8 4.28934 0 6 4.28934 1
gene 3 7 8 -1.05196 0 7 -1.05196 1
genomeend 13

/* Organism #14 Fitness: 5 Error: 0 */
genomestart 14
trait 1 0.0926821 0 0.107864 0 0 0.0677916 0 0 
trait 2 0.2 0 0 0 0 0 0 0 
trait 3 0.29992 0 0.00070516 0 0 0 0.00211765 0.00662134 
node 1 2 1 1
node 2 2 1 1
node 3 1 1 1
node 4 2 1 1
node 5 1 1 1
node 6 3 1 1
node 7 3 1 3
node 8 3 0 2
gene 2 1 8 -0.846419 0 1 -0.846419 1
gene 1 2 8 1.59427 0 2 1.59427 1
gene 1 3 8 -5.42114 0 3 -5.42114 1
gene 3 4 8 -3.11101 0 4 -3.11101 1
gene 2 5 8 5.62438 0 5 5.62438 1
gene 1 6 8 -0.341367 0 6 -0.341367 1
gene 3 7 8 -0.606087 0 7 -0.606087 1
genomeend 14

/* Organism #15 Fitness: 109 Error: 0 */
genomestart 15
trait 1 0.0926821 0 0.107864 0.84332 0 0.0677916 0 0 
trait 2 0.2 0 0 0 0 0 0 0 
trait 3 0.3 0 0 0 0 0 0 0 
node 1 2 1 1
node 2 2 1 1
node 3 1 1 1
node 4 2 1 1
node 5 1 1 1
node 6 3 1 1
node 7 3 1 3
node 8 3 0 2
gene 1 1 8 2.21041 0 1 2.21041 1
gene 1 2 8 0.479706 0 2 0.479706 0
gene 2 3 8 -4.48839 0 3 -4.48839 1
gene 2 4 8 -4.94692 0 4 -4.94692 1
gene 1 5 8 5.55763 0 5 5.55763 1
gene 1 6 8 0.880768 0 6 0.880768 1
gene 3 7 8 -0.166051 0 7 -0.166051 1
genomeend 15

/* Organism #16 Fitness: 77 Error: 0 */
genomestart 16
trait 1 0.0853642 0 0.215728 0 0 0.135583 0 0 
trait 2 0.2 0 0 0.736965 0 0 0 0.412111 
trait 3 0.3 0 0 0 0 0 0 0 
node 1 2 1 1
node 2 2 1 1
node 3 1 1 1
node 4 2 1 1
node 5 1 1 1
node 6 3 1 1
node 7 3 1 3
node 8 3 0 2
gene 1 1 8 0.713233 0 1 0.713233 1
gene 1 2 8 -2.40191 0 2 -2.40191 1
gene 2 3 8 -5.40166 0 3 -5.40166 1
gene 3 4 8 -2.35477 0 4 -2.35477 1
gene 1 5 8 5.48705 0 5 5.48705 1
gene 1 6 8 1.22219 0 6 1.22219 1
gene 3 7 8 1.52721 0 7 1.52721 1
genomeend 16

/* Organism #17 Fitness: 338 Error: 0 */
genomestart 17
trait 1 0.1 0 0 0 0 0 0 0 
trait 2 0.2 0 0 0 0 0 0 0 
trait 3 0.3 0 0 0 0 0 0 0 
node 1 2 1 1
node 2 2 1 1
node 3 1 1 1
node 4 2 1 1
node 5 1 1 1
node 6 3 1 1
node 7 3 1 3
node 8 3 0 2
gene 1 1 8 1.20812 0 1 1.20812 1
gene 1 2 8 -1.32513 0 2 -1.32513 1
gene 1 3 8 -2.67283 0 3 -2.67283 1
gene 2 4 8 -3.52811 0 4 -3.52811 1
gene 2 5 8 2.14355 0 5 2.14355 1
gene 1 6 8 0.45725 0 6 0.45725 1
gene 3 7 8 -0.242685 0 7 -0.242685 1
genomeend 17

/* Organism #18 Fitness: 11 Error: 0 */
genomestart 18
trait 1 0.0926821 0 0.107864 0 0 0.0677916 0 0 
trait 2 0.2 0 0 0 0 0 0 0 
trait 3 0.3 0 0 0 0 0 0 0 
node 1 2 1 1
node 2 2 1 1
node 3 1 1 1
node 4 2 1 1
node 5 1 1 1
node 6 3 1 1
node 7 3 1 3
node 8 3 0 2
gene 1 1 8 -2.74298 0 1 -2.74298 1
gene 1 2 8 -0.367464 0 2 -0.367464 1
gene 1 3 8 -4.55958 0 3 -4.55958 1
gene 2 4 8 -5.28232 0 4 -5.28232 1
gene 1 5 8 3.13945 0 5 3.13945 1
gene 1 6 8 0.529006 0 6 0.529006 1
gene 3 7 8 2.03381 0 7 2.03381 1
genomeend 18

/* Organism #19 Fitness: 93 Error: 0 */
genomestart 19
trait 1 0.1 0 0 0 0 0 0 0 
trait 2 0.2 0 0 0 0 0 0 0 
trait 3 0.3 0 0 0 0 0 0 0 
node 1 2 1 1
node 2 2 1 1
node 3 1 1 1
node 4 2 1 1
node 5 1 1 1
node 6 3 1 1
node 7 3 1 3
node 8 3 0 2
gene 1 1 8 2.87584 0 1 2.87584 1
gene 1 2 8 0.361919 0 2 0.361919 1
gene 1 3 8 -4.24155 0 3 -4.24155 1
gene 2 4 8 -2.57785 0 4 -2.57785 1
gene 2 5 8 3.37127 0 5 3.37127 1
gene 1 6 8 0.999159 0 6 0.999159 1
gene 3 7 8 -1.51083 0 7 -1.51083 1
genomeend 19

/* Organism #20 Fitness: 36 Error: 0 */
genomestart 20
trait 1 0.0926821 0 0.107864 0 0 0.0677916 0 0 
trait 2 0.2 0 0 0 0 0 0 0 
trait 3 0.3 0 0 0 0 0 0 0 
node 1 2 1 1
node 2 2 1 1
node 3 1 1 1
node 4 2 1 1
node 5 1 1 1
node 6 3 1 1
node 7 3 1 3
node 8 3 0 2
node 34 1 0 0
gene 3 1 8 0.287352 0 1 0.287352 0
gene 1 2 8 -0.520185 0 2 -0.520185 0
gene 1 3 8 -3.99655 0 3 -3.99655 1
gene 2 4 8 -3.24165 0 4 -3.24165 1
gene 2 5 8 3.75178 0 5 3.75178 1
gene 1 6 8 0.555919 0 6 0.555919 1
gene 3 7 8 -0.0370774 0 7 -0.0370774 1
gene 1 2 34 3.17165 0 71 3.17165 1
gene 1 34 8 -2.32746 0 72 -2.32746 1
genomeend 20

/* Organism #21 Fitness: 165 Error: 0 */
genomestart 21
trait 1 0.1 0 0 0 0 0 0 0 
trait 2 0.2 0 0 0 0 0 0 0 
trait 3 0.29992 0 0.00070516 0 0 0 0.00211765 0.00662134 
node 1 2 1 1
node 2 2 1 1
node 3 1 1 1
node 4 2 1 1
node 5 1 1 1
node 6 3 1 1
node 7 3 1 3
node 8 3 0 2
gene 2 1 8 -0.294185 0 1 -0.294185 1
gene 1 2 8 -0.731741 0 2 -0.731741 1
gene 1 3 8 -2.55505 0 3 -2.55505 1
gene 2 4 8 -3.52811 0 4 -3.52811 1
gene 2 5 8 3.27138 0 5 3.27138 1
gene 1 6 8 0.45725 0 6 0.45725 1
gene 3 7 8 -0.176438 0 7 -0.176438 1
genomeend 21

/* Species #2 : (Size 12) (AF 43) (Age 7)  */


/* Organism #22 Fitness: 90 Error: 0 */
genomestart 22
trait 1 0.1 0 0 0 0 0 0 0 
trait 2 0.2 0 0 0 0 0 0 0 
trait 3 0.3 0 0 0 0 0 0 0 
node 1 2 1 1
node 2 3 1 1
node 3 3 1 1
node 4 1 1 1
node 5 2 1 1
node 6 1 1 1
node 7 2 1 3
node 8 2 0 2
node 12 1 0 0
gene 2 1 8 0.436914 0 1 0.436914 0
gene 2 2 8 -1.97553 0 2 -1.97553 1
gene 3 3 8 1.89615 0 3 1.89615 0
gene 2 4 8 -1.28919 0 4 -1.28919 1
gene 1 5 8 1.25641 0 5 1.25641 1
gene 1 6 8 1.09482 0 6 1.09482 1
gene 2 7 8 -1.5896 0 7 -1.5896 1
gene 2 1 12 2.42096 0 14 2.42096 1
gene 2 12 8 1.447 0 15 1.447 1
gene 3 2 12 2.51473 0 24 2.51473 1
genomeend 22

/* Organism #23 Fitness: 29 Error: 0 */
genomestart 23
trait 1 0.1 0 0 0 0 0 0 0 
trait 2 0.2 0 0 0 0 0 0 0 
trait 3 0.3 0 0 0 0 0 0 0 
node 1 2 1 1
node 2 3 1 1
node 3 3 1 1
node 4 1 1 1
node 5 2 1 1
node 6 1 1 1
node 7 2 1 3
node 8 2 0 2
node 12 1 0 0
gene 2 1 8 2.55997 0 1 2.55997 0
gene 2 2 8 0.104048 0 2 0.104048 1
gene 3 3 8 1.83986 0 3 1.83986 0
gene 2 4 8 -3.14589 0 4 -3.14589 1
gene 1 5 8 3.70851 0 5 3.70851 1
gene 1 6 8 1.09482 0 6 1.09482 1
gene 2 7 8 1.95801 0 7 1.95801 1
gene 2 1 12 2.42032 0 14 2.42032 1
gene 2 12 8 1.50128 0 15 1.50128 1
gene 3 2 12 4.96763 0 24 4.96763 1
genomeend 23

/* Organism #24 Fitness: 5 Error: 0 */
genomestart 24
trait 1 0.1 0 0 0 0 0 0 0 
trait 2 0.2 0 0 0 0 0 0 0 
trait 3 0.3 0 0 0 0 0 0 0 
node 1 1 1 1
node 2 3 1 1
node 3 3 1 1
node 4 1 1 1
node 5 2 1 1
node 6 1 1 1
node 7 2 1 3
node 8 2 0 2
node 12 1 0 0
gene 2 1 8 -2.45261 0 1 -2.45261 0
gene 2 2 8 -2.71218 0 2 -2.71218 1
gene 3 3 8 2.37804 0 3 2.37804 0
gene 2 4 8 -2.09594 0 4 -2.09594 1
gene 1 5 8 2.42049 0 5 2.42049 1
gene 1 6 8 -0.889964 0 6 -0.889964 1
gene 2 7 8 0.904866 0 7 0.904866 1
gene 2 1 12 -0.744911 0 14 -0.744911 1
gene 2 12 8 -0.585286 0 15 -0.585286 1
gene 3 2 12 -3.64874 0 24 -3.64874 1
genomeend 24

/* Organism #25 Fitness: 21 Error: 0 */
genomestart 25
trait 1 0.1 0 0 0 0 0 0 0 
trait 2 0.2 0 0 0 0 0 0 0 
trait 3 0.3 0 0 0 0 0 0 0 
node 1 2 1 1
node 2 3 1 1
node 3 3 1 1
node 4 1 1 1
node 5 2 1 1
node 6 1 1 1
node 7 2 1 3
node 8 2 0 2
node 12 1 0 0
gene 2 1 8 -2.2565 0 1 -2.2565 1
gene 2 2 8 2.58125 0 2 2.58125 1
gene 3 3 8 -1.35494 0 3 -1.35494 1
gene 2 4 8 -3.353 0 4 -3.353 1
gene 1 5 8 0.182862 0 5 0.182862 1
gene 1 6 8 1.32248 0 6 1.32248 1
gene 2 7 8 0.313197 0 7 0.313197 1
gene 2 1 12 1.83525 0 14 1.83525 1
gene 2 12 8 2.42013 0 15 2.42013 1
gene 3 2 12 0.157946 0 24 0.157946 1
genomeend 25

/* Organism #26 Fitness: 58 Error: 0 */
genomestart 26
trait 1 0.1 0 0 0 0 0 0 0 
trait 2 0.2 0 0 0 0 0 0 0 
trait 3 0.3 0 0 0 0 0 0 0 
node 1 2 1 1
node 2 3 1 1
node 3 3 1 1
node 4 1 1 1
node 5 2 1 1
node 6 1 1 1
node 7 2 1 3
node 8 2 0 2
node 12 1 0 0
gene 2 1 8 0.436914 0 1 0.436914 0
gene 2 2 8 2.58125 0 2 2.58125 1
gene 3 3 8 -1.90813 0 3 -1.90813 0
gene 2 4 8 -1.28919 0 4 -1.28919 1
gene 1 5 8 1.74426 0 5 1.74426 1
gene 1 6 8 2.00357 0 6 2.00357 1
gene 2 7 8 -1.5896 0 7 -1.5896 1
gene 2 1 12 2.42096 0 14 2.42096 1
gene 2 12 8 0.434032 0 15 0.434032 1
gene 3 2 12 2.51473 0 24 2.51473 1
genomeend 26

/* Organism #27 Fitness: 35 Error: 0 */
genomestart 27
trait 1 0.1 0 0 0 0 0 0 0 
trait 2 0.2 0 0 0 0 0 0 0 
trait 3 0.3 0 0 0 0 0 0 0 
node 1 1 1 1
node 2 3 1 1
node 3 3 1 1
node 4 1 1 1
node 5 2 1 1
node 6 1 1 1
node 7 2 1 3
node 8 2 0 2
node 12 1 0 0
gene 2 1 8 -0.557912 0 1 -0.557912 0
gene 2 2 8 -2.25304 0 2 -2.25304 1
gene 3 3 8 -0.402064 0 3 -0.402064 0
gene 2 4 8 1.71539 0 4 1.71539 1
gene 1 5 8 2.28294 0 5 2.28294 1
gene 1 6 8 0.670793 0 6 0.670793 1
gene 2 7 8 -0.781185 0 7 -0.781185 1
gene 2 1 12 -1.20354 0 14 -1.20354 1
gene 2 12 8 1.09995 0 15 1.09995 1
gene 3 2 12 -1.3257 0 24 -1.3257 1
gene 3 4 12 -1.11395 0 45 -1.11395 1
gene 3 7 12 0.0657211 0 58 0.0657211 1
genomeend 27

/* Organism #28 Fitness: 67 Error: 0 */
genomestart 28
trait 1 0.1 0 0 0 0 0 0 0 
trait 2 0.2 0 0 0 0 0 0 0 
trait 3 0.3 0 0 0 0 0 0 0 
node 1 2 1 1
node 2 3 1 1
node 3 3 1 1
node 4 1 1 1
node 5 2 1 1
node 6 1 1 1
node 7 2 1 3
node 8 2 0 2
node 12 1 0 0
gene 2 1 8 2.2167 0 1 2.2167 0
gene 2 2 8 0.399477 0 2 0.399477 1
gene 3 3 8 0.82096 0 3 0.82096 0
gene 2 4 8 1.14212 0 4 1.14212 1
gene 1 5 8 0.194147 0 5 0.194147 1
gene 1 6 8 1.98316 0 6 1.98316 1
gene 2 7 8 -1.58758 0 7 -1.58758 1
gene 1 1 12 3.46913 0 14 3.46913 1
gene 2 12 8 1.90068 0 15 1.90068 1
gene 3 2 12 -0.328687 0 24 -0.328687 1
genomeend 28

/* Organism #29 Fitness: 54 Error: 0 */
genomestart 29
trait 1 0.1 0 0 0 0 0 0 0 
trait 2 0.2 0 0 0 0 0 0 0 
trait 3 0.3 0 0 0 0 0 0 0 
node 1 1 1 1
node 2 3 1 1
node 3 3 1 1
node 4 1 1 1
node 5 2 1 1
node 6 1 1 1
node 7 2 1 3
node 8 2 0 2
node 12 1 0 0
gene 2 1 8 -2.01314 0 1 -2.01314 0
gene 2 2 8 2.58125 0 2 2.58125 1
gene 3 3 8 0.315011 0 3 0.315011 0
gene 2 4 8 0.238527 0 4 0.238527 1
gene 1 5 8 1.98863 0 5 1.98863 1
gene 1 6 8 0.93669 0 6 0.93669 1
gene 2 7 8 -0.979279 0 7 -0.979279 1
gene 2 1 12 1.24955 0 14 1.24955 1
gene 2 12 8 0.189866 0 15 0.189866 1
gene 3 2 12 2.59529 0 24 2.59529 1
genomeend 29

/* Organism #30 Fitness: 29 Error: 0 */
genomestart 30
trait 1 0.1 0 0 0 0 0 0 0 
trait 2 0.2 0 0 0 0 0 0 0 
trait 3 0.3 0 0 0 0 0 0 0 
node 1 2 1 1
node 2 3 1 1
node 3 3 1 1
node 4 1 1 1
node 5 2 1 1
node 6 1 1 1
node 7 2 1 3
node 8 2 0 2
node 12 1 0 0
gene 2 1 8 1.03141 0 1 1.03141 0
gene 2 2 8 0.444039 0 2 0.444039 1
gene 3 3 8 -1.09881 0 3 -1.09881 0
gene 2 4 8 -0.94247 0 4 -0.94247 1
gene 1 5 8 1.62252 0 5 1.62252 1
gene 1 6 8 2.13961 0 6 2.13961 1
gene 2 7 8 -0.918974 0 7 -0.918974 1
gene 2 1 12 1.18708 0 14 1.18708 1
gene 2 12 8 3.03584 0 15 3.03584 1
gene 3 2 12 0.687733 0 24 0.687733 1
genomeend 30

/* Organism #31 Fitness: 25 Error: 0 */
genomestart 31
trait 1 0.1 0 0 0 0 0 0 0 
trait 2 0.2 0 0 0 0 0 0 0 
trait 3 0.3 0 0 0 0 0 0 0 
node 1 2 1 1
node 2 3 1 1
node 3 3 1 1
node 4 1 1 1
node 5 2 1 1
node 6 1 1 1
node 7 2 1 3
node 8 2 0 2
node 12 1 0 0
gene 2 1 8 -1.24699 0 1 -1.24699 0
gene 2 2 8 -1.18921 0 2 -1.18921 1
gene 3 3 8 -3.94833 0 3 -3.94833 0
gene 2 4 8 0.0728123 0 4 0.0728123 1
gene 1 5 8 3.19054 0 5 3.19054 1
gene 1 6 8 1.8056 0 6 1.8056 1
gene 2 7 8 1.22623 0 7 1.22623 1
gene 2 1 12 4.54467 0 14 4.54467 1
gene 2 12 8 2.61038 0 15 2.61038 1
gene 3 2 12 3.94293 0 24 3.94293 1
genomeend 31

/* Organism #32 Fitness: 45 Error: 0 */
genomestart 32
trait 1 0.1 0 0 0 0 0 0 0 
trait 2 0.2 0 0 0 0 0 0 0 
trait 3 0.3 0 0 0 0 0 0 0 
node 1 2 1 1
node 2 3 1 1
node 3 3 1 1
node 4 1 1 1
node 5 2 1 1
node 6 1 1 1
node 7 2 1 3
node 8 2 0 2
node 12 1 0 0
gene 2 1 8 0.436914 0 1 0.436914 0
gene 2 2 8 2.58125 0 2 2.58125 1
gene 3 3 8 -1.90813 0 3 -1.90813 0
gene 2 4 8 -1.28919 0 4 -1.28919 1
gene 1 5 8 1.74426 0 5 1.74426 1
gene 1 6 8 1.09482 0 6 1.09482 1
gene 2 7 8 -1.5896 0 7 -1.5896 1
gene 2 1 12 2.42096 0 14 2.42096 1
gene 2 12 8 1.447 0 15 1.447 1
gene 3 2 12 2.51473 0 24 2.51473 1
genomeend 32

/* Organism #33 Fitness: 58 Error: 0 */
genomestart 33
trait 1 0.1 0 0 0 0 0 0 0 
trait 2 0.2 0 0 0 0 0 0 0 
trait 3 0.3 0 0 0 0 0 0 0 
node 1 2 1 1
node 2 3 1 1
node 3 3 1 1
node 4 1 1 1
node 5 2 1 1
node 6 1 1 1
node 7 2 1 3
node 8 2 0 2
node 12 1 0 0
gene 2 1 8 0.436914 0 1 0.436914 0
gene 2 2 8 2.58125 0 2 2.58125 1
gene 3 3 8 -1.90813 0 3 -1.90813 0
gene 2 4 8 -1.28919 0 4 -1.28919 1
gene 1 5 8 1.74426 0 5 1.74426 1
gene 1 6 8 2.00357 0 6 2.00357 1
gene 2 7 8 -1.5896 0 7 -1.5896 1
gene 2 1 12 2.42096 0 14 2.42096 1
gene 2 12 8 0.434032 0 15 0.434032 1
gene 3 2 12 2.51473 0 24 2.51473 1
genomeend 33

/* Species #3 : (Size 22) (AF 82.3182) (Age 4)  */


/* Organism #34 Fitness: 107 Error: 0 */
genomestart 34
trait 1 0.105182 0 0 0 0 0 0 0 
trait 2 0.2 0 0 0 0 0 0 0 
trait 3 0.299681 0 0.00282064 0 0 0 0.10907 0.0264853 
node 1 2 1 1
node 2 3 1 1
node 3 3 1 1
node 4 1 1 1
node 5 2 1 1
node 6 1 1 1
node 7 2 1 3
node 8 2 0 2
node 24 1 0 0
node 29 1 0 0
gene 1 1 8 0.410973 0 1 0.410973 1
gene 2 2 8 -0.652131 0 2 -0.652131 1
gene 1 3 8 -2.21138 0 3 -2.21138 0
gene 2 4 8 -4.18726 0 4 -4.18726 1
gene 2 5 8 2.25209 0 5 2.25209 1
gene 2 6 8 1.58684 0 6 1.58684 1
gene 3 7 8 -0.158073 0 7 -0.158073 1
gene 1 3 24 1.61727 0 40 1.11727 1
gene 1 24 8 -0.882059 0 41 -0.691704 1
gene 3 2 24 0.252611 0 48 0.252611 1
gene 3 5 29 1 0 59 0 1
gene 3 29 8 0.906202 0 60 0 1
genomeend 34

/* Organism #35 Fitness: 358 Error: 0 */
genomestart 35
trait 1 0.110364 0 0 0 0 0 0 0 
trait 2 0.2 0 0 0 0 0 0 0 
trait 3 0.299361 0 0.00564128 0 0 0 0.21814 0.0529707 
node 1 2 1 1
node 2 3 1 1
node 3 3 1 1
node 4 1 1 1
node 5 2 1 1
node 6 1 1 1
node 7 2 1 3
node 8 2 0 2
node 24 1 0 0
node 29 1 0 0
gene 2 1 8 -0.386171 0 1 -0.386171 1
gene 2 2 8 0.020867 0 2 0.020867 1
gene 1 3 8 -1.74994 0 3 -1.74994 0
gene 3 4 8 -4.8464 0 4 -4.8464 1
gene 3 5 8 1.2328 0 5 1.2328 1
gene 2 6 8 1.74623 0 6 1.74623 1
gene 2 7 8 -0.0734612 0 7 -0.0734612 1
gene 1 3 24 1.61727 0 40 1.11727 1
gene 1 24 8 -0.882059 0 41 -0.691704 1
gene 3 2 24 0.252611 0 48 0.252611 1
gene 3 5 29 1 0 59 0 1
gene 3 29 8 0.906202 0 60 0 1
genomeend 35

/* Organism #36 Fitness: 5 Error: 0 */
genomestart 36
trait 1 0.107773 0 0 0 0 0 0 0 
trait 2 0.2 0 0 0 0 0 0 0 
trait 3 0.299521 0 0.00423096 0 0 0 0.163605 0.039728 
node 1 2 1 1
node 2 3 1 1
node 3 3 1 1
node 4 1 1 1
node 5 2 1 1
node 6 1 1 1
node 7 2 1 3
node 8 2 0 2
node 24 1 0 0
node 29 1 0 0
gene 1 1 8 1.42758 0 1 1.42758 0
gene 2 2 8 -2.11999 0 2 -2.11999 1
gene 1 3 8 -0.506994 0 3 -0.506994 0
gene 3 4 8 1.83469 0 4 1.83469 1
gene 3 5 8 -1.04049 0 5 -1.04049 0
gene 2 6 8 -0.90841 0 6 -0.90841 1
gene 3 7 8 -1.4045 0 7 -1.4045 1
gene 1 3 24 3.57568 0 40 3.57568 1
gene 1 24 8 0.854569 0 41 0.854569 1
gene 3 2 24 0.144272 0 48 0.144272 1
gene 3 5 29 -0.887876 0 59 -0.887876 1
gene 3 29 8 0.906202 0 60 0.906202 1
genomeend 36

/* Organism #37 Fitness: 50 Error: 0 */
genomestart 37
trait 1 0.107773 0 0 0 0 0 0 0 
trait 2 0.2 0 0 0 0 0 0 0 
trait 3 0.299521 0 0.00423096 0 0 0 0.163605 0.039728 
node 1 2 1 1
node 2 3 1 1
node 3 3 1 1
node 4 1 1 1
node 5 2 1 1
node 6 1 1 1
node 7 2 1 3
node 8 2 0 2
node 24 1 0 0
gene 2 1 8 -1.84496 0 1 -1.84496 0
gene 2 2 8 -1.02884 0 2 -1.02884 1
gene 1 3 8 -3.47289 0 3 -3.47289 1
gene 2 4 8 -3.90111 0 4 -3.90111 1
gene 3 5 8 4.84786 0 5 4.84786 1
gene 2 6 8 1.8874 0 6 1.8874 1
gene 3 7 8 -1.67704 0 7 -1.67704 1
gene 1 3 24 3.09622 0 40 3.09622 1
gene 1 24 8 -0.268241 0 41 -0.268241 1
gene 3 2 24 0.594442 0 48 0.594442 1
genomeend 37

/* Organism #38 Fitness: 98 Error: 0 */
genomestart 38
trait 1 0.110364 0 0 0 0 0 0 0 
trait 2 0.2 0 0 0 0 0 0 0 
trait 3 0.299361 0 0.00564128 0 0 0 0.21814 0.0529707 
node 1 2 1 1
node 2 3 1 1
node 3 3 1 1
node 4 1 1 1
node 5 2 1 1
node 6 1 1 1
node 7 2 1 3
node 8 2 0 2
node 24 1 0 0
node 29 1 0 0
gene 2 1 8 -0.952678 0 1 -0.952678 1
gene 2 2 8 -0.258433 0 2 -0.258433 1
gene 1 3 8 -2.12631 0 3 -2.12631 0
gene 3 4 8 -4.81593 0 4 -4.81593 1
gene 3 5 8 1.7366 0 5 1.7366 1
gene 2 6 8 1.53564 0 6 1.53564 1
gene 2 7 8 -0.566011 0 7 -0.566011 1
gene 1 3 24 1.61727 0 40 1.36727 1
gene 1 24 8 -0.345918 0 41 -0.25074 1
gene 3 2 24 -0.176165 0 48 -0.176165 1
gene 3 5 29 1 0 59 0 1
gene 3 29 8 0.906202 0 60 0 1
genomeend 38

/* Organism #39 Fitness: 7 Error: 0 */
genomestart 39
trait 1 0.110364 0 0 0 0 0 0 0 
trait 2 0.2 0 0 0 0 0 0 0 
trait 3 0.299361 0 0.00564128 0 0 0 0.21814 0.0529707 
node 1 2 1 1
node 2 3 1 1
node 3 3 1 1
node 4 1 1 1
node 5 2 1 1
node 6 1 1 1
node 7 2 1 3
node 8 2 0 2
node 24 1 0 0
node 29 1 0 0
gene 2 1 8 -1.15831 0 1 -1.15831 0
gene 2 2 8 -0.461044 0 2 -0.461044 1
gene 1 3 8 0.269658 0 3 0.269658 0
gene 3 4 8 -6.70236 0 4 -6.70236 1
gene 3 5 8 1.69287 0 5 1.69287 1
gene 2 6 8 -0.834109 0 6 -0.834109 1
gene 2 7 8 0.764787 0 7 0.764787 1
gene 1 3 24 2.84151 0 40 2.84151 1
gene 1 24 8 -2.89189 0 41 -2.89189 1
gene 3 2 24 1.88899 0 48 1.88899 1
gene 3 5 29 -0.498549 0 59 -0.498549 1
gene 3 29 8 -1.01415 0 60 -1.01415 1
genomeend 39

/* Organism #40 Fitness: 65 Error: 0 */
genomestart 40
trait 1 0.107773 0 0 0 0 0 0 0 
trait 2 0.2 0 0 0 0 0 0 0 
trait 3 0.299521 0 0.00423096 0 0 0 0.163605 0.039728 
node 1 2 1 1
node 2 3 1 1
node 3 3 1 1
node 4 1 1 1
node 5 2 1 1
node 6 1 1 1
node 7 2 1 3
node 8 2 0 2
node 24 1 0 0
node 29 1 0 0
gene 1 1 8 0.373276 0 1 0.373276 1
gene 2 2 8 -0.238943 0 2 -0.238943 1
gene 1 3 8 -1.35919 0 3 -1.35919 0
gene 3 4 8 -4.03548 0 4 -4.03548 1
gene 2 5 8 1.57914 0 5 1.57914 1
gene 2 6 8 1.58413 0 6 1.58413 1
gene 2 7 8 -0.335953 0 7 -0.335953 1
gene 1 3 24 1.30863 0 40 0.558633 1
gene 1 24 8 -0.631384 0 41 -0.345852 1
gene 3 2 24 0.252611 0 48 0.252611 1
gene 3 5 29 1 0 59 0 1
gene 3 29 8 0.906202 0 60 0 1
gene 1 3 29 0.440085 0 79 0.440085 1
gene 1 7 29 0.816589 0 83 0.816589 1
genomeend 40

/* Organism #41 Fitness: 210 Error: 0 */
genomestart 41
trait 1 0.110364 0 0 0 0 0 0 0 
trait 2 0.2 0 0 0 0 0 0 0 
trait 3 0.299361 0 0.00564128 0 0 0 0.21814 0.0529707 
node 1 2 1 1
node 2 3 1 1
node 3 3 1 1
node 4 1 1 1
node 5 2 1 1
node 6 1 1 1
node 7 2 1 3
node 8 2 0 2
node 24 1 0 0
node 29 1 0 0
gene 2 1 8 -0.797435 0 1 -0.797435 1
gene 2 2 8 -0.384355 0 2 -0.384355 1
gene 1 3 8 -1.25973 0 3 -1.25973 1
gene 3 4 8 -3.82277 0 4 -3.82277 1
gene 3 5 8 1.91381 0 5 1.91381 1
gene 2 6 8 1.58142 0 6 1.58142 1
gene 2 7 8 -0.513833 0 7 -0.513833 1
gene 1 3 24 1 0 40 0.5 1
gene 1 24 8 -0.38071 0 41 0 1
gene 3 2 24 -0.604942 0 48 -0.604942 1
gene 3 5 29 1 0 59 0 1
gene 3 29 8 0.906202 0 60 0 1
genomeend 41

/* Organism #42 Fitness: 34 Error: 0 */
genomestart 42
trait 1 0.110364 0 0 0 0 0 0 0 
trait 2 0.2 0 0 0 0 0 0 0 
trait 3 0.299361 0 0.00564128 0 0 0 0.21814 0.0529707 
node 1 2 1 1
node 2 3 1 1
node 3 3 1 1
node 4 1 1 1
node 5 2 1 1
node 6 1 1 1
node 7 2 1 3
node 8 2 0 2
node 24 1 0 0
node 29 1 0 0
gene 2 1 8 0.00252141 0 1 0.00252141 1
gene 2 2 8 -1.21822 0 2 -1.21822 1
gene 1 3 8 0.522529 0 3 0.522529 0
gene 3 4 8 -3.51696 0 4 -3.51696 1
gene 3 5 8 1.75827 0 5 1.75827 1
gene 2 6 8 2.45121 0 6 2.45121 1
gene 2 7 8 -2.16727 0 7 -2.16727 1
gene 1 3 24 1.18206 0 40 1.18206 1
gene 1 24 8 -1.70772 0 41 -1.70772 1
gene 3 2 24 -1.41504 0 48 -1.41504 1
gene 3 5 29 1.76624 0 59 1.76624 1
gene 3 29 8 0.906202 0 60 0.906202 1
genomeend 42

/* Organism #43 Fitness: 144 Error: 0 */
genomestart 43
trait 1 0.110364 0 0 0 0 0 0 0 
trait 2 0.2 0 0 0 0 0 0 0 
trait 3 0.299361 0 0.00564128 0 0 0 0.21814 0.0529707 
node 1 2 1 1
node 2 3 1 1
node 3 3 1 1
node 4 1 1 1
node 5 2 1 1
node 6 1 1 1
node 7 2 1 3
node 8 2 0 2
node 24 1 0 0
node 29 1 0 0
gene 2 1 8 0.335579 0 1 0.335579 0
gene 2 2 8 0.174245 0 2 0.174245 1
gene 1 3 8 -0.506994 0 3 -0.506994 0
gene 3 4 8 -3.88369 0 4 -3.88369 1
gene 3 5 8 0.906202 0 5 0.906202 0
gene 2 6 8 1.58142 0 6 1.58142 1
gene 2 7 8 -0.513833 0 7 -0.513833 1
gene 1 3 24 1 0 40 0 1
gene 1 24 8 -0.38071 0 41 0 1
gene 3 2 24 0.252611 0 48 0.252611 1
gene 3 5 29 1 0 59 0 1
gene 3 29 8 0.906202 0 60 0 1
genomeend 43

/* Organism #44 Fitness: 29 Error: 0 */
genomestart 44
trait 1 0.110364 0 0 0 0 0 0 0 
trait 2 0.2 0 0 0 0 0 0 0 
trait 3 0.299361 0 0.00564128 0 0 0 0.21814 0.0529707 
node 1 2 1 1
node 2 3 1 1
node 3 3 1 1
node 4 1 1 1
node 5 2 1 1
node 6 1 1 1
node 7 2 1 3
node 8 2 0 2
node 24 1 0 0
node 29 1 0 0
gene 2 1 8 -2.12725 0 1 -2.12725 1
gene 2 2 8 -1.85521 0 2 -1.85521 1
gene 1 3 8 -0.945789 0 3 -0.945789 0
gene 3 4 8 -5.86736 0 4 -5.86736 1
gene 3 5 8 -0.401982 0 5 -0.401982 0
gene 2 6 8 4.24419 0 6 4.24419 1
gene 2 7 8 1.75136 0 7 1.75136 1
gene 1 3 24 2.16023 0 40 2.16023 1
gene 3 24 8 -1.47526 0 41 -1.47526 1
gene 3 2 24 0.252611 0 48 0.252611 1
gene 3 5 29 -0.873477 0 59 -0.873477 1
gene 3 29 8 0.360302 0 60 0.360302 1
genomeend 44

/* Organism #45 Fitness: 5 Error: 0 */
genomestart 45
trait 1 0.110364 0 0 0 0 0 0 0 
trait 2 0.2 0 0 0 0 0 0 0 
trait 3 0.299361 0 0.00564128 0 0 0 0.21814 0.0529707 
node 1 2 1 1
node 2 3 1 1
node 3 3 1 1
node 4 1 1 1
node 5 2 1 1
node 6 1 1 1
node 7 2 1 3
node 8 2 0 2
node 24 1 0 0
node 29 1 0 0
gene 2 1 8 -1.2583 0 1 -1.2583 0
gene 2 2 8 -0.0722127 0 2 -0.0722127 1
gene 1 3 8 -3.59912 0 3 -3.59912 0
gene 3 4 8 -2.3582 0 4 -2.3582 1
gene 3 5 8 3.31915 0 5 3.31915 0
gene 2 6 8 -0.147063 0 6 -0.147063 1
gene 2 7 8 -0.589629 0 7 -0.589629 1
gene 1 3 24 1.82352 0 40 1.82352 1
gene 1 24 8 -1.53139 0 41 -1.53139 1
gene 3 2 24 2.2542 0 48 2.2542 1
gene 3 5 29 1.59804 0 59 1.59804 1
gene 3 29 8 0.390667 0 60 0.390667 1
genomeend 45

/* Organism #46 Fitness: 52 Error: 0 */
genomestart 46
trait 1 0.343763 0 0.193174 0.0282347 0.215607 0 0 0 
trait 2 0.2 0 0 0 0 0 0 0 
trait 3 0.299521 0 0.00423096 0 0 0 0.163605 0.039728 
node 1 2 1 1
node 2 3 1 1
node 3 3 1 1
node 4 1 1 1
node 5 2 1 1
node 6 1 1 1
node 7 2 1 3
node 8 2 0 2
node 24 1 0 0
gene 1 1 8 0.410973 0 1 0.410973 0
gene 2 2 8 -0.942955 0 2 -0.942955 1
gene 1 3 8 -2.01247 0 3 -2.01247 0
gene 2 4 8 -4.18726 0 4 -4.18726 1
gene 3 5 8 2.92143 0 5 2.92143 1
gene 2 6 8 1.58684 0 6 1.58684 1
gene 2 7 8 -0.513833 0 7 -0.513833 1
gene 1 3 24 1.61727 0 40 1.11727 1
gene 1 24 8 -0.882059 0 41 -0.691704 1
gene 3 2 24 0.252611 0 48 0.252611 1
genomeend 46

/* Organism #47 Fitness: 33 Error: 0 */
genomestart 47
trait 1 0.110364 0 0 0 0 0 0 0 
trait 2 0.2 0 0 0 0 0 0 0 
trait 3 0.299361 0 0.00564128 0 0 0 0.21814 0.0529707 
node 1 2 1 1
node 2 3 1 1
node 3 3 1 1
node 4 1 1 1
node 5 2 1 1
node 6 1 1 1
node 7 2 1 3
node 8 2 0 2
node 24 1 0 0
node 29 1 0 0
gene 2 1 8 -1.94719 0 1 -1.94719 0
gene 2 2 8 -0.71403 0 2 -0.71403 1
gene 1 3 8 -3.00333 0 3 -3.00333 0
gene 3 4 8 -3.15864 0 4 -3.15864 1
gene 3 5 8 2.30291 0 5 2.30291 0
gene 2 6 8 2.04977 0 6 2.04977 1
gene 2 7 8 -0.0575342 0 7 -0.0575342 1
gene 1 3 24 0.528017 0 40 0.528017 1
gene 1 24 8 -1.66607 0 41 -1.66607 1
gene 3 2 24 0.688317 0 48 0.688317 1
gene 3 5 29 -0.880129 0 59 -0.880129 1
gene 3 29 8 0.906202 0 60 0.906202 1
genomeend 47

/* Organism #48 Fitness: 5 Error: 0 */
genomestart 48
trait 1 0.110364 0 0 0 0 0 0 0 
trait 2 0.2 0 0 0 0 0 0 0 
trait 3 0.299361 0 0.00564128 0 0 0 0.21814 0.0529707 
node 1 2 1 1
node 2 3 1 1
node 3 3 1 1
node 4 1 1 1
node 5 2 1 1
node 6 1 1 1
node 7 2 1 3
node 8 2 0 2
node 24 1 0 0
node 29 1 0 0
gene 2 1 8 -1.68812 0 1 -1.68812 0
gene 2 2 8 2.04702 0 2 2.04702 1
gene 1 3 8 -0.0746347 0 3 -0.0746347 0
gene 3 4 8 -3.1909 0 4 -3.1909 1
gene 3 5 8 1.05222 0 5 1.05222 0
gene 2 6 8 -0.300593 0 6 -0.300593 1
gene 2 7 8 -2.52012 0 7 -2.52012 1
gene 1 3 24 -1.12689 0 40 -1.12689 1
gene 1 24 8 0.091832 0 41 0.091832 1
gene 3 2 24 -1.1211 0 48 -1.1211 1
gene 3 5 29 1 0 59 1 1
gene 3 29 8 -0.405008 0 60 -0.405008 1
genomeend 48

/* Organism #49 Fitness: 7 Error: 0 */
genomestart 49
trait 1 0.105182 0 0 0 0 0 0 0 
trait 2 0.2 0 0 0 0 0 0 0 
trait 3 0.299681 0 0.00282064 0 0 0 0.10907 0.0264853 
node 1 2 1 1
node 2 3 1 1
node 3 3 1 1
node 4 1 1 1
node 5 2 1 1
node 6 1 1 1
node 7 2 1 3
node 8 2 0 2
node 24 1 0 0
node 29 1 0 0
gene 1 1 8 -1.48776 0 1 -1.48776 1
gene 2 2 8 -0.90726 0 2 -0.90726 1
gene 1 3 8 0.111399 0 3 0.111399 0
gene 2 4 8 -1.0374 0 4 -1.0374 1
gene 2 5 8 -0.77911 0 5 -0.77911 1
gene 2 6 8 1.58684 0 6 1.58684 1
gene 3 7 8 -0.921911 0 7 -0.921911 1
gene 1 3 24 2.17644 0 40 2.17644 1
gene 1 24 8 -3.24166 0 41 -3.24166 1
gene 3 2 24 -0.571628 0 48 -0.571628 1
gene 3 5 29 -1.19601 0 59 -1.19601 1
gene 3 29 8 0.906202 0 60 0.906202 1
genomeend 49

/* Organism #50 Fitness: 100 Error: 0 */
genomestart 50
trait 1 0.110364 0 0 0 0 0 0 0 
trait 2 0.2 0 0 0 0 0 0 0 
trait 3 0.299361 0 0.00564128 0 0 0 0.21814 0.0529707 
node 1 2 1 1
node 2 3 1 1
node 3 3 1 1
node 4 1 1 1
node 5 2 1 1
node 6 1 1 1
node 7 2 1 3
node 8 2 0 2
node 24 1 0 0
node 29 1 0 0
gene 2 1 8 -0.591803 0 1 -0.591803 1
gene 2 2 8 -0.181744 0 2 -0.181744 1
gene 1 3 8 -1.50483 0 3 -1.50483 1
gene 3 4 8 -4.33458 0 4 -4.33458 1
gene 3 5 8 1.57331 0 5 1.57331 0
gene 2 6 8 1.45323 0 6 1.45323 1
gene 2 7 8 -0.786197 0 7 -0.786197 1
gene 1 3 24 1.30863 0 40 0.808633 1
gene 1 24 8 -0.0952436 0 41 0.0951115 1
gene 3 2 24 -0.176165 0 48 -0.176165 1
gene 3 5 29 1 0 59 0 1
gene 3 29 8 0.906202 0 60 0 1
gene 1 3 29 0.440085 0 79 0.440085 1
genomeend 50

/* Organism #51 Fitness: 245 Error: 0 */
genomestart 51
trait 1 0.110364 0 0 0 0 0 0 0 
trait 2 0.2 0 0 0 0 0 0 0 
trait 3 0.299361 0 0.00564128 0 0 0 0.21814 0.0529707 
node 1 2 1 1
node 2 3 1 1
node 3 3 1 1
node 4 1 1 1
node 5 1 1 1
node 6 1 1 1
node 7 2 1 3
node 8 2 0 2
node 24 1 0 0
node 29 1 0 0
gene 2 1 8 -0.0763342 0 1 -0.0763342 1
gene 2 2 8 0.020867 0 2 0.020867 1
gene 1 3 8 -3.88335 0 3 -3.88335 0
gene 3 4 8 -4.37216 0 4 -4.37216 1
gene 3 5 8 -0.0529392 0 5 -0.0529392 1
gene 2 6 8 1.203 0 6 1.203 1
gene 2 7 8 -0.727385 0 7 -0.727385 1
gene 1 3 24 2.6472 0 40 2.6472 1
gene 1 24 8 -1.56707 0 41 -1.56707 1
gene 3 2 24 0.252611 0 48 0.252611 1
gene 3 5 29 1 0 59 1 1
gene 3 29 8 2.53963 0 60 2.53963 1
genomeend 51

/* Organism #52 Fitness: 59 Error: 0 */
genomestart 52
trait 1 0.110364 0 0 0 0 0 0 0 
trait 2 0.2 0 0 0 0 0 0 0 
trait 3 0.299361 0 0.746139 0 0 0 0.553212 0 
node 1 2 1 1
node 2 3 1 1
node 3 3 1 1
node 4 1 1 1
node 5 2 1 1
node 6 1 1 1
node 7 2 1 3
node 8 2 0 2
node 24 1 0 0
gene 2 1 8 -2.50197 0 1 -2.50197 1
gene 2 2 8 -0.918011 0 2 -0.918011 1
gene 1 3 8 -0.412651 0 3 -0.412651 0
gene 3 4 8 -3.54797 0 4 -3.54797 1
gene 3 5 8 2.82915 0 5 2.82915 1
gene 2 6 8 1.91217 0 6 1.91217 1
gene 2 7 8 -0.571795 0 7 -0.571795 1
gene 1 3 24 1.63333 0 40 1.63333 1
gene 3 24 8 -0.189117 0 41 -0.189117 1
gene 3 2 24 -0.668219 0 48 -0.668219 1
genomeend 52

/* Organism #53 Fitness: 17 Error: 0 */
genomestart 53
trait 1 0.110364 0 0 0 0 0 0 0 
trait 2 0.2 0 0 0 0 0 0 0 
trait 3 0.299361 0 0.00564128 0 0 0 0.21814 0.0529707 
node 1 2 1 1
node 2 3 1 1
node 3 3 1 1
node 4 1 1 1
node 5 2 1 1
node 6 1 1 1
node 7 2 1 3
node 8 2 0 2
node 24 1 0 0
node 29 1 0 0
gene 2 1 8 -0.264074 0 1 -0.264074 1
gene 2 2 8 0.0986395 0 2 0.0986395 1
gene 1 3 8 0.975609 0 3 0.975609 1
gene 3 4 8 -3.59197 0 4 -3.59197 1
gene 3 5 8 0.466411 0 5 0.466411 0
gene 2 6 8 3.49496 0 6 3.49496 1
gene 2 7 8 -2.73692 0 7 -2.73692 1
gene 1 3 24 3.15343 0 40 3.15343 1
gene 1 24 8 -1.61631 0 41 -1.61631 1
gene 3 2 24 -0.301095 0 48 -0.301095 1
gene 3 5 29 -0.105373 0 59 -0.105373 1
gene 3 29 8 1.4143 0 60 1.4143 1
genomeend 53

/* Organism #54 Fitness: 58 Error: 0 */
genomestart 54
trait 1 0.107773 0 0 0 0 0 0 0 
trait 2 0.2 0 0 0 0 0 0 0 
trait 3 0.299521 0 0.00423096 0 0 0 0.163605 0.039728 
node 1 2 1 1
node 2 3 1 1
node 3 3 1 1
node 4 1 1 1
node 5 2 1 1
node 6 1 1 1
node 7 2 1 3
node 8 2 0 2
node 24 1 0 0
gene 1 1 8 -2.08302 0 1 -2.08302 1
gene 2 2 8 -0.652131 0 2 -0.652131 1
gene 1 3 8 -3.07728 0 3 -3.07728 0
gene 2 4 8 -4.18726 0 4 -4.18726 1
gene 2 5 8 1.92112 0 5 1.92112 1
gene 2 6 8 1.99062 0 6 1.99062 1
gene 3 7 8 -1.41807 0 7 -1.41807 1
gene 1 3 24 2.9737 0 40 2.9737 1
gene 1 24 8 0.670164 0 41 0.670164 1
gene 3 2 24 -2.22838 0 48 -2.22838 1
genomeend 54

/* Organism #55 Fitness: 123 Error: 0 */
genomestart 55
trait 1 0.110364 0 0 0 0 0 0 0 
trait 2 0.2 0 0 0 0 0 0 0 
trait 3 0.299361 0 0.00564128 0 0 0 0.21814 0.0529707 
node 1 2 1 1
node 2 3 1 1
node 3 3 1 1
node 4 1 1 1
node 5 2 1 1
node 6 1 1 1
node 7 2 1 3
node 8 2 0 2
node 24 1 0 0
node 29 1 0 0
gene 2 1 8 0.335579 0 1 0.335579 1
gene 2 2 8 0.174245 0 2 0.174245 1
gene 1 3 8 -0.506994 0 3 -0.506994 0
gene 3 4 8 -3.88369 0 4 -3.88369 1
gene 3 5 8 0.906202 0 5 0.906202 0
gene 2 6 8 1.58142 0 6 1.58142 1
gene 2 7 8 -0.513833 0 7 -0.513833 1
gene 1 3 24 1 0 40 0 1
gene 1 24 8 -0.38071 0 41 0 1
gene 3 2 24 0.252611 0 48 0.252611 1
gene 3 5 29 1 0 59 0 1
gene 3 29 8 0.906202 0 60 0 1
gene 1 3 29 0.440085 0 79 0.440085 1
genomeend 55

/* Species #4 : (Size 14) (AF 41.2857) (Age 4)  */


/* Organism #56 Fitness: 107 Error: 0 */
genomestart 56
trait 1 0.1 0 0 0 0 0 0 0 
trait 2 0.2 0 0 0 0 0 0 0 
trait 3 0.3 0 0 0 0 0 0 0 
node 1 2 1 1
node 2 2 1 1
node 3 1 1 1
node 4 2 1 1
node 5 1 1 1
node 6 3 1 1
node 7 3 1 3
node 8 3 0 2
node 20 1 0 0
gene 1 1 8 -0.123627 0 1 -0.123627 1
gene 1 2 8 1.41724 0 2 1.41724 0
gene 1 3 8 -2.43727 0 3 -2.43727 1
gene 2 4 8 -0.659765 0 4 -0.659765 1
gene 1 5 8 1.74112 0 5 1.74112 1
gene 1 6 8 0.765713 0 6 0.765713 1
gene 3 7 8 0.362858 0 7 0.362858 1
gene 1 2 20 0.369579 0 31 0.369579 1
gene 1 20 8 0.0990802 0 32 0.0990802 1
gene 3 6 20 -0.744241 0 49 -0.744241 1
gene 1 5 20 0.0148996 0 68 0.0148996 1
genomeend 56

/* Organism #57 Fitness: 50 Error: 0 */
genomestart 57
trait 1 0.1 0 0 0 0 0 0 0 
trait 2 0.1 0 0 0 0 0 0 0 
trait 3 0.3 0 0 0 0 0 0 0 
node 1 2 1 1
node 2 2 1 1
node 3 1 1 1
node 4 2 1 1
node 5 1 1 1
node 6 3 1 1
node 7 3 1 3
node 8 3 0 2
node 20 1 0 0
gene 1 1 8 0.9807 0 1 0.9807 1
gene 1 2 8 -1.93307 0 2 -1.93307 0
gene 1 3 8 -3.26545 0 3 -3.26545 1
gene 2 4 8 -1.88966 0 4 -1.88966 1
gene 1 5 8 4.59763 0 5 4.59763 1
gene 1 6 8 0.857173 0 6 0.857173 1
gene 2 7 8 -0.193114 0 7 -0.193114 1
gene 1 2 20 1 0 31 0 1
gene 1 20 8 1.28591 0 32 1.28591 1
gene 3 6 20 0.509596 0 49 0.509596 1
gene 3 1 20 0.644832 0 80 0.644832 1
genomeend 57

/* Organism #58 Fitness: 33 Error: 0 */
genomestart 58
trait 1 0.1 0 0 0 0 0 0 0 
trait 2 0.2 0 0 0 0 0 0 0 
trait 3 0.3 0 0 0 0 0 0 0 
node 1 2 1 1
node 2 2 1 1
node 3 1 1 1
node 4 2 1 1
node 5 1 1 1
node 6 3 1 1
node 7 3 1 3
node 8 3 0 2
node 20 1 0 0
gene 1 1 8 -0.986991 0 1 -0.986991 1
gene 1 2 8 -0.317017 0 2 -0.317017 0
gene 1 3 8 -1.56552 0 3 -1.56552 1
gene 2 4 8 -3.48371 0 4 -3.48371 1
gene 1 5 8 4.14641 0 5 4.14641 1
gene 1 6 8 2.44981 0 6 2.44981 1
gene 3 7 8 -2.61066 0 7 -2.61066 1
gene 1 2 20 -1.02034 0 31 -1.02034 1
gene 1 20 8 -2.46426 0 32 -2.46426 1
gene 3 6 20 3.37582 0 49 3.37582 1
gene 2 4 20 0.213273 0 65 0.213273 1
genomeend 58

/* Organism #59 Fitness: 9 Error: 0 */
genomestart 59
trait 1 0.1 0 0 0 0 0 0 0 
trait 2 0.2 0 0 0 0 0 0 0 
trait 3 0.3 0 0 0 0 0 0 0 
node 1 2 1 1
node 2 2 1 1
node 3 1 1 1
node 4 2 1 1
node 5 1 1 1
node 6 3 1 1
node 7 3 1 3
node 8 3 0 2
node 20 1 0 0
gene 1 1 8 3.23494 0 1 3.23494 1
gene 1 2 8 -0.156286 0 2 -0.156286 0
gene 1 3 8 -4.89182 0 3 -4.89182 1
gene 2 4 8 -0.700281 0 4 -0.700281 1
gene 1 5 8 2.66524 0 5 2.66524 1
gene 1 6 8 -0.375515 0 6 -0.375515 1
gene 3 7 8 -0.221057 0 7 -0.221057 1
gene 1 2 20 -1.38453 0 31 -1.38453 1
gene 1 20 8 2.85463 0 32 2.85463 1
gene 3 6 20 1.22857 0 49 1.22857 1
genomeend 59

/* Organism #60 Fitness: 5 Error: 0 */
genomestart 60
trait 1 0.1 0 0 0 0 0 0 0 
trait 2 0.2 0 0 0 0 0 0 0 
trait 3 0.3 0 0 0 0 0 0 0 
node 1 2 1 1
node 2 2 1 1
node 3 1 1 1
node 4 2 1 1
node 5 1 1 1
node 6 3 1 1
node 7 3 1 3
node 8 3 0 2
node 20 1 0 0
gene 1 1 8 -0.895069 0 1 -0.895069 1
gene 1 2 8 -1.03558 0 2 -1.03558 0
gene 1 3 8 -0.900197 0 3 -0.900197 1
gene 2 4 8 -4.31958 0 4 -4.31958 1
gene 1 5 8 3.0567 0 5 3.0567 1
gene 1 6 8 -0.183197 0 6 -0.183197 1
gene 3 7 8 -3.3042 0 7 -3.3042 1
gene 1 2 20 -0.389258 0 31 -0.389258 1
gene 1 20 8 -0.220071 0 32 -0.220071 1
gene 3 6 20 -0.526265 0 49 -0.526265 1
gene 2 4 20 2.57559 0 65 2.57559 1
genomeend 60

/* Organism #61 Fitness: 27 Error: 0 */
genomestart 61
trait 1 0.1 0 0 0 0 0 0 0 
trait 2 0.1 0 0 0 0 0 0 0 
trait 3 0.3 0 0 0 0 0 0 0 
node 1 2 1 1
node 2 2 1 1
node 3 1 1 1
node 4 2 1 1
node 5 1 1 1
node 6 3 1 1
node 7 2 1 3
node 8 3 0 2
node 20 1 0 0
gene 1 1 8 2.15353 0 1 2.15353 1
gene 1 2 8 1.03002 0 2 1.03002 0
gene 1 3 8 -3.27873 0 3 -3.27873 1
gene 2 4 8 -1.33963 0 4 -1.33963 1
gene 1 5 8 0.500167 0 5 0.500167 1
gene 1 6 8 1.00061 0 6 1.00061 1
gene 3 7 8 2.7413 0 7 2.7413 1
gene 1 2 20 0.50099 0 31 0.50099 1
gene 1 20 8 -1.04832 0 32 -1.04832 1
gene 3 6 20 -1.02503 0 49 -1.02503 1
gene 1 5 20 -0.281774 0 68 -0.281774 1
genomeend 61

/* Organism #62 Fitness: 54 Error: 0 */
genomestart 62
trait 1 0.1 0 0 0 0 0 0 0 
trait 2 0.1 0 0 0 0 0 0 0 
trait 3 0.3 0 0 0 0 0 0 0 
node 1 2 1 1
node 2 2 1 1
node 3 1 1 1
node 4 2 1 1
node 5 1 1 1
node 6 3 1 1
node 7 3 1 3
node 8 3 0 2
node 20 1 0 0
gene 1 1 8 2.29892 0 1 2.29892 1
gene 1 2 8 -1.20984 0 2 -1.20984 0
gene 1 3 8 1.85996 0 3 1.85996 1
gene 2 4 8 -1.88966 0 4 -1.88966 1
gene 1 5 8 5.8382 0 5 5.8382 1
gene 1 6 8 1.52617 0 6 1.52617 1
gene 2 7 8 -1.27056 0 7 -1.27056 1
gene 1 2 20 0.201752 0 31 0.201752 1
gene 1 20 8 2.39178 0 32 2.39178 1
gene 3 6 20 -1.54584 0 49 -1.54584 1
gene 3 1 20 1.10124 0 80 1.10124 1
genomeend 62

/* Organism #63 Fitness: 88 Error: 0 */
genomestart 63
trait 1 0.1 0 0 0 0 0 0 0 
trait 2 0 0 0 0 0 0 0 0 
trait 3 0.3 0 0 0 0 0 0 0 
node 1 2 1 1
node 2 2 1 1
node 3 1 1 1
node 4 2 1 1
node 5 1 1 1
node 6 3 1 1
node 7 3 1 3
node 8 3 0 2
node 20 1 0 0
gene 1 1 8 -1.08063 0 1 -1.08063 1
gene 1 2 8 -0.119683 0 2 -0.119683 0
gene 1 3 8 -1.61315 0 3 -1.61315 1
gene 2 4 8 -1.14691 0 4 -1.14691 1
gene 1 5 8 1.10842 0 5 1.10842 1
gene 1 6 8 3.29061 0 6 3.29061 1
gene 2 7 8 -0.0432064 0 7 -0.0432064 1
gene 1 2 20 0.299762 0 31 0.299762 1
gene 1 20 8 1.28792 0 32 1.28792 1
gene 3 6 20 1.61368 0 49 1.61368 1
gene 3 1 20 1.888 0 80 1.888 1
genomeend 63

/* Organism #64 Fitness: 70 Error: 0 */
genomestart 64
trait 1 0.1 0 0 0 0 0 0 0 
trait 2 0.2 0 0 0 0 0 0 0 
trait 3 0.3 0 0 0 0 0 0 0 
node 1 2 1 1
node 2 2 1 1
node 3 1 1 1
node 4 2 1 1
node 5 1 1 1
node 6 3 1 1
node 7 3 1 3
node 8 3 0 2
node 20 1 0 0
gene 1 1 8 0.9807 0 1 0.9807 1
gene 1 2 8 -1.20984 0 2 -1.20984 0
gene 1 3 8 -2.85136 0 3 -2.85136 1
gene 2 4 8 -1.39238 0 4 -1.39238 1
gene 1 5 8 3.44144 0 5 3.44144 1
gene 1 6 8 0.857173 0 6 0.857173 1
gene 3 7 8 -0.193114 0 7 -0.193114 1
gene 1 2 20 1 0 31 0 1
gene 1 20 8 0.399644 0 32 0.642954 1
gene 3 6 20 0.869084 0 49 0.869084 1
gene 2 4 20 0.213273 0 65 0.213273 1
genomeend 64

/* Organism #65 Fitness: 70 Error: 0 */
genomestart 65
trait 1 0.1 0 0 0 0 0 0 0 
trait 2 0.1 0 0 0 0 0 0 0 
trait 3 0.3 0 0 0 0 0 0 0 
node 1 2 1 1
node 2 2 1 1
node 3 1 1 1
node 4 2 1 1
node 5 1 1 1
node 6 3 1 1
node 7 3 1 3
node 8 3 0 2
node 20 1 0 0
gene 1 1 8 0.9807 0 1 0.9807 1
gene 1 2 8 -1.20984 0 2 -1.20984 0
gene 1 3 8 -2.85136 0 3 -2.85136 1
gene 2 4 8 -1.39238 0 4 -1.39238 1
gene 1 5 8 3.44144 0 5 3.44144 1
gene 1 6 8 0.857173 0 6 0.857173 1
gene 3 7 8 -0.193114 0 7 -0.193114 1
gene 1 2 20 1 0 31 0 1
gene 1 20 8 0.399644 0 32 0.642954 1
gene 3 6 20 0.869084 0 49 0.869084 1
gene 3 1 20 0.644832 0 80 0.644832 1
genomeend 65

/* Organism #66 Fitness: 5 Error: 0 */
genomestart 66
trait 1 0.1 0 0 0 0 0 0 0 
trait 2 0.2 0 0 0 0 0 0 0 
trait 3 0.3 0 0 0 0 0 0 0 
node 1 2 1 1
node 2 2 1 1
node 3 1 1 1
node 4 2 1 1
node 5 1 1 1
node 6 3 1 1
node 7 3 1 3
node 8 3 0 2
node 20 1 0 0
gene 1 1 8 -1.46737 0 1 -1.46737 1
gene 1 2 8 -0.49065 0 2 -0.49065 0
gene 1 3 8 -4.01923 0 3 -4.01923 1
gene 2 4 8 -0.00424544 0 4 -0.00424544 1
gene 1 5 8 4.62903 0 5 4.62903 1
gene 1 6 8 -0.957926 0 6 -0.957926 1
gene 3 7 8 -2.27248 0 7 -2.27248 1
gene 1 2 20 -0.719443 0 31 -0.719443 1
gene 1 20 8 0.636125 0 32 0.636125 1
gene 3 6 20 0.509596 0 49 0.509596 1
gene 2 4 20 -0.880352 0 65 -0.880352 1
genomeend 66

/* Organism #67 Fitness: 49 Error: 0 */
genomestart 67
trait 1 0.1 0 0 0 0 0 0 0 
trait 2 0.2 0 0 0 0 0 0 0 
trait 3 0.3 0 0 0 0 0 0 0 
node 1 2 1 1
node 2 2 1 1
node 3 1 1 1
node 4 2 1 1
node 5 1 1 1
node 6 3 1 1
node 7 3 1 3
node 8 3 0 2
node 20 1 0 0
gene 1 1 8 1.70672 0 1 1.70672 1
gene 1 2 8 -0.836704 0 2 -0.836704 0
gene 1 3 8 -0.804376 0 3 -0.804376 1
gene 2 4 8 0.563732 0 4 0.563732 1
gene 1 5 8 5.43371 0 5 5.43371 1
gene 1 6 8 2.67225 0 6 2.67225 1
gene 3 7 8 -1.81702 0 7 -1.81702 1
gene 1 2 20 0.845716 0 31 0.845716 1
gene 1 20 8 -0.60181 0 32 -0.60181 1
gene 3 6 20 -0.484082 0 49 -0.484082 1
gene 2 4 20 -2.35817 0 65 -2.35817 1
genomeend 67

/* Organism #68 Fitness: 6 Error: 0 */
genomestart 68
trait 1 0.1 0 0 0 0 0 0 0 
trait 2 0 0 0 0 0 0 0 0 
trait 3 0.3 0 0 0 0 0 0 0 
node 1 2 1 1
node 2 2 1 1
node 3 1 1 1
node 4 2 1 1
node 5 1 1 1
node 6 3 1 1
node 7 3 1 3
node 8 3 0 2
node 20 1 0 0
gene 1 1 8 2.03643 0 1 2.03643 1
gene 1 2 8 -0.732593 0 2 -0.732593 0
gene 1 3 8 1.88961 0 3 1.88961 1
gene 2 4 8 2.28192 0 4 2.28192 1
gene 1 5 8 -0.012305 0 5 -0.012305 1
gene 1 6 8 0.857173 0 6 0.857173 1
gene 2 7 8 -1.50768 0 7 -1.50768 1
gene 1 2 20 0.785056 0 31 0.785056 1
gene 1 20 8 -2.92994 0 32 -2.92994 1
gene 3 6 20 2.63143 0 49 2.63143 1
gene 3 1 20 0.293443 0 80 0.293443 1
genomeend 68

/* Organism #69 Fitness: 5 Error: 0 */
genomestart 69
trait 1 0.1 0 0 0 0 0 0 0 
trait 2 0.2 0 0 0 0 0 0 0 
trait 3 0.3 0 0 0 0 0 0 0 
node 1 2 1 1
node 2 2 1 1
node 3 1 1 1
node 4 2 1 1
node 5 1 1 1
node 6 3 1 1
node 7 3 1 3
node 8 3 0 2
node 20 1 0 0
gene 1 1 8 1.28094 0 1 1.28094 1
gene 1 2 8 2.72309 0 2 2.72309 0
gene 1 3 8 -4.22872 0 3 -4.22872 1
gene 2 4 8 1.39028 0 4 1.39028 1
gene 1 5 8 3.17846 0 5 3.17846 1
gene 1 6 8 -1.35983 0 6 -1.35983 1
gene 3 7 8 2.85188 0 7 2.85188 1
gene 1 2 20 -0.286735 0 31 -0.286735 1
gene 1 20 8 2.33037 0 32 2.33037 1
gene 3 6 20 -0.744241 0 49 -0.744241 1
gene 1 5 20 0.0148996 0 68 0.0148996 1
genomeend 69

/* Species #5 : (Size 16) (AF 34.75) (Age 4)  */


/* Organism #70 Fitness: 74 Error: 0 */
genomestart 70
trait 1 0.1 0 0 0 0 0 0 0 
trait 2 0.2 0 0 0 0 0 0 0 
trait 3 0.298723 0 0.0112826 0 0 0 0.0338824 0.105941 
node 1 2 1 1
node 2 2 1 1
node 3 1 1 1
node 4 2 1 1
node 5 1 1 1
node 6 3 1 1
node 7 2 1 3
node 8 2 0 2
node 21 1 0 0
gene 1 1 8 0.481291 0 1 0.481291 0
gene 2 2 8 0.164979 0 2 0.164979 1
gene 1 3 8 -0.38071 0 3 -0.38071 1
gene 3 4 8 -1.0454 0 4 -1.0454 1
gene 1 5 8 1.4847 0 5 1.4847 1
gene 1 6 8 1.98892 0 6 1.98892 1
gene 3 7 8 -0.317775 0 7 -0.317775 1
gene 1 1 21 1 0 34 0 1
gene 1 21 8 0.481291 0 35 0 1
gene 1 6 21 0.251543 0 52 0.251543 1
genomeend 70

/* Organism #71 Fitness: 5 Error: 0 */
genomestart 71
trait 1 0.1 0 0 0 0 0 0 0 
trait 2 0.2 0 0 0 0 0 0 0 
trait 3 0 0 0 0.806065 0 0.601035 0.840977 0 
node 1 2 1 1
node 2 2 1 1
node 3 1 1 1
node 4 2 1 1
node 5 1 1 1
node 6 3 1 1
node 7 2 1 3
node 8 2 0 2
node 21 1 0 0
gene 1 1 8 0.800682 0 1 0.800682 0
gene 2 2 8 1.50719 0 2 1.50719 1
gene 1 3 8 2.09373 0 3 2.09373 1
gene 3 4 8 -0.602332 0 4 -0.602332 1
gene 1 5 8 3.26758 0 5 3.26758 1
gene 1 6 8 -1.04391 0 6 -1.04391 1
gene 3 7 8 -1.32884 0 7 -1.32884 1
gene 1 1 21 1.88744 0 34 1.88744 1
gene 1 21 8 -0.905033 0 35 -0.905033 1
gene 1 6 21 -0.810009 0 52 -0.810009 1
genomeend 71

/* Organism #72 Fitness: 11 Error: 0 */
genomestart 72
trait 1 0.1 0 0 0 0 0 0 0 
trait 2 0.2 0 0 0 0 0 0 0 
trait 3 0.298723 0 0.0112826 0 0 0 0.0338824 0.105941 
node 1 2 1 1
node 2 3 1 1
node 3 1 1 1
node 4 2 1 1
node 5 1 1 1
node 6 3 1 1
node 7 2 1 3
node 8 2 0 2
node 21 1 0 0
gene 1 1 8 -2.51545 0 1 -2.51545 0
gene 2 2 8 0.728331 0 2 0.728331 1
gene 1 3 8 -1.59912 0 3 -1.59912 1
gene 3 4 8 0.40903 0 4 0.40903 1
gene 1 5 8 -2.49582 0 5 -2.49582 1
gene 1 6 8 1.8855 0 6 1.8855 1
gene 3 7 8 -0.99901 0 7 -0.99901 1
gene 1 1 21 -2.26673 0 34 -2.26673 1
gene 1 21 8 -1.21768 0 35 -1.21768 1
gene 1 6 21 0.383202 0 52 0.383202 1
genomeend 72

/* Organism #73 Fitness: 28 Error: 0 */
genomestart 73
trait 1 0.1 0 0 0 0 0 0.539212 0 
trait 2 0.2 0 0 0 0 0 0 0 
trait 3 0.298723 0 0.0112826 0 0 0 0.0338824 0.105941 
node 1 2 1 1
node 2 3 1 1
node 3 1 1 1
node 4 2 1 1
node 5 1 1 1
node 6 3 1 1
node 7 2 1 3
node 8 2 0 2
node 21 1 0 0
gene 1 1 8 -0.778299 0 1 -0.778299 0
gene 2 2 8 -2.55942 0 2 -2.55942 1
gene 1 3 8 0.941155 0 3 0.941155 1
gene 3 4 8 -0.481645 0 4 -0.481645 1
gene 1 5 8 4.70847 0 5 4.70847 1
gene 1 6 8 4.18264 0 6 4.18264 1
gene 3 7 8 0.393604 0 7 0.393604 1
gene 1 1 21 -1.94678 0 34 -1.94678 1
gene 1 21 8 3.05057 0 35 3.05057 1
gene 1 6 21 3.04523 0 52 3.04523 1
genomeend 73

/* Organism #74 Fitness: 7 Error: 0 */
genomestart 74
trait 1 0.1 0 0.16792 0 0 0 0 0.22911 
trait 2 0.2 0 0 0 0 0 0 0 
trait 3 0.298723 0 0.0112826 0 0 0 0.0338824 0.105941 
node 1 2 1 1
node 2 2 1 1
node 3 1 1 1
node 4 2 1 1
node 5 1 1 1
node 6 3 1 1
node 7 2 1 3
node 8 2 0 2
node 21 1 0 0
gene 1 1 8 -1.76943 0 1 -1.76943 0
gene 2 2 8 0.460259 0 2 0.460259 1
gene 1 3 8 -1.52477 0 3 -1.52477 1
gene 3 4 8 -5.17278 0 4 -5.17278 1
gene 1 5 8 -0.907401 0 5 -0.907401 1
gene 1 6 8 0.925876 0 6 0.925876 1
gene 3 7 8 0.550014 0 7 0.550014 1
gene 1 1 21 -1.18865 0 34 -1.18865 1
gene 1 21 8 -1.32975 0 35 -1.32975 1
gene 1 6 21 0.591187 0 52 0.591187 1
genomeend 74

/* Organism #75 Fitness: 61 Error: 0 */
genomestart 75
trait 1 0.1 0 0 0 0 0 0 0 
trait 2 0.2 0 0 0 0 0 0 0 
trait 3 0.298723 0 0.0112826 0 0 0 0.0338824 0.105941 
node 1 2 1 1
node 2 3 1 1
node 3 1 1 1
node 4 2 1 1
node 5 1 1 1
node 6 3 1 1
node 7 2 1 3
node 8 2 0 2
node 21 1 0 0
gene 1 1 8 0.149848 0 1 0.149848 0
gene 2 2 8 2.15448 0 2 2.15448 1
gene 1 3 8 -1.65676 0 3 -1.65676 1
gene 3 4 8 -2.99104 0 4 -2.99104 1
gene 1 5 8 4.67711 0 5 4.67711 1
gene 1 6 8 3.36658 0 6 3.36658 1
gene 3 7 8 -0.939793 0 7 -0.939793 1
gene 1 1 21 2.05533 0 34 2.05533 1
gene 1 21 8 -0.915131 0 35 -0.915131 1
gene 1 6 21 -0.783283 0 52 -0.783283 1
genomeend 75

/* Organism #76 Fitness: 5 Error: 0 */
genomestart 76
trait 1 0.1 0 0 0 0 0 0 0 
trait 2 0.2 0 0 0 0 0 0 0 
trait 3 0.298723 0 0.0112826 0 0 0 0.0338824 0.105941 
node 1 2 1 1
node 2 2 1 1
node 3 1 1 1
node 4 2 1 1
node 5 1 1 1
node 6 3 1 1
node 7 2 1 3
node 8 2 0 2
node 21 1 0 0
gene 1 1 8 0.636072 0 1 0.636072 0
gene 2 2 8 1.0519 0 2 1.0519 1
gene 1 3 8 1.41577 0 3 1.41577 1
gene 3 4 8 -5.73533 0 4 -5.73533 1
gene 1 5 8 2.07491 0 5 2.07491 1
gene 1 6 8 0.0929222 0 6 0.0929222 1
gene 3 7 8 0.238399 0 7 0.238399 1
gene 1 1 21 -1.66079 0 34 -1.66079 1
gene 1 21 8 0.313541 0 35 0.313541 1
gene 1 6 21 1.09042 0 52 1.09042 1
genomeend 76

/* Organism #77 Fitness: 22 Error: 0 */
genomestart 77
trait 1 0.1 0 0 0 0 0 0 0 
trait 2 0.2 0 0 0 0 0 0 0 
trait 3 0.298723 0 0.0112826 0 0 0 0.0338824 0.105941 
node 1 2 1 1
node 2 2 1 1
node 3 1 1 1
node 4 2 1 1
node 5 1 1 1
node 6 3 1 1
node 7 2 1 3
node 8 2 0 2
node 21 1 0 0
gene 1 1 8 1.27209 0 1 1.27209 0
gene 2 2 8 -0.346353 0 2 -0.346353 1
gene 1 3 8 -0.63735 0 3 -0.63735 1
gene 3 4 8 -0.407797 0 4 -0.407797 1
gene 1 5 8 -0.681525 0 5 -0.681525 1
gene 1 6 8 3.76094 0 6 3.76094 1
gene 3 7 8 1.92585 0 7 1.92585 1
gene 1 1 21 2.97245 0 34 2.97245 1
gene 1 21 8 2.97365 0 35 2.97365 1
gene 1 6 21 0.755233 0 52 0.755233 1
genomeend 77

/* Organism #78 Fitness: 67 Error: 0 */
genomestart 78
trait 1 0.1 0 0 0 0 0 0 0 
trait 2 0.2 0 0 0 0 0 0 0 
trait 3 0.298723 0 0.0112826 0 0 0 0.0338824 0.105941 
node 1 2 1 1
node 2 3 1 1
node 3 1 1 1
node 4 2 1 1
node 5 1 1 1
node 6 3 1 1
node 7 2 1 3
node 8 2 0 2
node 21 1 0 0
gene 1 1 8 -1.49902 0 1 -1.49902 0
gene 2 2 8 -0.826999 0 2 -0.826999 1
gene 1 3 8 1.50074 0 3 1.50074 1
gene 3 4 8 -3.3748 0 4 -3.3748 1
gene 1 5 8 2.21627 0 5 2.21627 1
gene 1 6 8 1.78207 0 6 1.78207 1
gene 3 7 8 -1.56181 0 7 -1.56181 1
gene 1 1 21 1 0 34 1 1
gene 1 21 8 0.574497 0 35 0.574497 1
gene 1 6 21 1.33673 0 52 1.33673 1
genomeend 78

/* Organism #79 Fitness: 62 Error: 0 */
genomestart 79
trait 1 0.1 0 0 0 0 0 0 0 
trait 2 0.2 0 0 0 0 0 0 0 
trait 3 0.298723 0 0.0112826 0 0 0 0.0338824 0.105941 
node 1 2 1 1
node 2 2 1 1
node 3 1 1 1
node 4 2 1 1
node 5 1 1 1
node 6 3 1 1
node 7 2 1 3
node 8 2 0 2
node 21 1 0 0
gene 1 1 8 0.481291 0 1 0.481291 0
gene 2 2 8 0.164979 0 2 0.164979 1
gene 1 3 8 -0.38071 0 3 -0.38071 1
gene 3 4 8 -1.0454 0 4 -1.0454 1
gene 1 5 8 1.4847 0 5 1.4847 1
gene 1 6 8 1.98892 0 6 1.98892 1
gene 3 7 8 -0.317775 0 7 -0.317775 1
gene 1 1 21 1 0 34 0 1
gene 1 21 8 0.481291 0 35 0 1
gene 1 6 21 0.251543 0 52 0.251543 1
gene 2 4 21 0.780394 0 81 0.780394 1
genomeend 79

/* Organism #80 Fitness: 63 Error: 0 */
genomestart 80
trait 1 0.1 0 0 0 0 0 0 0 
trait 2 0.2 0 0 0 0 0 0 0 
trait 3 0.298723 0 0.0112826 0 0 0 0.0338824 0.105941 
node 1 2 1 1
node 2 2 1 1
node 3 1 1 1
node 4 2 1 1
node 5 1 1 1
node 6 3 1 1
node 7 2 1 3
node 8 2 0 2
node 21 1 0 0
gene 1 1 8 0.481291 0 1 0.481291 0
gene 2 2 8 1.87294 0 2 1.87294 1
gene 1 3 8 0.481335 0 3 0.481335 1
gene 3 4 8 -3.3748 0 4 -3.3748 1
gene 1 5 8 2.21627 0 5 2.21627 1
gene 1 6 8 2.10203 0 6 2.10203 1
gene 3 7 8 -0.85601 0 7 -0.85601 1
gene 1 1 21 1 0 34 1 1
gene 1 21 8 -1.28539 0 35 -1.28539 1
gene 1 6 21 -0.795381 0 52 -0.795381 1
genomeend 80

/* Organism #81 Fitness: 63 Error: 0 */
genomestart 81
trait 1 0.1 0 0 0 0 0 0 0 
trait 2 0.2 0 0 0 0 0 0 0 
trait 3 0.298723 0 0.0112826 0 0 0 0.0338824 0.105941 
node 1 2 1 1
node 2 2 1 1
node 3 1 1 1
node 4 2 1 1
node 5 1 1 1
node 6 3 1 1
node 7 2 1 3
node 8 2 0 2
node 21 1 0 0
gene 1 1 8 0.481291 0 1 0.481291 0
gene 2 2 8 1.87294 0 2 1.87294 1
gene 1 3 8 0.481335 0 3 0.481335 1
gene 3 4 8 -3.3748 0 4 -3.3748 1
gene 1 5 8 2.21627 0 5 2.21627 1
gene 1 6 8 2.10203 0 6 2.10203 1
gene 3 7 8 -0.85601 0 7 -0.85601 1
gene 1 1 21 1 0 34 1 1
gene 1 21 8 -1.28539 0 35 -1.28539 1
gene 2 6 21 -0.795381 0 52 -0.795381 1
genomeend 81

/* Organism #82 Fitness: 35 Error: 0 */
genomestart 82
trait 1 0.1 0 0 0 0 0 0 0 
trait 2 0.2 0 0 0 0 0 0 0 
trait 3 0.298723 0 0.0112826 0 0 0 0.0338824 0.105941 
node 1 2 1 1
node 2 2 1 1
node 3 1 1 1
node 4 2 1 1
node 5 1 1 1
node 6 3 1 1
node 7 2 1 3
node 8 2 0 2
node 21 1 0 0
gene 1 1 8 0.663284 0 1 0.663284 0
gene 2 2 8 1.15291 0 2 1.15291 1
gene 1 3 8 -1.62798 0 3 -1.62798 1
gene 3 4 8 -2.08595 0 4 -2.08595 1
gene 1 5 8 -0.20999 0 5 -0.20999 1
gene 1 6 8 2.13999 0 6 2.13999 1
gene 3 7 8 -1.51379 0 7 -1.51379 1
gene 1 1 21 0.864829 0 34 0.864829 1
gene 1 21 8 0.481291 0 35 0.481291 1
gene 1 6 21 1.92202 0 52 1.92202 1
genomeend 82

/* Organism #83 Fitness: 35 Error: 0 */
genomestart 83
trait 1 0.1 0 0 0 0 0 0 0 
trait 2 0.2 0 0 0 0 0 0 0 
trait 3 0.298723 0 0.0112826 0 0 0 0.0338824 0.105941 
node 1 2 1 1
node 2 3 1 1
node 3 1 1 1
node 4 2 1 1
node 5 1 1 1
node 6 3 1 1
node 7 2 1 3
node 8 2 0 2
node 21 1 0 0
gene 1 1 8 -0.871149 0 1 -0.871149 0
gene 2 2 8 -3.10738 0 2 -3.10738 1
gene 1 3 8 -1.0952 0 3 -1.0952 1
gene 3 4 8 -1.48488 0 4 -1.48488 1
gene 1 5 8 1.81262 0 5 1.81262 1
gene 1 6 8 2.3779 0 6 2.3779 1
gene 3 7 8 1.4491 0 7 1.4491 1
gene 1 1 21 1.04466 0 34 1.04466 1
gene 1 21 8 -1.19707 0 35 -1.19707 1
gene 1 6 21 -1.65868 0 52 -1.65868 1
genomeend 83

/* Organism #84 Fitness: 5 Error: 0 */
genomestart 84
trait 1 0.1 0 0 0 0 0 0 0 
trait 2 0.2 0 0 0 0 0 0 0 
trait 3 0.298723 0 0.0112826 0 0 0 0.0338824 0.105941 
node 1 2 1 1
node 2 2 1 1
node 3 1 1 1
node 4 2 1 1
node 5 1 1 1
node 6 3 1 1
node 7 2 1 3
node 8 2 0 2
node 21 1 0 0
gene 1 1 8 0.523452 0 1 0.523452 0
gene 2 2 8 0.512168 0 2 0.512168 1
gene 1 3 8 1.28859 0 3 1.28859 1
gene 3 4 8 -3.34067 0 4 -3.34067 1
gene 1 5 8 -0.356182 0 5 -0.356182 1
gene 1 6 8 -0.0681609 0 6 -0.0681609 1
gene 3 7 8 1.59276 0 7 1.59276 1
gene 1 1 21 1.89322 0 34 1.89322 1
gene 1 21 8 -2.92817 0 35 -2.92817 1
gene 1 6 21 2.15467 0 52 2.15467 1
genomeend 84

/* Organism #85 Fitness: 13 Error: 0 */
genomestart 85
trait 1 0.1 0 0 0 0 0 0 0 
trait 2 0.2 0 0 0 0 0 0 0 
trait 3 0.298723 0 0.0112826 0 0 0 0.0338824 0.105941 
node 1 2 1 1
node 2 1 1 1
node 3 1 1 1
node 4 2 1 1
node 5 1 1 1
node 6 3 1 1
node 7 2 1 3
node 8 2 0 2
node 21 1 0 0
gene 1 1 8 -0.137505 0 1 -0.137505 0
gene 2 2 8 -0.686957 0 2 -0.686957 1
gene 1 3 8 1.899 0 3 1.899 1
gene 3 4 8 -1.71833 0 4 -1.71833 1
gene 1 5 8 -0.831012 0 5 -0.831012 1
gene 1 6 8 1.98892 0 6 1.98892 1
gene 3 7 8 -1.40852 0 7 -1.40852 1
gene 1 1 21 1 0 34 1 1
gene 1 21 8 -1.74762 0 35 -1.74762 1
gene 1 6 21 0.938213 0 52 0.938213 1
gene 2 4 21 -0.545412 0 81 -0.545412 1
genomeend 85

/* Species #6 : (Size 9) (AF 17.7778) (Age 4)  */


/* Organism #86 Fitness: 46 Error: 0 */
genomestart 86
trait 1 0.1 0 0 0 0 0 0 0 
trait 2 0.2 0 0 0 0 0 0 0 
trait 3 0.3 0.473156 0 0 0 0.749031 0 0.31274 
node 1 2 1 1
node 2 3 1 1
node 3 3 1 1
node 4 1 1 1
node 5 1 1 1
node 6 1 1 1
node 7 2 1 3
node 8 2 0 2
node 12 1 0 0
node 26 1 0 0
gene 2 1 8 3.73025 0 1 3.73025 0
gene 2 2 8 -2.55686 0 2 -2.55686 1
gene 3 3 8 -0.343996 0 3 -0.343996 0
gene 2 4 8 -3.11973 0 4 -3.11973 1
gene 1 5 8 1.60412 0 5 1.60412 0
gene 1 6 8 0.698983 0 6 0.698983 1
gene 2 7 8 -3.45787 0 7 -3.45787 1
gene 2 1 12 -0.541545 0 14 -0.541545 1
gene 2 12 8 -0.658643 0 15 -0.658643 1
gene 3 2 12 -1.9062 0 24 -1.9062 1
gene 2 3 12 1.43664 0 44 1.43664 1
gene 1 5 26 1.50139 0 46 1.50139 1
gene 1 26 8 2.46043 0 47 2.46043 1
genomeend 86

/* Organism #87 Fitness: 7 Error: 0 */
genomestart 87
trait 1 0.1 0 0 0 0 0 0 0 
trait 2 0.2 0 0 0 0 0 0 0 
trait 3 0.3 0.473156 0 0 0 0.749031 0 0.31274 
node 1 2 1 1
node 2 3 1 1
node 3 3 1 1
node 4 1 1 1
node 5 1 1 1
node 6 1 1 1
node 7 2 1 3
node 8 2 0 2
node 12 1 0 0
node 26 1 0 0
gene 2 1 8 1.77883 0 1 1.77883 0
gene 2 2 8 -4.63906 0 2 -4.63906 1
gene 3 3 8 -0.540806 0 3 -0.540806 0
gene 2 4 8 -2.71357 0 4 -2.71357 1
gene 1 5 8 1.64093 0 5 1.64093 0
gene 1 6 8 1.09305 0 6 1.09305 1
gene 2 7 8 -3.45787 0 7 -3.45787 1
gene 2 1 12 -2.73778 0 14 -2.73778 1
gene 2 12 8 -2.85192 0 15 -2.85192 1
gene 3 2 12 -0.0673616 0 24 -0.0673616 1
gene 2 3 12 2.51081 0 44 2.51081 1
gene 1 5 26 1.14047 0 46 1.14047 1
gene 1 26 8 1.59794 0 47 1.59794 1
genomeend 87

/* Organism #88 Fitness: 7 Error: 0 */
genomestart 88
trait 1 0.1 0 0 0 0 0 0 0 
trait 2 0.2 0 0 0 0 0 0 0 
trait 3 0.3 0 0 0 0 0 0 0 
node 1 2 1 1
node 2 3 1 1
node 3 3 1 1
node 4 1 1 1
node 5 1 1 1
node 6 1 1 1
node 7 2 1 3
node 8 2 0 2
node 12 1 0 0
node 26 1 0 0
gene 2 1 8 1.31712 0 1 1.31712 0
gene 2 2 8 0.651861 0 2 0.651861 1
gene 3 3 8 0.893662 0 3 0.893662 0
gene 2 4 8 -2.7818 0 4 -2.7818 1
gene 1 5 8 1.02583 0 5 1.02583 0
gene 1 6 8 1.22203 0 6 1.22203 1
gene 2 7 8 -3.64017 0 7 -3.64017 1
gene 2 1 12 -0.617069 0 14 -0.617069 1
gene 2 12 8 -0.076154 0 15 -0.076154 1
gene 3 2 12 0.0839334 0 24 0.0839334 1
gene 2 3 12 0.812335 0 44 0.812335 1
gene 1 5 26 1.1761 0 46 1.1761 1
gene 1 26 8 -0.375799 0 47 -0.375799 1
genomeend 88

/* Organism #89 Fitness: 5 Error: 0 */
genomestart 89
trait 1 0.1 0 0 0 0 0 0 0 
trait 2 0.2 0 0 0 0 0 0 0 
trait 3 0.3 0 0 0 0 0 0 0 
node 1 2 1 1
node 2 3 1 1
node 3 3 1 1
node 4 1 1 1
node 5 1 1 1
node 6 1 1 1
node 7 2 1 3
node 8 2 0 2
node 12 1 0 0
node 26 1 0 0
gene 2 1 8 0.267278 0 1 0.267278 0
gene 2 2 8 0.654702 0 2 0.654702 1
gene 3 3 8 -0.9596 0 3 -0.9596 0
gene 2 4 8 -2.50287 0 4 -2.50287 1
gene 1 5 8 3.39523 0 5 3.39523 0
gene 1 6 8 -1.50548 0 6 -1.50548 1
gene 2 7 8 1.10618 0 7 1.10618 1
gene 2 1 12 -1.4938 0 14 -1.4938 1
gene 2 12 8 1.83226 0 15 1.83226 1
gene 3 2 12 -1.7444 0 24 -1.7444 1
gene 2 3 12 1.24811 0 44 1.24811 1
gene 1 5 26 3.39306 0 46 3.39306 1
gene 1 26 8 -1.36106 0 47 -1.36106 1
genomeend 89

/* Organism #90 Fitness: 21 Error: 0 */
genomestart 90
trait 1 0.1 0 0 0 0 0 0 0 
trait 2 0.2 0 0 0 0 0 0 0 
trait 3 0 0.236578 0 0 0 0.374515 0.995452 0 
node 1 2 1 1
node 2 3 1 1
node 3 3 1 1
node 4 1 1 1
node 5 1 1 1
node 6 1 1 1
node 7 2 1 3
node 8 2 0 2
node 12 1 0 0
node 26 1 0 0
gene 2 1 8 0.240973 0 1 0.240973 0
gene 2 2 8 -1.55432 0 2 -1.55432 1
gene 3 3 8 2.09388 0 3 2.09388 0
gene 2 4 8 -3.69109 0 4 -3.69109 1
gene 1 5 8 2.49967 0 5 2.49967 0
gene 1 6 8 0.691576 0 6 0.691576 1
gene 2 7 8 -1.89418 0 7 -1.89418 1
gene 2 1 12 -3.3476 0 14 -3.3476 1
gene 2 12 8 1.53701 0 15 1.53701 1
gene 3 2 12 -1.60118 0 24 -1.60118 1
gene 2 3 12 2.689 0 44 2.689 1
gene 1 5 26 2.75053 0 46 2.75053 1
gene 1 26 8 2.01522 0 47 2.01522 1
genomeend 90

/* Organism #91 Fitness: 34 Error: 0 */
genomestart 91
trait 1 0.1 0 0 0 0 0 0 0 
trait 2 0.2 0 0 0 0 0 0 0 
trait 3 0.3 0.236578 0 0 0 0.374515 0 0.15637 
node 1 2 1 1
node 2 3 1 1
node 3 3 1 1
node 4 1 1 1
node 5 1 1 1
node 6 1 1 1
node 7 2 1 3
node 8 1 0 2
node 12 1 0 0
node 26 1 0 0
gene 2 1 8 3.46942 0 1 3.46942 0
gene 2 2 8 -4.52795 0 2 -4.52795 1
gene 3 3 8 1.80666 0 3 1.80666 0
gene 2 4 8 -3.14489 0 4 -3.14489 1
gene 1 5 8 1.65899 0 5 1.65899 0
gene 1 6 8 3.94843 0 6 3.94843 1
gene 2 7 8 -2.78609 0 7 -2.78609 1
gene 2 1 12 -1.75301 0 14 -1.75301 1
gene 2 12 8 -0.0889001 0 15 -0.0889001 1
gene 3 2 12 -1.25629 0 24 -1.25629 1
gene 2 3 12 1.49151 0 44 1.49151 1
gene 1 5 26 1.03316 0 46 1.03316 1
gene 1 26 8 4.787 0 47 4.787 1
genomeend 91

/* Organism #92 Fitness: 5 Error: 0 */
genomestart 92
trait 1 0.1 0 0 0 0 0 0 0 
trait 2 0.2 0 0 0 0 0 0 0 
trait 3 0.3 0.473156 0 0 0 0.749031 0 0.31274 
node 1 2 1 1
node 2 3 1 1
node 3 3 1 1
node 4 1 1 1
node 5 1 1 1
node 6 1 1 1
node 7 2 1 3
node 8 2 0 2
node 12 1 0 0
node 26 1 0 0
gene 2 1 8 1.45462 0 1 1.45462 0
gene 2 2 8 0.345374 0 2 0.345374 1
gene 3 3 8 -0.730208 0 3 -0.730208 0
gene 2 4 8 -2.34824 0 4 -2.34824 1
gene 1 5 8 2.33404 0 5 2.33404 0
gene 1 6 8 -1.15787 0 6 -1.15787 1
gene 2 7 8 -2.02333 0 7 -2.02333 1
gene 2 1 12 -0.541545 0 14 -0.541545 1
gene 2 12 8 -0.658643 0 15 -0.658643 1
gene 3 2 12 -2.65262 0 24 -2.65262 1
gene 2 3 12 2.49803 0 44 2.49803 1
gene 1 5 26 0.00815817 0 46 0.00815817 1
gene 1 26 8 4.05359 0 47 4.05359 1
genomeend 92

/* Organism #93 Fitness: 23 Error: 0 */
genomestart 93
trait 1 0.1 0 0 0 0 0 0 0 
trait 2 0.2 0 0 0 0 0 0 0 
trait 3 0.3 0 0 0 0 0 0 0 
node 1 2 1 1
node 2 3 1 1
node 3 3 1 1
node 4 1 1 1
node 5 1 1 1
node 6 1 1 1
node 7 2 1 3
node 8 2 0 2
node 12 1 0 0
node 26 1 0 0
gene 1 1 8 3.66845 0 1 3.66845 0
gene 2 2 8 -0.773667 0 2 -0.773667 1
gene 3 3 8 1.7911 0 3 1.7911 0
gene 2 4 8 -1.63197 0 4 -1.63197 1
gene 1 5 8 4.9436 0 5 4.9436 0
gene 1 6 8 1.73975 0 6 1.73975 1
gene 2 7 8 -1.93601 0 7 -1.93601 1
gene 2 1 12 -2.68369 0 14 -2.68369 1
gene 2 12 8 3.40684 0 15 3.40684 1
gene 3 2 12 -4.25004 0 24 -4.25004 1
gene 2 3 12 2.91712 0 44 2.91712 1
gene 1 5 26 0.430443 0 46 0.430443 1
gene 1 26 8 -1.46826 0 47 -1.46826 1
genomeend 93

/* Organism #94 Fitness: 12 Error: 0 */
genomestart 94
trait 1 0.1 0 0 0 0 0 0 0 
trait 2 0.2 0 0 0 0 0 0 0 
trait 3 0.3 0 0 0 0 0 0 0 
node 1 2 1 1
node 2 3 1 1
node 3 3 1 1
node 4 1 1 1
node 5 1 1 1
node 6 1 1 1
node 7 2 1 3
node 8 2 0 2
node 12 1 0 0
node 26 1 0 0
gene 2 1 8 -1.86148 0 1 -1.86148 0
gene 2 2 8 -1.83846 0 2 -1.83846 1
gene 3 3 8 -0.404883 0 3 -0.404883 0
gene 2 4 8 -1.70436 0 4 -1.70436 1
gene 1 5 8 5.65159 0 5 5.65159 0
gene 1 6 8 2.80895 0 6 2.80895 1
gene 2 7 8 0.447165 0 7 0.447165 1
gene 2 1 12 -1.23472 0 14 -1.23472 1
gene 2 12 8 4.09126 0 15 4.09126 1
gene 3 2 12 -3.98732 0 24 -3.98732 1
gene 2 3 12 4.39213 0 44 4.39213 1
gene 1 5 26 2.46454 0 46 2.46454 1
gene 1 26 8 -1.96866 0 47 -1.96866 1
genomeend 94

/* Species #7 : (Size 12) (AF 29.0833) (Age 3)  */


/* Organism #95 Fitness: 68 Error: 0 */
genomestart 95
trait 1 0.1 0 0 0 0 0 0 0 
trait 2 0.2 0 0 0 0 0 0 0 
trait 3 0.3 0 0 0 0 0 0 0 
node 1 2 1 1
node 2 2 1 1
node 3 1 1 1
node 4 2 1 1
node 5 1 1 1
node 6 3 1 1
node 7 3 1 3
node 8 3 0 2
node 26 1 0 0
gene 3 1 8 -0.929543 0 1 -0.929543 1
gene 1 2 8 -0.679189 0 2 -0.679189 1
gene 3 3 8 1.71666 0 3 1.71666 1
gene 3 4 8 -4.10401 0 4 -4.10401 1
gene 2 5 8 1.45628 0 5 1.45628 0
gene 1 6 8 2.74154 0 6 2.74154 1
gene 3 7 8 -0.076008 0 7 -0.076008 1
gene 1 5 26 1.574 0 46 1.574 1
gene 1 26 8 0.0398892 0 47 0.0398892 1
gene 3 2 26 -2.30037 0 57 -2.30037 1
genomeend 95

/* Organism #96 Fitness: 27 Error: 0 */
genomestart 96
trait 1 0.1 0 0 0 0 0 0 0 
trait 2 0.2 0 0 0 0 0 0 0 
trait 3 0.3 0 0 0 0 0 0 0 
node 1 2 1 1
node 2 2 1 1
node 3 1 1 1
node 4 2 1 1
node 5 1 1 1
node 6 3 1 1
node 7 3 1 3
node 8 3 0 2
node 26 1 0 0
gene 3 1 8 0.300206 0 1 0.300206 1
gene 1 2 8 -0.475262 0 2 -0.475262 1
gene 3 3 8 3.24297 0 3 3.24297 1
gene 3 4 8 -3.43109 0 4 -3.43109 1
gene 2 5 8 1.64228 0 5 1.64228 0
gene 1 6 8 2.31461 0 6 2.31461 1
gene 3 7 8 -1.07189 0 7 -1.07189 1
gene 1 5 26 -1.06468 0 46 -1.06468 1
gene 1 26 8 2.17685 0 47 2.17685 1
gene 3 2 26 -0.12554 0 57 -0.12554 1
gene 1 4 26 0.372892 0 84 0.372892 1
genomeend 96

/* Organism #97 Fitness: 30 Error: 0 */
genomestart 97
trait 1 0.1 0 0 0 0 0 0 0 
trait 2 0.1 0.476933 0 0.403813 0.316748 0.288159 0.271963 0 
trait 3 0.3 0 0 0 0 0 0 0 
node 1 2 1 1
node 2 2 1 1
node 3 1 1 1
node 4 2 1 1
node 5 1 1 1
node 6 3 1 1
node 7 3 1 3
node 8 3 0 2
node 26 1 0 0
gene 3 1 8 2.62508 0 1 2.62508 1
gene 1 2 8 0.156017 0 2 0.156017 1
gene 3 3 8 1.05099 0 3 1.05099 1
gene 3 4 8 -4.83067 0 4 -4.83067 1
gene 2 5 8 1.71211 0 5 1.71211 0
gene 1 6 8 1.90268 0 6 1.90268 1
gene 3 7 8 -0.0933142 0 7 -0.0933142 1
gene 1 5 26 2.23935 0 46 2.23935 1
gene 1 26 8 5.16089 0 47 5.16089 1
gene 3 2 26 0.0824562 0 57 0.0824562 1
genomeend 97

/* Organism #98 Fitness: 36 Error: 0 */
genomestart 98
trait 1 0.1 0 0 0 0 0 0 0 
trait 2 0.2 0 0 0 0 0 0 0 
trait 3 0.3 0 0 0 0 0 0 0 
node 1 2 1 1
node 2 2 1 1
node 3 1 1 1
node 4 2 1 1
node 5 1 1 1
node 6 3 1 1
node 7 3 1 3
node 8 3 0 2
node 26 1 0 0
gene 3 1 8 0.300206 0 1 0.300206 1
gene 1 2 8 -0.679189 0 2 -0.679189 1
gene 3 3 8 1.71666 0 3 1.71666 1
gene 3 4 8 -3.43109 0 4 -3.43109 1
gene 2 5 8 4.49335 0 5 4.49335 0
gene 1 6 8 1.6835 0 6 1.6835 1
gene 3 7 8 -0.076008 0 7 -0.076008 1
gene 1 5 26 -1.06468 0 46 -1.06468 1
gene 1 26 8 0.0398892 0 47 0.0398892 1
gene 3 2 26 -0.12554 0 57 -0.12554 1
genomeend 98

/* Organism #99 Fitness: 22 Error: 0 */
genomestart 99
trait 1 0.1 0 0 0 0 0 0 0 
trait 2 0.2 0 0 0 0 0 0 0 
trait 3 0.3 0 0 0 0 0 0 0 
node 1 2 1 1
node 2 2 1 1
node 3 1 1 1
node 4 2 1 1
node 5 1 1 1
node 6 3 1 1
node 7 3 1 3
node 8 3 0 2
node 26 1 0 0
gene 3 1 8 -1.07692 0 1 -1.07692 1
gene 1 2 8 0.275778 0 2 0.275778 1
gene 3 3 8 1.15745 0 3 1.15745 1
gene 3 4 8 -3.58585 0 4 -3.58585 1
gene 2 5 8 1.92731 0 5 1.92731 0
gene 1 6 8 1.33619 0 6 1.33619 1
gene 3 7 8 2.48569 0 7 2.48569 1
gene 1 5 26 1.1715 0 46 1.1715 1
gene 1 26 8 3.91033 0 47 3.91033 1
gene 3 2 26 -0.242321 0 57 -0.242321 1
gene 1 3 26 -1.96951 0 82 -1.96951 1
genomeend 99

/* Organism #100 Fitness: 5 Error: 0 */
genomestart 100
trait 1 0.1 0 0 0 0 0 0 0 
trait 2 0.2 0 0 0 0 0 0 0 
trait 3 0.3 0 0 0 0 0 0 0 
node 1 2 1 1
node 2 2 1 1
node 3 1 1 1
node 4 2 1 1
node 5 1 1 1
node 6 3 1 1
node 7 3 1 3
node 8 3 0 2
node 26 1 0 0
gene 3 1 8 1.41049 0 1 1.41049 1
gene 1 2 8 0.618322 0 2 0.618322 1
gene 3 3 8 -1.65239 0 3 -1.65239 1
gene 3 4 8 -4.53004 0 4 -4.53004 1
gene 2 5 8 1.96646 0 5 1.96646 0
gene 1 6 8 -1.83571 0 6 -1.83571 1
gene 3 7 8 -1.3927 0 7 -1.3927 1
gene 1 5 26 -1.3816 0 46 -1.3816 1
gene 1 26 8 4.03943 0 47 4.03943 1
gene 3 2 26 -1.08502 0 57 -1.08502 1
genomeend 100

/* Organism #101 Fitness: 19 Error: 0 */
genomestart 101
trait 1 0.1 0 0 0 0 0 0 0 
trait 2 0.2 0 0 0 0 0 0 0 
trait 3 0.3 0 0 0 0 0 0 0 
node 1 2 1 1
node 2 2 1 1
node 3 1 1 1
node 4 2 1 1
node 5 1 1 1
node 6 3 1 1
node 7 3 1 3
node 8 3 0 2
node 26 1 0 0
gene 3 1 8 2.22841 0 1 2.22841 1
gene 1 2 8 1.81989 0 2 1.81989 1
gene 3 3 8 3.24297 0 3 3.24297 1
gene 3 4 8 -1.50933 0 4 -1.50933 1
gene 2 5 8 1.64228 0 5 1.64228 0
gene 1 6 8 1.6835 0 6 1.6835 1
gene 3 7 8 -1.07189 0 7 -1.07189 1
gene 1 5 26 -1.06468 0 46 -1.06468 1
gene 1 26 8 2.17685 0 47 2.17685 1
gene 3 2 26 -0.12554 0 57 -0.12554 1
gene 1 3 26 -0.246919 0 85 -0.246919 1
genomeend 101

/* Organism #102 Fitness: 30 Error: 0 */
genomestart 102
trait 1 0.1 0 0 0 0 0 0 0 
trait 2 0.2 0 0 0 0 0 0 0 
trait 3 0.3 0 0 0 0 0 0 0 
node 1 2 1 1
node 2 2 1 1
node 3 1 1 1
node 4 2 1 1
node 5 1 1 1
node 6 3 1 1
node 7 3 1 3
node 8 3 0 2
node 26 1 0 0
gene 3 1 8 -0.927374 0 1 -0.927374 1
gene 1 2 8 -1.68759 0 2 -1.68759 1
gene 3 3 8 0.730996 0 3 0.730996 1
gene 3 4 8 -4.00651 0 4 -4.00651 1
gene 2 5 8 0.163623 0 5 0.163623 0
gene 1 6 8 1.69169 0 6 1.69169 1
gene 3 7 8 -1.78432 0 7 -1.78432 1
gene 1 5 26 0.36402 0 46 0.36402 1
gene 1 26 8 -0.332035 0 47 -0.332035 1
gene 3 2 26 -3.6807 0 57 -3.6807 1
genomeend 102

/* Organism #103 Fitness: 10 Error: 0 */
genomestart 103
trait 1 0.1 0 0 0 0 0 0 0 
trait 2 0 0.953865 0 0.807625 0.633496 0.576318 0.543926 0 
trait 3 0.3 0 0 0 0 0 0 0 
node 1 2 1 1
node 2 2 1 1
node 3 1 1 1
node 4 2 1 1
node 5 1 1 1
node 6 3 1 1
node 7 3 1 3
node 8 3 0 2
node 26 1 0 0
gene 3 1 8 2.01358 0 1 2.01358 1
gene 1 2 8 -1.07284 0 2 -1.07284 1
gene 3 3 8 2.1594 0 3 2.1594 1
gene 3 4 8 -5.45365 0 4 -5.45365 1
gene 2 5 8 -0.138413 0 5 -0.138413 0
gene 1 6 8 0.293732 0 6 0.293732 1
gene 3 7 8 -1.27096 0 7 -1.27096 1
gene 1 5 26 -0.55596 0 46 -0.55596 1
gene 1 26 8 1.02019 0 47 1.02019 1
gene 3 2 26 -2.99511 0 57 -2.99511 1
genomeend 103

/* Organism #104 Fitness: 29 Error: 0 */
genomestart 104
trait 1 0.1 0 0 0 0 0 0 0 
trait 2 0.2 0 0 0 0 0 0 0 
trait 3 0.3 0 0 0 0 0 0 0 
node 1 2 1 1
node 2 2 1 1
node 3 1 1 1
node 4 2 1 1
node 5 1 1 1
node 6 3 1 1
node 7 3 1 3
node 8 3 0 2
node 26 1 0 0
gene 3 1 8 0.300206 0 1 0.300206 1
gene 1 2 8 -0.679189 0 2 -0.679189 1
gene 3 3 8 3.24297 0 3 3.24297 1
gene 3 4 8 -4.10401 0 4 -4.10401 1
gene 2 5 8 1.45628 0 5 1.45628 0
gene 1 6 8 2.74154 0 6 2.74154 1
gene 3 7 8 -0.076008 0 7 -0.076008 1
gene 1 5 26 -1.06468 0 46 -1.06468 1
gene 1 26 8 0.0398892 0 47 0.0398892 1
gene 3 2 26 -2.30037 0 57 -2.30037 1
genomeend 104

/* Organism #105 Fitness: 41 Error: 0 */
genomestart 105
trait 1 0.1 0 0 0 0 0 0 0 
trait 2 0.2 0 0 0 0 0 0 0 
trait 3 0.3 0 0 0 0 0 0 0 
node 1 2 1 1
node 2 2 1 1
node 3 1 1 1
node 4 2 1 1
node 5 1 1 1
node 6 3 1 1
node 7 3 1 3
node 8 3 0 2
node 26 1 0 0
gene 3 1 8 0.474797 0 1 0.474797 1
gene 1 2 8 -0.577226 0 2 -0.577226 1
gene 3 3 8 0.273327 0 3 0.273327 1
gene 3 4 8 -1.6232 0 4 -1.6232 1
gene 2 5 8 0.776963 0 5 0.776963 0
gene 1 6 8 4.12106 0 6 4.12106 1
gene 3 7 8 0.243171 0 7 0.243171 1
gene 1 5 26 2.06705 0 46 2.06705 1
gene 1 26 8 1.67956 0 47 1.67956 1
gene 3 2 26 0.377889 0 57 0.377889 1
genomeend 105

/* Organism #106 Fitness: 32 Error: 0 */
genomestart 106
trait 1 0.1 0 0 0 0 0 0 0 
trait 2 0.2 0 0 0 0 0 0 0 
trait 3 0.3 0 0 0 0 0 0 0 
node 1 2 1 1
node 2 2 1 1
node 3 1 1 1
node 4 2 1 1
node 5 1 1 1
node 6 3 1 1
node 7 3 1 3
node 8 3 0 2
node 26 1 0 0
gene 3 1 8 0.592582 0 1 0.592582 1
gene 1 2 8 -0.211569 0 2 -0.211569 1
gene 3 3 8 3.24297 0 3 3.24297 1
gene 3 4 8 -3.43109 0 4 -3.43109 1
gene 2 5 8 4.49335 0 5 4.49335 0
gene 1 6 8 1.33619 0 6 1.33619 1
gene 3 7 8 -1.36753 0 7 -1.36753 1
gene 1 5 26 1 0 46 0 1
gene 1 26 8 1.87264 0 47 0 1
gene 3 2 26 -0.12554 0 57 -0.12554 1
genomeend 106

/* Species #8 : (Size 14) (AF 30.6429) (Age 2)  */


/* Organism #107 Fitness: 63 Error: 0 */
genomestart 107
trait 1 0.1 0 0 0 0 0 0 0 
trait 2 0.2 0 0 0 0 0 0 0 
trait 3 0.3 0 0 0 0 0 0 0 
node 1 2 1 1
node 2 3 1 1
node 3 3 1 1
node 4 1 1 1
node 5 2 1 1
node 6 1 1 1
node 7 2 1 3
node 8 2 0 2
node 12 1 0 0
gene 2 1 8 -2.01314 0 1 -2.01314 0
gene 2 2 8 0.562642 0 2 0.562642 1
gene 3 3 8 0.315011 0 3 0.315011 0
gene 2 4 8 0.238527 0 4 0.238527 1
gene 1 5 8 1.98863 0 5 1.98863 1
gene 1 6 8 0.93669 0 6 0.93669 1
gene 2 7 8 -0.668355 0 7 -0.668355 1
gene 2 1 12 -0.744911 0 14 -0.744911 1
gene 2 12 8 0.189866 0 15 0.189866 1
gene 3 2 12 -1.74049 0 24 -1.74049 1
gene 3 4 12 0.440267 0 45 0.440267 1
gene 3 7 12 0.0657211 0 58 0.0657211 1
gene 2 3 12 -0.789355 0 73 -0.789355 1
genomeend 107

/* Organism #108 Fitness: 42 Error: 0 */
genomestart 108
trait 1 0.1 0 0 0 0 0 0 0 
trait 2 0.2 0 0 0 0 0 0 0 
trait 3 0.3 0 0 0 0 0 0 0 
node 1 2 1 1
node 2 3 1 1
node 3 1 1 1
node 4 1 1 1
node 5 2 1 1
node 6 1 1 1
node 7 2 1 3
node 8 2 0 2
node 12 1 0 0
gene 2 1 8 -1.60189 0 1 -1.60189 0
gene 2 2 8 1.62415 0 2 1.62415 1
gene 3 3 8 2.28391 0 3 2.28391 0
gene 2 4 8 -2.06094 0 4 -2.06094 1
gene 1 5 8 3.76128 0 5 3.76128 1
gene 1 6 8 2.06853 0 6 2.06853 1
gene 2 7 8 -2.18965 0 7 -2.18965 1
gene 2 1 12 0.224939 0 14 0.224939 1
gene 2 12 8 -2.29396 0 15 -2.29396 1
gene 3 2 12 -3.72015 0 24 -3.72015 1
gene 3 4 12 0.685811 0 45 0.685811 1
gene 3 7 12 0.110734 0 58 0.110734 1
gene 2 3 12 -0.789355 0 73 -0.789355 1
genomeend 108

/* Organism #109 Fitness: 37 Error: 0 */
genomestart 109
trait 1 0.1 0 0 0 0 0 0 0 
trait 2 0.2 0 0 0 0 0 0 0 
trait 3 0.3 0 0 0 0 0 0 0 
node 1 2 1 1
node 2 3 1 1
node 3 3 1 1
node 4 1 1 1
node 5 2 1 1
node 6 1 1 1
node 7 2 1 3
node 8 2 0 2
node 12 1 0 0
gene 2 1 8 0.770116 0 1 0.770116 0
gene 2 2 8 0.562642 0 2 0.562642 1
gene 3 3 8 2.11429 0 3 2.11429 0
gene 2 4 8 -1.84124 0 4 -1.84124 1
gene 1 5 8 0.596346 0 5 0.596346 1
gene 1 6 8 0.626045 0 6 0.626045 1
gene 2 7 8 1.00165 0 7 1.00165 1
gene 2 1 12 -0.744911 0 14 -0.744911 1
gene 2 12 8 -1.03913 0 15 -1.03913 1
gene 3 2 12 -2.7781 0 24 -2.7781 1
gene 3 4 12 0.440267 0 45 0.440267 1
gene 3 7 12 1.92106 0 58 1.92106 1
gene 2 3 12 -0.789355 0 73 -0.789355 1
genomeend 109

/* Organism #110 Fitness: 15 Error: 0 */
genomestart 110
trait 1 0.1 0 0 0 0 0 0 0 
trait 2 0.2 0 0 0 0 0 0 0 
trait 3 0.49896 0 0 0 0.543739 0 0 0 
node 1 2 1 1
node 2 3 1 1
node 3 3 1 1
node 4 1 1 1
node 5 2 1 1
node 6 1 1 1
node 7 2 1 3
node 8 2 0 2
node 12 1 0 0
gene 2 1 8 -2.01314 0 1 -2.01314 0
gene 2 2 8 0.562642 0 2 0.562642 1
gene 3 3 8 -0.816053 0 3 -0.816053 0
gene 2 4 8 -1.93815 0 4 -1.93815 1
gene 1 5 8 3.02156 0 5 3.02156 1
gene 1 6 8 0.0458515 0 6 0.0458515 1
gene 2 7 8 1.62402 0 7 1.62402 1
gene 2 1 12 0.151429 0 14 0.151429 1
gene 2 12 8 -1.01639 0 15 -1.01639 1
gene 3 2 12 1.0221 0 24 1.0221 1
gene 3 4 12 0.246987 0 45 0.246987 1
gene 3 7 12 0.754088 0 58 0.754088 1
gene 2 3 12 -3.24828 0 73 -3.24828 1
genomeend 110

/* Organism #111 Fitness: 5 Error: 0 */
genomestart 111
trait 1 0.1 0 0 0 0 0 0 0 
trait 2 0.2 0 0 0 0 0 0 0 
trait 3 0.3 0 0 0 0 0 0 0 
node 1 2 1 1
node 2 3 1 1
node 3 3 1 1
node 4 1 1 1
node 5 2 1 1
node 6 1 1 1
node 7 2 1 3
node 8 2 0 2
node 12 1 0 0
gene 2 1 8 -3.79305 0 1 -3.79305 0
gene 2 2 8 -0.476631 0 2 -0.476631 1
gene 3 3 8 1.22321 0 3 1.22321 0
gene 2 4 8 1.40704 0 4 1.40704 1
gene 1 5 8 2.79869 0 5 2.79869 1
gene 1 6 8 -0.754127 0 6 -0.754127 1
gene 2 7 8 -1.87099 0 7 -1.87099 1
gene 2 1 12 -0.353773 0 14 -0.353773 1
gene 2 12 8 -0.422703 0 15 -0.422703 1
gene 3 2 12 -3.46533 0 24 -3.46533 1
gene 3 4 12 -1.52086 0 45 -1.52086 1
gene 3 7 12 0.0657211 0 58 0.0657211 1
gene 2 3 12 -0.356702 0 73 -0.356702 1
genomeend 111

/* Organism #112 Fitness: 10 Error: 0 */
genomestart 112
trait 1 0.1 0 0 0 0 0 0 0 
trait 2 0.2 0 0 0 0 0 0 0 
trait 3 0.3 0 0 0 0 0 0 0 
node 1 2 1 1
node 2 3 1 1
node 3 3 1 1
node 4 1 1 1
node 5 2 1 1
node 6 1 1 1
node 7 2 1 3
node 8 2 0 2
node 12 1 0 0
gene 2 1 8 -2.70887 0 1 -2.70887 0
gene 2 2 8 -1.55059 0 2 -1.55059 1
gene 3 3 8 -0.64814 0 3 -0.64814 0
gene 2 4 8 2.34035 0 4 2.34035 1
gene 1 5 8 0.163014 0 5 0.163014 1
gene 1 6 8 -0.0737226 0 6 -0.0737226 1
gene 2 7 8 0.425763 0 7 0.425763 1
gene 2 1 12 -0.395073 0 14 -0.395073 1
gene 2 12 8 1.93343 0 15 1.93343 1
gene 3 2 12 -3.1701 0 24 -3.1701 1
gene 3 4 12 2.78965 0 45 2.78965 1
gene 3 7 12 -1.88548 0 58 -1.88548 1
gene 2 3 12 -1.64215 0 73 -1.64215 1
genomeend 112

/* Organism #113 Fitness: 5 Error: 0 */
genomestart 113
trait 1 0.1 0 0 0 0 0 0 0 
trait 2 0.2 0 0 0 0 0 0 0 
trait 3 0.3 0 0 0 0 0 0 0 
node 1 2 1 1
node 2 3 1 1
node 3 3 1 1
node 4 1 1 1
node 5 2 1 1
node 6 1 1 1
node 7 2 1 3
node 8 2 0 2
node 12 1 0 0
gene 2 1 8 -1.28274 0 1 -1.28274 0
gene 2 2 8 -1.91132 0 2 -1.91132 1
gene 3 3 8 1.33077 0 3 1.33077 0
gene 2 4 8 -1.52565 0 4 -1.52565 1
gene 1 5 8 0.0197282 0 5 0.0197282 1
gene 1 6 8 -2.40677 0 6 -2.40677 1
gene 2 7 8 -2.28779 0 7 -2.28779 1
gene 2 1 12 -2.19628 0 14 -2.19628 1
gene 2 12 8 0.189866 0 15 0.189866 1
gene 3 2 12 1.6073 0 24 1.6073 1
gene 3 4 12 -1.3737 0 45 -1.3737 1
gene 3 7 12 0.631928 0 58 0.631928 1
gene 2 3 12 -0.789355 0 73 -0.789355 1
genomeend 113

/* Organism #114 Fitness: 8 Error: 0 */
genomestart 114
trait 1 0.1 0 0 0 0 0 0 0 
trait 2 0.2 0 0 0 0 0 0 0 
trait 3 0.3 0 0 0 0 0 0 0 
node 1 2 1 1
node 2 3 1 1
node 3 3 1 1
node 4 1 1 1
node 5 2 1 1
node 6 1 1 1
node 7 2 1 3
node 8 2 0 2
node 12 1 0 0
gene 2 1 8 -0.440938 0 1 -0.440938 0
gene 2 2 8 -0.873037 0 2 -0.873037 1
gene 3 3 8 -0.9498 0 3 -0.9498 0
gene 2 4 8 -1.36784 0 4 -1.36784 1
gene 1 5 8 -0.0577783 0 5 -0.0577783 1
gene 1 6 8 0.13273 0 6 0.13273 1
gene 2 7 8 -1.77914 0 7 -1.77914 1
gene 2 1 12 -3.08436 0 14 -3.08436 1
gene 2 12 8 2.23491 0 15 2.23491 1
gene 3 2 12 -0.226667 0 24 -0.226667 1
gene 3 4 12 2.93178 0 45 2.93178 1
gene 3 7 12 1.6636 0 58 1.6636 1
gene 2 3 12 0.0530994 0 73 0.0530994 1
genomeend 114

/* Organism #115 Fitness: 28 Error: 0 */
genomestart 115
trait 1 0.1 0 0 0 0 0 0 0 
trait 2 0.2 0 0 0 0 0 0 0 
trait 3 0.3 0 0 0 0 0 0 0 
node 1 2 1 1
node 2 3 1 1
node 3 3 1 1
node 4 1 1 1
node 5 2 1 1
node 6 1 1 1
node 7 2 1 3
node 8 2 0 2
node 12 1 0 0
node 36 1 0 0
gene 2 1 8 -2.01314 0 1 -2.01314 0
gene 2 2 8 0.562642 0 2 0.562642 1
gene 3 3 8 0.315011 0 3 0.315011 0
gene 2 4 8 0.238527 0 4 0.238527 1
gene 1 5 8 1.98863 0 5 1.98863 0
gene 1 6 8 0.93669 0 6 0.93669 1
gene 2 7 8 -0.668355 0 7 -0.668355 1
gene 2 1 12 -0.744911 0 14 -0.744911 1
gene 2 12 8 0.189866 0 15 0.189866 1
gene 3 2 12 -1.74049 0 24 -1.74049 1
gene 3 4 12 0.440267 0 45 0.440267 1
gene 3 7 12 0.0657211 0 58 0.0657211 1
gene 2 3 12 -0.789355 0 73 -0.789355 1
gene 1 5 36 1 0 86 0 1
gene 1 36 8 1.98863 0 87 0 1
genomeend 115

/* Organism #116 Fitness: 5 Error: 0 */
genomestart 116
trait 1 0.1 0 0 0 0 0 0 0 
trait 2 0.2 0 0 0 0 0 0 0 
trait 3 0.3 0 0 0 0 0 0 0 
node 1 2 1 1
node 2 3 1 1
node 3 3 1 1
node 4 1 1 1
node 5 2 1 1
node 6 1 1 1
node 7 2 1 3
node 8 2 0 2
node 12 1 0 0
gene 2 1 8 -1.44772 0 1 -1.44772 0
gene 2 2 8 0.884304 0 2 0.884304 1
gene 3 3 8 -0.458501 0 3 -0.458501 0
gene 2 4 8 2.46111 0 4 2.46111 1
gene 1 5 8 3.16457 0 5 3.16457 1
gene 1 6 8 -1.22361 0 6 -1.22361 1
gene 2 7 8 -2.37971 0 7 -2.37971 1
gene 2 1 12 -3.09758 0 14 -3.09758 1
gene 2 12 8 0.649951 0 15 0.649951 1
gene 3 2 12 -2.70232 0 24 -2.70232 1
gene 3 4 12 1.81147 0 45 1.81147 1
gene 3 7 12 -1.09378 0 58 -1.09378 1
gene 2 3 12 0.979904 0 73 0.979904 1
genomeend 116

/* Organism #117 Fitness: 63 Error: 0 */
genomestart 117
trait 1 0.1 0 0 0 0 0 0 0 
trait 2 0.2 0 0 0 0 0 0 0 
trait 3 0.3 0 0 0 0 0 0 0 
node 1 2 1 1
node 2 3 1 1
node 3 3 1 1
node 4 1 1 1
node 5 2 1 1
node 6 1 1 1
node 7 2 1 3
node 8 2 0 2
node 12 1 0 0
gene 2 1 8 -2.01314 0 1 -2.01314 0
gene 2 2 8 0.562642 0 2 0.562642 1
gene 3 3 8 0.315011 0 3 0.315011 0
gene 2 4 8 0.238527 0 4 0.238527 1
gene 1 5 8 1.98863 0 5 1.98863 1
gene 1 6 8 0.93669 0 6 0.93669 1
gene 2 7 8 -0.668355 0 7 -0.668355 1
gene 2 1 12 -0.744911 0 14 -0.744911 1
gene 2 12 8 0.189866 0 15 0.189866 1
gene 3 2 12 -1.74049 0 24 -1.74049 1
gene 3 4 12 0.440267 0 45 0.440267 1
gene 3 7 12 0.0657211 0 58 0.0657211 1
gene 2 3 12 -0.789355 0 73 -0.789355 1
genomeend 117

/* Organism #118 Fitness: 31 Error: 0 */
genomestart 118
trait 1 0.1 0 0 0 0 0 0 0 
trait 2 0.2 0 0 0 0 0 0 0 
trait 3 0.3 0 0 0 0 0 0 0 
node 1 2 1 1
node 2 3 1 1
node 3 3 1 1
node 4 1 1 1
node 5 2 1 1
node 6 1 1 1
node 7 2 1 3
node 8 2 0 2
node 12 1 0 0
gene 2 1 8 1.78829 0 1 1.78829 0
gene 2 2 8 -0.589279 0 2 -0.589279 1
gene 3 3 8 -1.29966 0 3 -1.29966 0
gene 2 4 8 -2.21282 0 4 -2.21282 1
gene 1 5 8 0.448319 0 5 0.448319 1
gene 1 6 8 2.45466 0 6 2.45466 1
gene 2 7 8 -2.10085 0 7 -2.10085 1
gene 2 1 12 0.509137 0 14 0.509137 1
gene 2 12 8 0.143999 0 15 0.143999 1
gene 3 2 12 -2.10484 0 24 -2.10484 1
gene 3 4 12 1.10715 0 45 1.10715 1
gene 3 7 12 -1.89386 0 58 -1.89386 1
gene 2 3 12 -2.38813 0 73 -2.38813 1
genomeend 118

/* Organism #119 Fitness: 54 Error: 0 */
genomestart 119
trait 1 0.1 0 0 0 0 0 0 0 
trait 2 0.2 0 0 0 0 0 0 0 
trait 3 0.3 0 0 0 0 0 0 0 
node 1 2 1 1
node 2 3 1 1
node 3 3 1 1
node 4 1 1 1
node 5 2 1 1
node 6 1 1 1
node 7 2 1 3
node 8 2 0 2
node 12 1 0 0
gene 2 1 8 -2.11941 0 1 -2.11941 0
gene 2 2 8 1.04334 0 2 1.04334 1
gene 3 3 8 1.13115 0 3 1.13115 0
gene 2 4 8 1.69661 0 4 1.69661 1
gene 1 5 8 1.91836 0 5 1.91836 1
gene 1 6 8 1.12519 0 6 1.12519 1
gene 2 7 8 -1.42922 0 7 -1.42922 1
gene 2 1 12 -0.0938939 0 14 -0.0938939 1
gene 2 12 8 1.20732 0 15 1.20732 1
gene 3 2 12 0.67095 0 24 0.67095 1
gene 3 4 12 1.88012 0 45 1.88012 1
gene 3 7 12 -0.332217 0 58 -0.332217 1
gene 2 3 12 -0.302855 0 73 -0.302855 1
genomeend 119

/* Organism #120 Fitness: 63 Error: 0 */
genomestart 120
trait 1 0.1 0 0 0 0 0 0 0 
trait 2 0.2 0 0 0 0 0 0 0 
trait 3 0.3 0 0 0 0 0 0 0 
node 1 2 1 1
node 2 3 1 1
node 3 3 1 1
node 4 1 1 1
node 5 2 1 1
node 6 1 1 1
node 7 2 1 3
node 8 2 0 2
node 12 1 0 0
gene 2 1 8 -2.01314 0 1 -2.01314 0
gene 2 2 8 0.562642 0 2 0.562642 1
gene 3 3 8 0.315011 0 3 0.315011 0
gene 2 4 8 0.238527 0 4 0.238527 1
gene 1 5 8 1.98863 0 5 1.98863 1
gene 1 6 8 0.93669 0 6 0.93669 1
gene 2 7 8 -0.668355 0 7 -0.668355 1
gene 2 1 12 -0.744911 0 14 -0.744911 1
gene 2 12 8 0.189866 0 15 0.189866 1
gene 3 2 12 -1.74049 0 24 -1.74049 1
gene 3 4 12 0.440267 0 45 0.440267 1
gene 3 7 12 0.0657211 0 58 0.0657211 1
gene 2 3 12 -0.789355 0 73 -0.789355 1
genomeend 120

/* Species #9 : (Size 29) (AF 46.2414) (Age 2)  */


/* Organism #121 Fitness: 79 Error: 0 */
genomestart 121
trait 1 0.110364 0 0 0 0 0 0 0 
trait 2 0.2 0 0 0 0 0 0 0 
trait 3 0.299361 0 0.00564128 0 0 0 0.21814 0.0529707 
node 1 2 1 1
node 2 3 1 1
node 3 3 1 1
node 4 1 1 1
node 5 2 1 1
node 6 1 1 1
node 7 2 1 3
node 8 2 0 2
node 24 1 0 0
gene 2 1 8 0.335579 0 1 0.335579 0
gene 2 2 8 0.174245 0 2 0.174245 1
gene 1 3 8 -0.506994 0 3 -0.506994 0
gene 3 4 8 -3.88369 0 4 -3.88369 1
gene 3 5 8 0.906202 0 5 0.906202 1
gene 2 6 8 1.58142 0 6 1.58142 1
gene 2 7 8 -0.513833 0 7 -0.513833 1
gene 1 3 24 1 0 40 0 1
gene 1 24 8 -0.38071 0 41 0 1
gene 3 2 24 0.252611 0 48 0.252611 1
gene 1 6 24 -0.618116 0 78 -0.618116 1
genomeend 121

/* Organism #122 Fitness: 50 Error: 0 */
genomestart 122
trait 1 0.110364 0 0 0 0 0 0 0 
trait 2 0.2 0 0 0 0 0 0 0 
trait 3 0.299361 0 0.00564128 0 0 0 0.21814 0.0529707 
node 1 2 1 1
node 2 3 1 1
node 3 3 1 1
node 4 1 1 1
node 5 2 1 1
node 6 1 1 1
node 7 2 1 3
node 8 2 0 2
node 24 1 0 0
gene 2 1 8 -1.00854 0 1 -1.00854 0
gene 2 2 8 -1.72177 0 2 -1.72177 1
gene 1 3 8 0.38323 0 3 0.38323 0
gene 3 4 8 -4.73372 0 4 -4.73372 1
gene 3 5 8 0.808558 0 5 0.808558 1
gene 2 6 8 3.92161 0 6 3.92161 1
gene 2 7 8 -0.460468 0 7 -0.460468 1
gene 1 3 24 2.01609 0 40 2.01609 1
gene 1 24 8 1.86953 0 41 1.86953 1
gene 3 2 24 1.64625 0 48 1.64625 1
gene 1 6 24 -1.64364 0 78 -1.64364 1
genomeend 122

/* Organism #123 Fitness: 79 Error: 0 */
genomestart 123
trait 1 0.110364 0 0 0 0 0 0 0 
trait 2 0.2 0 0 0 0 0 0 0 
trait 3 0.299361 0 0.00564128 0 0 0 0.21814 0.0529707 
node 1 2 1 1
node 2 3 1 1
node 3 3 1 1
node 4 1 1 1
node 5 2 1 1
node 6 1 1 1
node 7 2 1 3
node 8 2 0 2
node 24 1 0 0
gene 2 1 8 0.335579 0 1 0.335579 0
gene 2 2 8 0.174245 0 2 0.174245 1
gene 1 3 8 -0.506994 0 3 -0.506994 0
gene 3 4 8 -3.88369 0 4 -3.88369 1
gene 3 5 8 0.906202 0 5 0.906202 1
gene 2 6 8 1.58142 0 6 1.58142 1
gene 2 7 8 -0.513833 0 7 -0.513833 1
gene 1 3 24 1 0 40 0 1
gene 1 24 8 -0.38071 0 41 0 1
gene 3 2 24 0.252611 0 48 0.252611 1
gene 1 6 24 -0.618116 0 78 -0.618116 1
genomeend 123

/* Organism #124 Fitness: 79 Error: 0 */
genomestart 124
trait 1 0.110364 0 0 0 0 0 0 0 
trait 2 0.2 0 0 0 0 0 0 0 
trait 3 0.299361 0 0.00564128 0 0 0 0.21814 0.0529707 
node 1 2 1 1
node 2 3 1 1
node 3 3 1 1
node 4 1 1 1
node 5 2 1 1
node 6 1 1 1
node 7 2 1 3
node 8 2 0 2
node 24 1 0 0
gene 2 1 8 0.335579 0 1 0.335579 0
gene 2 2 8 0.174245 0 2 0.174245 1
gene 1 3 8 -0.506994 0 3 -0.506994 0
gene 3 4 8 -3.88369 0 4 -3.88369 1
gene 3 5 8 0.906202 0 5 0.906202 1
gene 2 6 8 1.58142 0 6 1.58142 1
gene 2 7 8 -0.513833 0 7 -0.513833 1
gene 1 3 24 1 0 40 0 1
gene 1 24 8 -0.38071 0 41 0 1
gene 3 2 24 0.252611 0 48 0.252611 1
gene 1 6 24 -0.618116 0 78 -0.618116 1
genomeend 124

/* Organism #125 Fitness: 16 Error: 0 */
genomestart 125
trait 1 0.110364 0 0 0 0 0 0 0 
trait 2 0.2 0 0 0 0 0 0 0 
trait 3 0.299361 0 0.00564128 0 0 0 0.21814 0.0529707 
node 1 2 1 1
node 2 3 1 1
node 3 3 1 1
node 4 1 1 1
node 5 2 1 1
node 6 1 1 1
node 7 2 1 3
node 8 2 0 2
node 24 1 0 0
gene 2 1 8 2.29092 0 1 2.29092 0
gene 2 2 8 0.174245 0 2 0.174245 1
gene 1 3 8 -0.506994 0 3 -0.506994 0
gene 3 4 8 1.42132 0 4 1.42132 1
gene 3 5 8 -1.36823 0 5 -1.36823 1
gene 2 6 8 3.11711 0 6 3.11711 1
gene 2 7 8 1.48422 0 7 1.48422 1
gene 1 3 24 2.31003 0 40 2.31003 1
gene 1 24 8 -2.22252 0 41 -2.22252 1
gene 3 2 24 0.364533 0 48 0.364533 1
gene 1 6 24 0.853435 0 78 0.853435 1
genomeend 125

/* Organism #126 Fitness: 31 Error: 0 */
genomestart 126
trait 1 0.110364 0 0 0 0 0 0 0 
trait 2 0.2 0 0 0 0 0 0 0 
trait 3 0.299361 0 0.00564128 0 0 0 0.21814 0.0529707 
node 1 2 1 1
node 2 3 1 1
node 3 3 1 1
node 4 1 1 1
node 5 2 1 1
node 6 1 1 1
node 7 2 1 3
node 8 2 0 2
node 24 1 0 0
gene 2 1 8 0.352262 0 1 0.352262 0
gene 2 2 8 0.174245 0 2 0.174245 1
gene 1 3 8 0.77004 0 3 0.77004 0
gene 3 4 8 -0.225629 0 4 -0.225629 1
gene 3 5 8 0.410561 0 5 0.410561 1
gene 2 6 8 1.58142 0 6 1.58142 1
gene 2 7 8 0.417728 0 7 0.417728 1
gene 1 3 24 2.40328 0 40 2.40328 1
gene 1 24 8 0.129702 0 41 0.129702 1
gene 3 2 24 1.29148 0 48 1.29148 1
gene 1 6 24 -1.95988 0 78 -1.95988 1
genomeend 126

/* Organism #127 Fitness: 26 Error: 0 */
genomestart 127
trait 1 0.110364 0 0 0 0 0 0 0 
trait 2 0.00346424 0 0.945445 0 0.673848 0 0 0 
trait 3 0.299361 0 0.00564128 0 0 0 0.21814 0.0529707 
node 1 2 1 1
node 2 3 1 1
node 3 3 1 1
node 4 1 1 1
node 5 2 1 1
node 6 1 1 1
node 7 2 1 3
node 8 2 0 2
node 24 1 0 0
gene 2 1 8 -0.88678 0 1 -0.88678 0
gene 2 2 8 0.471017 0 2 0.471017 1
gene 1 3 8 0.457055 0 3 0.457055 0
gene 3 4 8 -2.6384 0 4 -2.6384 1
gene 3 5 8 0.533214 0 5 0.533214 1
gene 2 6 8 3.80746 0 6 3.80746 1
gene 2 7 8 2.06563 0 7 2.06563 1
gene 1 3 24 0.673248 0 40 0.673248 1
gene 1 24 8 2.46127 0 41 2.46127 1
gene 3 2 24 -1.72745 0 48 -1.72745 1
gene 1 6 24 1.39982 0 78 1.39982 1
genomeend 127

/* Organism #128 Fitness: 28 Error: 0 */
genomestart 128
trait 1 0.110364 0 0 0 0 0 0 0 
trait 2 0.2 0 0 0 0 0 0 0 
trait 3 0.299361 0 0.00564128 0 0 0 0.21814 0.0529707 
node 1 2 1 1
node 2 3 1 1
node 3 3 1 1
node 4 1 1 1
node 5 2 1 1
node 6 1 1 1
node 7 2 1 3
node 8 2 0 2
node 24 1 0 0
gene 2 1 8 0.797035 0 1 0.797035 0
gene 2 2 8 -1.66916 0 2 -1.66916 1
gene 1 3 8 1.95273 0 3 1.95273 0
gene 3 4 8 -5.92699 0 4 -5.92699 1
gene 3 5 8 0.383656 0 5 0.383656 1
gene 2 6 8 3.30216 0 6 3.30216 1
gene 2 7 8 1.61091 0 7 1.61091 1
gene 1 3 24 0.305107 0 40 0.305107 1
gene 1 24 8 -2.06547 0 41 -2.06547 1
gene 3 2 24 1.28079 0 48 1.28079 1
gene 1 6 24 1.521 0 78 1.521 1
genomeend 128

/* Organism #129 Fitness: 83 Error: 0 */
genomestart 129
trait 1 0.110364 0 0 0 0 0 0 0 
trait 2 0.2 0 0 0 0 0 0 0 
trait 3 0.299361 0 0.00564128 0 0 0 0.21814 0.0529707 
node 1 2 1 1
node 2 3 1 1
node 3 3 1 1
node 4 1 1 1
node 5 2 1 1
node 6 1 1 1
node 7 2 1 3
node 8 2 0 2
node 24 1 0 0
gene 2 1 8 0.335579 0 1 0.335579 0
gene 2 2 8 0.174245 0 2 0.174245 1
gene 1 3 8 -0.506994 0 3 -0.506994 0
gene 3 4 8 -3.88369 0 4 -3.88369 1
gene 3 5 8 0.906202 0 5 0.906202 1
gene 2 6 8 1.58142 0 6 1.58142 1
gene 2 7 8 -0.513833 0 7 -0.513833 1
gene 1 3 24 1 0 40 0 1
gene 1 24 8 -0.38071 0 41 0 1
gene 3 2 24 0.252611 0 48 0.252611 1
gene 1 6 24 -0.618116 0 78 -0.618116 1
gene 2 7 24 -0.272163 0 88 -0.272163 1
genomeend 129

/* Organism #130 Fitness: 83 Error: 0 */
genomestart 130
trait 1 0.110364 0 0 0 0 0 0 0 
trait 2 0.2 0 0 0 0 0 0 0 
trait 3 0.299361 0 0.00564128 0 0 0 0.21814 0.0529707 
node 1 2 1 1
node 2 3 1 1
node 3 3 1 1
node 4 1 1 1
node 5 2 1 1
node 6 1 1 1
node 7 2 1 3
node 8 2 0 2
node 24 1 0 0
gene 2 1 8 0.335579 0 1 0.335579 0
gene 2 2 8 0.174245 0 2 0.174245 1
gene 1 3 8 -0.506994 0 3 -0.506994 0
gene 3 4 8 -3.88369 0 4 -3.88369 1
gene 3 5 8 0.906202 0 5 0.906202 1
gene 2 6 8 1.58142 0 6 1.58142 1
gene 2 7 8 -0.513833 0 7 -0.513833 1
gene 1 3 24 1 0 40 0 1
gene 1 24 8 -0.38071 0 41 0 1
gene 3 2 24 0.252611 0 48 0.252611 1
gene 1 6 24 -0.618116 0 78 -0.618116 1
gene 1 4 24 0.744619 0 89 0.744619 1
genomeend 130

/* Organism #131 Fitness: 5 Error: 0 */
genomestart 131
trait 1 0.110364 0 0 0 0 0 0 0 
trait 2 0.2 0 0 0 0 0 0 0 
trait 3 0.299361 0 0.00564128 0 0 0 0.21814 0.0529707 
node 1 2 1 1
node 2 1 1 1
node 3 3 1 1
node 4 1 1 1
node 5 2 1 1
node 6 1 1 1
node 7 2 1 3
node 8 2 0 2
node 24 1 0 0
gene 2 1 8 0.449586 0 1 0.449586 0
gene 2 2 8 -1.83028 0 2 -1.83028 1
gene 1 3 8 0.401347 0 3 0.401347 0
gene 3 4 8 -5.38162 0 4 -5.38162 1
gene 3 5 8 0.672309 0 5 0.672309 1
gene 2 6 8 -0.221554 0 6 -0.221554 1
gene 2 7 8 -2.30643 0 7 -2.30643 1
gene 1 3 24 3.26505 0 40 3.26505 1
gene 1 24 8 1.73621 0 41 1.73621 1
gene 3 2 24 0.252611 0 48 0.252611 1
gene 1 6 24 -0.0536414 0 78 -0.0536414 1
genomeend 131

/* Organism #132 Fitness: 79 Error: 0 */
genomestart 132
trait 1 0.110364 0 0 0 0 0 0 0 
trait 2 0.2 0 0 0 0 0 0 0 
trait 3 0.299361 0 0.00564128 0 0 0 0.21814 0.0529707 
node 1 2 1 1
node 2 3 1 1
node 3 3 1 1
node 4 1 1 1
node 5 2 1 1
node 6 1 1 1
node 7 2 1 3
node 8 2 0 2
node 24 1 0 0
gene 2 1 8 0.335579 0 1 0.335579 0
gene 2 2 8 0.174245 0 2 0.174245 1
gene 1 3 8 -0.506994 0 3 -0.506994 0
gene 3 4 8 -3.88369 0 4 -3.88369 1
gene 3 5 8 0.906202 0 5 0.906202 1
gene 2 6 8 1.58142 0 6 1.58142 1
gene 2 7 8 -0.513833 0 7 -0.513833 1
gene 1 3 24 1 0 40 0 1
gene 1 24 8 -0.38071 0 41 0 1
gene 3 2 24 0.252611 0 48 0.252611 1
gene 1 6 24 -0.618116 0 78 -0.618116 1
genomeend 132

/* Organism #133 Fitness: 13 Error: 0 */
genomestart 133
trait 1 0.110364 0 0 0 0 0 0 0 
trait 2 0.2 0 0 0 0 0 0 0 
trait 3 0.299361 0 0.00564128 0 0 0 0.21814 0.0529707 
node 1 2 1 1
node 2 3 1 1
node 3 3 1 1
node 4 1 1 1
node 5 2 1 1
node 6 1 1 1
node 7 2 1 3
node 8 2 0 2
node 24 1 0 0
gene 2 1 8 0.0485198 0 1 0.0485198 0
gene 2 2 8 0.600514 0 2 0.600514 1
gene 1 3 8 -1.47382 0 3 -1.47382 0
gene 3 4 8 -1.78099 0 4 -1.78099 1
gene 3 5 8 -0.855411 0 5 -0.855411 1
gene 2 6 8 1.58142 0 6 1.58142 1
gene 2 7 8 -2.57864 0 7 -2.57864 1
gene 2 3 24 1.78294 0 40 1.78294 1
gene 1 24 8 0.519338 0 41 0.519338 1
gene 3 2 24 -0.179878 0 48 -0.179878 1
gene 1 6 24 -0.618116 0 78 -0.618116 1
genomeend 133

/* Organism #134 Fitness: 48 Error: 0 */
genomestart 134
trait 1 0.110364 0 0 0 0 0 0 0 
trait 2 0.2 0 0 0 0 0 0 0 
trait 3 0.299361 0 0.00564128 0 0 0 0.21814 0.0529707 
node 1 2 1 1
node 2 3 1 1
node 3 3 1 1
node 4 1 1 1
node 5 2 1 1
node 6 1 1 1
node 7 2 1 3
node 8 2 0 2
node 24 1 0 0
gene 2 1 8 0.335579 0 1 0.335579 0
gene 2 2 8 -0.443029 0 2 -0.443029 1
gene 1 3 8 1.65813 0 3 1.65813 0
gene 3 4 8 -1.90903 0 4 -1.90903 1
gene 3 5 8 0.868318 0 5 0.868318 1
gene 2 6 8 0.91965 0 6 0.91965 1
gene 2 7 8 0.742287 0 7 0.742287 1
gene 1 3 24 2.24907 0 40 2.24907 1
gene 1 24 8 -1.11039 0 41 -1.11039 1
gene 3 2 24 2.24389 0 48 2.24389 1
gene 1 6 24 -0.618116 0 78 -0.618116 1
genomeend 134

/* Organism #135 Fitness: 78 Error: 0 */
genomestart 135
trait 1 0.110364 0 0 0 0 0 0 0 
trait 2 0.2 0 0 0 0 0 0 0 
trait 3 0.299361 0 0.00564128 0 0 0 0.21814 0.0529707 
node 1 2 1 1
node 2 3 1 1
node 3 3 1 1
node 4 1 1 1
node 5 2 1 1
node 6 1 1 1
node 7 2 1 3
node 8 2 0 2
node 24 1 0 0
gene 2 1 8 0.00848237 0 1 0.00848237 0
gene 2 2 8 2.22136 0 2 2.22136 1
gene 1 3 8 -0.701042 0 3 -0.701042 0
gene 3 4 8 -5.29387 0 4 -5.29387 1
gene 3 5 8 1.03163 0 5 1.03163 1
gene 2 6 8 3.66127 0 6 3.66127 1
gene 2 7 8 0.820848 0 7 0.820848 1
gene 1 3 24 -0.452635 0 40 -0.452635 1
gene 1 24 8 -1.98323 0 41 -1.98323 1
gene 3 2 24 0.252611 0 48 0.252611 1
gene 1 6 24 -0.618116 0 78 -0.618116 1
genomeend 135

/* Organism #136 Fitness: 119 Error: 0 */
genomestart 136
trait 1 0.110364 0 0 0 0 0 0 0 
trait 2 0.2 0 0 0 0 0 0 0 
trait 3 0.299361 0 0.00564128 0 0 0 0.21814 0.0529707 
node 1 2 1 1
node 2 3 1 1
node 3 3 1 1
node 4 1 1 1
node 5 2 1 1
node 6 1 1 1
node 7 2 1 3
node 8 2 0 2
node 24 1 0 0
gene 2 1 8 -1.68832 0 1 -1.68832 0
gene 2 2 8 -0.858581 0 2 -0.858581 1
gene 1 3 8 -1.30531 0 3 -1.30531 0
gene 3 4 8 -3.91803 0 4 -3.91803 1
gene 3 5 8 3.11149 0 5 3.11149 1
gene 2 6 8 1.70845 0 6 1.70845 1
gene 2 7 8 -0.742811 0 7 -0.742811 1
gene 1 3 24 -0.806679 0 40 -0.806679 1
gene 1 24 8 1.91707 0 41 1.91707 1
gene 3 2 24 -0.233792 0 48 -0.233792 1
gene 1 6 24 -0.867759 0 78 -0.867759 1
genomeend 136

/* Organism #137 Fitness: 26 Error: 0 */
genomestart 137
trait 1 0.110364 0 0 0 0 0 0 0 
trait 2 0.2 0 0 0 0 0 0 0 
trait 3 0.299361 0 0.00564128 0 0 0 0.21814 0.0529707 
node 1 2 1 1
node 2 3 1 1
node 3 3 1 1
node 4 1 1 1
node 5 2 1 1
node 6 1 1 1
node 7 2 1 3
node 8 2 0 2
node 24 1 0 0
gene 2 1 8 -0.759175 0 1 -0.759175 0
gene 2 2 8 2.35523 0 2 2.35523 1
gene 1 3 8 -2.55082 0 3 -2.55082 0
gene 3 4 8 -4.66962 0 4 -4.66962 1
gene 3 5 8 0.137322 0 5 0.137322 1
gene 2 6 8 2.99434 0 6 2.99434 1
gene 2 7 8 -0.00951757 0 7 -0.00951757 1
gene 1 3 24 -0.148479 0 40 -0.148479 1
gene 1 24 8 1.9589 0 41 1.9589 1
gene 3 2 24 2.2732 0 48 2.2732 1
gene 1 6 24 -0.62637 0 78 -0.62637 1
genomeend 137

/* Organism #138 Fitness: 37 Error: 0 */
genomestart 138
trait 1 0.110364 0 0 0 0 0 0 0 
trait 2 0.2 0 0 0 0 0 0 0 
trait 3 0.299361 0 0.00564128 0 0 0 0.21814 0.0529707 
node 1 2 1 1
node 2 3 1 1
node 3 3 1 1
node 4 1 1 1
node 5 2 1 1
node 6 1 1 1
node 7 2 1 3
node 8 2 0 2
node 24 1 0 0
gene 2 1 8 -0.528474 0 1 -0.528474 0
gene 2 2 8 1.20703 0 2 1.20703 1
gene 1 3 8 0.633083 0 3 0.633083 0
gene 3 4 8 -4.44976 0 4 -4.44976 1
gene 3 5 8 2.03257 0 5 2.03257 1
gene 2 6 8 2.34071 0 6 2.34071 1
gene 2 7 8 -2.94988 0 7 -2.94988 1
gene 1 3 24 2.94715 0 40 2.94715 1
gene 1 24 8 -0.38071 0 41 -0.38071 1
gene 3 2 24 -0.306606 0 48 -0.306606 1
gene 1 6 24 -0.270099 0 78 -0.270099 1
genomeend 138

/* Organism #139 Fitness: 13 Error: 0 */
genomestart 139
trait 1 0.110364 0 0 0 0 0 0 0 
trait 2 0.2 0 0 0 0 0 0 0 
trait 3 0.299361 0 0.00564128 0 0 0 0.21814 0.0529707 
node 1 2 1 1
node 2 3 1 1
node 3 3 1 1
node 4 1 1 1
node 5 2 1 1
node 6 1 1 1
node 7 2 1 3
node 8 2 0 2
node 24 1 0 0
gene 2 1 8 2.61625 0 1 2.61625 0
gene 2 2 8 1.03345 0 2 1.03345 1
gene 1 3 8 -0.506994 0 3 -0.506994 0
gene 3 4 8 -1.95829 0 4 -1.95829 1
gene 3 5 8 -1.22313 0 5 -1.22313 1
gene 2 6 8 2.37069 0 6 2.37069 1
gene 2 7 8 -2.47767 0 7 -2.47767 1
gene 1 3 24 0.801129 0 40 0.801129 1
gene 1 24 8 -1.56015 0 41 -1.56015 1
gene 3 2 24 1.2401 0 48 1.2401 1
gene 1 6 24 -1.54119 0 78 -1.54119 1
genomeend 139

/* Organism #140 Fitness: 69 Error: 0 */
genomestart 140
trait 1 0.110364 0 0 0 0 0 0 0 
trait 2 0.2 0 0 0 0 0 0 0 
trait 3 0.299361 0 0.00564128 0 0 0 0.21814 0.0529707 
node 1 2 1 1
node 2 3 1 1
node 3 3 1 1
node 4 1 1 1
node 5 2 1 1
node 6 1 1 1
node 7 2 1 3
node 8 2 0 2
node 24 1 0 0
gene 2 1 8 -0.782074 0 1 -0.782074 0
gene 2 2 8 1.14734 0 2 1.14734 1
gene 1 3 8 -2.31099 0 3 -2.31099 0
gene 3 4 8 -3.53596 0 4 -3.53596 1
gene 3 5 8 1.16698 0 5 1.16698 1
gene 2 6 8 2.02551 0 6 2.02551 1
gene 2 7 8 -0.474097 0 7 -0.474097 1
gene 1 3 24 -1.19651 0 40 -1.19651 1
gene 1 24 8 -1.25462 0 41 -1.25462 1
gene 3 2 24 0.252611 0 48 0.252611 1
gene 1 6 24 -1.13709 0 78 -1.13709 1
genomeend 140

/* Organism #141 Fitness: 58 Error: 0 */
genomestart 141
trait 1 0.110364 0 0 0 0 0 0 0 
trait 2 0.2 0 0 0 0 0 0 0 
trait 3 0.299361 0 0.00564128 0 0 0 0.21814 0.0529707 
node 1 2 1 1
node 2 3 1 1
node 3 3 1 1
node 4 1 1 1
node 5 2 1 1
node 6 1 1 1
node 7 2 1 3
node 8 2 0 2
node 24 1 0 0
gene 2 1 8 0.270967 0 1 0.270967 0
gene 2 2 8 1.01286 0 2 1.01286 1
gene 1 3 8 -1.61664 0 3 -1.61664 0
gene 3 4 8 -3.07227 0 4 -3.07227 1
gene 3 5 8 2.36319 0 5 2.36319 1
gene 2 6 8 1.04259 0 6 1.04259 1
gene 2 7 8 -0.422845 0 7 -0.422845 1
gene 1 3 24 2.75665 0 40 2.75665 1
gene 1 24 8 -0.971871 0 41 -0.971871 1
gene 3 2 24 1.68239 0 48 1.68239 1
gene 1 6 24 2.14689 0 78 2.14689 1
genomeend 141

/* Organism #142 Fitness: 5 Error: 0 */
genomestart 142
trait 1 0.110364 0 0 0 0 0 0 0 
trait 2 0.2 0 0 0 0 0 0 0 
trait 3 0.299361 0 0.00564128 0 0 0 0.21814 0.0529707 
node 1 2 1 1
node 2 3 1 1
node 3 3 1 1
node 4 1 1 1
node 5 2 1 1
node 6 1 1 1
node 7 2 1 3
node 8 2 0 2
node 24 1 0 0
gene 2 1 8 0.355307 0 1 0.355307 0
gene 2 2 8 -1.21794 0 2 -1.21794 1
gene 1 3 8 -2.10878 0 3 -2.10878 0
gene 3 4 8 -5.29501 0 4 -5.29501 1
gene 3 5 8 -1.57868 0 5 -1.57868 1
gene 2 6 8 -0.488198 0 6 -0.488198 1
gene 2 7 8 -2.39764 0 7 -2.39764 1
gene 1 3 24 0.627429 0 40 0.627429 1
gene 1 24 8 0.939798 0 41 0.939798 1
gene 3 2 24 0.0399205 0 48 0.0399205 1
gene 1 6 24 -1.64786 0 78 -1.64786 1
genomeend 142

/* Organism #143 Fitness: 5 Error: 0 */
genomestart 143
trait 1 0.110364 0 0 0 0 0 0 0 
trait 2 0.2 0 0 0 0 0 0 0 
trait 3 0.299361 0 0.00564128 0 0 0 0.21814 0.0529707 
node 1 2 1 1
node 2 3 1 1
node 3 3 1 1
node 4 1 1 1
node 5 2 1 1
node 6 1 1 1
node 7 2 1 3
node 8 2 0 2
node 24 1 0 0
gene 2 1 8 -0.509362 0 1 -0.509362 0
gene 2 2 8 -0.0545061 0 2 -0.0545061 1
gene 1 3 8 1.61298 0 3 1.61298 0
gene 3 4 8 -3.88369 0 4 -3.88369 1
gene 3 5 8 0.90923 0 5 0.90923 1
gene 2 6 8 -0.844949 0 6 -0.844949 1
gene 2 7 8 0.937665 0 7 0.937665 1
gene 1 3 24 -0.778414 0 40 -0.778414 1
gene 1 24 8 -1.13671 0 41 -1.13671 1
gene 3 2 24 -1.59015 0 48 -1.59015 1
gene 1 6 24 -3.11727 0 78 -3.11727 1
genomeend 143

/* Organism #144 Fitness: 15 Error: 0 */
genomestart 144
trait 1 0.110364 0 0 0 0 0 0 0 
trait 2 0.2 0 0 0 0 0 0 0 
trait 3 0.299361 0 0.00564128 0 0 0 0.21814 0.0529707 
node 1 3 1 1
node 2 3 1 1
node 3 3 1 1
node 4 1 1 1
node 5 2 1 1
node 6 1 1 1
node 7 2 1 3
node 8 2 0 2
node 24 1 0 0
gene 2 1 8 0.165421 0 1 0.165421 0
gene 2 2 8 1.62166 0 2 1.62166 1
gene 1 3 8 0.393075 0 3 0.393075 0
gene 3 4 8 -2.22763 0 4 -2.22763 1
gene 3 5 8 1.90503 0 5 1.90503 1
gene 2 6 8 0.583444 0 6 0.583444 1
gene 2 7 8 0.353359 0 7 0.353359 1
gene 1 3 24 0.463322 0 40 0.463322 1
gene 1 24 8 0.94964 0 41 0.94964 1
gene 3 2 24 -1.30227 0 48 -1.30227 1
gene 1 6 24 -0.618116 0 78 -0.618116 1
genomeend 144

/* Organism #145 Fitness: 84 Error: 0 */
genomestart 145
trait 1 0.110364 0 0 0 0 0 0 0 
trait 2 0.2 0 0 0 0 0 0 0 
trait 3 0.299361 0 0.00564128 0 0 0 0.21814 0.0529707 
node 1 2 1 1
node 2 3 1 1
node 3 3 1 1
node 4 1 1 1
node 5 2 1 1
node 6 1 1 1
node 7 2 1 3
node 8 2 0 2
node 24 1 0 0
gene 2 1 8 0.335579 0 1 0.335579 0
gene 2 2 8 0.174245 0 2 0.174245 1
gene 1 3 8 -0.506994 0 3 -0.506994 0
gene 3 4 8 -3.88369 0 4 -3.88369 1
gene 3 5 8 0.906202 0 5 0.906202 1
gene 2 6 8 1.58142 0 6 1.58142 1
gene 2 7 8 -0.513833 0 7 -0.513833 1
gene 1 3 24 1 0 40 0 1
gene 1 24 8 -0.38071 0 41 0 1
gene 3 2 24 0.252611 0 48 0.252611 1
gene 1 6 24 -0.618116 0 78 -0.618116 1
gene 2 5 24 -0.665727 0 90 -0.665727 1
genomeend 145

/* Organism #146 Fitness: 27 Error: 0 */
genomestart 146
trait 1 0.110364 0 0 0 0 0 0 0 
trait 2 0.2 0 0 0 0 0 0 0 
trait 3 0.299361 0 0.00564128 0 0 0 0.21814 0.0529707 
node 1 2 1 1
node 2 3 1 1
node 3 3 1 1
node 4 1 1 1
node 5 2 1 1
node 6 1 1 1
node 7 2 1 3
node 8 2 0 2
node 24 1 0 0
gene 2 1 8 1.33889 0 1 1.33889 0
gene 2 2 8 -0.751199 0 2 -0.751199 1
gene 1 3 8 -0.506994 0 3 -0.506994 0
gene 3 4 8 -3.65201 0 4 -3.65201 1
gene 3 5 8 1.2519 0 5 1.2519 1
gene 2 6 8 3.69721 0 6 3.69721 1
gene 2 7 8 1.87086 0 7 1.87086 1
gene 1 3 24 -1.15158 0 40 -1.15158 1
gene 1 24 8 -0.108879 0 41 -0.108879 1
gene 3 2 24 -2.17615 0 48 -2.17615 1
gene 1 6 24 -1.53415 0 78 -1.53415 1
genomeend 146

/* Organism #147 Fitness: 5 Error: 0 */
genomestart 147
trait 1 0.110364 0 0 0 0 0 0 0 
trait 2 0.2 0 0 0 0 0 0 0 
trait 3 0.299361 0 0.00564128 0 0 0 0.21814 0.0529707 
node 1 2 1 1
node 2 3 1 1
node 3 3 1 1
node 4 1 1 1
node 5 2 1 1
node 6 1 1 1
node 7 2 1 3
node 8 2 0 2
node 24 1 0 0
gene 2 1 8 0.7922 0 1 0.7922 0
gene 2 2 8 -1.24122 0 2 -1.24122 1
gene 1 3 8 -0.0614154 0 3 -0.0614154 0
gene 3 4 8 -3.88369 0 4 -3.88369 1
gene 3 5 8 1.81831 0 5 1.81831 1
gene 2 6 8 -0.582598 0 6 -0.582598 1
gene 2 7 8 1.40541 0 7 1.40541 1
gene 1 3 24 -0.0998995 0 40 -0.0998995 1
gene 1 24 8 1.41759 0 41 1.41759 1
gene 3 2 24 1.48099 0 48 1.48099 1
gene 1 6 24 -1.62228 0 78 -1.62228 1
genomeend 147

/* Organism #148 Fitness: 79 Error: 0 */
genomestart 148
trait 1 0.110364 0 0 0 0 0 0 0 
trait 2 0.2 0 0 0 0 0 0 0 
trait 3 0.299361 0 0.00564128 0 0 0 0.21814 0.0529707 
node 1 2 1 1
node 2 3 1 1
node 3 3 1 1
node 4 1 1 1
node 5 2 1 1
node 6 1 1 1
node 7 2 1 3
node 8 2 0 2
node 24 1 0 0
gene 2 1 8 0.335579 0 1 0.335579 0
gene 2 2 8 0.174245 0 2 0.174245 1
gene 2 3 8 -0.506994 0 3 -0.506994 0
gene 3 4 8 -3.88369 0 4 -3.88369 1
gene 3 5 8 0.906202 0 5 0.906202 1
gene 2 6 8 1.58142 0 6 1.58142 1
gene 2 7 8 -0.513833 0 7 -0.513833 1
gene 1 3 24 1 0 40 0 1
gene 1 24 8 -0.38071 0 41 0 1
gene 3 2 24 0.252611 0 48 0.252611 1
gene 1 6 24 -0.618116 0 78 -0.618116 1
genomeend 148

/* Organism #149 Fitness: 22 Error: 0 */
genomestart 149
trait 1 0.110364 0 0 0 0 0 0 0 
trait 2 0.2 0 0 0 0 0 0 0 
trait 3 0.299361 0 0.00564128 0 0 0 0.21814 0.0529707 
node 1 2 1 1
node 2 3 1 1
node 3 3 1 1
node 4 1 1 1
node 5 2 1 1
node 6 1 1 1
node 7 2 1 3
node 8 2 0 2
node 24 1 0 0
gene 2 1 8 1.51546 0 1 1.51546 0
gene 2 2 8 -0.538262 0 2 -0.538262 1
gene 1 3 8 -0.439727 0 3 -0.439727 0
gene 3 4 8 -4.24829 0 4 -4.24829 1
gene 3 5 8 -0.773385 0 5 -0.773385 1
gene 2 6 8 3.49736 0 6 3.49736 1
gene 2 7 8 -0.49823 0 7 -0.49823 1
gene 1 3 24 2.95612 0 40 2.95612 1
gene 1 24 8 -1.24838 0 41 -1.24838 1
gene 3 2 24 -1.32757 0 48 -1.32757 1
gene 1 6 24 -0.429697 0 78 -0.429697 1
genomeend 149
