
/* Species #1 : (Size 19) (AF 0.00629383) (Age 10)  */


/* Organism #0 Fitness: 0.0027 Error: 0 */
genomestart 0
trait 1 0.425962 0 0 0 0.328311 0.0600464 0 0.118162 
node 1 1 1 1
node 2 1 1 1
node 3 1 1 1
node 4 1 1 3
node 5 1 0 2
gene 1 1 5 -0.276423 0 1 -0.276423 1
gene 1 2 5 1.64755 0 2 1.64755 1
gene 1 3 5 1.26658 0 3 1.26658 1
gene 1 4 5 -0.231978 0 4 -0.231978 1
genomeend 0

/* Organism #1 Fitness: 0.0427414 Error: 0 */
genomestart 1
trait 1 0.1 0 0 0 0.00384392 0.0343122 0 0 
node 1 1 1 1
node 2 1 1 1
node 3 1 1 1
node 4 1 1 3
node 5 1 0 2
gene 1 1 5 -1.16099 0 1 -1.16099 1
gene 1 2 5 -2.72953 0 2 -2.72953 1
gene 1 3 5 2.18072 0 3 2.18072 1
gene 1 4 5 1.22967 0 4 1.22967 1
gene 1 5 5 -0.804259 1 61 -0.804259 1
genomeend 1

/* Organism #2 Fitness: 0.0427414 Error: 0 */
genomestart 2
trait 1 0.108846 0 0.0247934 0 0.00916051 0.0268064 0 0.00236324 
node 1 1 1 1
node 2 1 1 1
node 3 1 1 1
node 4 1 1 3
node 5 1 0 2
gene 1 1 5 -1.16099 0 1 -1.16099 1
gene 1 2 5 -2.72953 0 2 -2.72953 1
gene 1 3 5 2.18072 0 3 2.18072 1
gene 1 4 5 1.22967 0 4 1.22967 1
gene 1 5 5 -0.804259 1 61 -0.804259 1
genomeend 2

/* Organism #3 Fitness: 0.0041 Error: 0 */
genomestart 3
trait 1 0.297406 0.0943662 0.00861726 0 0.382458 0.0487877 0.156279 0.0295405 
node 1 1 1 1
node 2 1 1 1
node 3 1 1 1
node 4 1 1 3
node 5 1 0 2
gene 1 1 5 -0.0455306 0 1 -0.0455306 1
gene 1 2 5 -1.49136 0 2 -1.49136 1
gene 1 3 5 3.40549 0 3 3.40549 1
gene 1 4 5 1.43888 0 4 1.43888 1
gene 1 5 5 -1.10524 1 61 -1.10524 1
genomeend 3

/* Organism #4 Fitness: 0.0007 Error: 0 */
genomestart 4
trait 1 0.213154 0 0.0247934 0 0.22122 0.0611187 0 0.0401751 
node 1 1 1 1
node 2 1 1 1
node 3 1 1 1
node 4 1 1 3
node 5 1 0 2
gene 1 1 5 1.06992 0 1 1.06992 1
gene 1 2 5 1.3355 0 2 1.3355 1
gene 1 3 5 2.11208 0 3 2.11208 1
gene 1 4 5 -1.06807 0 4 -1.06807 1
gene 1 5 5 -1.1399 1 61 -1.1399 1
genomeend 4

/* Organism #5 Fitness: 0.0007 Error: 0 */
genomestart 5
trait 1 0.172751 0.0132039 0 0 0.251922 0.0233495 0 0.134453 
node 1 1 1 1
node 2 1 1 1
node 3 1 1 1
node 4 1 1 3
node 5 1 0 2
gene 1 1 5 0.684594 0 1 0.684594 1
gene 1 2 5 -2.51224 0 2 -2.51224 1
gene 1 3 5 3.25085 0 3 3.25085 1
gene 1 4 5 -0.660662 0 4 -0.660662 1
gene 1 5 5 -1.04503 1 61 -1.04503 1
genomeend 5

/* Organism #6 Fitness: 0.0019 Error: 0 */
genomestart 6
trait 1 0.14738 0.907128 0.018595 0.549441 0.356133 0.03324 0 0.0165427 
node 1 1 1 1
node 2 1 1 1
node 3 1 1 1
node 4 1 1 3
node 5 1 0 2
gene 1 1 5 -0.0551057 0 1 -0.0551057 1
gene 1 2 5 -4.05312 0 2 -4.05312 1
gene 1 3 5 2.44299 0 3 2.44299 1
gene 1 4 5 0.628566 0 4 0.628566 1
gene 1 5 5 -0.920601 1 61 -0.920601 1
genomeend 6

/* Organism #7 Fitness: 0.0051 Error: 0 */
genomestart 7
trait 1 0.145222 0.70698 0.0247934 0 0.131278 0.00416896 0.809863 0.0695897 
node 1 1 1 1
node 2 1 1 1
node 3 1 1 1
node 4 1 1 3
node 5 1 0 2
gene 1 1 5 0.837694 0 1 0.837694 1
gene 1 2 5 -0.830616 0 2 -0.830616 1
gene 1 3 5 4.14334 0 3 4.14334 1
gene 1 4 5 0.214288 0 4 0.214288 1
gene 1 5 5 -1.43152 1 61 -1.43152 1
genomeend 7

/* Organism #8 Fitness: 0.0053 Error: 0 */
genomestart 8
trait 1 0.145222 0.00660195 0.0247934 0 0.131278 0.00416896 0 0.0695897 
node 1 1 1 1
node 2 1 1 1
node 3 1 1 1
node 4 1 1 3
node 5 1 0 2
gene 1 1 5 1.4089 0 1 1.4089 1
gene 1 2 5 -0.692453 0 2 -0.692453 1
gene 1 3 5 4.12059 0 3 4.12059 1
gene 1 4 5 0.214288 0 4 0.214288 1
gene 1 5 5 -1.43152 1 61 -1.43152 1
genomeend 8

/* Organism #9 Fitness: 0.0031 Error: 0 */
genomestart 9
trait 1 0.167833 0.00990293 0.03719 0 0.196916 0.00625344 0 0.104385 
node 1 1 1 1
node 2 1 1 1
node 3 1 1 1
node 4 1 1 3
node 5 1 0 2
gene 1 1 5 0.10039 0 1 0.10039 1
gene 1 2 5 -0.532892 0 2 -0.532892 1
gene 1 3 5 5.36753 0 3 5.36753 1
gene 1 4 5 0.805335 0 4 0.805335 1
gene 1 5 5 -0.325594 1 61 -0.325594 1
genomeend 9

/* Organism #10 Fitness: 0.0006 Error: 0 */
genomestart 10
trait 1 0.1 0 0 0 0 0 0 0 
node 1 1 1 1
node 2 1 1 1
node 3 1 1 1
node 4 1 1 3
node 5 1 0 2
gene 1 1 5 0.599753 0 1 0.599753 1
gene 1 2 5 -0.1736 0 2 -0.1736 1
gene 1 3 5 -0.118986 0 3 -0.118986 1
gene 1 4 5 0.348587 0 4 0.348587 1
gene 1 5 5 0.0926757 1 72 0.0926757 1
genomeend 10

/* Organism #11 Fitness: 0.0005 Error: 0 */
genomestart 11
trait 1 0.1 0 0 0 0 0 0 0 
node 1 1 1 1
node 2 1 1 1
node 3 1 1 1
node 4 1 1 3
node 5 1 0 2
gene 1 1 5 0.310479 0 1 0.310479 1
gene 1 2 5 0.405547 0 2 0.405547 1
gene 1 3 5 0.0197105 0 3 0.0197105 1
gene 1 4 5 1.16944 0 4 1.16944 1
gene 1 5 5 -0.607331 1 72 -0.607331 1
genomeend 11

/* Organism #12 Fitness: 0.0016 Error: 0 */
genomestart 12
trait 1 0.726542 0.766112 0.064716 0.00441047 0.384667 0.303046 0.705379 0.401321 
node 1 1 1 1
node 2 1 1 1
node 3 1 1 1
node 4 1 1 3
node 5 1 0 2
gene 1 1 5 -0.197163 0 1 -0.197163 1
gene 1 2 5 1.97049 0 2 1.97049 1
gene 1 3 5 0.463392 0 3 0.463392 1
gene 1 4 5 0.547284 0 4 0.547284 1
gene 1 5 5 -1.64051 1 61 -1.64051 1
genomeend 12

/* Organism #13 Fitness: 0.0029 Error: 0 */
genomestart 13
trait 1 0.934463 0.993312 0 0 0.44941 0.365699 0.871941 0.471833 
node 1 1 1 1
node 2 1 1 1
node 3 1 1 1
node 4 1 1 3
node 5 1 0 2
gene 1 1 5 0.909836 0 1 0.909836 1
gene 1 2 5 1.13223 0 2 1.13223 1
gene 1 3 5 1.83456 0 3 1.83456 1
gene 1 4 5 0.696123 0 4 0.696123 1
gene 1 5 5 -0.632128 1 61 -0.632128 1
genomeend 13

/* Organism #14 Fitness: 0.0026 Error: 0 */
genomestart 14
trait 1 0.726542 0.766112 0.064716 0.00441047 0.384667 0.303046 0.705379 0.401321 
node 1 1 1 1
node 2 1 1 1
node 3 1 1 1
node 4 1 1 3
node 5 1 0 2
gene 1 1 5 1.30973 0 1 1.30973 1
gene 1 2 5 0.929992 0 2 0.929992 1
gene 1 3 5 2.10984 0 3 2.10984 1
gene 1 4 5 1.12974 0 4 1.12974 1
gene 1 5 5 -0.632128 1 61 -0.632128 1
genomeend 14

/* Organism #15 Fitness: 0.0006 Error: 0 */
genomestart 15
trait 1 0.1 0 0.677421 0 0.0915135 0 0 0 
node 1 1 1 1
node 2 1 1 1
node 3 1 1 1
node 4 1 1 3
node 5 1 0 2
gene 1 1 5 1.24699 0 1 1.24699 1
gene 1 2 5 -1.09794 0 2 -1.09794 1
gene 1 3 5 1.32802 0 3 1.32802 1
gene 1 4 5 -0.624571 0 4 -0.624571 1
genomeend 15

/* Organism #16 Fitness: 0.0007 Error: 0 */
genomestart 16
trait 1 0.172751 0.0132039 0 0 0.25 0.00619341 0 0.134453 
node 1 1 1 1
node 2 1 1 1
node 3 1 1 1
node 4 1 1 3
node 5 1 0 2
gene 1 1 5 -1.27453 0 1 -1.27453 1
gene 1 2 5 1.1221 0 2 1.1221 1
gene 1 3 5 -0.209775 0 3 -0.209775 1
gene 1 4 5 0.86795 0 4 0.86795 1
gene 1 5 5 -0.813696 1 61 -0.813696 1
genomeend 16

/* Organism #17 Fitness: 0.0006 Error: 0 */
genomestart 17
trait 1 0.245502 0.0264078 0 0 0.5 0.0123868 0 0.268906 
node 1 1 1 1
node 2 1 1 1
node 3 1 1 1
node 4 1 1 3
node 5 1 0 2
gene 1 1 5 -1.64706 0 1 -1.64706 1
gene 1 2 5 1.23639 0 2 1.23639 1
gene 1 3 5 1.33167 0 3 1.33167 1
gene 1 4 5 -0.482042 0 4 -0.482042 1
gene 1 5 5 -2.24057 1 61 -2.24057 1
genomeend 17

/* Organism #18 Fitness: 0.0004 Error: 0 */
genomestart 18
trait 1 0.725847 0 0 0 0.602646 0.102937 0 0.226871 
node 1 1 1 1
node 2 1 1 1
node 3 1 1 1
node 4 1 1 3
node 5 1 0 2
gene 1 1 5 0.840838 0 1 0.840838 1
gene 1 2 5 -0.0747087 0 2 -0.0747087 1
gene 1 3 5 -0.0886015 0 3 -0.0886015 1
gene 1 4 5 1.99904 0 4 1.99904 1
gene 1 5 5 0.641604 1 61 0.641604 1
genomeend 18

/* Species #2 : (Size 10) (AF 0.00587) (Age 10)  */


/* Organism #19 Fitness: 0.0092 Error: 0 */
genomestart 19
trait 1 0.06875 0 0.204745 0 0.190436 0 0.187871 0.189783 
node 1 1 1 1
node 2 1 1 1
node 3 1 1 1
node 4 1 1 3
node 5 1 0 2
gene 1 1 5 3.28322 0 1 3.28322 1
gene 1 2 5 -1.94368 0 2 -1.94368 1
gene 1 3 5 1.48335 0 3 1.48335 1
gene 1 4 5 0.926007 0 4 0.926007 1
gene 1 5 5 -0.65573 1 74 -0.65573 1
genomeend 19

/* Organism #20 Fitness: 0.0095 Error: 0 */
genomestart 20
trait 1 0.106502 0 0.108571 0.00441047 0.107773 0.0172003 0.0983912 0.0996178 
node 1 1 1 1
node 2 1 1 1
node 3 1 1 1
node 4 1 1 3
node 5 1 0 2
gene 1 1 5 3.62882 0 1 3.62882 1
gene 1 2 5 -2.37704 0 2 -2.37704 1
gene 1 3 5 1.80935 0 3 1.80935 1
gene 1 4 5 0.964729 0 4 0.964729 1
gene 1 5 5 -0.658439 1 74 -0.658439 1
genomeend 20

/* Organism #21 Fitness: 0.009 Error: 0 */
genomestart 21
trait 1 0.106502 0 0.108571 0.00441047 0.107773 0.0172003 0.0983912 0.0996178 
node 1 1 1 1
node 2 1 1 1
node 3 1 1 1
node 4 1 1 3
node 5 1 0 2
gene 1 1 5 3.12532 0 1 3.12532 1
gene 1 2 5 -2.0028 0 2 -2.0028 1
gene 1 3 5 1.48335 0 3 1.48335 1
gene 1 4 5 1.00345 0 4 1.00345 1
gene 1 5 5 -0.65573 1 74 -0.65573 1
genomeend 21

/* Organism #22 Fitness: 0.0092 Error: 0 */
genomestart 22
trait 1 0.06875 0 0.204745 0 0.190436 0 0.187871 0.189783 
node 1 1 1 1
node 2 1 1 1
node 3 1 1 1
node 4 1 1 3
node 5 1 0 2
gene 1 1 5 3.28322 0 1 3.28322 1
gene 1 2 5 -1.94368 0 2 -1.94368 1
gene 1 3 5 1.48335 0 3 1.48335 1
gene 1 4 5 0.926007 0 4 0.926007 1
gene 1 5 5 -0.65573 1 74 -0.65573 1
genomeend 22

/* Organism #23 Fitness: 0.0073 Error: 0 */
genomestart 23
trait 1 0.106502 0 0.108571 0.00441047 0.107773 0.0172003 0.0983912 0.0996178 
node 1 1 1 1
node 2 1 1 1
node 3 1 1 1
node 4 1 1 3
node 5 1 0 2
gene 1 1 5 3.12532 0 1 3.12532 1
gene 1 2 5 -1.94368 0 2 -1.94368 1
gene 1 3 5 1.84667 0 3 1.84667 1
gene 1 4 5 0.926007 0 4 0.926007 1
gene 1 5 5 -0.65573 1 74 -0.65573 1
genomeend 23

/* Organism #24 Fitness: 0.0093 Error: 0 */
genomestart 24
trait 1 0.122127 0 0.00619834 0.00441047 0.0125551 0.0172003 0.00445581 0.00472648 
node 1 1 1 1
node 2 1 1 1
node 3 1 1 1
node 4 1 1 3
node 5 1 0 2
gene 1 1 5 3.12532 0 1 3.12532 1
gene 1 2 5 -2.0028 0 2 -2.0028 1
gene 1 3 5 1.48335 0 3 1.48335 1
gene 1 4 5 0.947335 0 4 0.947335 1
gene 1 5 5 -0.65573 1 74 -0.65573 1
genomeend 24

/* Organism #25 Fitness: 0.0033 Error: 0 */
genomestart 25
trait 1 0.06875 0 0.204745 0 0.190436 0 0.187871 0.189783 
node 1 1 1 1
node 2 1 1 1
node 3 1 1 1
node 4 1 1 3
node 5 1 0 2
gene 1 1 5 4.95661 0 1 4.95661 1
gene 1 2 5 -1.28069 0 2 -1.28069 1
gene 1 3 5 3.08219 0 3 3.08219 1
gene 1 4 5 1.16227 0 4 1.16227 1
gene 1 5 5 -0.389239 1 74 -0.389239 1
genomeend 25

/* Organism #26 Fitness: 0.0006 Error: 0 */
genomestart 26
trait 1 0.1 0 0 0 0 0 0 0 
node 1 1 1 1
node 2 1 1 1
node 3 1 1 1
node 4 1 1 3
node 5 1 0 2
gene 1 1 5 3.77039 0 1 3.77039 1
gene 1 2 5 0.102225 0 2 0.102225 1
gene 1 3 5 1.0485 0 3 1.0485 1
gene 1 4 5 -0.335701 0 4 -0.335701 1
gene 1 5 5 -1.03349 1 74 -1.03349 1
genomeend 26

/* Organism #27 Fitness: 0.0008 Error: 0 */
genomestart 27
trait 1 0.121955 0 0 0 0 0 0 0 
node 1 1 1 1
node 2 1 1 1
node 3 1 1 1
node 4 1 1 3
node 5 1 0 2
gene 1 1 5 1.5471 0 1 1.5471 1
gene 1 2 5 -2.12035 0 2 -2.12035 1
gene 1 3 5 0.092577 0 3 0.092577 1
gene 1 4 5 0.902579 0 4 0.902579 1
gene 1 5 5 -1.41521 1 74 -1.41521 1
genomeend 27

/* Organism #28 Fitness: 0.0005 Error: 0 */
genomestart 28
trait 1 0.1 0 0.245869 0.0617865 0 0 0 0 
node 1 1 1 1
node 2 1 1 1
node 3 1 1 1
node 4 1 1 3
node 5 1 0 2
gene 1 1 5 3.70624 0 1 3.70624 1
gene 1 2 5 -3.51701 0 2 -3.51701 1
gene 1 3 5 1.42662 0 3 1.42662 1
gene 1 4 5 0.618873 0 4 0.618873 1
gene 1 5 5 -2.56806 1 102 -2.56806 1
genomeend 28

/* Species #3 : (Size 11) (AF 0.0037) (Age 9)  */


/* Organism #29 Fitness: 0.0006 Error: 0 */
genomestart 29
trait 1 0.105489 0 0 0 0.00276194 0 0 0 
node 1 1 1 1
node 2 1 1 1
node 3 1 1 1
node 4 1 1 3
node 5 1 0 2
gene 1 1 5 -1.57387 0 1 -1.57387 1
gene 1 2 5 0.921164 0 2 0.921164 1
gene 1 3 5 2.75478 0 3 2.75478 1
gene 1 4 5 -1.47814 0 4 -1.47814 1
gene 1 5 5 -1.41707 1 74 -1.41707 1
genomeend 29

/* Organism #30 Fitness: 0.0006 Error: 0 */
genomestart 30
trait 1 0.110977 0 0 0 0 0 0 0 
node 1 1 1 1
node 2 1 1 1
node 3 1 1 1
node 4 1 1 3
node 5 1 0 2
gene 1 1 5 -2.3294 0 1 -2.3294 1
gene 1 2 5 2.026 0 2 2.026 1
gene 1 3 5 3.96633 0 3 3.96633 1
gene 1 4 5 -1.50947 0 4 -1.50947 1
gene 1 5 5 -2.83923 1 74 -2.83923 1
genomeend 30

/* Organism #31 Fitness: 0.0024 Error: 0 */
genomestart 31
trait 1 0.110977 0 0 0 0 0 0 0 
node 1 1 1 1
node 2 1 1 1
node 3 1 1 1
node 4 1 1 3
node 5 1 0 2
gene 1 1 5 -1.57387 0 1 -1.57387 1
gene 1 2 5 0.704759 0 2 0.704759 1
gene 1 3 5 2.75478 0 3 2.75478 1
gene 1 4 5 -0.736795 0 4 -0.736795 1
gene 1 5 5 -1.41707 1 74 -1.41707 1
genomeend 31

/* Organism #32 Fitness: 0.0058 Error: 0 */
genomestart 32
trait 1 0.1 0 0 0 0 0 0 0 
node 1 1 1 1
node 2 1 1 1
node 3 1 1 1
node 4 1 1 3
node 5 1 0 2
gene 1 1 5 2.49837 0 1 2.49837 1
gene 1 2 5 1.83421 0 2 1.83421 1
gene 1 3 5 2.32702 0 3 2.32702 1
gene 1 4 5 -0.335701 0 4 -0.335701 1
gene 1 5 5 -0.800131 1 74 -0.800131 1
genomeend 32

/* Organism #33 Fitness: 0.0058 Error: 0 */
genomestart 33
trait 1 0.1 0 0 0 0 0 0 0 
node 1 1 1 1
node 2 1 1 1
node 3 1 1 1
node 4 1 1 3
node 5 1 0 2
gene 1 1 5 2.49837 0 1 2.49837 1
gene 1 2 5 1.83421 0 2 1.83421 1
gene 1 3 5 2.32702 0 3 2.32702 1
gene 1 4 5 -0.335701 0 4 -0.335701 1
gene 1 5 5 -0.800131 1 74 -0.800131 1
genomeend 33

/* Organism #34 Fitness: 0.0058 Error: 0 */
genomestart 34
trait 1 0.1 0 0 0 0 0 0 0 
node 1 1 1 1
node 2 1 1 1
node 3 1 1 1
node 4 1 1 3
node 5 1 0 2
gene 1 1 5 2.49837 0 1 2.49837 1
gene 1 2 5 1.83421 0 2 1.83421 1
gene 1 3 5 2.32702 0 3 2.32702 1
gene 1 4 5 -0.335701 0 4 -0.335701 1
gene 1 5 5 -0.800131 1 74 -0.800131 1
genomeend 34

/* Organism #35 Fitness: 0.0058 Error: 0 */
genomestart 35
trait 1 0.1 0 0 0 0 0 0 0 
node 1 1 1 1
node 2 1 1 1
node 3 1 1 1
node 4 1 1 3
node 5 1 0 2
gene 1 1 5 2.49837 0 1 2.49837 1
gene 1 2 5 1.83421 0 2 1.83421 1
gene 1 3 5 2.32702 0 3 2.32702 1
gene 1 4 5 -0.335701 0 4 -0.335701 1
gene 1 5 5 -0.800131 1 74 -0.800131 1
genomeend 35

/* Organism #36 Fitness: 0.0061 Error: 0 */
genomestart 36
trait 1 0.121955 0 0 0 0 0 0 0 
node 1 1 1 1
node 2 1 1 1
node 3 1 1 1
node 4 1 1 3
node 5 1 0 2
gene 1 1 5 -0.653908 0 1 -0.653908 1
gene 1 2 5 -0.951279 0 2 -0.951279 1
gene 1 3 5 4.95003 0 3 4.95003 1
gene 1 4 5 0.513022 0 4 0.513022 1
gene 1 5 5 -1.6589 1 74 -1.6589 1
genomeend 36

/* Organism #37 Fitness: 0.0006 Error: 0 */
genomestart 37
trait 1 0.135505 0.073784 0.0789313 0.350755 0.187835 0.0182284 0.400359 0.00708973 
node 1 1 1 1
node 2 1 1 1
node 3 1 1 1
node 4 1 1 3
node 5 1 0 2
gene 1 1 5 -0.56234 0 1 -0.56234 1
gene 1 2 5 -0.270423 0 2 -0.270423 1
gene 1 3 5 3.1119 0 3 3.1119 1
gene 1 4 5 -0.682819 0 4 -0.682819 1
gene 1 5 5 -1.97095 1 143 -1.97095 1
genomeend 37

/* Organism #38 Fitness: 0.0067 Error: 0 */
genomestart 38
trait 1 0.1 0 0 0 0 0 0 0 
node 1 1 1 1
node 2 1 1 1
node 3 1 1 1
node 4 1 1 3
node 5 1 0 2
gene 1 1 5 -1.55236 0 1 -1.55236 1
gene 1 2 5 0.867192 0 2 0.867192 1
gene 1 3 5 5.30942 0 3 5.30942 1
gene 1 4 5 0.329802 0 4 0.329802 1
gene 1 5 5 -2.02435 1 74 -2.02435 1
genomeend 38

/* Organism #39 Fitness: 0.0005 Error: 0 */
genomestart 39
trait 1 0.1 0 0 0 0 0 0 0 
node 1 1 1 1
node 2 1 1 1
node 3 1 1 1
node 4 1 1 3
node 5 1 0 2
gene 1 1 5 -1.10335 0 1 -1.10335 1
gene 1 2 5 -0.532817 0 2 -0.532817 1
gene 1 3 5 1.40888 0 3 1.40888 1
gene 1 4 5 -1.25715 0 4 -1.25715 1
gene 1 5 5 -0.137747 1 74 -0.137747 1
genomeend 39

/* Species #4 : (Size 9) (AF 0.00232222) (Age 9)  */


/* Organism #40 Fitness: 0.0029 Error: 0 */
genomestart 40
trait 1 0.1 0 0 0 0 0 0 0 
node 1 1 1 1
node 2 1 1 1
node 3 1 1 1
node 4 1 1 3
node 5 1 0 2
node 6 1 0 0
gene 1 1 5 -0.702333 0 1 -0.702333 0
gene 1 2 5 -1.23723 0 2 -1.23723 1
gene 1 3 5 2.70564 0 3 2.70564 1
gene 1 4 5 -0.5364 0 4 -0.5364 1
gene 1 1 6 0.284835 0 10 0.284835 1
gene 1 6 5 0.858323 0 11 0.858323 1
gene 1 4 6 -0.477867 0 131 -0.477867 1
gene 1 3 6 -0.458918 0 366 0 1
gene 1 2 6 -0.233623 0 482 -0.233623 1
genomeend 40

/* Organism #41 Fitness: 0.0044 Error: 0 */
genomestart 41
trait 1 0.1 0 0 0 0 0 0 0 
node 1 1 1 1
node 2 1 1 1
node 3 1 1 1
node 4 1 1 3
node 5 1 0 2
node 6 1 0 0
gene 1 1 5 -1.06449 0 1 -1.06449 0
gene 1 2 5 -1.25853 0 2 -1.25853 1
gene 1 3 5 2.33794 0 3 2.33794 1
gene 1 4 5 -0.291736 0 4 -0.291736 1
gene 1 1 6 0.763295 0 10 0.763295 1
gene 1 6 5 0.976255 0 11 0.976255 1
gene 1 4 6 -0.477867 0 131 -0.477867 1
gene 1 3 6 -0.458918 0 366 0 1
genomeend 41

/* Organism #42 Fitness: 0.0034 Error: 0 */
genomestart 42
trait 1 0.1 0 0 0 0 0 0 0 
node 1 1 1 1
node 2 1 1 1
node 3 1 1 1
node 4 1 1 3
node 5 1 0 2
node 6 1 0 0
gene 1 1 5 -1.95932 0 1 -1.95932 0
gene 1 2 5 -0.1391 0 2 -0.1391 1
gene 1 3 5 1.59548 0 3 1.59548 1
gene 1 4 5 -0.44938 0 4 -0.44938 1
gene 1 1 6 2.14084 0 10 2.14084 1
gene 1 6 5 0.349257 0 11 0.349257 1
gene 1 4 6 -0.239926 0 131 -0.239926 1
gene 1 3 6 -0.458918 0 366 0 1
genomeend 42

/* Organism #43 Fitness: 0.0035 Error: 0 */
genomestart 43
trait 1 0.1 0 0 0 0 0 0 0 
node 1 1 1 1
node 2 1 1 1
node 3 1 1 1
node 4 1 1 3
node 5 1 0 2
node 6 1 0 0
gene 1 1 5 -1.95932 0 1 -1.95932 0
gene 1 2 5 -0.1391 0 2 -0.1391 1
gene 1 3 5 1.59548 0 3 1.59548 1
gene 1 4 5 -0.44938 0 4 -0.44938 1
gene 1 1 6 2.14084 0 10 2.14084 1
gene 1 6 5 0.349257 0 11 0.349257 1
gene 1 4 6 -0.239926 0 131 -0.239926 1
gene 1 3 6 -0.458918 0 366 0 1
gene 1 2 6 -0.233623 0 482 0 1
genomeend 43

/* Organism #44 Fitness: 0.0034 Error: 0 */
genomestart 44
trait 1 0.1 0 0 0 0 0 0 0 
node 1 1 1 1
node 2 1 1 1
node 3 1 1 1
node 4 1 1 3
node 5 1 0 2
node 6 1 0 0
gene 1 1 5 -2.94031 0 1 -2.94031 0
gene 1 2 5 -0.1391 0 2 -0.1391 1
gene 1 3 5 2.70014 0 3 2.70014 1
gene 1 4 5 1.03835 0 4 1.03835 1
gene 1 1 6 2.14084 0 10 2.14084 1
gene 1 6 5 -0.923667 0 11 -0.923667 1
gene 1 4 6 0.204416 0 131 0.204416 1
gene 1 3 6 0.310373 0 366 0.310373 1
genomeend 44

/* Organism #45 Fitness: 0.0017 Error: 0 */
genomestart 45
trait 1 0.1 0 0 0 0 0 0 0 
node 1 1 1 1
node 2 1 1 1
node 3 1 1 1
node 4 1 1 3
node 5 1 0 2
node 6 1 0 0
gene 1 1 5 -1.80403 0 1 -1.80403 0
gene 1 2 5 1.59908 0 2 1.59908 1
gene 1 3 5 3.03108 0 3 3.03108 1
gene 1 4 5 -0.566277 0 4 -0.566277 1
gene 1 1 6 0.912343 0 10 0.912343 1
gene 1 6 5 -1.44547 0 11 -1.44547 1
gene 1 4 6 -0.727947 0 131 -0.727947 1
gene 1 3 6 -1.11545 0 366 -1.11545 1
genomeend 45

/* Organism #46 Fitness: 0.0005 Error: 0 */
genomestart 46
trait 1 0.1 0 0 0 0 0 0 0 
node 1 1 1 1
node 2 1 1 1
node 3 1 1 1
node 4 1 1 3
node 5 1 0 2
node 6 1 0 0
gene 1 1 5 -2.01058 0 1 -2.01058 0
gene 1 2 5 0.532141 0 2 0.532141 1
gene 1 3 5 -0.18961 0 3 -0.18961 1
gene 1 4 5 -0.663712 0 4 -0.663712 1
gene 1 1 6 2.96658 0 10 2.96658 1
gene 1 6 5 0.776997 0 11 0.776997 1
gene 1 4 6 -2.0098 0 131 -2.0098 1
gene 1 3 6 -0.722295 0 366 -0.722295 1
genomeend 46

/* Organism #47 Fitness: 0.0006 Error: 0 */
genomestart 47
trait 1 0.1 0 0 0 0 0 0 0 
node 1 1 1 1
node 2 1 1 1
node 3 1 1 1
node 4 1 1 3
node 5 1 0 2
node 6 1 0 0
gene 1 1 5 -2.36 0 1 -2.36 0
gene 1 2 5 0.514857 0 2 0.514857 1
gene 1 3 5 1.09145 0 3 1.09145 1
gene 1 4 5 -0.571438 0 4 -0.571438 1
gene 1 1 6 2.62722 0 10 2.62722 1
gene 1 6 5 -0.623076 0 11 -0.623076 1
gene 1 4 6 -0.0164131 0 131 -0.0164131 1
gene 1 3 6 -0.267495 0 366 -0.267495 1
genomeend 47

/* Organism #48 Fitness: 0.0005 Error: 0 */
genomestart 48
trait 1 0 0 0.0651106 0 0 0 0 0 
node 1 1 1 1
node 2 1 1 1
node 3 1 1 1
node 4 1 1 3
node 5 1 0 2
node 6 1 0 0
gene 1 1 5 0.182709 0 1 0.182709 0
gene 1 2 5 -1.08815 0 2 -1.08815 1
gene 1 3 5 2.8368 0 3 2.8368 1
gene 1 4 5 -0.599497 0 4 -0.599497 1
gene 1 1 6 0.97971 0 10 0.97971 1
gene 1 6 5 -0.641425 0 11 -0.641425 1
gene 1 4 6 1.56604 0 131 1.56604 1
genomeend 48

/* Species #5 : (Size 3) (AF 0.0008) (Age 9)  */


/* Organism #49 Fitness: 0.0004 Error: 0 */
genomestart 49
trait 1 0.31807 0 0 0 0.200882 0.0343122 0 0.0756237 
node 1 1 1 1
node 2 1 1 1
node 3 1 1 1
node 4 1 1 3
node 5 1 0 2
gene 1 1 5 0.26974 0 1 0.26974 1
gene 1 2 5 -2.5501 0 2 -2.5501 1
gene 1 3 5 -0.458759 0 3 -0.458759 1
gene 1 4 5 3.57177 0 4 3.57177 1
gene 1 5 5 -1.06252 1 100 -1.06252 1
genomeend 49

/* Organism #50 Fitness: 0.001 Error: 0 */
genomestart 50
trait 1 0.222001 0.229149 0.159158 0.240645 0.226536 0.0536129 0 0 
node 1 1 1 1
node 2 1 1 1
node 3 1 1 1
node 4 1 1 3
node 5 1 0 2
gene 1 1 5 0.769663 0 1 0.769663 1
gene 1 2 5 -2.22912 0 2 -2.22912 1
gene 1 3 5 -0.628449 0 3 -0.628449 1
gene 1 4 5 1.98823 0 4 1.98823 1
gene 1 5 5 -3.50264 1 61 -3.50264 1
genomeend 50

/* Organism #51 Fitness: 0.001 Error: 0 */
genomestart 51
trait 1 0.31179 0.28411 0.0795791 0.120323 0.113268 0.0268064 0.126885 0 
node 1 1 1 1
node 2 1 1 1
node 3 1 1 1
node 4 1 1 3
node 5 1 0 2
gene 1 1 5 1.24669 0 1 1.24669 1
gene 1 2 5 -1.42219 0 2 -1.42219 1
gene 1 3 5 0.420277 0 3 0.420277 1
gene 1 4 5 1.59528 0 4 1.59528 1
gene 1 5 5 -1.11674 1 289 -1.11674 1
genomeend 51

/* Species #6 : (Size 2) (AF 0.00355) (Age 9)  */


/* Organism #52 Fitness: 0.0041 Error: 0 */
genomestart 52
trait 1 0.108233 0 0 0 0 0.0129284 0 0 
node 1 1 1 1
node 2 1 1 1
node 3 1 1 1
node 4 1 1 3
node 5 1 0 2
gene 1 1 5 2.49837 0 1 2.49837 1
gene 1 2 5 1.83421 0 2 1.83421 1
gene 1 3 5 3.80564 0 3 3.80564 1
gene 1 4 5 -0.253753 0 4 -0.253753 1
gene 1 5 5 -0.800131 1 74 -0.800131 1
genomeend 52

/* Organism #53 Fitness: 0.003 Error: 0 */
genomestart 53
trait 1 0.145222 0.00660195 0.0247934 0 0.131278 0.00416896 0 0.0695897 
node 1 1 1 1
node 2 1 1 1
node 3 1 1 1
node 4 1 1 3
node 5 1 0 2
gene 1 1 5 2.83895 0 1 2.83895 1
gene 1 2 5 0.800643 0 2 0.800643 1
gene 1 3 5 2.97808 0 3 2.97808 1
gene 1 4 5 -0.679009 0 4 -0.679009 1
gene 1 5 5 -1.35677 1 61 -1.35677 1
genomeend 53

/* Species #7 : (Size 1) (AF 0.0005) (Age 9)  */


/* Organism #54 Fitness: 0.0005 Error: 0 */
genomestart 54
trait 1 0.1 0 0 0 0 0 0 0 
node 1 1 1 1
node 2 1 1 1
node 3 1 1 1
node 4 1 1 3
node 5 1 0 2
node 7 1 0 0
gene 1 1 5 2.91588 0 1 2.91588 1
gene 1 2 5 -3.45655 0 2 -3.45655 1
gene 1 3 5 -4.01627 0 3 -4.01627 0
gene 1 4 5 1.70483 0 4 1.70483 1
gene 1 3 7 1.6665 0 18 1.6665 1
gene 1 7 5 -0.666283 0 19 -0.666283 1
genomeend 54

/* Species #8 : (Size 10) (AF 0.00407) (Age 9)  */


/* Organism #55 Fitness: 0.0068 Error: 0 */
genomestart 55
trait 1 0.289202 0.166149 0.0212256 0 0.442165 0.0107226 0.260629 0.00472648 
node 1 1 1 1
node 2 1 1 1
node 3 1 1 1
node 4 1 1 3
node 5 1 0 2
gene 1 1 5 -0.135997 0 1 -0.135997 1
gene 1 2 5 0.992181 0 2 0.992181 1
gene 1 3 5 4.82358 0 3 4.82358 1
gene 1 4 5 -0.579175 0 4 -0.579175 1
gene 1 5 5 -0.90294 1 123 -0.90294 1
genomeend 55

/* Organism #56 Fitness: 0.005 Error: 0 */
genomestart 56
trait 1 0.588351 0.24116 0.0260635 0 0.270756 0.0203729 0.493811 0.00236324 
node 1 1 1 1
node 2 1 1 1
node 3 1 1 1
node 4 1 1 3
node 5 1 0 2
gene 1 1 5 1.69596 0 1 1.69596 1
gene 1 2 5 1.72701 0 2 1.72701 1
gene 1 3 5 4.82358 0 3 4.82358 1
gene 1 4 5 -0.579175 0 4 -0.579175 1
gene 1 5 5 -0.90294 1 123 -0.90294 1
genomeend 56

/* Organism #57 Fitness: 0.0022 Error: 0 */
genomestart 57
trait 1 0.8875 0.316172 0.0309013 0 0.0993475 0.0300232 0.726992 0 
node 1 1 1 1
node 2 1 1 1
node 3 1 1 1
node 4 1 1 3
node 5 1 0 2
gene 1 1 5 0.440717 0 1 0.440717 1
gene 1 2 5 1.20083 0 2 1.20083 1
gene 1 3 5 4.86697 0 3 4.86697 1
gene 1 4 5 -2.05215 0 4 -2.05215 1
gene 1 5 5 0.341674 1 123 0.341674 1
genomeend 57

/* Organism #58 Fitness: 0.0047 Error: 0 */
genomestart 58
trait 1 1 0.361339 0.0353158 0 0.11354 0.0343122 0.830848 0 
node 1 1 1 1
node 2 1 1 1
node 3 1 1 1
node 4 1 1 3
node 5 1 0 2
gene 1 1 5 1.47669 0 1 1.47669 1
gene 1 2 5 -0.442672 0 2 -0.442672 1
gene 1 3 5 7.10316 0 3 7.10316 1
gene 1 4 5 -0.441352 0 4 -0.441352 1
gene 1 5 5 -0.862166 1 123 -0.862166 1
genomeend 58

/* Organism #59 Fitness: 0.0032 Error: 0 */
genomestart 59
trait 1 0.3875 0.211316 0.0132434 0 0.443803 0.0128671 0.364486 0 
node 1 1 1 1
node 2 1 1 1
node 3 1 1 1
node 4 1 1 3
node 5 1 0 2
node 48 1 0 0
gene 1 1 5 1.69596 0 1 1.69596 1
gene 1 2 5 1.72701 0 2 1.72701 0
gene 1 3 5 4.55042 0 3 4.55042 1
gene 1 4 5 -0.707061 0 4 -0.707061 1
gene 1 5 5 -0.884117 1 123 -0.884117 1
gene 1 2 48 1 0 483 0 1
gene 1 48 5 1.72701 0 484 0 1
genomeend 59

/* Organism #60 Fitness: 0.0068 Error: 0 */
genomestart 60
trait 1 0.289202 0.166149 0.0212256 0 0.442165 0.0107226 0.260629 0.00472648 
node 1 1 1 1
node 2 1 1 1
node 3 1 1 1
node 4 1 1 3
node 5 1 0 2
gene 1 1 5 -0.135997 0 1 -0.135997 1
gene 1 2 5 0.992181 0 2 0.992181 1
gene 1 3 5 4.82358 0 3 4.82358 1
gene 1 4 5 -0.579175 0 4 -0.579175 1
gene 1 5 5 -0.90294 1 123 -0.90294 1
genomeend 60

/* Organism #61 Fitness: 0.0026 Error: 0 */
genomestart 61
trait 1 0.289202 0.166149 0.0212256 0 0.442165 0.0107226 0.260629 0.00472648 
node 1 1 1 1
node 2 1 1 1
node 3 1 1 1
node 4 1 1 3
node 5 1 0 2
gene 1 1 5 -0.042862 0 1 -0.042862 1
gene 1 2 5 0.295283 0 2 0.295283 1
gene 1 3 5 6.0063 0 3 6.0063 1
gene 1 4 5 0.670678 0 4 0.670678 1
gene 1 5 5 -0.194288 1 123 -0.194288 1
genomeend 61

/* Organism #62 Fitness: 0.0052 Error: 0 */
genomestart 62
trait 1 0.145222 0.00660195 0.0247934 0 0.131278 0.00416896 0 0.0695897 
node 1 1 1 1
node 2 1 1 1
node 3 1 1 1
node 4 1 1 3
node 5 1 0 2
gene 1 1 5 0.751192 0 1 0.751192 1
gene 1 2 5 0.606665 0 2 0.606665 1
gene 1 3 5 5.41282 0 3 5.41282 1
gene 1 4 5 -0.318873 0 4 -0.318873 1
gene 1 5 5 -1.57414 1 61 -1.57414 1
genomeend 62

/* Organism #63 Fitness: 0.0019 Error: 0 */
genomestart 63
trait 1 0.1 1 0.801288 0.325228 0.0903006 0.144062 0 0.401458 
node 1 1 1 1
node 2 1 1 1
node 3 1 1 1
node 4 1 1 3
node 5 1 0 2
gene 1 1 5 0.00723632 0 1 0.00723632 1
gene 1 2 5 0.799401 0 2 0.799401 1
gene 1 3 5 4.62053 0 3 4.62053 1
gene 1 4 5 -0.0937574 0 4 -0.0937574 1
gene 1 5 5 0.577285 1 239 0.577285 1
genomeend 63

/* Organism #64 Fitness: 0.0023 Error: 0 */
genomestart 64
trait 1 0.1 0 0 0 0 0 0 0 
node 1 1 1 1
node 2 1 1 1
node 3 1 1 1
node 4 1 1 3
node 5 1 0 2
gene 1 1 5 -1.34477 0 1 -1.34477 1
gene 1 2 5 0.97606 0 2 0.97606 1
gene 1 3 5 4.82707 0 3 4.82707 1
gene 1 4 5 -0.530746 0 4 -0.530746 1
gene 1 5 5 0.612425 1 204 0.612425 1
genomeend 64

/* Species #9 : (Size 2) (AF 0.0013) (Age 9)  */


/* Organism #65 Fitness: 0.0022 Error: 0 */
genomestart 65
trait 1 0.1 0 0 0 0 0 0 0 
node 1 1 1 1
node 2 1 1 1
node 3 1 1 1
node 4 1 1 3
node 5 1 0 2
node 11 1 0 0
gene 1 1 5 -1.25808 0 1 -1.25808 1
gene 1 2 5 1.76475 0 2 1.76475 1
gene 1 3 5 4.32144 0 3 4.32144 0
gene 1 4 5 -0.874058 0 4 -0.874058 1
gene 1 3 11 1.34562 0 93 1.34562 1
gene 1 11 5 1.9822 0 94 1.9822 1
gene 1 5 5 -0.925399 1 189 -0.925399 1
genomeend 65

/* Organism #66 Fitness: 0.0004 Error: 0 */
genomestart 66
trait 1 0.1 0 0 0 0 0 0 0 
node 1 1 1 1
node 2 1 1 1
node 3 1 1 1
node 4 1 1 3
node 5 1 0 2
node 11 1 0 0
gene 1 1 5 -0.192128 0 1 -0.192128 1
gene 1 2 5 1.64718 0 2 1.64718 1
gene 1 3 5 0.0920189 0 3 0.0920189 0
gene 1 4 5 -2.23059 0 4 -2.23059 1
gene 1 3 11 -0.558092 0 93 -0.558092 1
gene 1 11 5 1.69411 0 94 1.69411 1
gene 1 5 5 -1.98345 1 189 -1.98345 1
gene 1 2 11 -1.11586 0 430 -1.11586 1
genomeend 66

/* Species #10 : (Size 9) (AF 0.0099057) (Age 9)  */


/* Organism #67 Fitness: 0.0134553 Error: 0 */
genomestart 67
trait 1 0.517232 0 0 0 0.401764 0.106387 0.0897846 0.151247 
node 1 1 1 1
node 2 1 1 1
node 3 1 1 1
node 4 1 1 3
node 5 1 0 2
gene 1 1 5 4.69992 0 1 4.69992 1
gene 1 2 5 -7.18655 0 2 -7.18655 1
gene 1 3 5 3.22769 0 3 3.22769 1
gene 1 4 5 2.50982 0 4 2.50982 1
gene 1 5 5 -1.03748 1 61 -1.03748 1
genomeend 67

/* Organism #68 Fitness: 0.0131129 Error: 0 */
genomestart 68
trait 1 0.725847 0 0 0 0.627205 0.121818 0.0448923 0.296868 
node 1 1 1 1
node 2 1 1 1
node 3 1 1 1
node 4 1 1 3
node 5 1 0 2
gene 1 1 5 6.23187 0 1 6.23187 1
gene 1 2 5 -6.96761 0 2 -6.96761 1
gene 1 3 5 3.05761 0 3 3.05761 1
gene 1 4 5 2.50982 0 4 2.50982 1
gene 1 5 5 -1.03748 1 61 -1.03748 1
genomeend 68

/* Organism #69 Fitness: 0.0131129 Error: 0 */
genomestart 69
trait 1 0.725847 0 0 0 0.627205 0.121818 0.0448923 0.296868 
node 1 1 1 1
node 2 1 1 1
node 3 1 1 1
node 4 1 1 3
node 5 1 0 2
gene 1 1 5 6.23187 0 1 6.23187 1
gene 1 2 5 -6.96761 0 2 -6.96761 1
gene 1 3 5 3.05761 0 3 3.05761 1
gene 1 4 5 2.50982 0 4 2.50982 1
gene 1 5 5 -1.03748 1 61 -1.03748 1
genomeend 69

/* Organism #70 Fitness: 0.0083 Error: 0 */
genomestart 70
trait 1 0.593417 0 0.0262808 0 0.570845 0.146941 0.109764 0.260463 
node 1 1 1 1
node 2 1 1 1
node 3 1 1 1
node 4 1 1 3
node 5 1 0 2
gene 1 1 5 1.69642 0 1 1.69642 1
gene 1 2 5 -7.18655 0 2 -7.18655 1
gene 1 3 5 5.33533 0 3 5.33533 1
gene 1 4 5 2.73856 0 4 2.73856 1
gene 1 5 5 -1.03748 1 61 -1.03748 1
genomeend 70

/* Organism #71 Fitness: 0.0131196 Error: 0 */
genomestart 71
trait 1 0.62154 0 0 0 0.514485 0.114102 0.0673385 0.224058 
node 1 1 1 1
node 2 1 1 1
node 3 1 1 1
node 4 1 1 3
node 5 1 0 2
gene 1 1 5 5.46589 0 1 5.46589 1
gene 1 2 5 -7.07708 0 2 -7.07708 1
gene 1 3 5 2.60188 0 3 2.60188 1
gene 1 4 5 2.33617 0 4 2.33617 1
gene 1 5 5 -0.665874 1 61 -0.665874 1
genomeend 71

/* Organism #72 Fitness: 0.0129376 Error: 0 */
genomestart 72
trait 1 0.697725 0 0.0262808 0 0.683565 0.154656 0.0873181 0.333273 
node 1 1 1 1
node 2 1 1 1
node 3 1 1 1
node 4 1 1 3
node 5 1 0 2
gene 1 1 5 3.96415 0 1 3.96415 1
gene 1 2 5 -6.76805 0 2 -6.76805 1
gene 1 3 5 4.19647 0 3 4.19647 1
gene 1 4 5 2.62419 0 4 2.62419 1
gene 1 5 5 -1.34347 1 61 -1.34347 1
genomeend 72

/* Organism #73 Fitness: 0.0131129 Error: 0 */
genomestart 73
trait 1 0.725847 0 0 0 0.627205 0.121818 0.0448923 0.296868 
node 1 1 1 1
node 2 1 1 1
node 3 1 1 1
node 4 1 1 3
node 5 1 0 2
gene 1 1 5 6.23187 0 1 6.23187 1
gene 1 2 5 -6.96761 0 2 -6.96761 1
gene 1 3 5 3.05761 0 3 3.05761 1
gene 1 4 5 2.50982 0 4 2.50982 1
gene 1 5 5 -1.03748 1 61 -1.03748 1
genomeend 73

/* Organism #74 Fitness: 0.0016 Error: 0 */
genomestart 74
trait 1 1 0 0 1 0.0655661 0 0.0897846 1 
node 1 1 1 1
node 2 1 1 1
node 3 1 1 1
node 4 1 1 3
node 5 1 0 2
gene 1 1 5 5.88167 0 1 5.88167 1
gene 1 2 5 -7.14126 0 2 -7.14126 1
gene 1 3 5 3.04287 0 3 3.04287 1
gene 1 4 5 3.40538 0 4 3.40538 1
gene 1 5 5 -1.23964 1 165 -1.23964 1
genomeend 74

/* Organism #75 Fitness: 0.0004 Error: 0 */
genomestart 75
trait 1 0.62154 0 0 0 0.514485 0.114102 0.0673385 0.224058 
node 1 1 1 1
node 2 1 1 1
node 3 1 1 1
node 4 1 1 3
node 5 1 0 2
gene 1 1 5 7.16354 0 1 7.16354 1
gene 1 2 5 -6.76857 0 2 -6.76857 1
gene 1 3 5 2.74731 0 3 2.74731 1
gene 1 4 5 3.82041 0 4 3.82041 1
gene 1 5 5 0.524031 1 61 0.524031 1
genomeend 75

/* Species #11 : (Size 8) (AF 0.0031875) (Age 9)  */


/* Organism #76 Fitness: 0.008 Error: 0 */
genomestart 76
trait 1 0.338351 0.188732 0.0172345 0 0.442984 0.0117948 0.312558 0.00236324 
node 1 1 1 1
node 2 1 1 1
node 3 1 1 1
node 4 1 1 3
node 5 1 0 2
gene 1 1 5 -1.186 0 1 -1.186 1
gene 1 2 5 -1.49136 0 2 -1.49136 1
gene 1 3 5 1.51331 0 3 1.51331 1
gene 1 4 5 1.16178 0 4 1.16178 1
gene 1 5 5 -0.824967 1 123 -0.824967 1
genomeend 76

/* Organism #77 Fitness: 0.0038 Error: 0 */
genomestart 77
trait 1 0.172751 0.0132039 0 0 0.251922 0.0233495 0 0.134453 
node 1 1 1 1
node 2 1 1 1
node 3 1 1 1
node 4 1 1 3
node 5 1 0 2
gene 1 1 5 -2.34225 0 1 -2.34225 1
gene 1 2 5 -3.14489 0 2 -3.14489 1
gene 1 3 5 4.29161 0 3 4.29161 1
gene 1 4 5 1.32128 0 4 1.32128 1
gene 1 5 5 -2.4222 1 61 -2.4222 1
genomeend 77

/* Organism #78 Fitness: 0.0036 Error: 0 */
genomestart 78
trait 1 0.277059 0.0132039 0.0249004 0 0.463981 0.0576618 0 0.172265 
node 1 1 1 1
node 2 1 1 1
node 3 1 1 1
node 4 1 1 3
node 5 1 0 2
gene 1 1 5 -1.96409 0 1 -1.96409 1
gene 1 2 5 -1.15493 0 2 -1.15493 1
gene 1 3 5 4.82241 0 3 4.82241 1
gene 1 4 5 1.31605 0 4 1.31605 1
gene 1 5 5 -0.252314 1 61 -0.252314 1
genomeend 78

/* Organism #79 Fitness: 0.0054 Error: 0 */
genomestart 79
trait 1 0.245502 0.0264078 0.0249004 0 0.5 0.0123868 0 0.268906 
node 1 1 1 1
node 2 1 1 1
node 3 1 1 1
node 4 1 1 3
node 5 1 0 2
gene 1 1 5 -2.18675 0 1 -2.18675 1
gene 1 2 5 -2.77004 0 2 -2.77004 1
gene 1 3 5 5.00662 0 3 5.00662 1
gene 1 4 5 0.0722143 0 4 0.0722143 1
gene 1 5 5 -1.15642 1 61 -1.15642 1
genomeend 79

/* Organism #80 Fitness: 0.0016 Error: 0 */
genomestart 80
trait 1 0.256462 0 0 0 0.321933 0.0857806 0 0.0567178 
node 1 1 1 1
node 2 1 1 1
node 3 1 1 1
node 4 1 1 3
node 5 1 0 2
gene 1 1 5 -0.147682 0 1 -0.147682 1
gene 1 2 5 -3.67694 0 2 -3.67694 1
gene 1 3 5 4.81898 0 3 4.81898 1
gene 1 4 5 0.209714 0 4 0.209714 1
gene 1 5 5 0.156939 1 61 0.156939 1
genomeend 80

/* Organism #81 Fitness: 0.0005 Error: 0 */
genomestart 81
trait 1 0.1 0 0 0 0 0 0 0 
node 1 1 1 1
node 2 1 1 1
node 3 1 1 1
node 4 1 1 3
node 5 1 0 2
node 31 1 0 0
gene 1 1 5 -1.63701 0 1 -1.63701 1
gene 1 2 5 -3.52648 0 2 -3.52648 1
gene 1 3 5 1.34289 0 3 1.34289 1
gene 1 4 5 0.639091 0 4 0.639091 1
gene 1 5 5 -0.481356 1 61 -0.481356 0
gene 1 5 31 3.74309 1 303 3.74309 1
gene 1 31 5 -1.08948 0 304 -1.08948 1
genomeend 81

/* Organism #82 Fitness: 0.0009 Error: 0 */
genomestart 82
trait 1 0.232712 0 0.0247934 0 0.244615 0.0557574 0 0.0472648 
node 1 1 1 1
node 2 1 1 1
node 3 1 1 1
node 4 1 1 3
node 5 1 0 2
gene 1 1 5 0.133118 0 1 0.133118 1
gene 1 2 5 -3.73762 0 2 -3.73762 1
gene 1 3 5 2.48196 0 3 2.48196 1
gene 1 4 5 1.21232 0 4 1.21232 1
gene 1 5 5 -1.7373 1 143 -1.7373 1
genomeend 82

/* Organism #83 Fitness: 0.0017 Error: 0 */
genomestart 83
trait 1 0.226193 0 0.0247934 0 0.232814 0.0546851 0 0.0449016 
node 1 1 1 1
node 2 1 1 1
node 3 1 1 1
node 4 1 1 3
node 5 1 0 2
gene 1 1 5 1.5039 0 1 1.5039 1
gene 1 2 5 -5.28424 0 2 -5.28424 1
gene 1 3 5 2.1309 0 3 2.1309 1
gene 1 4 5 0.71809 0 4 0.71809 1
gene 1 5 5 -0.171424 1 61 -0.171424 1
genomeend 83

/* Species #12 : (Size 4) (AF 0.00095) (Age 9)  */


/* Organism #84 Fitness: 0.0011 Error: 0 */
genomestart 84
trait 1 0.128404 0 0.0247934 0 0.0306341 0.00428903 0 0.00945297 
node 1 1 1 1
node 2 1 1 1
node 3 1 1 1
node 4 1 1 3
node 5 1 0 2
gene 1 1 5 1.4207 0 1 1.4207 1
gene 1 2 5 -3.34188 0 2 -3.34188 1
gene 1 3 5 -1.18678 0 3 -1.18678 1
gene 1 4 5 2.04094 0 4 2.04094 1
gene 1 5 5 -1.97889 1 55 -1.97889 1
genomeend 84

/* Organism #85 Fitness: 0.0011 Error: 0 */
genomestart 85
trait 1 0.128404 0 0.0247934 0 0.0306341 0.00428903 0 0.00945297 
node 1 1 1 1
node 2 1 1 1
node 3 1 1 1
node 4 1 1 3
node 5 1 0 2
gene 1 1 5 1.4207 0 1 1.4207 1
gene 1 2 5 -2.36511 0 2 -2.36511 1
gene 1 3 5 -1.16262 0 3 -1.16262 1
gene 1 4 5 1.31414 0 4 1.31414 1
gene 1 5 5 -1.00208 1 55 -1.00208 1
genomeend 85

/* Organism #86 Fitness: 0.0005 Error: 0 */
genomestart 86
trait 1 0.173626 0.00660195 0.0495867 0 0.161912 0.00845799 0 0.0790427 
node 1 1 1 1
node 2 1 1 1
node 3 1 1 1
node 4 1 1 3
node 5 1 0 2
gene 1 1 5 2.0173 0 1 2.0173 1
gene 1 2 5 -3.40343 0 2 -3.40343 1
gene 1 3 5 -0.62116 0 3 -0.62116 1
gene 1 4 5 1.08659 0 4 1.08659 1
gene 1 5 5 1.06225 1 143 1.06225 1
genomeend 86

/* Organism #87 Fitness: 0.0011 Error: 0 */
genomestart 87
trait 1 0.934463 0 0 0 1 0.137249 0 0.442489 
node 1 1 1 1
node 2 1 1 1
node 3 1 1 1
node 4 1 1 3
node 5 1 0 2
gene 1 1 5 1.79998 0 1 1.79998 1
gene 1 2 5 -3.52909 0 2 -3.52909 1
gene 1 3 5 -1.69215 0 3 -1.69215 1
gene 1 4 5 2.11459 0 4 2.11459 1
gene 1 5 5 -2.80538 1 61 -2.80538 1
genomeend 87

/* Species #13 : (Size 19) (AF 0.00598338) (Age 9)  */


/* Organism #88 Fitness: 0.005 Error: 0 */
genomestart 88
trait 1 0.245502 0.0264078 0 0 0.5 0.0123868 0 0.268906 
node 1 1 1 1
node 2 1 1 1
node 3 1 1 1
node 4 1 1 3
node 5 1 0 2
gene 1 1 5 -0.00292114 0 1 -0.00292114 1
gene 1 2 5 -1.52009 0 2 -1.52009 1
gene 1 3 5 6.23481 0 3 6.23481 1
gene 1 4 5 0.522721 0 4 0.522721 1
gene 1 5 5 -2.08327 1 61 -2.08327 1
genomeend 88

/* Organism #89 Fitness: 0.0097 Error: 0 */
genomestart 89
trait 1 0.190444 0.0132039 0.0495867 0 0.262555 0.00833792 0 0.139179 
node 1 1 1 1
node 2 1 1 1
node 3 1 1 1
node 4 1 1 3
node 5 1 0 2
gene 1 1 5 1.4089 0 1 1.4089 1
gene 1 2 5 -0.692453 0 2 -0.692453 1
gene 1 3 5 5.58148 0 3 5.58148 1
gene 1 4 5 0.214288 0 4 0.214288 1
gene 1 5 5 -1.43152 1 61 -1.43152 1
genomeend 89

/* Organism #90 Fitness: 0.0037 Error: 0 */
genomestart 90
trait 1 0.245502 0.0264078 0 0 0.5 0.0123868 0 0.268906 
node 1 1 1 1
node 2 1 1 1
node 3 1 1 1
node 4 1 1 3
node 5 1 0 2
gene 1 1 5 0.455007 0 1 0.455007 1
gene 1 2 5 -1.6835 0 2 -1.6835 1
gene 1 3 5 7.21046 0 3 7.21046 1
gene 1 4 5 -0.370674 0 4 -0.370674 1
gene 1 5 5 -2.4146 1 61 -2.4146 1
genomeend 90

/* Organism #91 Fitness: 0.0029 Error: 0 */
genomestart 91
trait 1 0.190444 0.0132039 0.0495867 0 0.262555 0.00833792 0 0.139179 
node 1 1 1 1
node 2 1 1 1
node 3 1 1 1
node 4 1 1 3
node 5 1 0 2
gene 1 1 5 2.64849 0 1 2.64849 1
gene 1 2 5 0.332978 0 2 0.332978 1
gene 1 3 5 6.24578 0 3 6.24578 1
gene 1 4 5 -1.52049 0 4 -1.52049 1
gene 1 5 5 -2.12712 1 61 -2.12712 1
genomeend 91

/* Organism #92 Fitness: 0.0045 Error: 0 */
genomestart 92
trait 1 0.217973 0.0198059 0.0247934 0 0.381278 0.0103624 0 0.204043 
node 1 1 1 1
node 2 1 1 1
node 3 1 1 1
node 4 1 1 3
node 5 1 0 2
gene 1 1 5 -0.38341 0 1 -0.38341 1
gene 1 2 5 -0.693855 0 2 -0.693855 1
gene 1 3 5 5.08383 0 3 5.08383 1
gene 1 4 5 1.27801 0 4 1.27801 1
gene 1 5 5 -1.71615 1 61 -1.71615 1
genomeend 92

/* Organism #93 Fitness: 0.005 Error: 0 */
genomestart 93
trait 1 0.167833 0.00990293 0.03719 0 0.196916 0.00625344 0 0.104385 
node 1 1 1 1
node 2 1 1 1
node 3 1 1 1
node 4 1 1 3
node 5 1 0 2
gene 1 1 5 2.97673 0 1 2.97673 1
gene 1 2 5 -1.73869 0 2 -1.73869 1
gene 1 3 5 5.97201 0 3 5.97201 1
gene 1 4 5 0.677947 0 4 0.677947 1
gene 1 5 5 -2.32691 1 61 -2.32691 1
genomeend 93

/* Organism #94 Fitness: 0.0065 Error: 0 */
genomestart 94
trait 1 0.1 0 0 0 0 0 0 0 
node 1 1 1 1
node 2 1 1 1
node 3 1 1 1
node 4 1 1 3
node 5 1 0 2
gene 1 1 5 1.42247 0 1 1.42247 1
gene 1 2 5 -1.9181 0 2 -1.9181 1
gene 1 3 5 4.70192 0 3 4.70192 1
gene 1 4 5 0.633523 0 4 0.633523 1
gene 1 5 5 -1.52974 1 72 -1.52974 1
genomeend 94

/* Organism #95 Fitness: 0.004 Error: 0 */
genomestart 95
trait 1 0.934463 0 0 0.245199 0.830355 0.0722587 0 0.151247 
node 1 1 1 1
node 2 1 1 1
node 3 1 1 1
node 4 1 1 3
node 5 1 0 2
gene 1 1 5 1.59486 0 1 1.59486 1
gene 1 2 5 1.1506 0 2 1.1506 1
gene 1 3 5 5.38477 0 3 5.38477 1
gene 1 4 5 2.08795 0 4 2.08795 1
gene 1 5 5 -3.38146 1 61 -3.38146 1
genomeend 95

/* Organism #96 Fitness: 0.0031 Error: 0 */
genomestart 96
trait 1 0.934463 0 0 0 0.803528 0.137249 0 0.302495 
node 1 1 1 1
node 2 1 1 1
node 3 1 1 1
node 4 1 1 3
node 5 1 0 2
gene 1 1 5 1.33731 0 1 1.33731 1
gene 1 2 5 -0.0697627 0 2 -0.0697627 1
gene 1 3 5 4.71932 0 3 4.71932 1
gene 1 4 5 0.660806 0 4 0.660806 1
gene 1 5 5 -3.2282 1 61 -3.2282 1
genomeend 96

/* Organism #97 Fitness: 0.0068 Error: 0 */
genomestart 97
trait 1 0.05 0 0 0 0 0 0 0 
node 1 1 1 1
node 2 1 1 1
node 3 1 1 1
node 4 1 1 3
node 5 1 0 2
gene 1 1 5 0.644385 0 1 0.644385 1
gene 1 2 5 -0.59035 0 2 -0.59035 1
gene 1 3 5 5.66398 0 3 5.66398 1
gene 1 4 5 0.781968 0 4 0.781968 1
gene 1 5 5 -2.29269 1 100 -2.29269 1
genomeend 97

/* Organism #98 Fitness: 0.0096 Error: 0 */
genomestart 98
trait 1 0.391004 0.0528156 0 0 1 0.0247736 0 0.537812 
node 1 1 1 1
node 2 1 1 1
node 3 1 1 1
node 4 1 1 3
node 5 1 0 2
gene 1 1 5 0.542077 0 1 0.542077 1
gene 1 2 5 -2.77004 0 2 -2.77004 1
gene 1 3 5 6.20434 0 3 6.20434 1
gene 1 4 5 0.392598 0 4 0.392598 1
gene 1 5 5 -1.15642 1 61 -1.15642 1
genomeend 98

/* Organism #99 Fitness: 0.0041 Error: 0 */
genomestart 99
trait 1 0.533512 0.0264078 0 0 0.925221 0.070978 0 0.50343 
node 1 1 1 1
node 2 1 1 1
node 3 1 1 1
node 4 1 1 3
node 5 1 0 2
gene 1 1 5 1.4961 0 1 1.4961 1
gene 1 2 5 -2.03198 0 2 -2.03198 1
gene 1 3 5 5.01221 0 3 5.01221 1
gene 1 4 5 -0.712171 0 4 -0.712171 1
gene 1 5 5 -0.826468 1 61 -0.826468 1
genomeend 99

/* Organism #100 Fitness: 0.006 Error: 0 */
genomestart 100
trait 1 0.417578 0 0 0 1 0.0971158 0 0 
node 1 1 1 1
node 2 1 1 1
node 3 1 1 1
node 4 1 1 3
node 5 1 0 2
gene 1 1 5 2.01541 0 1 2.01541 1
gene 1 2 5 -0.901867 0 2 -0.901867 1
gene 1 3 5 7.06662 0 3 7.06662 1
gene 1 4 5 0.397265 0 4 0.397265 1
gene 1 5 5 -1.68896 1 61 -1.68896 1
genomeend 100

/* Organism #101 Fitness: 0.0152842 Error: 0 */
genomestart 101
trait 1 0.533512 0.0264078 0 0 0.925221 0.070978 0 0.50343 
node 1 1 1 1
node 2 1 1 1
node 3 1 1 1
node 4 1 1 3
node 5 1 0 2
gene 1 1 5 0.650615 0 1 0.650615 1
gene 1 2 5 -3.34605 0 2 -3.34605 1
gene 1 3 5 8 0 3 8 1
gene 1 4 5 0.631569 0 4 0.631569 1
gene 1 5 5 -1.66066 1 61 -1.66066 1
genomeend 101

/* Organism #102 Fitness: 0.0094 Error: 0 */
genomestart 102
trait 1 0.404291 0.0264078 0 0 0.850441 0.0609447 0 0.306718 
node 1 1 1 1
node 2 1 1 1
node 3 1 1 1
node 4 1 1 3
node 5 1 0 2
gene 1 1 5 0.542077 0 1 0.542077 1
gene 1 2 5 -0.901867 0 2 -0.901867 1
gene 1 3 5 6.20434 0 3 6.20434 1
gene 1 4 5 0.397265 0 4 0.397265 1
gene 1 5 5 -1.68896 1 61 -1.68896 1
genomeend 102

/* Organism #103 Fitness: 0.0066 Error: 0 */
genomestart 103
trait 1 0.934463 0.0963312 0.990439 0 0.803528 0.137249 0 0.302495 
node 1 1 1 1
node 2 1 1 1
node 3 1 1 1
node 4 1 1 3
node 5 1 0 2
gene 1 1 5 3.73689 0 1 3.73689 1
gene 1 2 5 -0.69009 0 2 -0.69009 1
gene 1 3 5 7.59096 0 3 7.59096 1
gene 1 4 5 0.554496 0 4 0.554496 1
gene 1 5 5 -2.12645 1 61 -2.12645 1
genomeend 103

/* Organism #104 Fitness: 0.0067 Error: 0 */
genomestart 104
trait 1 0.517232 0.0481656 0.49522 0 0.401764 0.0686245 0.121099 0.151247 
node 1 1 1 1
node 2 1 1 1
node 3 1 1 1
node 4 1 1 3
node 5 1 0 2
gene 1 1 5 -1.5617 0 1 -1.5617 1
gene 1 2 5 -0.156162 0 2 -0.156162 1
gene 1 3 5 7.06307 0 3 7.06307 1
gene 1 4 5 0.408673 0 4 0.408673 1
gene 1 5 5 -2.14377 1 61 -2.14377 1
genomeend 104

/* Organism #105 Fitness: 0.0027 Error: 0 */
genomestart 105
trait 1 0.26128 0.0198059 0 0 0.425221 0.0178682 0 0.220585 
node 1 1 1 1
node 2 1 1 1
node 3 1 1 1
node 4 1 1 3
node 5 1 0 2
gene 1 1 5 -0.525653 0 1 -0.525653 1
gene 1 2 5 0.798281 0 2 0.798281 1
gene 1 3 5 5.4585 0 3 5.4585 1
gene 1 4 5 -2.61918 0 4 -2.61918 1
gene 1 5 5 -1.31847 1 61 -1.31847 1
genomeend 105

/* Organism #106 Fitness: 0.0021 Error: 0 */
genomestart 106
trait 1 0.1 0 0 0 0 0 0 0 
node 1 1 1 1
node 2 1 1 1
node 3 1 1 1
node 4 1 1 3
node 5 1 0 2
gene 1 1 5 1.79331 0 1 1.79331 1
gene 1 2 5 -0.813648 0 2 -0.813648 1
gene 1 3 5 5.28988 0 3 5.28988 1
gene 1 4 5 -1.64763 0 4 -1.64763 1
gene 1 5 5 -0.19809 1 222 -0.19809 1
genomeend 106

/* Species #14 : (Size 12) (AF 0.00934929) (Age 9)  */


/* Organism #107 Fitness: 0.0147916 Error: 0 */
genomestart 107
trait 1 0.1 0 0 0 0 0 0 0 
node 1 1 1 1
node 2 1 1 1
node 3 1 1 1
node 4 1 1 3
node 5 1 0 2
gene 1 1 5 2.49029 0 1 2.49029 1
gene 1 2 5 -2.32442 0 2 -2.32442 1
gene 1 3 5 6.26093 0 3 6.26093 1
gene 1 4 5 1.17686 0 4 1.17686 1
gene 1 5 5 -1.98885 1 72 -1.98885 1
genomeend 107

/* Organism #108 Fitness: 0.005 Error: 0 */
genomestart 108
trait 1 0.1 0 0 0 0 0 0 0 
node 1 1 1 1
node 2 1 1 1
node 3 1 1 1
node 4 1 1 3
node 5 1 0 2
gene 1 1 5 0.95925 0 1 0.95925 1
gene 1 2 5 -3.99288 0 2 -3.99288 1
gene 1 3 5 4.89548 0 3 4.89548 1
gene 1 4 5 2.18605 0 4 2.18605 1
gene 1 5 5 -1.28206 1 72 -1.28206 1
genomeend 108

/* Organism #109 Fitness: 0.0053 Error: 0 */
genomestart 109
trait 1 0.1 0 0 0 0 0 0 0 
node 1 1 1 1
node 2 1 1 1
node 3 1 1 1
node 4 1 1 3
node 5 1 0 2
gene 1 1 5 1.82668 0 1 1.82668 1
gene 1 2 5 -1.47775 0 2 -1.47775 1
gene 1 3 5 4.18577 0 3 4.18577 1
gene 1 4 5 1.11135 0 4 1.11135 1
gene 1 5 5 -2.21627 1 72 -2.21627 1
genomeend 109

/* Organism #110 Fitness: 0.013825 Error: 0 */
genomestart 110
trait 1 0.1 0 0 0 0 0 0 0 
node 1 1 1 1
node 2 1 1 1
node 3 1 1 1
node 4 1 1 3
node 5 1 0 2
gene 1 1 5 0.705769 0 1 0.705769 1
gene 1 2 5 -2.32442 0 2 -2.32442 1
gene 1 3 5 4.14334 0 3 4.14334 1
gene 1 4 5 1.49376 0 4 1.49376 1
gene 1 5 5 -1.76924 1 72 -1.76924 1
genomeend 110

/* Organism #111 Fitness: 0.013825 Error: 0 */
genomestart 111
trait 1 0.1 0 0 0 0 0 0 0 
node 1 1 1 1
node 2 1 1 1
node 3 1 1 1
node 4 1 1 3
node 5 1 0 2
gene 1 1 5 0.705769 0 1 0.705769 1
gene 1 2 5 -2.32442 0 2 -2.32442 1
gene 1 3 5 4.14334 0 3 4.14334 1
gene 1 4 5 1.49376 0 4 1.49376 1
gene 1 5 5 -1.76924 1 72 -1.76924 1
genomeend 111

/* Organism #112 Fitness: 0.0097 Error: 0 */
genomestart 112
trait 1 0.1 0 0 0 0 0 0 0 
node 1 1 1 1
node 2 1 1 1
node 3 1 1 1
node 4 1 1 3
node 5 1 0 2
gene 1 1 5 1.59803 0 1 1.59803 1
gene 1 2 5 -2.32442 0 2 -2.32442 1
gene 1 3 5 5.20214 0 3 5.20214 1
gene 1 4 5 1.33531 0 4 1.33531 1
gene 1 5 5 -1.87904 1 72 -1.87904 1
genomeend 112

/* Organism #113 Fitness: 0.013825 Error: 0 */
genomestart 113
trait 1 0.1 0 0 0 0 0 0 0 
node 1 1 1 1
node 2 1 1 1
node 3 1 1 1
node 4 1 1 3
node 5 1 0 2
gene 1 1 5 0.705769 0 1 0.705769 1
gene 1 2 5 -2.32442 0 2 -2.32442 1
gene 1 3 5 4.14334 0 3 4.14334 1
gene 1 4 5 1.49376 0 4 1.49376 1
gene 1 5 5 -1.76924 1 72 -1.76924 1
genomeend 113

/* Organism #114 Fitness: 0.0097 Error: 0 */
genomestart 114
trait 1 0.1 0 0 0 0 0 0 0 
node 1 1 1 1
node 2 1 1 1
node 3 1 1 1
node 4 1 1 3
node 5 1 0 2
gene 1 1 5 1.59803 0 1 1.59803 1
gene 1 2 5 -2.32442 0 2 -2.32442 1
gene 1 3 5 5.20214 0 3 5.20214 1
gene 1 4 5 1.33531 0 4 1.33531 1
gene 1 5 5 -1.87904 1 72 -1.87904 1
genomeend 114

/* Organism #115 Fitness: 0.013825 Error: 0 */
genomestart 115
trait 1 0.1 0 0 0 0 0 0 0 
node 1 1 1 1
node 2 1 1 1
node 3 1 1 1
node 4 1 1 3
node 5 1 0 2
gene 1 1 5 0.705769 0 1 0.705769 1
gene 1 2 5 -2.32442 0 2 -2.32442 1
gene 1 3 5 4.14334 0 3 4.14334 1
gene 1 4 5 1.49376 0 4 1.49376 1
gene 1 5 5 -1.76924 1 72 -1.76924 1
genomeend 115

/* Organism #116 Fitness: 0.0017 Error: 0 */
genomestart 116
trait 1 0.228664 0.388843 0 0 0.221549 0.0249465 0 0.0162574 
node 1 1 1 1
node 2 1 1 1
node 3 1 1 1
node 4 1 1 3
node 5 1 0 2
gene 1 1 5 2.3877 0 1 2.3877 1
gene 1 2 5 -2.41291 0 2 -2.41291 1
gene 1 3 5 6.19891 0 3 6.19891 1
gene 1 4 5 -0.372756 0 4 -0.372756 1
gene 1 5 5 -0.0736698 1 143 -0.0736698 1
genomeend 116

/* Organism #117 Fitness: 0.0052 Error: 0 */
genomestart 117
trait 1 0.1 0 0 0 0 0 0 0 
node 1 1 1 1
node 2 1 1 1
node 3 1 1 1
node 4 1 1 3
node 5 1 0 2
gene 1 1 5 3.82816 0 1 3.82816 1
gene 1 2 5 -2.3503 0 2 -2.3503 1
gene 1 3 5 6.4406 0 3 6.4406 1
gene 1 4 5 1.34773 0 4 1.34773 1
gene 1 5 5 -1.6185 1 235 -1.6185 1
genomeend 117

/* Organism #118 Fitness: 0.0055 Error: 0 */
genomestart 118
trait 1 0.1 0 0 0 0 0 0.416586 0 
node 1 1 1 1
node 2 1 1 1
node 3 1 1 1
node 4 1 1 3
node 5 1 0 2
gene 1 1 5 1.76843 0 1 1.76843 1
gene 1 2 5 -3.44049 0 2 -3.44049 1
gene 1 3 5 6.08106 0 3 6.08106 1
gene 1 4 5 0.798095 0 4 0.798095 1
gene 1 5 5 -2.07343 1 102 -2.07343 1
genomeend 118

/* Species #15 : (Size 9) (AF 0.00508889) (Age 9)  */


/* Organism #119 Fitness: 0.0047 Error: 0 */
genomestart 119
trait 1 0.934463 0 0 0 0.803528 0.137249 0 0.302495 
node 1 1 1 1
node 2 1 1 1
node 3 1 1 1
node 4 1 1 3
node 5 1 0 2
node 29 1 0 0
gene 1 1 5 1.45055 0 1 1.45055 1
gene 1 2 5 0.763964 0 2 0.763964 1
gene 1 3 5 6.46215 0 3 6.46215 1
gene 1 4 5 3.07875 0 4 3.07875 1
gene 1 5 5 -3.07377 1 61 -3.07377 0
gene 1 5 29 1 1 291 0 1
gene 1 29 5 -3.07377 0 292 0 1
genomeend 119

/* Organism #120 Fitness: 0.0063 Error: 0 */
genomestart 120
trait 1 0.934463 0 0 0 0.803528 0.137249 0 0.302495 
node 1 1 1 1
node 2 1 1 1
node 3 1 1 1
node 4 1 1 3
node 5 1 0 2
node 29 1 0 0
gene 1 1 5 2.6918 0 1 2.6918 1
gene 1 2 5 1.01298 0 2 1.01298 1
gene 1 3 5 7.07382 0 3 7.07382 1
gene 1 4 5 2.38417 0 4 2.38417 1
gene 1 5 5 -3.79359 1 61 -3.79359 0
gene 1 5 29 1 1 291 0 1
gene 1 29 5 -3.07377 0 292 0 1
genomeend 120

/* Organism #121 Fitness: 0.0052 Error: 0 */
genomestart 121
trait 1 0.934463 0.0240828 0.24761 0 0.803528 0.137249 0 0.302495 
node 1 1 1 1
node 2 1 1 1
node 3 1 1 1
node 4 1 1 3
node 5 1 0 2
gene 1 1 5 2.71491 0 1 2.71491 1
gene 1 2 5 0.718276 0 2 0.718276 1
gene 1 3 5 6.5115 0 3 6.5115 1
gene 1 4 5 1.605 0 4 1.605 1
gene 1 5 5 -3.3507 1 61 -3.3507 1
genomeend 121

/* Organism #122 Fitness: 0.0055 Error: 0 */
genomestart 122
trait 1 0.934463 0 0 0 0.803528 0.137249 0 0.302495 
node 1 1 1 1
node 2 1 1 1
node 3 1 1 1
node 4 1 1 3
node 5 1 0 2
node 29 1 0 0
gene 1 1 5 1.45055 0 1 1.45055 1
gene 1 2 5 0.285513 0 2 0.285513 1
gene 1 3 5 6.46215 0 3 6.46215 1
gene 1 4 5 3.07875 0 4 3.07875 1
gene 1 5 5 -3.07377 1 61 -3.07377 0
gene 1 5 29 1 1 291 0 1
gene 1 29 5 -3.07377 0 292 0 1
genomeend 122

/* Organism #123 Fitness: 0.005 Error: 0 */
genomestart 123
trait 1 0.934463 0 0 0 0.803528 0.137249 0 0.302495 
node 1 1 1 1
node 2 1 1 1
node 3 1 1 1
node 4 1 1 3
node 5 1 0 2
node 29 1 0 0
gene 1 1 5 4.16339 0 1 4.16339 1
gene 1 2 5 0.285513 0 2 0.285513 1
gene 1 3 5 6.46215 0 3 6.46215 1
gene 1 4 5 3.29843 0 4 3.29843 1
gene 1 5 5 -3.07377 1 61 -3.07377 0
gene 1 5 29 1 1 291 0 1
gene 1 29 5 -3.07377 0 292 0 1
gene 1 2 29 0.148341 0 496 0.148341 1
genomeend 123

/* Organism #124 Fitness: 0.0048 Error: 0 */
genomestart 124
trait 1 0.934463 0 0 0 0.803528 0.137249 0 0.302495 
node 1 1 1 1
node 2 1 1 1
node 3 1 1 1
node 4 1 1 3
node 5 1 0 2
node 29 1 0 0
gene 1 1 5 2.80697 0 1 2.80697 1
gene 1 2 5 0.293729 0 2 0.293729 1
gene 1 3 5 7.23108 0 3 7.23108 1
gene 1 4 5 3.18859 0 4 3.18859 1
gene 1 5 5 -4.24139 1 61 -4.24139 0
gene 1 5 29 1 1 291 0 1
gene 1 29 5 -3.07377 0 292 0 1
genomeend 124

/* Organism #125 Fitness: 0.0051 Error: 0 */
genomestart 125
trait 1 0.934463 0 0 0 0.803528 0.137249 0 0.302495 
node 1 1 1 1
node 2 1 1 1
node 3 1 1 1
node 4 1 1 3
node 5 1 0 2
node 29 1 0 0
gene 1 1 5 1.45055 0 1 1.45055 1
gene 1 2 5 0.524739 0 2 0.524739 1
gene 1 3 5 6.35091 0 3 6.35091 1
gene 1 4 5 3.07875 0 4 3.07875 1
gene 1 5 5 -3.07377 1 61 -3.07377 0
gene 1 5 29 1 1 291 0 1
gene 1 29 5 -3.07377 0 292 0 1
gene 1 1 29 0.0709411 0 396 0.0709411 1
genomeend 125

/* Organism #126 Fitness: 0.0041 Error: 0 */
genomestart 126
trait 1 0.934463 0 0 0 0.803528 0.137249 0 0.302495 
node 1 1 1 1
node 2 1 1 1
node 3 1 1 1
node 4 1 1 3
node 5 1 0 2
node 29 1 0 0
gene 1 1 5 1.45055 0 1 1.45055 1
gene 1 2 5 -0.429451 0 2 -0.429451 1
gene 1 3 5 8 0 3 8 1
gene 1 4 5 3.7127 0 4 3.7127 1
gene 1 5 5 -3.07377 1 61 -3.07377 0
gene 1 5 29 1 1 291 0 1
gene 1 29 5 -3.07377 0 292 0 1
gene 1 3 29 -0.00673499 0 395 -0.00673499 1
gene 1 4 29 0.388749 0 445 0.388749 1
genomeend 126

/* Organism #127 Fitness: 0.0051 Error: 0 */
genomestart 127
trait 1 0.934463 0 0 0 0.803528 0.137249 0 0.302495 
node 1 1 1 1
node 2 1 1 1
node 3 1 1 1
node 4 1 1 3
node 5 1 0 2
node 29 1 0 0
gene 1 1 5 1.45055 0 1 1.45055 1
gene 1 2 5 0.524739 0 2 0.524739 1
gene 1 3 5 6.35091 0 3 6.35091 1
gene 1 4 5 3.07875 0 4 3.07875 1
gene 1 5 5 -3.07377 1 61 -3.07377 0
gene 1 5 29 1 1 291 0 1
gene 1 29 5 -3.07377 0 292 0 1
gene 1 1 29 0.0709411 0 396 0.0709411 1
genomeend 127

/* Species #16 : (Size 6) (AF 0.00455) (Age 9)  */


/* Organism #128 Fitness: 0.006 Error: 0 */
genomestart 128
trait 1 0.622078 0 0 0 0.529193 0.0943587 0 0.193786 
node 1 1 1 1
node 2 1 1 1
node 3 1 1 1
node 4 1 1 3
node 5 1 0 2
gene 1 1 5 0.0169224 0 1 0.0169224 1
gene 1 2 5 -0.863726 0 2 -0.863726 1
gene 1 3 5 2.75556 0 3 2.75556 1
gene 1 4 5 0.406592 0 4 0.406592 1
gene 1 5 5 -0.694415 1 100 -0.694415 1
genomeend 128

/* Organism #129 Fitness: 0.0048 Error: 0 */
genomestart 129
trait 1 0.127154 0 0.0289792 0 0.0502205 0.00857806 0.0132294 0.0189059 
node 1 1 1 1
node 2 1 1 1
node 3 1 1 1
node 4 1 1 3
node 5 1 0 2
gene 1 1 5 0.483417 0 1 0.483417 1
gene 1 2 5 -1.64408 0 2 -1.64408 1
gene 1 3 5 5.60996 0 3 5.60996 1
gene 1 4 5 1.54685 0 4 1.54685 1
gene 1 5 5 -1.81201 1 100 -1.81201 1
genomeend 129

/* Organism #130 Fitness: 0.0048 Error: 0 */
genomestart 130
trait 1 0.33577 0 0.0289792 0 0.251103 0.0428903 0.0132294 0.0945297 
node 1 1 1 1
node 2 1 1 1
node 3 1 1 1
node 4 1 1 3
node 5 1 0 2
gene 1 1 5 0.483417 0 1 0.483417 1
gene 1 2 5 -1.64408 0 2 -1.64408 1
gene 1 3 5 5.60996 0 3 5.60996 1
gene 1 4 5 1.54685 0 4 1.54685 1
gene 1 5 5 -1.81201 1 100 -1.81201 1
genomeend 130

/* Organism #131 Fitness: 0.0015 Error: 0 */
genomestart 131
trait 1 0.1 0 0 0 0 0 0 0 
node 1 1 1 1
node 2 1 1 1
node 3 1 1 1
node 4 1 1 3
node 5 1 0 2
gene 1 1 5 0.737539 0 1 0.737539 1
gene 1 2 5 -1.5465 0 2 -1.5465 1
gene 1 3 5 4.18588 0 3 4.18588 1
gene 1 4 5 0.43836 0 4 0.43836 1
gene 1 5 5 0.88519 1 100 0.88519 1
genomeend 131

/* Organism #132 Fitness: 0.0042 Error: 0 */
genomestart 132
trait 1 0.336039 0 0 0 0.264597 0.0471793 0 0.0968929 
node 1 1 1 1
node 2 1 1 1
node 3 1 1 1
node 4 1 1 3
node 5 1 0 2
gene 1 1 5 0.0169224 0 1 0.0169224 1
gene 1 2 5 -0.863726 0 2 -0.863726 1
gene 1 3 5 2.75556 0 3 2.75556 1
gene 1 4 5 0.781968 0 4 0.781968 1
gene 1 5 5 -0.694415 1 100 -0.694415 1
genomeend 132

/* Organism #133 Fitness: 0.006 Error: 0 */
genomestart 133
trait 1 0.622078 0 0 0 0.529193 0.0943587 0 0.193786 
node 1 1 1 1
node 2 1 1 1
node 3 1 1 1
node 4 1 1 3
node 5 1 0 2
gene 1 1 5 0.0169224 0 1 0.0169224 1
gene 1 2 5 -0.863726 0 2 -0.863726 1
gene 1 3 5 2.75556 0 3 2.75556 1
gene 1 4 5 0.406592 0 4 0.406592 1
gene 1 5 5 -0.694415 1 100 -0.694415 1
genomeend 133

/* Species #17 : (Size 11) (AF 0.00451818) (Age 9)  */


/* Organism #134 Fitness: 0.0075 Error: 0 */
genomestart 134
trait 1 0.1 0 0 0 0 0 0 0 
node 1 1 1 1
node 2 1 1 1
node 3 1 1 1
node 4 1 1 3
node 5 1 0 2
gene 1 1 5 0.729915 0 1 0.729915 1
gene 1 2 5 -3.50805 0 2 -3.50805 1
gene 1 3 5 6.1904 0 3 6.1904 1
gene 1 4 5 2.28225 0 4 2.28225 1
gene 1 5 5 -2.45132 1 123 -2.45132 1
genomeend 134

/* Organism #135 Fitness: 0.0055 Error: 0 */
genomestart 135
trait 1 0.1 0 0 0 0 0 0 0 
node 1 1 1 1
node 2 1 1 1
node 3 1 1 1
node 4 1 1 3
node 5 1 0 2
gene 1 1 5 1.39874 0 1 1.39874 1
gene 1 2 5 -3.85918 0 2 -3.85918 1
gene 1 3 5 5.53602 0 3 5.53602 1
gene 1 4 5 2.25376 0 4 2.25376 1
gene 1 5 5 -1.68431 1 123 -1.68431 1
genomeend 135

/* Organism #136 Fitness: 0.0035 Error: 0 */
genomestart 136
trait 1 0.1 0 0 0 0 0 0 0 
node 1 1 1 1
node 2 1 1 1
node 3 1 1 1
node 4 1 1 3
node 5 1 0 2
gene 1 1 5 -1.06009 0 1 -1.06009 1
gene 1 2 5 -2.94062 0 2 -2.94062 1
gene 1 3 5 7.65694 0 3 7.65694 1
gene 1 4 5 3.75466 0 4 3.75466 1
gene 1 5 5 -2.44859 1 123 -2.44859 1
genomeend 136

/* Organism #137 Fitness: 0.003 Error: 0 */
genomestart 137
trait 1 0.1 0 0 0 0 0 0 0 
node 1 1 1 1
node 2 1 1 1
node 3 1 1 1
node 4 1 1 3
node 5 1 0 2
gene 1 1 5 1.77456 0 1 1.77456 1
gene 1 2 5 -2.02169 0 2 -2.02169 1
gene 1 3 5 6.93351 0 3 6.93351 1
gene 1 4 5 4.07068 0 4 4.07068 1
gene 1 5 5 -1.77795 1 123 -1.77795 1
genomeend 137

/* Organism #138 Fitness: 0.0075 Error: 0 */
genomestart 138
trait 1 0.1 0 0 0 0 0 0 0 
node 1 1 1 1
node 2 1 1 1
node 3 1 1 1
node 4 1 1 3
node 5 1 0 2
gene 1 1 5 0.729915 0 1 0.729915 1
gene 1 2 5 -3.50805 0 2 -3.50805 1
gene 1 3 5 6.1904 0 3 6.1904 1
gene 1 4 5 2.28225 0 4 2.28225 1
gene 1 5 5 -2.45132 1 123 -2.45132 1
genomeend 138

/* Organism #139 Fitness: 0.0055 Error: 0 */
genomestart 139
trait 1 0.1 0 0 0 0 0 0 0 
node 1 1 1 1
node 2 1 1 1
node 3 1 1 1
node 4 1 1 3
node 5 1 0 2
gene 1 1 5 1.39874 0 1 1.39874 1
gene 1 2 5 -3.85918 0 2 -3.85918 1
gene 1 3 5 5.53602 0 3 5.53602 1
gene 1 4 5 2.25376 0 4 2.25376 1
gene 1 5 5 -1.68431 1 123 -1.68431 1
genomeend 139

/* Organism #140 Fitness: 0.0058 Error: 0 */
genomestart 140
trait 1 0.1 0 0 0 0 0 0 0 
node 1 1 1 1
node 2 1 1 1
node 3 1 1 1
node 4 1 1 3
node 5 1 0 2
gene 1 1 5 -0.865738 0 1 -0.865738 1
gene 1 2 5 -2.59692 0 2 -2.59692 1
gene 1 3 5 7.49045 0 3 7.49045 1
gene 1 4 5 2.96187 0 4 2.96187 1
gene 1 5 5 -3.91569 1 123 -3.91569 1
genomeend 140

/* Organism #141 Fitness: 0.0033 Error: 0 */
genomestart 141
trait 1 0.1 0 0 0 0 0 0 0 
node 1 1 1 1
node 2 1 1 1
node 3 1 1 1
node 4 1 1 3
node 5 1 0 2
gene 1 1 5 1.95553 0 1 1.95553 1
gene 1 2 5 -3.15419 0 2 -3.15419 1
gene 1 3 5 7.97023 0 3 7.97023 1
gene 1 4 5 3.61878 0 4 3.61878 1
gene 1 5 5 -1.59605 1 123 -1.59605 1
genomeend 141

/* Organism #142 Fitness: 0.0035 Error: 0 */
genomestart 142
trait 1 0.142606 0.0491893 0.0610981 0 0.0743362 0.0150116 0.0200737 0.0141795 
node 1 1 1 1
node 2 1 1 1
node 3 1 1 1
node 4 1 1 3
node 5 1 0 2
gene 1 1 5 0.631343 0 1 0.631343 1
gene 1 2 5 -2.419 0 2 -2.419 1
gene 1 3 5 5.83314 0 3 5.83314 1
gene 1 4 5 1.81133 0 4 1.81133 1
gene 1 5 5 -0.589492 1 143 -0.589492 1
genomeend 142

/* Organism #143 Fitness: 0.0035 Error: 0 */
genomestart 143
trait 1 0.1 0 0 0 0 0 0 0 
node 1 1 1 1
node 2 1 1 1
node 3 1 1 1
node 4 1 1 3
node 5 1 0 2
gene 1 1 5 0.891333 0 1 0.891333 1
gene 1 2 5 -3.5078 0 2 -3.5078 1
gene 1 3 5 5.91895 0 3 5.91895 1
gene 1 4 5 0.900313 0 4 0.900313 1
gene 1 5 5 -0.229449 1 123 -0.229449 1
genomeend 143

/* Organism #144 Fitness: 0.0011 Error: 0 */
genomestart 144
trait 1 0.1 0 0 0 0 0 0 0 
node 1 1 1 1
node 2 1 1 1
node 3 1 1 1
node 4 1 1 3
node 5 1 0 2
gene 1 1 5 0.573964 0 1 0.573964 1
gene 1 2 5 -3.8317 0 2 -3.8317 1
gene 1 3 5 6.11635 0 3 6.11635 1
gene 1 4 5 -0.259999 0 4 -0.259999 1
gene 1 5 5 1.05316 1 123 1.05316 1
genomeend 144

/* Species #18 : (Size 2) (AF 0.00065) (Age 9)  */


/* Organism #145 Fitness: 0.0005 Error: 0 */
genomestart 145
trait 1 0.1 0 0 0 0 0 0 0 
node 1 1 1 1
node 2 1 1 1
node 3 1 1 1
node 4 1 1 3
node 5 1 0 2
node 7 1 0 0
gene 1 1 5 6.10521 0 1 6.10521 1
gene 1 2 5 -0.908288 0 2 -0.908288 1
gene 1 3 5 -2.48998 0 3 -2.48998 1
gene 1 4 5 0.22998 0 4 0.22998 1
gene 1 3 7 1.24229 0 18 1.24229 1
gene 1 7 5 -2.59353 0 19 -2.59353 1
gene 1 4 7 1.22499 0 144 1.22499 1
gene 1 5 5 0.405563 1 433 0.405563 1
genomeend 145

/* Organism #146 Fitness: 0.0008 Error: 0 */
genomestart 146
trait 1 0.1 0 0 0 0 0 0 0 
node 1 1 1 1
node 2 1 1 1
node 3 1 1 1
node 4 1 1 3
node 5 1 0 2
node 7 1 0 0
gene 1 1 5 4.33196 0 1 4.33196 1
gene 1 2 5 -0.516079 0 2 -0.516079 1
gene 1 3 5 -1.94672 0 3 -1.94672 0
gene 1 4 5 0.994508 0 4 0.994508 1
gene 1 3 7 1.15895 0 18 1.15895 1
gene 1 7 5 -0.912627 0 19 -0.912627 1
gene 1 4 7 0.944877 0 144 0 1
gene 1 5 5 0.363314 1 433 0.363314 1
gene 1 7 7 0.862063 1 485 0.862063 1
genomeend 146

/* Species #20 : (Size 10) (AF 0.0065876) (Age 9)  */


/* Organism #147 Fitness: 0.0036 Error: 0 */
genomestart 147
trait 1 0.1 0 0 0 0 0 0 0 
node 1 1 1 1
node 2 1 1 1
node 3 1 1 1
node 4 1 1 3
node 5 1 0 2
gene 1 1 5 1.50617 0 1 1.50617 1
gene 1 2 5 -1.29291 0 2 -1.29291 1
gene 1 3 5 3.47733 0 3 3.47733 1
gene 1 4 5 0.348587 0 4 0.348587 1
gene 1 5 5 -0.302385 1 72 -0.302385 1
genomeend 147

/* Organism #148 Fitness: 0.017638 Error: 0 */
genomestart 148
trait 1 0.1 0 0 0 0 0 0 0 
node 1 1 1 1
node 2 1 1 1
node 3 1 1 1
node 4 1 1 3
node 5 1 0 2
gene 1 1 5 1.786 0 1 1.786 1
gene 1 2 5 -1.58357 0 2 -1.58357 1
gene 1 3 5 4.63211 0 3 4.63211 1
gene 1 4 5 1.08815 0 4 1.08815 1
gene 1 5 5 -1.78489 1 196 -1.78489 1
genomeend 148

/* Organism #149 Fitness: 0.017638 Error: 0 */
genomestart 149
trait 1 0.1 0 0 0 0 0 0 0 
node 1 1 1 1
node 2 1 1 1
node 3 1 1 1
node 4 1 1 3
node 5 1 0 2
gene 1 1 5 1.786 0 1 1.786 1
gene 1 2 5 -1.58357 0 2 -1.58357 1
gene 1 3 5 4.63211 0 3 4.63211 1
gene 1 4 5 1.08815 0 4 1.08815 1
gene 1 5 5 -1.78489 1 196 -1.78489 1
genomeend 149

/* Organism #150 Fitness: 0.0069 Error: 0 */
genomestart 150
trait 1 0.05 0 0 0 0 0 0 0.169924 
node 1 1 1 1
node 2 1 1 1
node 3 1 1 1
node 4 1 1 3
node 5 1 0 2
gene 1 1 5 0.347891 0 1 0.347891 1
gene 1 2 5 -1.90811 0 2 -1.90811 1
gene 1 3 5 4.73601 0 3 4.73601 1
gene 1 4 5 0.209736 0 4 0.209736 1
gene 1 5 5 -1.08514 1 196 -1.08514 1
genomeend 150

/* Organism #151 Fitness: 0.0007 Error: 0 */
genomestart 151
trait 1 0.105489 0 0 0 0 0 0 0 
node 1 1 1 1
node 2 1 1 1
node 3 1 1 1
node 4 1 1 3
node 5 1 0 2
gene 1 1 5 1.33113 0 1 1.33113 1
gene 1 2 5 -3.26911 0 2 -3.26911 1
gene 1 3 5 5.43433 0 3 5.43433 1
gene 1 4 5 0.507273 0 4 0.507273 1
gene 1 5 5 -3.23001 1 196 -3.23001 1
genomeend 151

/* Organism #152 Fitness: 0.0061 Error: 0 */
genomestart 152
trait 1 0.0554886 0 0 0 0 0 0 0.169924 
node 1 1 1 1
node 2 1 1 1
node 3 1 1 1
node 4 1 1 3
node 5 1 0 2
gene 1 1 5 0.373367 0 1 0.373367 1
gene 1 2 5 -2.18235 0 2 -2.18235 1
gene 1 3 5 6.91677 0 3 6.91677 1
gene 1 4 5 0.354343 0 4 0.354343 1
gene 1 5 5 -1.73812 1 196 -1.73812 1
genomeend 152

/* Organism #153 Fitness: 0.0038 Error: 0 */
genomestart 153
trait 1 0.105489 0 0 0 0 0 0 0 
node 1 1 1 1
node 2 1 1 1
node 3 1 1 1
node 4 1 1 3
node 5 1 0 2
gene 1 1 5 0.614202 0 1 0.614202 1
gene 1 2 5 -1.58948 0 2 -1.58948 1
gene 1 3 5 7.41034 0 3 7.41034 1
gene 1 4 5 0.0902776 0 4 0.0902776 1
gene 1 5 5 -3.41855 1 196 -3.41855 1
genomeend 153

/* Organism #154 Fitness: 0.0032 Error: 0 */
genomestart 154
trait 1 0.1 0 0 0 0 0 0 0 
node 1 1 1 1
node 2 1 1 1
node 3 1 1 1
node 4 1 1 3
node 5 1 0 2
gene 1 1 5 1.50617 0 1 1.50617 1
gene 1 2 5 -1.58357 0 2 -1.58357 1
gene 1 3 5 3.47733 0 3 3.47733 1
gene 1 4 5 0.348587 0 4 0.348587 1
gene 1 5 5 -1.78489 1 196 -1.78489 1
genomeend 154

/* Organism #155 Fitness: 0.0059 Error: 0 */
genomestart 155
trait 1 0.258789 0 0 0 0.350441 0.0485579 0 0.0378119 
node 1 1 1 1
node 2 1 1 1
node 3 1 1 1
node 4 1 1 3
node 5 1 0 2
gene 1 1 5 0.885885 0 1 0.885885 1
gene 1 2 5 -2.52331 0 2 -2.52331 1
gene 1 3 5 7.06662 0 3 7.06662 1
gene 1 4 5 0.397265 0 4 0.397265 1
gene 1 5 5 -1.08514 1 196 -1.08514 1
genomeend 155

/* Organism #156 Fitness: 0.0004 Error: 0 */
genomestart 156
trait 1 0.1 0 0 0 0 0 0 0 
node 1 1 1 1
node 2 1 1 1
node 3 1 1 1
node 4 1 1 3
node 5 1 0 2
gene 1 1 5 1.97176 0 1 1.97176 1
gene 1 2 5 -1.98781 0 2 -1.98781 1
gene 1 3 5 3.69214 0 3 3.69214 1
gene 1 4 5 -2.31767 0 4 -2.31767 1
gene 1 5 5 -3.11057 1 196 -3.11057 1
genomeend 156

/* Species #22 : (Size 2) (AF 0.00085) (Age 8)  */


/* Organism #157 Fitness: 0.0013 Error: 0 */
genomestart 157
trait 1 0 0.43293 0 0.70385 0 0.238933 0.793826 0 
node 1 1 1 1
node 2 1 1 1
node 3 1 1 1
node 4 1 1 3
node 5 1 0 2
gene 1 1 5 -2.00782 0 1 -2.00782 1
gene 1 2 5 1.84228 0 2 1.84228 1
gene 1 3 5 -1.06275 0 3 -1.06275 1
gene 1 4 5 0.438556 0 4 0.438556 1
gene 1 5 5 -1.78736 1 83 -1.78736 1
genomeend 157

/* Organism #158 Fitness: 0.0004 Error: 0 */
genomestart 158
trait 1 0 0.43293 0 0.70385 0 0.238933 0.793826 0 
node 1 1 1 1
node 2 1 1 1
node 3 1 1 1
node 4 1 1 3
node 5 1 0 2
gene 1 1 5 -3.14294 0 1 -3.14294 1
gene 1 2 5 3.60072 0 2 3.60072 1
gene 1 3 5 -2.35124 0 3 -2.35124 1
gene 1 4 5 0.438556 0 4 0.438556 1
gene 1 5 5 -0.317178 1 83 -0.317178 1
genomeend 158

/* Species #23 : (Size 3) (AF 0.00226667) (Age 8)  */


/* Organism #159 Fitness: 0.0025 Error: 0 */
genomestart 159
trait 1 0.1 0 0 0 0 0 0 0 
node 1 1 1 1
node 2 1 1 1
node 3 1 1 1
node 4 1 1 3
node 5 1 0 2
gene 1 1 5 1.75463 0 1 1.75463 1
gene 1 2 5 2.65868 0 2 2.65868 1
gene 1 3 5 3.74525 0 3 3.74525 1
gene 1 4 5 -1.80731 0 4 -1.80731 1
gene 1 5 5 0.778482 1 204 0.778482 1
genomeend 159

/* Organism #160 Fitness: 0.0018 Error: 0 */
genomestart 160
trait 1 0.1 0 0 0 0 0 0 0 
node 1 1 1 1
node 2 1 1 1
node 3 1 1 1
node 4 1 1 3
node 5 1 0 2
gene 1 1 5 2.89967 0 1 2.89967 1
gene 1 2 5 3.57086 0 2 3.57086 1
gene 1 3 5 4.65758 0 3 4.65758 1
gene 1 4 5 -1.7437 0 4 -1.7437 1
gene 1 5 5 0.778482 1 204 0.778482 1
genomeend 160

/* Organism #161 Fitness: 0.0025 Error: 0 */
genomestart 161
trait 1 0.1 0 0 0 0 0 0 0 
node 1 1 1 1
node 2 1 1 1
node 3 1 1 1
node 4 1 1 3
node 5 1 0 2
gene 1 1 5 1.75463 0 1 1.75463 1
gene 1 2 5 2.65868 0 2 2.65868 1
gene 1 3 5 3.74525 0 3 3.74525 1
gene 1 4 5 -1.80731 0 4 -1.80731 1
gene 1 5 5 0.778482 1 204 0.778482 1
genomeend 161

/* Species #24 : (Size 3) (AF 0.0017) (Age 8)  */


/* Organism #162 Fitness: 0.0008 Error: 0 */
genomestart 162
trait 1 0.1 0 0 0.12453 0 0 0 0.0969007 
node 1 1 1 1
node 2 1 1 1
node 3 1 1 1
node 4 1 1 3
node 5 1 0 2
node 6 1 0 0
gene 1 1 5 1.07317 0 1 1.07317 0
gene 1 2 5 -1.07948 0 2 -1.07948 1
gene 1 3 5 2.97243 0 3 2.97243 1
gene 1 4 5 -2.72421 0 4 -2.72421 1
gene 1 1 6 2.26756 0 10 2.26756 1
gene 1 6 5 4.5095 0 11 4.5095 1
genomeend 162

/* Organism #163 Fitness: 0.0033 Error: 0 */
genomestart 163
trait 1 0.1 0 0.0521709 0.12453 0.14647 0 0.129682 0.421678 
node 1 1 1 1
node 2 1 1 1
node 3 1 1 1
node 4 1 1 3
node 5 1 0 2
node 6 1 0 0
gene 1 1 5 2.31043 0 1 2.31043 1
gene 1 2 5 -1.94338 0 2 -1.94338 1
gene 1 3 5 1.94705 0 3 1.94705 1
gene 1 4 5 -3.31499 0 4 -3.31499 1
gene 1 1 6 2.36948 0 10 2.36948 1
gene 1 6 5 3.57113 0 11 3.57113 1
genomeend 163

/* Organism #164 Fitness: 0.001 Error: 0 */
genomestart 164
trait 1 0.1 0 0.0521709 0.0622652 0.14647 0 0.129682 0.373227 
node 1 1 1 1
node 2 1 1 1
node 3 1 1 1
node 4 1 1 3
node 5 1 0 2
node 6 1 0 0
gene 1 1 5 1.75602 0 1 1.75602 0
gene 1 2 5 -1.73511 0 2 -1.73511 1
gene 1 3 5 2.10239 0 3 2.10239 1
gene 1 4 5 -2.45803 0 4 -2.45803 1
gene 1 1 6 2.70288 0 10 2.70288 1
gene 1 6 5 3.75963 0 11 3.75963 1
genomeend 164

/* Species #25 : (Size 1) (AF 0.0005) (Age 8)  */


/* Organism #165 Fitness: 0.0005 Error: 0 */
genomestart 165
trait 1 0.1 0 0 0 0 0 0 0 
node 1 1 1 1
node 2 1 1 1
node 3 1 1 1
node 4 1 1 3
node 5 1 0 2
node 6 1 0 0
gene 1 1 5 0.402785 0 1 0.402785 0
gene 1 2 5 1.1313 0 2 1.1313 1
gene 1 3 5 -2.76877 0 3 -2.76877 1
gene 1 4 5 -1.99339 0 4 -1.99339 1
gene 1 1 6 -1.5032 0 10 -1.5032 1
gene 1 6 5 2.01849 0 11 2.01849 1
genomeend 165

/* Species #26 : (Size 1) (AF 0.0004) (Age 8)  */


/* Organism #166 Fitness: 0.0004 Error: 0 */
genomestart 166
trait 1 0.1 0 0 0 0.0110478 0 0 0.0825138 
node 1 1 1 1
node 2 1 1 1
node 3 1 1 1
node 4 1 1 3
node 5 1 0 2
node 10 1 0 0
node 12 1 0 0
gene 1 1 5 -5.0444 0 1 -5.0444 1
gene 1 2 5 -1.25906 0 2 -1.25906 1
gene 1 3 5 -1.05356 0 3 -1.05356 1
gene 1 4 5 1.17259 0 4 1.17259 1
gene 1 1 10 -1.31667 0 84 -1.31667 1
gene 1 10 5 3.30399 0 85 3.30399 1
gene 1 2 12 3.37477 0 139 3.37477 1
gene 1 12 5 -2.15953 0 140 -2.15953 1
gene 1 10 12 0.466443 0 255 0.466443 1
gene 1 3 10 1.17123 0 307 1.17123 1
gene 1 5 5 0.789871 1 486 0.789871 1
genomeend 166

/* Species #27 : (Size 3) (AF 0.0005) (Age 8)  */


/* Organism #167 Fitness: 0.0005 Error: 0 */
genomestart 167
trait 1 0.1 0 0 0 0 0 0 0 
node 1 1 1 1
node 2 1 1 1
node 3 1 1 1
node 4 1 1 3
node 5 1 0 2
gene 1 1 5 -0.491796 0 1 -0.491796 1
gene 1 2 5 3.4469 0 2 3.4469 1
gene 1 3 5 -1.15074 0 3 -1.15074 1
gene 1 4 5 -1.50281 0 4 -1.50281 1
gene 1 5 5 -0.494998 1 88 -0.494998 1
genomeend 167

/* Organism #168 Fitness: 0.0005 Error: 0 */
genomestart 168
trait 1 0.1 0.997338 0 0.122203 0 0.505585 0.0340858 0 
node 1 1 1 1
node 2 1 1 1
node 3 1 1 1
node 4 1 1 3
node 5 1 0 2
gene 1 1 5 2.53496 0 1 2.53496 1
gene 1 2 5 1.56747 0 2 1.56747 1
gene 1 3 5 -2.20359 0 3 -2.20359 1
gene 1 4 5 0.608232 0 4 0.608232 1
gene 1 5 5 -0.740097 1 88 -0.740097 1
genomeend 168

/* Organism #169 Fitness: 0.0005 Error: 0 */
genomestart 169
trait 1 0.1 0 0 0 0 0 0 0 
node 1 1 1 1
node 2 1 1 1
node 3 1 1 1
node 4 1 1 3
node 5 1 0 2
gene 1 1 5 2.1318 0 1 2.1318 1
gene 1 2 5 3.38788 0 2 3.38788 1
gene 1 3 5 -2.57634 0 3 -2.57634 1
gene 1 4 5 -0.833016 0 4 -0.833016 1
gene 1 5 5 0.566009 1 88 0.566009 1
genomeend 169

/* Species #29 : (Size 1) (AF 0.0006) (Age 8)  */


/* Organism #170 Fitness: 0.0006 Error: 0 */
genomestart 170
trait 1 0.1 0 0 0 0 0 0 0 
node 1 1 1 1
node 2 1 1 1
node 3 1 1 1
node 4 1 1 3
node 5 1 0 2
node 35 1 0 0
gene 1 1 5 2.99684 0 1 2.99684 0
gene 1 2 5 -5.89316 0 2 -5.89316 1
gene 1 3 5 -3.50654 0 3 -3.50654 1
gene 1 4 5 1.14316 0 4 1.14316 1
gene 1 1 35 0.061472 0 339 0.061472 1
gene 1 35 5 5.84155 0 340 5.84155 1
gene 1 3 35 0.570024 0 487 0.570024 1
genomeend 170

/* Species #30 : (Size 20) (AF 0.00816236) (Age 8)  */


/* Organism #171 Fitness: 0.0222729 Error: 0 */
genomestart 171
trait 1 0.114249 0 0 0.0510688 0 0 0 0.201539 
node 1 1 1 1
node 2 1 1 1
node 3 1 1 1
node 4 1 1 3
node 5 1 0 2
gene 1 1 5 4.5551 0 1 4.5551 1
gene 1 2 5 -4.4927 0 2 -4.4927 1
gene 1 3 5 3.964 0 3 3.964 1
gene 1 4 5 1.44089 0 4 1.44089 1
gene 1 5 5 -1.70558 1 165 -1.70558 1
genomeend 171

/* Organism #172 Fitness: 0.0046 Error: 0 */
genomestart 172
trait 1 0 0 0 0.79701 0 0 0.477243 1 
node 1 1 1 1
node 2 1 1 1
node 3 1 1 1
node 4 1 1 3
node 5 1 0 2
gene 1 1 5 5.54111 0 1 5.54111 1
gene 1 2 5 -4.46332 0 2 -4.46332 1
gene 1 3 5 4.442 0 3 4.442 1
gene 1 4 5 2.00044 0 4 2.00044 1
gene 1 5 5 -0.712782 1 165 -0.712782 1
genomeend 172

/* Organism #173 Fitness: 0.0162682 Error: 0 */
genomestart 173
trait 1 0.114249 0 0 0.0510688 0 0 0 0.201539 
node 1 1 1 1
node 2 1 1 1
node 3 1 1 1
node 4 1 1 3
node 5 1 0 2
gene 1 1 5 4.56875 0 1 4.56875 1
gene 1 2 5 -4.01925 0 2 -4.01925 1
gene 1 3 5 4.01892 0 3 4.01892 1
gene 1 4 5 1.51678 0 4 1.51678 1
gene 1 5 5 -1.63603 1 165 -1.63603 1
genomeend 173

/* Organism #174 Fitness: 0.0063 Error: 0 */
genomestart 174
trait 1 0.114249 0 0 0.0510688 0 0 0 0.201539 
node 1 1 1 1
node 2 1 1 1
node 3 1 1 1
node 4 1 1 3
node 5 1 0 2
gene 1 1 5 6.18282 0 1 6.18282 1
gene 1 2 5 -4.08189 0 2 -4.08189 1
gene 1 3 5 5.75749 0 3 5.75749 1
gene 1 4 5 0.871995 0 4 0.871995 1
gene 1 5 5 -0.717554 1 165 -0.717554 1
genomeend 174

/* Organism #175 Fitness: 0.0055 Error: 0 */
genomestart 175
trait 1 0.114249 0 0 0.0510688 0 0 0 0.201539 
node 1 1 1 1
node 2 1 1 1
node 3 1 1 1
node 4 1 1 3
node 5 1 0 2
gene 1 1 5 5.25576 0 1 5.25576 1
gene 1 2 5 -4.74989 0 2 -4.74989 1
gene 1 3 5 5.78463 0 3 5.78463 1
gene 1 4 5 2.50911 0 4 2.50911 1
gene 1 5 5 -1.60671 1 165 -1.60671 1
genomeend 175

/* Organism #176 Fitness: 0.0152509 Error: 0 */
genomestart 176
trait 1 0.0571244 0 0 0.424039 0 0 0.238622 0.600769 
node 1 1 1 1
node 2 1 1 1
node 3 1 1 1
node 4 1 1 3
node 5 1 0 2
gene 1 1 5 3.03678 0 1 3.03678 1
gene 1 2 5 -4.93726 0 2 -4.93726 1
gene 1 3 5 4.51853 0 3 4.51853 1
gene 1 4 5 0.939005 0 4 0.939005 1
gene 1 5 5 -1.41641 1 165 -1.41641 1
genomeend 176

/* Organism #177 Fitness: 0.0036 Error: 0 */
genomestart 177
trait 1 0.114249 0 0 0.0510688 0 0 0 0.201539 
node 1 1 1 1
node 2 1 1 1
node 3 1 1 1
node 4 1 1 3
node 5 1 0 2
gene 1 1 5 5.85674 0 1 5.85674 1
gene 1 2 5 -4.93108 0 2 -4.93108 1
gene 1 3 5 4.83717 0 3 4.83717 1
gene 1 4 5 0.306732 0 4 0.306732 1
gene 1 5 5 -1.7372 1 165 -1.7372 1
genomeend 177

/* Organism #178 Fitness: 0.0006 Error: 0 */
genomestart 178
trait 1 0.108906 0 0 0.031918 0 0.0094406 0.0224462 0.125962 
node 1 1 1 1
node 2 1 1 1
node 3 1 1 1
node 4 1 1 3
node 5 1 0 2
gene 1 1 5 4.99963 0 1 4.99963 1
gene 1 2 5 -4.63996 0 2 -4.63996 1
gene 1 3 5 3.88647 0 3 3.88647 1
gene 1 4 5 -0.62775 0 4 -0.62775 1
gene 1 5 5 -0.580337 1 165 -0.580337 1
genomeend 178

/* Organism #179 Fitness: 0.0089 Error: 0 */
genomestart 179
trait 1 0.114249 0 0 0.0510688 0 0 0 0.201539 
node 1 1 1 1
node 2 1 1 1
node 3 1 1 1
node 4 1 1 3
node 5 1 0 2
gene 1 1 5 4.58239 0 1 4.58239 1
gene 1 2 5 -3.5458 0 2 -3.5458 1
gene 1 3 5 4.07384 0 3 4.07384 1
gene 1 4 5 1.59267 0 4 1.59267 1
gene 1 5 5 -1.56649 1 165 -1.56649 1
genomeend 179

/* Organism #180 Fitness: 0.0222729 Error: 0 */
genomestart 180
trait 1 0.0571244 0 0 0.424039 0 0 0.238622 0.600769 
node 1 1 1 1
node 2 1 1 1
node 3 1 1 1
node 4 1 1 3
node 5 1 0 2
gene 1 1 5 4.5551 0 1 4.5551 1
gene 1 2 5 -4.4927 0 2 -4.4927 1
gene 1 3 5 3.964 0 3 3.964 1
gene 1 4 5 1.44089 0 4 1.44089 1
gene 1 5 5 -1.70558 1 165 -1.70558 1
genomeend 180

/* Organism #181 Fitness: 0.0089 Error: 0 */
genomestart 181
trait 1 0.114249 0 0 0.0510688 0 0 0 0.201539 
node 1 1 1 1
node 2 1 1 1
node 3 1 1 1
node 4 1 1 3
node 5 1 0 2
gene 1 1 5 4.58239 0 1 4.58239 1
gene 1 2 5 -3.5458 0 2 -3.5458 1
gene 1 3 5 4.07384 0 3 4.07384 1
gene 1 4 5 1.59267 0 4 1.59267 1
gene 1 5 5 -1.56649 1 165 -1.56649 1
genomeend 181

/* Organism #182 Fitness: 0.0089 Error: 0 */
genomestart 182
trait 1 0.114249 0 0 0.0510688 0 0 0 0.201539 
node 1 1 1 1
node 2 1 1 1
node 3 1 1 1
node 4 1 1 3
node 5 1 0 2
gene 1 1 5 4.58239 0 1 4.58239 1
gene 1 2 5 -4.29278 0 2 -4.29278 1
gene 1 3 5 3.97669 0 3 3.97669 1
gene 1 4 5 1.27876 0 4 1.27876 1
gene 1 5 5 -1.70558 1 165 -1.70558 1
genomeend 182

/* Organism #183 Fitness: 0.0053 Error: 0 */
genomestart 183
trait 1 0.114249 0 0 0.0510688 0 0 0 0.201539 
node 1 1 1 1
node 2 1 1 1
node 3 1 1 1
node 4 1 1 3
node 5 1 0 2
gene 1 1 5 3.72452 0 1 3.72452 1
gene 1 2 5 -3.77049 0 2 -3.77049 1
gene 1 3 5 4.39195 0 3 4.39195 1
gene 1 4 5 2.4579 0 4 2.4579 1
gene 1 5 5 -1.46312 1 165 -1.46312 1
genomeend 183

/* Organism #184 Fitness: 0.0036 Error: 0 */
genomestart 184
trait 1 0.0553433 0 0 0.496748 0 0.0094406 0.0193036 0.194883 
node 1 1 1 1
node 2 1 1 1
node 3 1 1 1
node 4 1 1 3
node 5 1 0 2
gene 1 1 5 3.61476 0 1 3.61476 1
gene 1 2 5 -4.7211 0 2 -4.7211 1
gene 1 3 5 5.64199 0 3 5.64199 1
gene 1 4 5 2.39822 0 4 2.39822 1
gene 1 5 5 -0.572088 1 165 -0.572088 1
genomeend 184

/* Organism #185 Fitness: 0.0153823 Error: 0 */
genomestart 185
trait 1 0.114249 0 0 0.0510688 0 0 0 0.201539 
node 1 1 1 1
node 2 1 1 1
node 3 1 1 1
node 4 1 1 3
node 5 1 0 2
gene 1 1 5 2.65692 0 1 2.65692 1
gene 1 2 5 -5.54294 0 2 -5.54294 1
gene 1 3 5 3.6284 0 3 3.6284 1
gene 1 4 5 1.37889 0 4 1.37889 1
gene 1 5 5 -0.884886 1 165 -0.884886 1
genomeend 185

/* Organism #186 Fitness: 0.0027 Error: 0 */
genomestart 186
trait 1 0 0 0 0 0 0.0188812 0.0386073 0.100769 
node 1 1 1 1
node 2 1 1 1
node 3 1 1 1
node 4 1 1 3
node 5 1 0 2
gene 1 1 5 4.24275 0 1 4.24275 1
gene 1 2 5 -5.19483 0 2 -5.19483 1
gene 1 3 5 6.32758 0 3 6.32758 1
gene 1 4 5 1.72097 0 4 1.72097 1
gene 1 5 5 0.214858 1 165 0.214858 1
genomeend 186

/* Organism #187 Fitness: 0.0025 Error: 0 */
genomestart 187
trait 1 0 0 0 0 0 0.0188812 0.0386073 0.100769 
node 1 1 1 1
node 2 1 1 1
node 3 1 1 1
node 4 1 1 3
node 5 1 0 2
gene 1 1 5 5.262 0 1 5.262 1
gene 1 2 5 -6.56711 0 2 -6.56711 1
gene 1 3 5 6.24331 0 3 6.24331 1
gene 1 4 5 1.33522 0 4 1.33522 1
gene 1 5 5 -0.530114 1 165 -0.530114 1
genomeend 187

/* Organism #188 Fitness: 0.0027 Error: 0 */
genomestart 188
trait 1 0 0 0 0 0 0.0188812 0.0386073 0.100769 
node 1 1 1 1
node 2 1 1 1
node 3 1 1 1
node 4 1 1 3
node 5 1 0 2
gene 1 1 5 4.24275 0 1 4.24275 1
gene 1 2 5 -5.19483 0 2 -5.19483 1
gene 1 3 5 6.32758 0 3 6.32758 1
gene 1 4 5 1.72097 0 4 1.72097 1
gene 1 5 5 0.214858 1 165 0.214858 1
genomeend 188

/* Organism #189 Fitness: 0.0026 Error: 0 */
genomestart 189
trait 1 1 0 0 1 0.0655661 0 0.0897846 1 
node 1 1 1 1
node 2 1 1 1
node 3 1 1 1
node 4 1 1 3
node 5 1 0 2
gene 1 1 5 5.5273 0 1 5.5273 1
gene 1 2 5 -5.11269 0 2 -5.11269 1
gene 1 3 5 5.0462 0 3 5.0462 1
gene 1 4 5 2.71431 0 4 2.71431 1
gene 1 5 5 -3.1509 1 165 -3.1509 1
genomeend 189

/* Organism #190 Fitness: 0.0051 Error: 0 */
genomestart 190
trait 1 1 0 0 1 0.0655661 0 0.0897846 1 
node 1 1 1 1
node 2 1 1 1
node 3 1 1 1
node 4 1 1 3
node 5 1 0 2
gene 1 1 5 5.44415 0 1 5.44415 1
gene 1 2 5 -4.24761 0 2 -4.24761 1
gene 1 3 5 5.81648 0 3 5.81648 1
gene 1 4 5 2.99484 0 4 2.99484 1
gene 1 5 5 -2.99776 1 165 -2.99776 1
genomeend 190

/* Species #31 : (Size 3) (AF 0.0005) (Age 8)  */


/* Organism #191 Fitness: 0.0005 Error: 0 */
genomestart 191
trait 1 0.0375 0 0.40949 0 0.380871 0 0.375742 0.379565 
node 1 1 1 1
node 2 1 1 1
node 3 1 1 1
node 4 1 1 3
node 5 1 0 2
gene 1 1 5 2.45801 0 1 2.45801 1
gene 1 2 5 -1.14939 0 2 -1.14939 1
gene 1 3 5 0.716772 0 3 0.716772 1
gene 1 4 5 0.103005 0 4 0.103005 1
gene 1 5 5 2.98345 1 99 2.98345 1
genomeend 191

/* Organism #192 Fitness: 0.0006 Error: 0 */
genomestart 192
trait 1 0.156227 0 0.0433884 0 0.0837094 0.0257342 0 0.0189059 
node 1 1 1 1
node 2 1 1 1
node 3 1 1 1
node 4 1 1 3
node 5 1 0 2
gene 1 1 5 1.4772 0 1 1.4772 1
gene 1 2 5 -1.75021 0 2 -1.75021 1
gene 1 3 5 1.43283 0 3 1.43283 1
gene 1 4 5 -0.600922 0 4 -0.600922 1
gene 1 5 5 0.592771 1 143 0.592771 1
genomeend 192

/* Organism #193 Fitness: 0.0004 Error: 0 */
genomestart 193
trait 1 0.517232 0 0 0 0.401764 0.0686245 0 0.151247 
node 1 1 1 1
node 2 1 1 1
node 3 1 1 1
node 4 1 1 3
node 5 1 0 2
gene 1 1 5 3.21795 0 1 3.21795 1
gene 1 2 5 -0.825576 0 2 -0.825576 1
gene 1 3 5 1.36502 0 3 1.36502 1
gene 1 4 5 -0.948229 0 4 -0.948229 1
gene 1 5 5 -1.70823 1 196 -1.70823 1
genomeend 193

/* Species #33 : (Size 1) (AF 0.0004) (Age 8)  */


/* Organism #194 Fitness: 0.0004 Error: 0 */
genomestart 194
trait 1 0.451272 0.10077 0.447611 0 0 0 0 0.875093 
node 1 1 1 1
node 2 1 1 1
node 3 1 1 1
node 4 1 1 3
node 5 1 0 2
gene 1 1 5 3.56895 0 1 3.56895 1
gene 1 2 5 3.29794 0 2 3.29794 1
gene 1 3 5 -1.56655 0 3 -1.56655 1
gene 1 4 5 3.27907 0 4 3.27907 1
gene 1 5 5 0.406026 1 55 0.406026 1
genomeend 194

/* Species #34 : (Size 1) (AF 0.0014) (Age 8)  */


/* Organism #195 Fitness: 0.0014 Error: 0 */
genomestart 195
trait 1 0.33057 0 0 0 0.200882 0.0601691 0 0.0756237 
node 1 1 1 1
node 2 1 1 1
node 3 1 1 1
node 4 1 1 3
node 5 1 0 2
gene 1 1 5 0.496323 0 1 0.496323 1
gene 1 2 5 1.99186 0 2 1.99186 1
gene 1 3 5 0.17886 0 3 0.17886 1
gene 1 4 5 0.514656 0 4 0.514656 1
gene 1 5 5 -3.85276 1 72 -3.85276 1
genomeend 195

/* Species #35 : (Size 4) (AF 0.002) (Age 8)  */


/* Organism #196 Fitness: 0.003 Error: 0 */
genomestart 196
trait 1 0.075 0.150884 0 0 0 0 0 0 
node 1 1 1 1
node 2 1 1 1
node 3 1 1 1
node 4 1 1 3
node 5 1 0 2
node 6 1 0 0
gene 1 1 5 -2.03166 0 1 -2.03166 0
gene 1 2 5 3.6276 0 2 3.6276 1
gene 1 3 5 1.92973 0 3 1.92973 1
gene 1 4 5 -0.667474 0 4 -0.667474 1
gene 1 1 6 -1.02231 0 10 -1.02231 1
gene 1 6 5 -1.45062 0 11 -1.45062 1
gene 1 2 6 -2.22296 0 81 -2.22296 1
gene 1 3 6 -0.854785 0 185 0 1
gene 1 4 6 0.183468 0 301 0 1
genomeend 196

/* Organism #197 Fitness: 0.0004 Error: 0 */
genomestart 197
trait 1 0.075 0.150884 0 0 0 0 0 0 
node 1 1 1 1
node 2 1 1 1
node 3 1 1 1
node 4 1 1 3
node 5 1 0 2
node 6 1 0 0
gene 1 1 5 -2.08623 0 1 -2.08623 0
gene 1 2 5 3.94041 0 2 3.94041 1
gene 1 3 5 0.130895 0 3 0.130895 1
gene 1 4 5 0.253215 0 4 0.253215 1
gene 1 1 6 -2.39369 0 10 -2.39369 1
gene 1 6 5 -2.04305 0 11 -2.04305 1
gene 1 2 6 -2.76252 0 81 -2.76252 1
gene 1 3 6 -0.484816 0 185 -0.484816 1
gene 1 4 6 -1.13058 0 301 -1.13058 1
genomeend 197

/* Organism #198 Fitness: 0.003 Error: 0 */
genomestart 198
trait 1 0.075 0.150884 0 0 0 0 0 0 
node 1 1 1 1
node 2 1 1 1
node 3 1 1 1
node 4 1 1 3
node 5 1 0 2
node 6 1 0 0
gene 1 1 5 -2.03166 0 1 -2.03166 0
gene 1 2 5 3.6276 0 2 3.6276 1
gene 1 3 5 1.92973 0 3 1.92973 1
gene 1 4 5 -0.667474 0 4 -0.667474 1
gene 1 1 6 -1.02231 0 10 -1.02231 1
gene 1 6 5 -1.45062 0 11 -1.45062 1
gene 1 2 6 -2.22296 0 81 -2.22296 1
gene 1 3 6 -0.854785 0 185 0 1
gene 1 4 6 0.183468 0 301 0 1
genomeend 198

/* Organism #199 Fitness: 0.0016 Error: 0 */
genomestart 199
trait 1 0.075 0.150884 0 0 0 0 0 0 
node 1 1 1 1
node 2 1 1 1
node 3 1 1 1
node 4 1 1 3
node 5 1 0 2
node 6 1 0 0
gene 1 1 5 -0.0650197 0 1 -0.0650197 1
gene 1 2 5 3.02669 0 2 3.02669 1
gene 1 3 5 1.47643 0 3 1.47643 1
gene 1 4 5 -0.182431 0 4 -0.182431 1
gene 1 1 6 -0.529422 0 10 -0.529422 1
gene 1 6 5 -2.89542 0 11 -2.89542 1
gene 1 2 6 -2.22296 0 81 -2.22296 1
gene 1 3 6 -1.71919 0 185 -1.71919 1
gene 1 4 6 -0.253657 0 301 -0.253657 1
genomeend 199

/* Species #36 : (Size 1) (AF 0.0006) (Age 8)  */


/* Organism #200 Fitness: 0.0006 Error: 0 */
genomestart 200
trait 1 0.0875 0 0 0.0457303 0.000756524 0 0.0850593 0 
node 1 1 1 1
node 2 1 1 1
node 3 1 1 1
node 4 1 1 3
node 5 1 0 2
node 6 1 0 0
gene 1 1 5 -4.21385 0 1 -4.21385 0
gene 1 2 5 4.67217 0 2 4.67217 1
gene 1 3 5 1.43399 0 3 1.43399 1
gene 1 4 5 4.0911 0 4 4.0911 1
gene 1 1 6 -1.38873 0 10 -1.38873 1
gene 1 6 5 -3.23279 0 11 -3.23279 1
gene 1 2 6 -1.33736 0 184 -1.33736 1
gene 1 4 6 0.578832 0 301 0.578832 1
genomeend 200

/* Species #39 : (Size 2) (AF 0.00185) (Age 8)  */


/* Organism #201 Fitness: 0.0018 Error: 0 */
genomestart 201
trait 1 0.469049 0 0.491737 0.123573 0 0.542669 0 0 
node 1 1 1 1
node 2 1 1 1
node 3 1 1 1
node 4 1 1 3
node 5 1 0 2
node 21 1 0 0
gene 1 1 5 1.10978 0 1 1.10978 1
gene 1 2 5 -3.5127 0 2 -3.5127 1
gene 1 3 5 2.30774 0 3 2.30774 1
gene 1 4 5 4.83472 0 4 4.83472 1
gene 1 5 5 -1.97676 1 102 -1.97676 1
gene 1 5 21 0.747615 1 232 0.747615 1
gene 1 21 5 -0.945344 0 233 -0.945344 1
gene 1 1 21 -0.824184 0 284 -0.824184 1
gene 1 4 21 -0.300037 0 488 -0.300037 1
genomeend 201

/* Organism #202 Fitness: 0.0019 Error: 0 */
genomestart 202
trait 1 0.469049 0 0.491737 0.123573 0 0.542669 0 0 
node 1 1 1 1
node 2 1 1 1
node 3 1 1 1
node 4 1 1 3
node 5 1 0 2
node 21 1 0 0
gene 1 1 5 1.10978 0 1 1.10978 1
gene 1 2 5 -3.5127 0 2 -3.5127 1
gene 1 3 5 2.30774 0 3 2.30774 1
gene 1 4 5 4.83472 0 4 4.83472 1
gene 1 5 5 -1.97676 1 102 -1.97676 1
gene 1 5 21 0.747615 1 232 0.747615 1
gene 1 21 5 -0.945344 0 233 -0.945344 1
gene 1 1 21 -0.824184 0 284 -0.824184 1
gene 1 21 21 -0.61961 1 489 -0.61961 1
genomeend 202

/* Species #40 : (Size 1) (AF 0.0029) (Age 8)  */


/* Organism #203 Fitness: 0.0029 Error: 0 */
genomestart 203
trait 1 0.1 0 0 0 0 0 0 0 
node 1 1 1 1
node 2 1 1 1
node 3 1 1 1
node 4 1 1 3
node 5 1 0 2
node 12 1 0 0
gene 1 1 5 2.77455 0 1 2.77455 1
gene 1 2 5 -0.674749 0 2 -0.674749 1
gene 1 3 5 3.85308 0 3 3.85308 1
gene 1 4 5 1.00181 0 4 1.00181 1
gene 1 5 5 -1.76596 1 61 -1.76596 1
gene 1 2 12 -1.26984 0 139 -1.26984 0
gene 1 12 5 -3.43711 0 140 -3.43711 1
gene 1 4 12 -0.538833 0 490 -0.538833 1
genomeend 203

/* Species #41 : (Size 7) (AF 0.00621429) (Age 8)  */


/* Organism #204 Fitness: 0.0052 Error: 0 */
genomestart 204
trait 1 0.1 0 0 0 0 0 0.242199 0 
node 1 1 1 1
node 2 1 1 1
node 3 1 1 1
node 4 1 1 3
node 5 1 0 2
gene 1 1 5 5.75495 0 1 5.75495 1
gene 1 2 5 0.806314 0 2 0.806314 1
gene 1 3 5 5.15614 0 3 5.15614 1
gene 1 4 5 -1.06183 0 4 -1.06183 1
gene 1 5 5 -0.893469 1 258 -0.893469 1
genomeend 204

/* Organism #205 Fitness: 0.0099 Error: 0 */
genomestart 205
trait 1 0.1 0 0 0 0 0 0.242199 0 
node 1 1 1 1
node 2 1 1 1
node 3 1 1 1
node 4 1 1 3
node 5 1 0 2
gene 1 1 5 6.72887 0 1 6.72887 1
gene 1 2 5 0.167631 0 2 0.167631 1
gene 1 3 5 4.09484 0 3 4.09484 1
gene 1 4 5 0.0933703 0 4 0.0933703 1
gene 1 5 5 -1.28816 1 258 -1.28816 1
genomeend 205

/* Organism #206 Fitness: 0.0066 Error: 0 */
genomestart 206
trait 1 0.1 0 0 0 0 0 0.242199 0 
node 1 1 1 1
node 2 1 1 1
node 3 1 1 1
node 4 1 1 3
node 5 1 0 2
gene 1 1 5 5.06395 0 1 5.06395 1
gene 1 2 5 -0.128714 0 2 -0.128714 1
gene 1 3 5 5.41273 0 3 5.41273 1
gene 1 4 5 -0.261187 0 4 -0.261187 1
gene 1 5 5 -1.05895 1 258 -1.05895 1
genomeend 206

/* Organism #207 Fitness: 0.0052 Error: 0 */
genomestart 207
trait 1 0.1 0 0 0 0 0 0.242199 0 
node 1 1 1 1
node 2 1 1 1
node 3 1 1 1
node 4 1 1 3
node 5 1 0 2
gene 1 1 5 5.75495 0 1 5.75495 1
gene 1 2 5 0.806314 0 2 0.806314 1
gene 1 3 5 5.15614 0 3 5.15614 1
gene 1 4 5 -1.06183 0 4 -1.06183 1
gene 1 5 5 -0.893469 1 258 -0.893469 1
genomeend 207

/* Organism #208 Fitness: 0.0052 Error: 0 */
genomestart 208
trait 1 0.337774 0.635865 0 0 0 0 0.814755 0 
node 1 1 1 1
node 2 1 1 1
node 3 1 1 1
node 4 1 1 3
node 5 1 0 2
gene 1 1 5 5.75495 0 1 5.75495 1
gene 1 2 5 0.806314 0 2 0.806314 1
gene 1 3 5 5.15614 0 3 5.15614 1
gene 1 4 5 -1.06183 0 4 -1.06183 1
gene 1 5 5 -0.893469 1 258 -0.893469 1
genomeend 208

/* Organism #209 Fitness: 0.0066 Error: 0 */
genomestart 209
trait 1 0.1 0 0 0 0 0 0.242199 0 
node 1 1 1 1
node 2 1 1 1
node 3 1 1 1
node 4 1 1 3
node 5 1 0 2
gene 1 1 5 5.06395 0 1 5.06395 1
gene 1 2 5 -0.128714 0 2 -0.128714 1
gene 1 3 5 5.41273 0 3 5.41273 1
gene 1 4 5 -0.261187 0 4 -0.261187 1
gene 1 5 5 -1.05895 1 258 -1.05895 1
genomeend 209

/* Organism #210 Fitness: 0.0048 Error: 0 */
genomestart 210
trait 1 0.308616 0 0 0.098608 0.200882 0.0343122 0 0.0756237 
node 1 1 1 1
node 2 1 1 1
node 3 1 1 1
node 4 1 1 3
node 5 1 0 2
gene 1 1 5 6.45933 0 1 6.45933 1
gene 1 2 5 0.644353 0 2 0.644353 1
gene 1 3 5 6.43055 0 3 6.43055 1
gene 1 4 5 -1.37703 0 4 -1.37703 1
gene 1 5 5 -1.23333 1 236 -1.23333 1
genomeend 210

/* Species #42 : (Size 2) (AF 0.0011) (Age 8)  */


/* Organism #211 Fitness: 0.0004 Error: 0 */
genomestart 211
trait 1 0.1 0 0 0 0 0 0 0 
node 1 1 1 1
node 2 1 1 1
node 3 1 1 1
node 4 1 1 3
node 5 1 0 2
node 9 1 0 0
gene 1 1 5 -0.388253 0 1 -0.388253 1
gene 1 2 5 0.0709094 0 2 0.0709094 0
gene 1 3 5 1.77785 0 3 1.77785 1
gene 1 4 5 0.820845 0 4 0.820845 1
gene 1 2 9 1.17622 0 70 1.17622 1
gene 1 9 5 0.881448 0 71 0.881448 1
gene 1 4 9 0.449097 0 310 0.449097 1
genomeend 211

/* Organism #212 Fitness: 0.0018 Error: 0 */
genomestart 212
trait 1 0.1 0 0 0 0 0 0 0 
node 1 1 1 1
node 2 1 1 1
node 3 1 1 1
node 4 1 1 3
node 5 1 0 2
node 9 1 0 0
gene 1 1 5 0.882323 0 1 0.882323 1
gene 1 2 5 -0.569238 0 2 -0.569238 0
gene 1 3 5 1.41567 0 3 1.41567 1
gene 1 4 5 0.820845 0 4 0.820845 1
gene 1 2 9 1.48309 0 70 1.48309 1
gene 1 9 5 -1.21915 0 71 -1.21915 1
gene 1 4 9 -1.06769 0 310 -1.06769 1
gene 1 3 9 0.679364 0 491 0.679364 1
genomeend 212

/* Species #43 : (Size 3) (AF 0.00563333) (Age 8)  */


/* Organism #213 Fitness: 0.0066 Error: 0 */
genomestart 213
trait 1 0.1 0 0 0 0 0 0 0 
node 1 1 1 1
node 2 1 1 1
node 3 1 1 1
node 4 1 1 3
node 5 1 0 2
gene 1 1 5 0.885885 0 1 0.885885 1
gene 1 2 5 -2.52331 0 2 -2.52331 1
gene 1 3 5 7.78115 0 3 7.78115 1
gene 1 4 5 0.0708859 0 4 0.0708859 1
gene 1 5 5 -1.08514 1 196 -1.08514 1
genomeend 213

/* Organism #214 Fitness: 0.0049 Error: 0 */
genomestart 214
trait 1 0.805242 0 0 0 0.833124 0.127216 0 0.40327 
node 1 1 1 1
node 2 1 1 1
node 3 1 1 1
node 4 1 1 3
node 5 1 0 2
gene 1 1 5 -0.232715 0 1 -0.232715 1
gene 1 2 5 -1.38332 0 2 -1.38332 1
gene 1 3 5 8 0 3 8 1
gene 1 4 5 0.663753 0 4 0.663753 1
gene 1 5 5 -3.01243 1 61 -3.01243 1
genomeend 214

/* Organism #215 Fitness: 0.0054 Error: 0 */
genomestart 215
trait 1 0.228664 0.00330098 0.0247934 0.024652 0.221549 0.0249465 0 0.0678803 
node 1 1 1 1
node 2 1 1 1
node 3 1 1 1
node 4 1 1 3
node 5 1 0 2
gene 1 1 5 0.955743 0 1 0.955743 1
gene 1 2 5 -2.50928 0 2 -2.50928 1
gene 1 3 5 6.09339 0 3 6.09339 1
gene 1 4 5 0.234423 0 4 0.234423 1
gene 1 5 5 -1.60485 1 143 -1.60485 1
genomeend 215

/* Species #45 : (Size 16) (AF 0.0100046) (Age 8)  */


/* Organism #216 Fitness: 0.0094 Error: 0 */
genomestart 216
trait 1 0.697725 0 0.0262808 0 0.683565 0.154656 0.0873181 0.333273 
node 1 1 1 1
node 2 1 1 1
node 3 1 1 1
node 4 1 1 3
node 5 1 0 2
gene 1 1 5 3.35456 0 1 3.35456 1
gene 1 2 5 -5.46299 0 2 -5.46299 1
gene 1 3 5 5.99905 0 3 5.99905 1
gene 1 4 5 2.19932 0 4 2.19932 1
gene 1 5 5 -2.1999 1 61 -2.1999 1
genomeend 216

/* Organism #217 Fitness: 0.0224735 Error: 0 */
genomestart 217
trait 1 1 0 0.930829 0 0.803528 0.856398 0.919115 0.302495 
node 1 1 1 1
node 2 1 1 1
node 3 1 1 1
node 4 1 1 3
node 5 1 0 2
gene 1 1 5 2.06639 0 1 2.06639 1
gene 1 2 5 -7.38757 0 2 -7.38757 1
gene 1 3 5 6.75314 0 3 6.75314 1
gene 1 4 5 1.72542 0 4 1.72542 1
gene 1 5 5 -2.06637 1 61 -2.06637 1
genomeend 217

/* Organism #218 Fitness: 0.0039 Error: 0 */
genomestart 218
trait 1 0.914394 0 0.00657021 0 0.818878 0.144494 0.0134122 0.346243 
node 1 1 1 1
node 2 1 1 1
node 3 1 1 1
node 4 1 1 3
node 5 1 0 2
node 49 1 0 0
gene 1 1 5 1.08152 0 1 1.08152 0
gene 1 2 5 -7.94545 0 2 -7.94545 1
gene 1 3 5 6.76686 0 3 6.76686 1
gene 1 4 5 3.29707 0 4 3.29707 1
gene 1 5 5 -2.11364 1 61 -2.11364 1
gene 1 1 49 1 0 492 0 1
gene 1 49 5 1.08152 0 493 0 1
genomeend 218

/* Organism #219 Fitness: 0.0026 Error: 0 */
genomestart 219
trait 1 0.934463 0 0 0 0.803528 0.137249 0 0.302495 
node 1 1 1 1
node 2 1 1 1
node 3 1 1 1
node 4 1 1 3
node 5 1 0 2
gene 1 1 5 2.08318 0 1 2.08318 1
gene 1 2 5 -6.38997 0 2 -6.38997 1
gene 1 3 5 6.86576 0 3 6.86576 1
gene 1 4 5 4.8859 0 4 4.8859 1
gene 1 5 5 -3.05106 1 61 -3.05106 1
genomeend 219

/* Organism #220 Fitness: 0.015966 Error: 0 */
genomestart 220
trait 1 0.773911 0 0.0525617 0 0.840367 0.19521 0.107298 0.40749 
node 1 1 1 1
node 2 1 1 1
node 3 1 1 1
node 4 1 1 3
node 5 1 0 2
gene 1 1 5 -0.490728 0 1 -0.490728 1
gene 1 2 5 -7.48276 0 2 -7.48276 1
gene 1 3 5 7.72149 0 3 7.72149 1
gene 1 4 5 3.22343 0 4 3.22343 1
gene 1 5 5 -2.51166 1 61 -2.51166 1
genomeend 220

/* Organism #221 Fitness: 0.023968 Error: 0 */
genomestart 221
trait 1 0.685709 0 0.0131404 0 0.660974 0.117427 0.0268244 0.393114 
node 1 1 1 1
node 2 1 1 1
node 3 1 1 1
node 4 1 1 3
node 5 1 0 2
gene 1 1 5 -0.70926 0 1 -0.70926 1
gene 1 2 5 -6.87562 0 2 -6.87562 1
gene 1 3 5 7.24844 0 3 7.24844 1
gene 1 4 5 2.20005 0 4 2.20005 1
gene 1 5 5 -2.14073 1 61 -2.14073 1
genomeend 221

/* Organism #222 Fitness: 0.0006 Error: 0 */
genomestart 222
trait 1 0.816094 0 0.0131404 0 0.792665 0.145953 0.043659 0.457878 
node 1 1 1 1
node 2 1 1 1
node 3 1 1 1
node 4 1 1 3
node 5 1 0 2
gene 1 1 5 0.863202 0 1 0.863202 1
gene 1 2 5 -7.44181 0 2 -7.44181 1
gene 1 3 5 7.69254 0 3 7.69254 1
gene 1 4 5 -0.188986 0 4 -0.188986 1
gene 1 5 5 -3.38806 1 61 -3.38806 1
genomeend 222

/* Organism #223 Fitness: 0.015966 Error: 0 */
genomestart 223
trait 1 0.773911 0 0.0525617 0 0.840367 0.19521 0.107298 0.40749 
node 1 1 1 1
node 2 1 1 1
node 3 1 1 1
node 4 1 1 3
node 5 1 0 2
gene 1 1 5 -0.490728 0 1 -0.490728 1
gene 1 2 5 -7.48276 0 2 -7.48276 1
gene 1 3 5 7.72149 0 3 7.72149 1
gene 1 4 5 3.22343 0 4 3.22343 1
gene 1 5 5 -2.51166 1 61 -2.51166 1
genomeend 223

/* Organism #224 Fitness: 0.015966 Error: 0 */
genomestart 224
trait 1 0.773911 0 0.0525617 0 0.840367 0.19521 0.107298 0.40749 
node 1 1 1 1
node 2 1 1 1
node 3 1 1 1
node 4 1 1 3
node 5 1 0 2
gene 1 1 5 -0.490728 0 1 -0.490728 1
gene 1 2 5 -7.48276 0 2 -7.48276 1
gene 1 3 5 7.72149 0 3 7.72149 1
gene 1 4 5 3.22343 0 4 3.22343 1
gene 1 5 5 -2.51166 1 61 -2.51166 1
genomeend 224

/* Organism #225 Fitness: 0.0095 Error: 0 */
genomestart 225
trait 1 0.735818 0 0.0394213 0 0.761966 0.174933 0.0973079 0.370382 
node 1 1 1 1
node 2 1 1 1
node 3 1 1 1
node 4 1 1 3
node 5 1 0 2
gene 1 1 5 1.43192 0 1 1.43192 1
gene 1 2 5 -6.47288 0 2 -6.47288 1
gene 1 3 5 6.86027 0 3 6.86027 1
gene 1 4 5 2.71138 0 4 2.71138 1
gene 1 5 5 -2.35578 1 61 -2.35578 1
genomeend 225

/* Organism #226 Fitness: 0.0035 Error: 0 */
genomestart 226
trait 1 0.773911 0 0.0525617 0 0.840367 0.19521 0.107298 0.40749 
node 1 1 1 1
node 2 1 1 1
node 3 1 1 1
node 4 1 1 3
node 5 1 0 2
gene 1 1 5 0.246224 0 1 0.246224 1
gene 1 2 5 -6.76234 0 2 -6.76234 1
gene 1 3 5 8 0 3 8 1
gene 1 4 5 2.23981 0 4 2.23981 1
gene 1 5 5 -3.86299 1 61 -3.86299 1
genomeend 226

/* Organism #227 Fitness: 0.0183342 Error: 0 */
genomestart 227
trait 1 0.66564 0 0.0197106 0 0.627205 0.124672 0.0402366 0.296868 
node 1 1 1 1
node 2 1 1 1
node 3 1 1 1
node 4 1 1 3
node 5 1 0 2
gene 1 1 5 1.46696 0 1 1.46696 1
gene 1 2 5 -7.48276 0 2 -7.48276 1
gene 1 3 5 6.09723 0 3 6.09723 1
gene 1 4 5 2.2798 0 4 2.2798 1
gene 1 5 5 -1.94683 1 61 -1.94683 1
genomeend 227

/* Organism #228 Fitness: 0.0034 Error: 0 */
genomestart 228
trait 1 0.816094 0 0.0131404 0.170269 0.743547 0.145953 0.043659 0.369109 
node 1 1 1 1
node 2 1 1 1
node 3 1 1 1
node 4 1 1 3
node 5 1 0 2
gene 1 1 5 3.35456 0 1 3.35456 1
gene 1 2 5 -5.46299 0 2 -5.46299 1
gene 1 3 5 7.26985 0 3 7.26985 1
gene 1 4 5 4.33242 0 4 4.33242 1
gene 1 5 5 -2.1999 1 61 -2.1999 1
genomeend 228

/* Organism #229 Fitness: 0.0083 Error: 0 */
genomestart 229
trait 1 0.773911 0 0.0525617 0 0.840367 0.19521 0.107298 0.40749 
node 1 1 1 1
node 2 1 1 1
node 3 1 1 1
node 4 1 1 3
node 5 1 0 2
gene 1 1 5 -0.495459 0 1 -0.495459 1
gene 1 2 5 -8 0 2 -8 1
gene 1 3 5 8 0 3 8 1
gene 1 4 5 3.2756 0 4 3.2756 1
gene 1 5 5 -1.90715 1 61 -1.90715 1
genomeend 229

/* Organism #230 Fitness: 0.0045 Error: 0 */
genomestart 230
trait 1 0.894325 0 0.0131404 0.0851344 0.818878 0.151739 0.0268244 0.371855 
node 1 1 1 1
node 2 1 1 1
node 3 1 1 1
node 4 1 1 3
node 5 1 0 2
gene 1 1 5 1.44049 0 1 1.44049 1
gene 1 2 5 -7.98176 0 2 -7.98176 1
gene 1 3 5 8 0 3 8 1
gene 1 4 5 -0.604131 0 4 -0.604131 1
gene 1 5 5 -1.55624 1 61 -1.55624 1
genomeend 230

/* Organism #231 Fitness: 0.0017 Error: 0 */
genomestart 231
trait 1 0.676021 0 0.428827 0.33459 0.752205 0.0686245 0.0540385 0.189059 
node 1 1 1 1
node 2 1 1 1
node 3 1 1 1
node 4 1 1 3
node 5 1 0 2
gene 1 1 5 0.748212 0 1 0.748212 1
gene 1 2 5 -6.90298 0 2 -6.90298 1
gene 1 3 5 8 0 3 8 1
gene 1 4 5 0.597526 0 4 0.597526 1
gene 1 5 5 0.394274 1 61 0.394274 1
genomeend 231

/* Species #46 : (Size 4) (AF 0.0022) (Age 8)  */


/* Organism #232 Fitness: 0.0019 Error: 0 */
genomestart 232
trait 1 0.1 0 0 0 0 0 0 0 
node 1 1 1 1
node 2 1 1 1
node 3 1 1 1
node 4 1 1 3
node 5 1 0 2
gene 1 1 5 -2.23384 0 1 -2.23384 1
gene 1 2 5 -5.0097 0 2 -5.0097 1
gene 1 3 5 5.59874 0 3 5.59874 1
gene 1 4 5 -0.122538 0 4 -0.122538 1
genomeend 232

/* Organism #233 Fitness: 0.0023 Error: 0 */
genomestart 233
trait 1 0.1 0 0 0 0 0 0 0 
node 1 1 1 1
node 2 1 1 1
node 3 1 1 1
node 4 1 1 3
node 5 1 0 2
gene 1 1 5 -1.962 0 1 -1.962 1
gene 1 2 5 -5.0097 0 2 -5.0097 1
gene 1 3 5 4.88977 0 3 4.88977 1
gene 1 4 5 0.167652 0 4 0.167652 1
gene 1 5 5 0.784992 1 494 0.784992 1
genomeend 233

/* Organism #234 Fitness: 0.0024 Error: 0 */
genomestart 234
trait 1 0.1 0 0 0 0 0 0 0 
node 1 1 1 1
node 2 1 1 1
node 3 1 1 1
node 4 1 1 3
node 5 1 0 2
gene 1 1 5 -1.962 0 1 -1.962 1
gene 1 2 5 -5.0097 0 2 -5.0097 1
gene 1 3 5 5.06355 0 3 5.06355 1
gene 1 4 5 1.10177 0 4 1.10177 1
genomeend 234

/* Organism #235 Fitness: 0.0022 Error: 0 */
genomestart 235
trait 1 0.1 0 0.0498008 0 0 0 0 0 
node 1 1 1 1
node 2 1 1 1
node 3 1 1 1
node 4 1 1 3
node 5 1 0 2
gene 1 1 5 0.822734 0 1 0.822734 1
gene 1 2 5 -4.60805 0 2 -4.60805 1
gene 1 3 5 4.93019 0 3 4.93019 1
gene 1 4 5 1.47115 0 4 1.47115 1
gene 1 5 5 -2.69919 1 74 -2.69919 1
genomeend 235

/* Species #47 : (Size 2) (AF 0.001) (Age 8)  */


/* Organism #236 Fitness: 0.001 Error: 0 */
genomestart 236
trait 1 0.227531 0 0.22463 0 0.084272 0.0343122 0.0516486 0.415303 
node 1 1 1 1
node 2 1 1 1
node 3 1 1 1
node 4 1 1 3
node 5 1 0 2
gene 1 1 5 1.1201 0 1 1.1201 1
gene 1 2 5 -6.1179 0 2 -6.1179 1
gene 1 3 5 -4.17093 0 3 -4.17093 1
gene 1 4 5 3.27729 0 4 3.27729 1
gene 1 5 5 -5.13631 1 55 -5.13631 1
genomeend 236

/* Organism #237 Fitness: 0.001 Error: 0 */
genomestart 237
trait 1 0.227531 0 0.22463 0 0.084272 0.0343122 0.0516486 0.415303 
node 1 1 1 1
node 2 1 1 1
node 3 1 1 1
node 4 1 1 3
node 5 1 0 2
gene 1 1 5 1.1201 0 1 1.1201 1
gene 1 2 5 -6.1179 0 2 -6.1179 1
gene 1 3 5 -4.17093 0 3 -4.17093 1
gene 1 4 5 3.27729 0 4 3.27729 1
gene 1 5 5 -5.13631 1 55 -5.13631 1
genomeend 237

/* Species #48 : (Size 11) (AF 0.00495455) (Age 8)  */


/* Organism #238 Fitness: 0.0046 Error: 0 */
genomestart 238
trait 1 0.934463 0 0 0 0.803528 0.137249 0 0.302495 
node 1 1 1 1
node 2 1 1 1
node 3 1 1 1
node 4 1 1 3
node 5 1 0 2
gene 1 1 5 3.93305 0 1 3.93305 1
gene 1 2 5 1.26199 0 2 1.26199 1
gene 1 3 5 7.68549 0 3 7.68549 1
gene 1 4 5 1.6896 0 4 1.6896 1
gene 1 5 5 -4.51342 1 61 -4.51342 1
genomeend 238

/* Organism #239 Fitness: 0.0056 Error: 0 */
genomestart 239
trait 1 0.1 0 0 0 0 0 0.242199 0 
node 1 1 1 1
node 2 1 1 1
node 3 1 1 1
node 4 1 1 3
node 5 1 0 2
gene 1 1 5 3.33807 0 1 3.33807 1
gene 1 2 5 -0.874931 0 2 -0.874931 1
gene 1 3 5 6.58497 0 3 6.58497 1
gene 1 4 5 0.26285 0 4 0.26285 1
gene 1 5 5 -1.34152 1 258 -1.34152 1
genomeend 239

/* Organism #240 Fitness: 0.0035 Error: 0 */
genomestart 240
trait 1 0.934463 0.0481656 0.49522 0 0.803528 0.137249 0 0.302495 
node 1 1 1 1
node 2 1 1 1
node 3 1 1 1
node 4 1 1 3
node 5 1 0 2
gene 1 1 5 -0.635622 0 1 -0.635622 1
gene 1 2 5 -0.908673 0 2 -0.908673 1
gene 1 3 5 7.59096 0 3 7.59096 1
gene 1 4 5 0.554496 0 4 0.554496 1
gene 1 5 5 -4.20047 1 61 -4.20047 1
genomeend 240

/* Organism #241 Fitness: 0.0031 Error: 0 */
genomestart 241
trait 1 0.934463 0.0481656 0.49522 0 0.803528 0.137249 0 0.302495 
node 1 1 1 1
node 2 1 1 1
node 3 1 1 1
node 4 1 1 3
node 5 1 0 2
gene 1 1 5 3.73689 0 1 3.73689 1
gene 1 2 5 1.26199 0 2 1.26199 1
gene 1 3 5 7.59096 0 3 7.59096 1
gene 1 4 5 0.554496 0 4 0.554496 1
gene 1 5 5 -4.51342 1 61 -4.51342 1
genomeend 241

/* Organism #242 Fitness: 0.0017 Error: 0 */
genomestart 242
trait 1 0.1 0 0 0 0 0 0 0 
node 1 1 1 1
node 2 1 1 1
node 3 1 1 1
node 4 1 1 3
node 5 1 0 2
gene 1 1 5 3.3925 0 1 3.3925 1
gene 1 2 5 -1.37817 0 2 -1.37817 1
gene 1 3 5 7.19179 0 3 7.19179 1
gene 1 4 5 -0.660355 0 4 -0.660355 1
gene 1 5 5 -0.131963 1 235 -0.131963 1
genomeend 242

/* Organism #243 Fitness: 0.0062 Error: 0 */
genomestart 243
trait 1 0.517232 0 0 0.88805 0 0.0686245 0.545577 0.685342 
node 1 1 1 1
node 2 1 1 1
node 3 1 1 1
node 4 1 1 3
node 5 1 0 2
gene 1 1 5 5.33555 0 1 5.33555 1
gene 1 2 5 0.588334 0 2 0.588334 1
gene 1 3 5 8 0 3 8 1
gene 1 4 5 -0.892087 0 4 -0.892087 1
gene 1 5 5 -1.73453 1 61 -1.73453 1
genomeend 243

/* Organism #244 Fitness: 0.006 Error: 0 */
genomestart 244
trait 1 0.517232 0 0 0.88805 0 0.0686245 0.545577 0.685342 
node 1 1 1 1
node 2 1 1 1
node 3 1 1 1
node 4 1 1 3
node 5 1 0 2
gene 1 1 5 4.87992 0 1 4.87992 1
gene 1 2 5 -0.192313 0 2 -0.192313 1
gene 1 3 5 7.4315 0 3 7.4315 1
gene 1 4 5 -0.969385 0 4 -0.969385 1
gene 1 5 5 -1.36051 1 61 -1.36051 1
genomeend 244

/* Organism #245 Fitness: 0.0062 Error: 0 */
genomestart 245
trait 1 0.517232 0 0 0.88805 0 0.0686245 0.545577 0.685342 
node 1 1 1 1
node 2 1 1 1
node 3 1 1 1
node 4 1 1 3
node 5 1 0 2
gene 1 1 5 5.33555 0 1 5.33555 1
gene 1 2 5 0.588334 0 2 0.588334 1
gene 1 3 5 8 0 3 8 1
gene 1 4 5 -0.892087 0 4 -0.892087 1
gene 1 5 5 -1.73453 1 61 -1.73453 1
genomeend 245

/* Organism #246 Fitness: 0.0062 Error: 0 */
genomestart 246
trait 1 0.517232 0 0 0.88805 0 0.0686245 0.545577 0.685342 
node 1 1 1 1
node 2 1 1 1
node 3 1 1 1
node 4 1 1 3
node 5 1 0 2
gene 1 1 5 5.33555 0 1 5.33555 1
gene 1 2 5 0.588334 0 2 0.588334 1
gene 1 3 5 8 0 3 8 1
gene 1 4 5 -0.892087 0 4 -0.892087 1
gene 1 5 5 -1.73453 1 61 -1.73453 1
genomeend 246

/* Organism #247 Fitness: 0.0052 Error: 0 */
genomestart 247
trait 1 0.517232 0 0 0.88805 0 0.0686245 0.545577 0.685342 
node 1 1 1 1
node 2 1 1 1
node 3 1 1 1
node 4 1 1 3
node 5 1 0 2
gene 1 1 5 6.60163 0 1 6.60163 1
gene 1 2 5 -0.713898 0 2 -0.713898 1
gene 1 3 5 7.67672 0 3 7.67672 1
gene 1 4 5 -0.342889 0 4 -0.342889 1
gene 1 5 5 -0.816572 1 61 -0.816572 1
genomeend 247

/* Organism #248 Fitness: 0.0062 Error: 0 */
genomestart 248
trait 1 0.517232 0 0 0.88805 0 0.0686245 0.545577 0.685342 
node 1 1 1 1
node 2 1 1 1
node 3 1 1 1
node 4 1 1 3
node 5 1 0 2
gene 1 1 5 5.33555 0 1 5.33555 1
gene 1 2 5 0.588334 0 2 0.588334 1
gene 1 3 5 8 0 3 8 1
gene 1 4 5 -0.892087 0 4 -0.892087 1
gene 1 5 5 -1.73453 1 61 -1.73453 1
genomeend 248

/* Species #49 : (Size 3) (AF 0.0005) (Age 8)  */


/* Organism #249 Fitness: 0.0005 Error: 0 */
genomestart 249
trait 1 0.1 0 0 0 0 0 0 0 
node 1 1 1 1
node 2 1 1 1
node 3 1 1 1
node 4 1 1 3
node 5 1 0 2
node 12 1 0 0
gene 1 1 5 3.18997 0 1 3.18997 1
gene 1 2 5 -2.1096 0 2 -2.1096 1
gene 1 3 5 1.45847 0 3 1.45847 1
gene 1 4 5 0.199501 0 4 0.199501 1
gene 1 5 5 -1.92091 1 61 -1.92091 1
gene 1 2 12 1.92476 0 139 1.92476 0
gene 1 12 5 -2.13437 0 140 -2.13437 1
genomeend 249

/* Organism #250 Fitness: 0.0006 Error: 0 */
genomestart 250
trait 1 0.1 0 0 0 0 0 0 0 
node 1 1 1 1
node 2 1 1 1
node 3 1 1 1
node 4 1 1 3
node 5 1 0 2
node 12 1 0 0
gene 1 1 5 1.84418 0 1 1.84418 1
gene 1 2 5 -3.75291 0 2 -3.75291 1
gene 1 3 5 3.04435 0 3 3.04435 1
gene 1 4 5 1.29908 0 4 1.29908 1
gene 1 5 5 -0.917955 1 61 -0.917955 1
gene 1 2 12 0.94747 0 139 0.94747 0
gene 1 12 5 -2.94104 0 140 -2.94104 1
gene 1 1 12 0.815131 0 495 0.815131 1
genomeend 250

/* Organism #251 Fitness: 0.0004 Error: 0 */
genomestart 251
trait 1 0.1 0 0 0 0 0 0 0 
node 1 1 1 1
node 2 1 1 1
node 3 1 1 1
node 4 1 1 3
node 5 1 0 2
node 12 1 0 0
gene 1 1 5 -0.478541 0 1 -0.478541 1
gene 1 2 5 -4.55587 0 2 -4.55587 1
gene 1 3 5 1.26178 0 3 1.26178 1
gene 1 4 5 -0.0369704 0 4 -0.0369704 1
gene 1 5 5 -0.95395 1 61 -0.95395 1
gene 1 2 12 0.94747 0 139 0.94747 0
gene 1 12 5 -4.05671 0 140 -4.05671 1
genomeend 251

/* Species #50 : (Size 1) (AF 0.0005) (Age 8)  */


/* Organism #252 Fitness: 0.0005 Error: 0 */
genomestart 252
trait 1 0.1 0 0 0 0 0 0 0 
node 1 1 1 1
node 2 1 1 1
node 3 1 1 1
node 4 1 1 3
node 5 1 0 2
node 7 1 0 0
gene 1 1 5 6.33161 0 1 6.33161 1
gene 1 2 5 1.52487 0 2 1.52487 1
gene 1 3 5 -3.80765 0 3 -3.80765 0
gene 1 4 5 0.720097 0 4 0.720097 1
gene 1 3 7 1.93723 0 18 1.93723 1
gene 1 7 5 -0.432446 0 19 -0.432446 1
gene 1 4 7 -0.123748 0 144 -0.123748 1
gene 1 1 7 -1.52999 0 266 -1.52999 1
gene 1 2 7 1.89003 0 315 1.89003 1
genomeend 252

/* Species #52 : (Size 1) (AF 0.001) (Age 8)  */


/* Organism #253 Fitness: 0.001 Error: 0 */
genomestart 253
trait 1 0.0953125 0 0.0795321 0 0.0298943 0.0514684 0.0154946 0.013111 
node 1 1 1 1
node 2 1 1 1
node 3 1 1 1
node 4 1 1 3
node 5 1 0 2
gene 1 1 5 1.79792 0 1 1.79792 0
gene 1 2 5 -5.91317 0 2 -5.91317 1
gene 1 3 5 0.475704 0 3 0.475704 1
gene 1 4 5 3.93073 0 4 3.93073 1
gene 1 5 5 -4.3983 1 172 -4.3983 1
genomeend 253

/* Species #53 : (Size 8) (AF 0.0022875) (Age 8)  */


/* Organism #254 Fitness: 0.0027 Error: 0 */
genomestart 254
trait 1 0.1 0 0 0 0.183027 0 0 0 
node 1 1 1 1
node 2 1 1 1
node 3 1 1 1
node 4 1 1 3
node 5 1 0 2
gene 1 1 5 4.24539 0 1 4.24539 1
gene 1 2 5 4.09007 0 2 4.09007 1
gene 1 3 5 8 0 3 8 1
gene 1 4 5 -0.190857 0 4 -0.190857 1
genomeend 254

/* Organism #255 Fitness: 0.002 Error: 0 */
genomestart 255
trait 1 0.1 0 0 0 0 0 0 0 
node 1 1 1 1
node 2 1 1 1
node 3 1 1 1
node 4 1 1 3
node 5 1 0 2
gene 1 1 5 2.45908 0 1 2.45908 1
gene 1 2 5 2.98471 0 2 2.98471 1
gene 1 3 5 8 0 3 8 1
gene 1 4 5 -2.69813 0 4 -2.69813 1
genomeend 255

/* Organism #256 Fitness: 0.0016 Error: 0 */
genomestart 256
trait 1 0.1 0 0 0 0 0 0 0 
node 1 1 1 1
node 2 1 1 1
node 3 1 1 1
node 4 1 1 3
node 5 1 0 2
gene 1 1 5 3.58126 0 1 3.58126 1
gene 1 2 5 4.19251 0 2 4.19251 1
gene 1 3 5 7.19425 0 3 7.19425 1
gene 1 4 5 -2.16157 0 4 -2.16157 1
genomeend 256

/* Organism #257 Fitness: 0.0041 Error: 0 */
genomestart 257
